{"learner":{"attributes":{"scikit_learn":"{\"_estimator_type\": \"classifier\"}"},"feature_names":[],"feature_types":[],"gradient_booster":{"model":{"cats":{"enc":[],"feature_segments":[],"sorted_idx":[]},"gbtree_model_param":{"num_parallel_tree":"1","num_trees":"900"},"iteration_indptr":[0,3,6,9,12,15,18,21,24,27,30,33,36,39,42,45,48,51,54,57,60,63,66,69,72,75,78,81,84,87,90,93,96,99,102,105,108,111,114,117,120,123,126,129,132,135,138,141,144,147,150,153,156,159,162,165,168,171,174,177,180,183,186,189,192,195,198,201,204,207,210,213,216,219,222,225,228,231,234,237,240,243,246,249,252,255,258,261,264,267,270,273,276,279,282,285,288,291,294,297,300,303,306,309,312,315,318,321,324,327,330,333,336,339,342,345,348,351,354,357,360,363,366,369,372,375,378,381,384,387,390,393,396,399,402,405,408,411,414,417,420,423,426,429,432,435,438,441,444,447,450,453,456,459,462,465,468,471,474,477,480,483,486,489,492,495,498,501,504,507,510,513,516,519,522,525,528,531,534,537,540,543,546,549,552,555,558,561,564,567,570,573,576,579,582,585,588,591,594,597,600,603,606,609,612,615,618,621,624,627,630,633,636,639,642,645,648,651,654,657,660,663,666,669,672,675,678,681,684,687,690,693,696,699,702,705,708,711,714,717,720,723,726,729,732,735,738,741,744,747,750,753,756,759,762,765,768,771,774,777,780,783,786,789,792,795,798,801,804,807,810,813,816,819,822,825,828,831,834,837,840,843,846,849,852,855,858,861,864,867,870,873,876,879,882,885,888,891,894,897,900],"tree_info":[0,1,2,0,1,2,0,1,2,0,1,2,0,1,2,0,1,2,0,1,2,0,1,2,0,1,2,0,1,2,0,1,2,0,1,2,0,1,2,0,1,2,0,1,2,0,1,2,0,1,2,0,1,2,0,1,2,0,1,2,0,1,2,0,1,2,0,1,2,0,1,2,0,1,2,0,1,2,0,1,2,0,1,2,0,1,2,0,1,2,0,1,2,0,1,2,0,1,2,0,1,2,0,1,2,0,1,2,0,1,2,0,1,2,0,1,2,0,1,2,0,1,2,0,1,2,0,1,2,0,1,2,0,1,2,0,1,2,0,1,2,0,1,2,0,1,2,0,1,2,0,1,2,0,1,2,0,1,2,0,1,2,0,1,2,0,1,2,0,1,2,0,1,2,0,1,2,0,1,2,0,1,2,0,1,2,0,1,2,0,1,2,0,1,2,0,1,2,0,1,2,0,1,2,0,1,2,0,1,2,0,1,2,0,1,2,0,1,2,0,1,2,0,1,2,0,1,2,0,1,2,0,1,2,0,1,2,0,1,2,0,1,2,0,1,2,0,1,2,0,1,2,0,1,2,0,1,2,0,1,2,0,1,2,0,1,2,0,1,2,0,1,2,0,1,2,0,1,2,0,1,2,0,1,2,0,1,2,0,1,2,0,1,2,0,1,2,0,1,2,0,1,2,0,1,2,0,1,2,0,1,2,0,1,2,0,1,2,0,1,2,0,1,2,0,1,2,0,1,2,0,1,2,0,1,2,0,1,2,0,1,2,0,1,2,0,1,2,0,1,2,0,1,2,0,1,2,0,1,2,0,1,2,0,1,2,0,1,2,0,1,2,0,1,2,0,1,2,0,1,2,0,1,2,0,1,2,0,1,2,0,1,2,0,1,2,0,1,2,0,1,2,0,1,2,0,1,2,0,1,2,0,1,2,0,1,2,0,1,2,0,1,2,0,1,2,0,1,2,0,1,2,0,1,2,0,1,2,0,1,2,0,1,2,0,1,2,0,1,2,0,1,2,0,1,2,0,1,2,0,1,2,0,1,2,0,1,2,0,1,2,0,1,2,0,1,2,0,1,2,0,1,2,0,1,2,0,1,2,0,1,2,0,1,2,0,1,2,0,1,2,0,1,2,0,1,2,0,1,2,0,1,2,0,1,2,0,1,2,0,1,2,0,1,2,0,1,2,0,1,2,0,1,2,0,1,2,0,1,2,0,1,2,0,1,2,0,1,2,0,1,2,0,1,2,0,1,2,0,1,2,0,1,2,0,1,2,0,1,2,0,1,2,0,1,2,0,1,2,0,1,2,0,1,2,0,1,2,0,1,2,0,1,2,0,1,2,0,1,2,0,1,2,0,1,2,0,1,2,0,1,2,0,1,2,0,1,2,0,1,2,0,1,2,0,1,2,0,1,2,0,1,2,0,1,2,0,1,2,0,1,2,0,1,2,0,1,2,0,1,2,0,1,2,0,1,2,0,1,2,0,1,2,0,1,2,0,1,2,0,1,2,0,1,2,0,1,2,0,1,2,0,1,2,0,1,2,0,1,2,0,1,2,0,1,2,0,1,2,0,1,2,0,1,2,0,1,2,0,1,2,0,1,2,0,1,2,0,1,2,0,1,2,0,1,2,0,1,2,0,1,2,0,1,2,0,1,2,0,1,2,0,1,2,0,1,2,0,1,2,0,1,2,0,1,2,0,1,2,0,1,2,0,1,2,0,1,2,0,1,2,0,1,2,0,1,2,0,1,2,0,1,2,0,1,2,0,1,2,0,1,2,0,1,2,0,1,2,0,1,2,0,1,2,0,1,2,0,1,2,0,1,2,0,1,2,0,1,2,0,1,2,0,1,2,0,1,2,0,1,2,0,1,2,0,1,2,0,1,2,0,1,2,0,1,2,0,1,2,0,1,2,0,1,2,0,1,2,0,1,2,0,1,2,0,1,2,0,1,2,0,1,2,0,1,2,0,1,2,0,1,2,0,1,2,0,1,2,0,1,2,0,1,2,0,1,2,0,1,2],"trees":[{"base_weights":[8.1972295E-4,-6.632072E-2,3.943713E-1,-9.3811326E-2,6.8704367E-1,5.4216135E-1,-1.10663496E-1,-2.739178E-1,3.6200058E-2,1.1345884E0,-3.7416243E-3,1.8566985E-1,8.44139E-1,-3.155336E-2,2.4089985E-1,2.9091934E-2,-1.5232471E-2,2.1653606E-2,-3.2965404E-3,2.628035E-2,7.21663E-2,-2.189856E-2,1.9779462E-2,1.46216815E-2,5.4160107E-2,-1.47748785E-2,2.8881816E-2],"categories":[],"categories_nodes":[],"categories_segments":[],"categories_sizes":[],"default_left":[0,0,0,0,0,0,0,0,0,0,0,0,0,0,0,0,0,0,0,0,0,0,0,0,0,0,0],"id":0,"left_children":[1,3,5,7,9,11,13,15,17,19,-1,21,23,-1,25,-1,-1,-1,-1,-1,-1,-1,-1,-1,-1,-1,-1],"loss_changes":[1.9360083E1,1.3027559E1,8.030029E0,1.4171024E1,7.639579E0,8.754395E0,4.726651E0,6.8480377E0,1.4300638E1,1.8772011E0,0E0,5.3108416E0,5.5567875E0,0E0,2.9968486E0,0E0,0E0,0E0,0E0,0E0,0E0,0E0,0E0,0E0,0E0,0E0,0E0],"parents":[2147483647,0,0,1,1,2,2,3,3,4,4,5,5,6,6,7,7,8,8,9,9,11,11,12,12,14,14],"right_children":[2,4,6,8,10,12,14,16,18,20,-1,22,24,-1,26,-1,-1,-1,-1,-1,-1,-1,-1,-1,-1,-1,-1],"split_conditions":[4.9065E0,8.957033E2,6.919106E2,2.6788E-2,2.8803E-2,4.301072E2,8.816757E2,4.7979E-2,1.4798E-1,4.15449E1,-3.7416243E-3,-3.1738E-2,1.97426E-1,-3.155336E-2,5.8312E0,2.9091934E-2,-1.5232471E-2,2.1653606E-2,-3.2965404E-3,2.628035E-2,7.21663E-2,-2.189856E-2,1.9779462E-2,1.46216815E-2,5.4160107E-2,-1.47748785E-2,2.8881816E-2],"split_indices":[39,15,16,6,28,16,14,12,12,42,0,33,12,0,27,0,0,0,0,0,0,0,0,0,0,0,0],"split_type":[0,0,0,0,0,0,0,0,0,0,0,0,0,0,0,0,0,0,0,0,0,0,0,0,0,0,0],"sum_hessian":[7.30702E2,6.2492114E2,1.05780914E2,6.0376495E2,2.1156183E1,8.177679E1,2.4004131E1,2.5265366E2,3.5111127E2,1.301919E1,8.136993E0,3.824387E1,4.3532917E1,9.357543E0,1.4646588E1,8.136993E0,2.4451666E2,7.119869E1,2.7991257E2,5.289046E0,7.730144E0,9.357543E0,2.8886328E1,1.383289E1,2.9700027E1,5.6958957E0,8.950693E0],"tree_param":{"num_deleted":"0","num_feature":"45","num_nodes":"27","size_leaf_vector":"1"}},{"base_weights":[1.0268206E-2,1.2376679E-1,-2.7783212E-1,2.9120526E-1,-3.644539E-2,2.078439E-1,-3.1607562E-1,4.0931144E-1,4.032129E-2,-1.13542005E-1,3.570121E-1,-2.5329003E-2,3.1033544E-2,2.1659782E-2,-3.412256E-1,-1.5672136E-2,2.3888431E-2,7.6956325E-3,-2.866188E-2,3.445116E-3,-1.0975618E-2,3.1458694E-2,-1.2059213E-3,-1.3681421E-2,-3.003779E-2],"categories":[],"categories_nodes":[],"categories_segments":[],"categories_sizes":[],"default_left":[0,0,0,0,0,0,0,0,0,0,0,0,0,0,0,0,0,0,0,0,0,0,0,0,0],"id":1,"left_children":[1,3,5,7,9,11,13,15,17,19,21,-1,-1,-1,23,-1,-1,-1,-1,-1,-1,-1,-1,-1,-1],"loss_changes":[2.6408337E1,1.5551004E1,4.3053455E0,8.380255E0,9.047748E0,5.4064384E0,4.142645E0,9.677441E0,6.4871187E0,4.8300037E0,5.086631E0,0E0,0E0,0E0,3.4437504E0,0E0,0E0,0E0,0E0,0E0,0E0,0E0,0E0,0E0,0E0],"parents":[2147483647,0,0,1,1,2,2,3,3,4,4,5,5,6,6,7,7,8,8,9,9,10,10,14,14],"right_children":[2,4,6,8,10,12,14,16,18,20,22,-1,-1,-1,24,-1,-1,-1,-1,-1,-1,-1,-1,-1,-1],"split_conditions":[1.12265E-1,2.8011E-2,5.21502E1,3.2453E-2,6.119424E2,3.199433E2,2.469E-1,2.70404E1,6.643205E2,1.72672E1,-4.8276E0,-2.5329003E-2,3.1033544E-2,2.1659782E-2,3.9462E-2,-1.5672136E-2,2.3888431E-2,7.6956325E-3,-2.866188E-2,3.445116E-3,-1.0975618E-2,3.1458694E-2,-1.2059213E-3,-1.3681421E-2,-3.003779E-2],"split_indices":[2,6,7,2,15,15,10,8,15,20,9,0,0,0,0,0,0,0,0,0,0,0,0,0,0],"split_type":[0,0,0,0,0,0,0,0,0,0,0,0,0,0,0,0,0,0,0,0,0,0,0,0,0],"sum_hessian":[8.0556805E2,5.783102E2,2.2725784E2,2.8237802E2,2.9593216E2,1.6264975E1,2.1099286E2,1.9156526E2,9.0812775E1,2.4804086E2,4.7891315E1,5.873463E0,1.0391512E1,6.325268E0,2.046676E2,1.6264975E1,1.7530028E2,7.725863E1,1.3554146E1,9.126458E1,1.5677628E2,2.7560095E1,2.0331219E1,1.6400516E2,4.0662437E1],"tree_param":{"num_deleted":"0","num_feature":"45","num_nodes":"25","size_leaf_vector":"1"}},{"base_weights":[-7.0248023E-3,1.065572E-1,-2.3051019E-1,-2.2348814E-1,2.4326992E-1,8.386203E-1,-2.9646868E-1,-4.694398E-2,-6.0269237E-1,2.9685923E-1,-4.6806604E-2,5.601957E-2,1.53968735E-2,-2.1226545E-1,-6.0246396E-1,-3.4428325E-2,3.385335E-3,-3.6660363E-3,-3.6351662E-2,8.771437E-3,2.0298677E-2,-2.1980574E-2,2.4735622E-2,-1.7874207E-2,1.5330524E-3,4.1467045E-3,-3.40081E-2],"categories":[],"categories_nodes":[],"categories_segments":[],"categories_sizes":[],"default_left":[0,0,0,0,0,0,0,0,0,0,0,0,0,0,0,0,0,0,0,0,0,0,0,0,0,0,0],"id":2,"left_children":[1,3,5,7,9,11,13,15,17,19,21,-1,-1,23,25,-1,-1,-1,-1,-1,-1,-1,-1,-1,-1,-1,-1],"loss_changes":[2.0925669E1,2.471869E1,1.9837038E1,1.0725008E1,6.029745E0,2.1076698E0,6.632429E0,8.188835E0,3.2997856E0,4.258629E0,1.3237484E1,0E0,0E0,7.3239765E0,3.0426636E0,0E0,0E0,0E0,0E0,0E0,0E0,0E0,0E0,0E0,0E0,0E0,0E0],"parents":[2147483647,0,0,1,1,2,2,3,3,4,4,5,5,6,6,7,7,8,8,9,9,10,10,13,13,14,14],"right_children":[2,4,6,8,10,12,14,16,18,20,22,-1,-1,24,26,-1,-1,-1,-1,-1,-1,-1,-1,-1,-1,-1,-1],"split_conditions":[5.717943E2,1.45435E-1,1.2419E-2,2.4115E-2,4.8006E0,4.0717E0,4.3118E0,5.3454E-2,2.04869E1,2.34584E-1,2.39195E-1,5.601957E-2,1.53968735E-2,9.504E0,4.08249E1,-3.4428325E-2,3.385335E-3,-3.6660363E-3,-3.6351662E-2,8.771437E-3,2.0298677E-2,-2.1980574E-2,2.4735622E-2,-1.7874207E-2,1.5330524E-3,4.1467045E-3,-3.40081E-2],"split_indices":[14,12,5,4,27,27,11,12,16,12,2,0,0,10,30,0,0,0,0,0,0,0,0,0,0,0,0],"split_type":[0,0,0,0,0,0,0,0,0,0,0,0,0,0,0,0,0,0,0,0,0,0,0,0,0,0,0],"sum_hessian":[8.2239954E2,5.4562146E2,2.7677805E2,1.596258E2,3.859957E2,1.5402489E1,2.6137555E2,1.0968439E2,4.9941402E1,3.2578595E2,6.020973E1,9.334842E0,6.067647E0,2.0629999E2,5.5075565E1,1.586923E1,9.3815155E1,9.801583E0,4.0139816E1,1.5542511E2,1.7036086E2,3.5005653E1,2.5204071E1,1.2882082E2,7.747919E1,5.600905E0,4.947466E1],"tree_param":{"num_deleted":"0","num_feature":"45","num_nodes":"27","size_leaf_vector":"1"}},{"base_weights":[8.6414665E-3,-1.7777711E-1,1.2812375E-1,-2.3207867E-1,5.338814E-1,-1.4534469E-1,2.6583627E-1,-2.642881E-1,2.7814522E-2,-1.7049283E-3,4.8681427E-2,-4.3464226E-1,1.0830369E-1,7.961632E-1,1.7097189E-1,-1.4142825E-2,2.6375905E-2,2.4855707E-3,-2.5433643E-2,3.1093528E-2,-6.679676E-3,4.777387E-2,-9.247075E-3,-1.1373735E-2,1.3614127E-2],"categories":[],"categories_nodes":[],"categories_segments":[],"categories_sizes":[],"default_left":[0,0,0,0,0,0,0,0,0,0,0,0,0,0,0,0,0,0,0,0,0,0,0,0,0],"id":3,"left_children":[1,3,5,7,9,11,13,15,-1,-1,-1,17,19,21,23,-1,-1,-1,-1,-1,-1,-1,-1,-1,-1],"loss_changes":[1.6453587E1,1.1274649E1,1.6990467E1,6.9723845E0,5.2181864E0,1.1157013E1,1.4942768E1,3.955965E0,0E0,0E0,0E0,2.5686426E0,1.0204448E1,7.2425423E0,1.0376442E1,0E0,0E0,0E0,0E0,0E0,0E0,0E0,0E0,0E0,0E0],"parents":[2147483647,0,0,1,1,2,2,3,3,4,4,5,5,6,6,7,7,11,11,12,12,13,13,14,14],"right_children":[2,4,6,8,10,12,14,16,-1,-1,-1,18,20,22,24,-1,-1,-1,-1,-1,-1,-1,-1,-1,-1],"split_conditions":[2.6568E-2,5.965E0,2.830657E2,8.810414E2,7.066E-2,5.99315E-1,1.9315E-2,3.5261E-2,2.7814522E-2,-1.7049283E-3,4.8681427E-2,-1.61611E1,9.24E-2,3.9327E0,3.69294E1,-1.4142825E-2,2.6375905E-2,2.4855707E-3,-2.5433643E-2,3.1093528E-2,-6.679676E-3,4.777387E-2,-9.247075E-3,-1.1373735E-2,1.3614127E-2],"split_indices":[6,11,14,15,1,13,4,4,0,0,0,10,27,11,8,0,0,0,0,0,0,0,0,0,0],"split_type":[0,0,0,0,0,0,0,0,0,0,0,0,0,0,0,0,0,0,0,0,0,0,0,0,0],"sum_hessian":[7.3667706E2,2.8754926E2,4.4912784E2,2.6779E2,1.9759249E1,1.5040312E2,2.987247E2,2.5791736E2,9.872648E0,9.024983E0,1.0734264E1,6.993056E1,8.0472565E1,4.4205734E1,2.5451898E2,2.5263565E2,5.2817073E0,9.314944E0,6.0615612E1,2.5264091E1,5.5208473E1,3.8052753E1,6.15298E0,5.134357E1,2.0317542E2],"tree_param":{"num_deleted":"0","num_feature":"45","num_nodes":"25","size_leaf_vector":"1"}},{"base_weights":[-6.084537E-3,2.3801495E-1,-1.3168116E-1,3.48267E-1,-1.5155211E-1,-2.1407938E-1,1.1967712E-1,1.755624E-1,5.339553E-1,-4.1830206E-1,1.709456E-1,-4.4456095E-2,-3.2384735E-1,2.1927549E-1,-4.0205386E-1,-2.1270908E-2,1.18949935E-2,1.2109176E-2,3.6984492E-2,-3.1932384E-2,-1.2480392E-2,2.1573443E-2,-3.2623548E-2,1.6760843E-2,-1.1629373E-2,-5.5783032E-3,-1.9860385E-2,1.4492591E-2,-2.4834294E-2,1.4722042E-3,-2.9024197E-2],"categories":[],"categories_nodes":[],"categories_segments":[],"categories_sizes":[],"default_left":[0,0,0,0,0,0,0,0,0,0,0,0,0,0,0,0,0,0,0,0,0,0,0,0,0,0,0,0,0,0,0],"id":4,"left_children":[1,3,5,7,9,11,13,15,17,19,21,23,25,27,29,-1,-1,-1,-1,-1,-1,-1,-1,-1,-1,-1,-1,-1,-1,-1,-1],"loss_changes":[2.4923395E1,1.1915339E1,1.1142176E1,6.8194485E0,5.372449E0,7.5186176E0,7.00716E0,4.341343E0,6.027153E0,1.1049614E0,6.4178486E0,1.1514564E1,3.7784004E0,5.826264E0,1.6875808E0,0E0,0E0,0E0,0E0,0E0,0E0,0E0,0E0,0E0,0E0,0E0,0E0,0E0,0E0,0E0,0E0],"parents":[2147483647,0,0,1,1,2,2,3,3,4,4,5,5,6,6,7,7,8,8,9,9,10,10,11,11,12,12,13,13,14,14],"right_children":[2,4,6,8,10,12,14,16,18,20,22,24,26,28,30,-1,-1,-1,-1,-1,-1,-1,-1,-1,-1,-1,-1,-1,-1,-1,-1],"split_conditions":[1.38686E-1,5.59016E1,5.64665E2,9.83E-2,5.0365E-2,2.469E-1,6.9948E0,-7.7099E0,1.5452E-2,3.032E-1,8.1696E0,2.891084E2,-1.1543E0,9.63237E-1,6.4241E2,-2.1270908E-2,1.18949935E-2,1.2109176E-2,3.6984492E-2,-3.1932384E-2,-1.2480392E-2,2.1573443E-2,-3.2623548E-2,1.6760843E-2,-1.1629373E-2,-5.5783032E-3,-1.9860385E-2,1.4492591E-2,-2.4834294E-2,1.4722042E-3,-2.9024197E-2],"split_indices":[12,7,16,43,1,10,43,10,36,11,10,16,11,13,14,0,0,0,0,0,0,0,0,0,0,0,0,0,0,0,0],"split_type":[0,0,0,0,0,0,0,0,0,0,0,0,0,0,0,0,0,0,0,0,0,0,0,0,0,0,0,0,0,0,0],"sum_hessian":[8.10925E2,2.7519095E2,5.357341E2,2.1457088E2,6.0620056E1,4.0358304E2,1.32151E2,1.12180115E2,1.0239077E2,3.3015022E1,2.7605032E1,1.5911276E2,2.4447029E2,1.1145414E2,2.0696861E1,9.995122E0,1.0218499E2,4.3242134E1,5.9148636E1,1.3107886E1,1.9907137E1,2.13318E1,6.273231E0,5.2460003E1,1.06652756E2,6.343386E1,1.8103642E2,1.0199507E2,9.459069E0,6.2989864E0,1.4397876E1],"tree_param":{"num_deleted":"0","num_feature":"45","num_nodes":"31","size_leaf_vector":"1"}},{"base_weights":[3.3236535E-3,9.581495E-2,-1.7162801E-1,-2.4037021E-1,2.4202809E-1,6.0930336E-1,-2.609913E-1,-1.1767161E-1,-6.2148505E-1,1.9811593E-1,5.633249E-1,-1.81328E-2,8.412261E-1,-9.851613E-2,-4.216339E-1,1.0965108E-3,-2.2563173E-2,-3.810825E-2,-3.398186E-3,1.3125561E-2,-4.5079435E-3,4.8671473E-2,1.0941663E-2,7.466194E-3,5.0680812E-2,-1.184122E-2,3.0438071E-2,6.717384E-3,-2.44049E-2],"categories":[],"categories_nodes":[],"categories_segments":[],"categories_sizes":[],"default_left":[0,0,0,0,0,0,0,0,0,0,0,0,0,0,0,0,0,0,0,0,0,0,0,0,0,0,0,0,0],"id":5,"left_children":[1,3,5,7,9,11,13,15,17,19,21,-1,23,25,27,-1,-1,-1,-1,-1,-1,-1,-1,-1,-1,-1,-1,-1,-1],"loss_changes":[1.3731668E1,2.7344065E1,2.0640255E1,7.818057E0,5.3534718E0,7.165778E0,6.8502464E0,6.0121746E0,3.1302567E0,6.3783226E0,6.2902737E0,0E0,2.8154583E0,1.3113489E1,4.960642E0,0E0,0E0,0E0,0E0,0E0,0E0,0E0,0E0,0E0,0E0,0E0,0E0,0E0,0E0],"parents":[2147483647,0,0,1,1,2,2,3,3,4,4,5,5,6,6,7,7,8,8,9,9,10,10,12,12,13,13,14,14],"right_children":[2,4,6,8,10,12,14,16,18,20,22,-1,24,26,28,-1,-1,-1,-1,-1,-1,-1,-1,-1,-1,-1,-1,-1,-1],"split_conditions":[5.5903E2,1.4798E-1,1.1659E-2,3.11242E2,4.853986E2,-2.4565E0,2.6002E-2,2.4115E-2,5.16037E1,3.935248E2,5.264784E2,-1.81328E-2,-2.604E-3,2.6397E-2,1.36381E-1,1.0965108E-3,-2.2563173E-2,-3.810825E-2,-3.398186E-3,1.3125561E-2,-4.5079435E-3,4.8671473E-2,1.0941663E-2,7.466194E-3,5.0680812E-2,-1.184122E-2,3.0438071E-2,6.717384E-3,-2.44049E-2],"split_indices":[14,12,32,16,14,10,6,4,30,16,14,0,2,5,13,0,0,0,0,0,0,0,0,0,0,0,0,0,0],"split_type":[0,0,0,0,0,0,0,0,0,0,0,0,0,0,0,0,0,0,0,0,0,0,0,0,0,0,0,0,0],"sum_hessian":[8.4658624E2,5.541025E2,2.9248376E2,1.6775122E2,3.8635126E2,2.9435284E1,2.630485E2,1.27887146E2,3.9864067E1,3.4131924E2,4.503202E1,5.561988E0,2.3873297E1,1.3158035E2,1.3146812E2,9.081645E1,3.7070694E1,3.1485062E1,8.379005E0,2.790696E2,6.2249653E1,1.9724749E1,2.5307274E1,5.1339526E0,1.8739344E1,1.1061478E2,2.096558E1,1.3928968E1,1.17539154E2],"tree_param":{"num_deleted":"0","num_feature":"45","num_nodes":"29","size_leaf_vector":"1"}},{"base_weights":[-2.182744E-3,-7.188009E-2,4.2815647E-1,-2.6203686E-1,2.0492982E-2,5.5715036E-1,-4.9326118E-2,3.394745E-2,-3.0450466E-1,-1.7329048E-1,1.3070714E-1,-1.2725978E-1,7.040398E-1,-3.1578276E-1,3.697213E-2,-2.7938584E-2,-7.658551E-3,-2.3607759E-2,2.6203252E-3,-1.5385874E-2,1.00224195E-2,1.5237785E-2,-2.5142986E-2,2.097454E-2,4.9783226E-2,-3.129195E-2,5.145785E-3],"categories":[],"categories_nodes":[],"categories_segments":[],"categories_sizes":[],"default_left":[0,0,0,0,0,0,0,0,0,0,0,0,0,0,0,0,0,0,0,0,0,0,0,0,0,0,0],"id":6,"left_children":[1,3,5,7,9,11,13,-1,15,17,19,21,23,25,-1,-1,-1,-1,-1,-1,-1,-1,-1,-1,-1,-1,-1],"loss_changes":[2.1933565E1,1.1059635E1,6.3055553E0,8.432E0,9.088828E0,8.165485E0,4.9830804E0,0E0,7.5190964E0,1.04347105E1,8.35284E0,2.5939229E0,5.083149E0,2.34831E0,0E0,0E0,0E0,0E0,0E0,0E0,0E0,0E0,0E0,0E0,0E0,0E0,0E0],"parents":[2147483647,0,0,1,1,2,2,3,3,4,4,5,5,6,6,8,8,9,9,10,10,11,11,12,12,13,13],"right_children":[2,4,6,8,10,12,14,-1,16,18,20,22,24,26,-1,-1,-1,-1,-1,-1,-1,-1,-1,-1,-1,-1,-1],"split_conditions":[4.9065E0,2.4401E-2,6.919106E2,4.7979E-2,2.82031E2,-3.4787E-2,1.3209E0,3.394745E-2,1.4552E-2,5.94898E-1,3.71068E1,8.234E-3,5.3181E2,-4.893E-3,3.697213E-2,-2.7938584E-2,-7.658551E-3,-2.3607759E-2,2.6203252E-3,-1.5385874E-2,1.00224195E-2,1.5237785E-2,-2.5142986E-2,2.097454E-2,4.9783226E-2,-3.129195E-2,5.145785E-3],"split_indices":[39,6,16,12,15,0,17,0,4,13,38,37,15,33,0,0,0,0,0,0,0,0,0,0,0,0,0],"split_type":[0,0,0,0,0,0,0,0,0,0,0,0,0,0,0,0,0,0,0,0,0,0,0,0,0,0,0],"sum_hessian":[7.2925116E2,6.283217E2,1.0092944E2,2.0482913E2,4.2349258E2,7.933099E1,2.1598454E1,8.197802E0,1.9663133E2,1.533295E2,2.701631E2,1.40412855E1,6.528971E1,1.6592827E1,5.0056276E0,7.236057E1,1.2427076E2,6.550144E1,8.782806E1,3.6609188E1,2.3355391E2,6.61794E0,7.4233456E0,3.4279945E1,3.1009762E1,9.248998E0,7.3438287E0],"tree_param":{"num_deleted":"0","num_feature":"45","num_nodes":"27","size_leaf_vector":"1"}},{"base_weights":[2.3391063E-3,1.4521995E-1,-2.0759585E-1,2.772994E-1,-1.1995338E-1,3.4816825E-1,-2.4342586E-1,-3.4330305E-1,3.3488658E-1,-1.8535016E-1,4.4088814E-1,4.2970695E-2,-1.0863374E-2,-8.261524E-3,-2.9906547E-1,-2.8238768E-2,5.5894535E-3,2.0935057E-2,1.2173122E-3,-1.2818283E-2,1.1205088E-2,4.4508934E-2,-8.522751E-3,-1.0801847E-2,3.4104813E-2,-8.987939E-3,-1.8861216E-2],"categories":[],"categories_nodes":[],"categories_segments":[],"categories_sizes":[],"default_left":[0,0,0,0,0,0,0,0,0,0,0,0,0,0,0,0,0,0,0,0,0,0,0,0,0,0,0],"id":7,"left_children":[1,3,5,7,9,11,13,15,17,19,21,-1,-1,23,25,-1,-1,-1,-1,-1,-1,-1,-1,-1,-1,-1,-1],"loss_changes":[2.4506327E1,1.7059261E1,6.6732893E0,1.1722874E1,6.0353765E0,6.0984545E0,4.0722237E0,2.892669E0,7.7389374E0,4.305037E0,4.8890686E0,0E0,0E0,8.841441E0,2.2802258E0,0E0,0E0,0E0,0E0,0E0,0E0,0E0,0E0,0E0,0E0,0E0,0E0],"parents":[2147483647,0,0,1,1,2,2,3,3,4,4,5,5,6,6,7,7,8,8,9,9,10,10,13,13,14,14],"right_children":[2,4,6,8,10,12,14,16,18,20,22,-1,-1,24,26,-1,-1,-1,-1,-1,-1,-1,-1,-1,-1,-1,-1],"split_conditions":[3.2262E-2,5.60244E1,3.38075E1,2.70404E1,2.1075E0,-7.6412E0,1.80593E-1,-2.018E0,2.8951E-2,5.7156E0,6.98807E1,4.2970695E-2,-1.0863374E-2,5.906197E2,3.597E-1,-2.8238768E-2,5.5894535E-3,2.0935057E-2,1.2173122E-3,-1.2818283E-2,1.1205088E-2,4.4508934E-2,-8.522751E-3,-1.0801847E-2,3.4104813E-2,-8.987939E-3,-1.8861216E-2],"split_indices":[6,7,30,8,17,27,12,35,6,11,7,0,0,14,10,0,0,0,0,0,0,0,0,0,0,0,0],"split_type":[0,0,0,0,0,0,0,0,0,0,0,0,0,0,0,0,0,0,0,0,0,0,0,0,0,0,0],"sum_hessian":[8.1499E2,4.8512454E2,3.2986548E2,3.237988E2,1.6132574E2,1.9450405E1,3.1041507E2,2.7073467E1,2.967253E2,1.4507843E2,1.6247318E1,9.941638E0,9.508768E0,5.961155E1,2.5080351E2,1.8048893E1,9.024575E0,2.3338626E2,6.3339054E1,1.2395373E2,2.1124702E1,9.101965E0,7.145353E0,4.634905E1,1.3262504E1,1.00576675E2,1.5022684E2],"tree_param":{"num_deleted":"0","num_feature":"45","num_nodes":"27","size_leaf_vector":"1"}},{"base_weights":[2.7677605E-3,1.08093046E-1,-2.138675E-1,-2.2809617E-1,2.3211774E-1,3.3267874E-1,-3.5164306E-1,4.2368665E-2,-2.891237E-1,1.04435295E-1,3.6124218E-1,6.2470496E-1,-1.2942225E-1,-2.3606261E-2,-4.0658674E-1,-7.017065E-3,-2.9611712E-2,9.43681E-3,-2.4587821E-2,-1.8108201E-3,2.2569766E-2,7.7141593E-3,4.8135195E-2,2.9002681E-2,-2.6405916E-2,5.1285237E-2,-1.5107229E-2,-2.4840511E-2,-8.2573695E-3],"categories":[],"categories_nodes":[],"categories_segments":[],"categories_sizes":[],"default_left":[0,0,0,0,0,0,0,0,0,0,0,0,0,0,0,0,0,0,0,0,0,0,0,0,0,0,0,0,0],"id":8,"left_children":[1,3,5,7,9,11,13,-1,15,17,19,21,23,25,27,-1,-1,-1,-1,-1,-1,-1,-1,-1,-1,-1,-1,-1,-1],"loss_changes":[1.9087189E1,2.3521437E1,2.0724041E1,1.0233657E1,6.7493076E0,7.585305E0,3.938509E0,0E0,6.4453096E0,1.0566553E1,7.335724E0,5.296962E0,6.632058E0,9.805191E0,4.0037766E0,0E0,0E0,0E0,0E0,0E0,0E0,0E0,0E0,0E0,0E0,0E0,0E0,0E0,0E0],"parents":[2147483647,0,0,1,1,2,2,3,3,4,4,5,5,6,6,8,8,9,9,10,10,11,11,12,12,13,13,14,14],"right_children":[2,4,6,8,10,12,14,-1,16,18,20,22,24,26,28,-1,-1,-1,-1,-1,-1,-1,-1,-1,-1,-1,-1,-1,-1],"split_conditions":[5.751E2,1.44815E-1,1.4333E-2,1.64198E1,5.8221E-2,2.1603E0,1.83438E-1,4.2368665E-2,2.3713E-2,4.8006E0,2.1454E-2,-9.442E-1,1.3267E-2,5.972386E2,1.96542E1,-7.017065E-3,-2.9611712E-2,9.43681E-3,-2.4587821E-2,-1.8108201E-3,2.2569766E-2,7.7141593E-3,4.8135195E-2,2.9002681E-2,-2.6405916E-2,5.1285237E-2,-1.5107229E-2,-2.4840511E-2,-8.2573695E-3],"split_indices":[14,12,4,15,2,35,13,0,28,11,44,43,44,14,10,0,0,0,0,0,0,0,0,0,0,0,0,0,0],"split_type":[0,0,0,0,0,0,0,0,0,0,0,0,0,0,0,0,0,0,0,0,0,0,0,0,0,0,0,0,0],"sum_hessian":[8.345142E2,5.618507E2,2.7266354E2,1.5118901E2,4.1066168E2,5.4610954E1,2.180526E2,7.426635E0,1.4376237E2,2.0739326E2,2.032684E2,3.3247932E1,2.1363022E1,3.1487673E1,1.8656493E2,9.7411E1,4.635138E1,1.822997E2,2.5093563E1,3.7692333E1,1.6557608E2,1.45098295E1,1.8738104E1,7.522294E0,1.3840729E1,6.04237E0,2.5445303E1,1.3504298E2,5.1521935E1],"tree_param":{"num_deleted":"0","num_feature":"45","num_nodes":"29","size_leaf_vector":"1"}},{"base_weights":[2.9707283E-3,-5.8318783E-2,3.9316565E-1,-2.4405085E-1,6.878118E-2,-2.1362977E-1,5.2083766E-1,3.2471098E-2,-2.7984664E-1,-1.4434071E-1,1.925609E-1,7.896534E-3,-3.0921945E-2,6.7936015E-1,-3.5416745E-2,-2.3920268E-2,-9.078625E-3,-2.2827243E-2,4.3059113E-3,3.367387E-2,3.5635706E-3,5.6630652E-2,2.1909777E-2,-2.2070315E-2,2.1517387E-2],"categories":[],"categories_nodes":[],"categories_segments":[],"categories_sizes":[],"default_left":[0,0,0,0,0,0,0,0,0,0,0,0,0,0,0,0,0,0,0,0,0,0,0,0,0],"id":9,"left_children":[1,3,5,7,9,11,13,-1,15,17,19,-1,-1,21,23,-1,-1,-1,-1,-1,-1,-1,-1,-1,-1],"loss_changes":[1.7320372E1,1.4793907E1,7.7279596E0,8.322788E0,9.852542E0,2.7749143E0,7.2121735E0,0E0,4.7024536E0,9.925594E0,1.3719366E1,0E0,0E0,6.443489E0,3.7883139E0,0E0,0E0,0E0,0E0,0E0,0E0,0E0,0E0,0E0,0E0],"parents":[2147483647,0,0,1,1,2,2,3,3,4,4,5,5,6,6,8,8,9,9,10,10,13,13,14,14],"right_children":[2,4,6,8,10,12,14,-1,16,18,20,-1,-1,22,24,-1,-1,-1,-1,-1,-1,-1,-1,-1,-1],"split_conditions":[5.072E0,2.6788E-2,-3.1738E-2,4.7979E-2,2.757071E2,6.88335E1,6.919106E2,3.2471098E-2,1.4559E-2,5.24564E1,1.4798E-1,7.896534E-3,-3.0921945E-2,5.5499E1,5.3929E-2,-2.3920268E-2,-9.078625E-3,-2.2827243E-2,4.3059113E-3,3.367387E-2,3.5635706E-3,5.6630652E-2,2.1909777E-2,-2.2070315E-2,2.1517387E-2],"split_indices":[39,6,33,12,14,42,16,0,28,26,12,0,0,30,2,0,0,0,0,0,0,0,0,0,0],"split_type":[0,0,0,0,0,0,0,0,0,0,0,0,0,0,0,0,0,0,0,0,0,0,0,0,0],"sum_hessian":[7.222928E2,6.249758E2,9.731696E1,2.5354646E2,3.7142935E2,1.6799513E1,8.051745E1,9.106379E0,2.4444008E2,1.3640439E2,2.3502496E2,9.077474E0,7.7220387E0,6.2488144E1,1.8029303E1,7.9647545E1,1.6479253E2,5.7511784E1,7.88926E1,4.6419113E1,1.8860585E2,2.0417803E1,4.2070343E1,9.660714E0,8.3685875E0],"tree_param":{"num_deleted":"0","num_feature":"45","num_nodes":"25","size_leaf_vector":"1"}},{"base_weights":[2.3375252E-2,1.2722087E-1,-2.3198614E-1,2.4767072E-1,-1.375964E-1,-3.236761E-1,-5.565653E-2,-1.8268257E-1,2.9406214E-1,-3.1323478E-1,1.5016815E-1,1.28638325E-2,-3.5985488E-1,3.7078712E-2,-1.2305406E-1,2.9565187E-3,-3.179417E-2,6.778312E-3,2.2413997E-2,-4.661419E-3,-2.2597801E-2,1.2794348E-2,-1.8188406E-2,5.8411746E-3,-1.9849004E-2,-2.9041186E-2,-2.6378522E-3],"categories":[],"categories_nodes":[],"categories_segments":[],"categories_sizes":[],"default_left":[0,0,0,0,0,0,0,0,0,0,0,0,0,0,0,0,0,0,0,0,0,0,0,0,0,0,0],"id":10,"left_children":[1,3,5,7,9,11,13,15,17,19,21,-1,23,-1,25,-1,-1,-1,-1,-1,-1,-1,-1,-1,-1,-1,-1],"loss_changes":[2.141041E1,1.83376E1,3.7562485E0,7.935461E0,9.146936E0,3.3162556E0,4.4472427E0,4.3151894E0,8.659256E0,3.3799696E0,3.837488E0,0E0,2.6088886E0,0E0,2.4024127E0,0E0,0E0,0E0,0E0,0E0,0E0,0E0,0E0,0E0,0E0,0E0,0E0],"parents":[2147483647,0,0,1,1,2,2,3,3,4,4,5,5,6,6,7,7,8,8,9,9,10,10,12,12,14,14],"right_children":[2,4,6,8,10,12,14,16,18,20,22,-1,24,-1,26,-1,-1,-1,-1,-1,-1,-1,-1,-1,-1,-1,-1],"split_conditions":[1.12265E-1,3.3728E-2,3.935248E2,-4.2588E0,4.945E-1,2.469E-1,5.05438E1,6.762388E2,1.9557E-2,-1.18314E-1,6.1137E-2,1.28638325E-2,2.0575E-2,3.7078712E-2,1.1659E-2,2.9565187E-3,-3.179417E-2,6.778312E-3,2.2413997E-2,-4.661419E-3,-2.2597801E-2,1.2794348E-2,-1.8188406E-2,5.8411746E-3,-1.9849004E-2,-2.9041186E-2,-2.6378522E-3],"split_indices":[2,6,16,35,18,10,26,16,28,2,6,0,6,0,44,0,0,0,0,0,0,0,0,0,0,0,0],"split_type":[0,0,0,0,0,0,0,0,0,0,0,0,0,0,0,0,0,0,0,0,0,0,0,0,0,0,0],"sum_hessian":[8.052738E2,5.728284E2,2.3244537E2,3.937839E2,1.7904448E2,1.5237564E2,8.006975E1,3.8032722E1,3.557512E2,1.1112831E2,6.7916176E1,8.574611E0,1.4380103E2,5.4616838E0,7.460806E1,2.5367168E1,1.2665553E1,1.7636884E2,1.7938235E2,4.36203E1,6.750802E1,5.674549E1,1.1170682E1,1.0235318E1,1.335657E2,8.96515E0,6.5642914E1],"tree_param":{"num_deleted":"0","num_feature":"45","num_nodes":"27","size_leaf_vector":"1"}},{"base_weights":[-9.462696E-3,-1.2645958E-1,1.4318602E-1,1.5769424E-1,-2.390506E-1,8.642205E-1,9.2105076E-2,2.6897374E-1,-3.9228094E-1,5.7493385E-2,-3.4794143E-1,2.1964053E-2,5.357954E-2,2.2427545E-1,-2.4890319E-1,3.498154E-2,5.1080748E-3,-1.1677652E-3,-3.5319652E-2,-7.7630356E-3,2.9307768E-2,6.156179E-3,-1.9677565E-2,9.694743E-3,4.4067476E-2,2.358338E-2,-1.5145634E-2],"categories":[],"categories_nodes":[],"categories_segments":[],"categories_sizes":[],"default_left":[0,0,0,0,0,0,0,0,0,0,0,0,0,0,0,0,0,0,0,0,0,0,0,0,0,0,0],"id":11,"left_children":[1,3,5,7,9,11,13,15,17,19,21,-1,-1,23,25,-1,-1,-1,-1,-1,-1,-1,-1,-1,-1,-1,-1],"loss_changes":[1.4827908E1,1.5073608E1,1.3189557E1,8.304892E0,1.0901978E1,1.6190453E0,1.52698345E1,7.9760504E0,2.6433578E0,1.0367667E1,5.3473396E0,0E0,0E0,4.695795E0,3.8307667E0,0E0,0E0,0E0,0E0,0E0,0E0,0E0,0E0,0E0,0E0,0E0,0E0],"parents":[2147483647,0,0,1,1,2,2,3,3,4,4,5,5,6,6,7,7,8,8,9,9,10,10,13,13,14,14],"right_children":[2,4,6,8,10,12,14,16,18,20,22,-1,-1,24,26,-1,-1,-1,-1,-1,-1,-1,-1,-1,-1,-1,-1],"split_conditions":[4.4018E-2,4.13683E1,1.2311E-2,6.1806E2,2.793943E2,2.4721E0,5.874057E2,-2.19784E1,2.1725E-2,3.2137E-2,3.83337E1,2.1964053E-2,5.357954E-2,4.28975E1,2.9197E-1,3.498154E-2,5.1080748E-3,-1.1677652E-3,-3.5319652E-2,-7.7630356E-3,2.9307768E-2,6.156179E-3,-1.9677565E-2,9.694743E-3,4.4067476E-2,2.358338E-2,-1.5145634E-2],"split_indices":[2,34,4,14,14,10,14,9,40,44,7,0,0,20,13,0,0,0,0,0,0,0,0,0,0,0,0],"split_type":[0,0,0,0,0,0,0,0,0,0,0,0,0,0,0,0,0,0,0,0,0,0,0,0,0,0,0],"sum_hessian":[8.2824286E2,4.689726E2,3.5927026E2,1.3297464E2,3.3599796E2,2.2715158E1,3.365551E2,1.11021904E2,2.1952738E1,9.036839E1,2.4562958E2,8.472273E0,1.4242887E1,2.4279373E2,9.3761375E1,3.0105303E1,8.0916595E1,1.0589588E1,1.136315E1,6.494023E1,2.5428156E1,2.1533113E1,2.2409647E2,2.3330183E2,9.491899E0,5.9985347E0,8.776284E1],"tree_param":{"num_deleted":"0","num_feature":"45","num_nodes":"27","size_leaf_vector":"1"}},{"base_weights":[-8.4545035E-3,-6.2135175E-2,3.5765466E-1,-2.3448189E-1,5.1651135E-2,8.615E-1,1.6196577E-1,3.3960707E-2,-2.7041042E-1,-3.8335237E-1,1.07890934E-1,1.2323632E0,4.086561E-1,-3.1374735E-1,3.146237E-1,-2.759014E-2,-8.0428785E-3,-2.8152406E-2,-1.8356087E-3,4.2688914E-2,3.3351225E-3,7.205547E-2,3.6444046E-2,-2.2488158E-2,5.670321E-2,4.1869855E-3,-2.7403612E-2,7.0600086E-3,4.645347E-2],"categories":[],"categories_nodes":[],"categories_segments":[],"categories_sizes":[],"default_left":[0,0,0,0,0,0,0,0,0,0,0,0,0,0,0,0,0,0,0,0,0,0,0,0,0,0,0,0,0],"id":12,"left_children":[1,3,5,7,9,11,13,-1,15,17,19,21,23,25,27,-1,-1,-1,-1,-1,-1,-1,-1,-1,-1,-1,-1,-1,-1],"loss_changes":[1.429724E1,1.245163E1,9.032994E0,8.47042E0,9.40862E0,3.828144E0,5.05422E0,0E0,7.4206524E0,2.723496E0,1.0383512E1,3.8778114E-1,8.673137E0,1.6366053E0,5.426853E0,0E0,0E0,0E0,0E0,0E0,0E0,0E0,0E0,0E0,0E0,0E0,0E0,0E0,0E0],"parents":[2147483647,0,0,1,1,2,2,3,3,4,4,5,5,6,6,8,8,9,9,10,10,11,11,12,12,13,13,14,14],"right_children":[2,4,6,8,10,12,14,-1,16,18,20,22,24,26,28,-1,-1,-1,-1,-1,-1,-1,-1,-1,-1,-1,-1,-1,-1],"split_conditions":[5.3972E0,2.6788E-2,2.0797E-2,4.7979E-2,-2.37189E-1,5.49411E1,3.0298E-2,3.3960707E-2,1.3877E-2,3.60437E1,-8.2938E0,5.7156E0,6.05262E1,2.6062E-2,6.336186E2,-2.759014E-2,-8.0428785E-3,-2.8152406E-2,-1.8356087E-3,4.2688914E-2,3.3351225E-3,7.205547E-2,3.6444046E-2,-2.2488158E-2,5.670321E-2,4.1869855E-3,-2.7403612E-2,7.0600086E-3,4.645347E-2],"split_indices":[43,6,4,12,2,34,6,0,4,20,43,31,7,36,14,0,0,0,0,0,0,0,0,0,0,0,0,0,0],"split_type":[0,0,0,0,0,0,0,0,0,0,0,0,0,0,0,0,0,0,0,0,0,0,0,0,0,0,0,0,0],"sum_hessian":[7.253537E2,6.333231E2,9.203057E1,2.5143132E2,3.8189178E2,2.4792995E1,6.723758E1,8.835357E0,2.4259596E2,4.3054848E1,3.3883694E2,1.2683922E1,1.2109074E1,1.6078495E1,5.1159084E1,6.6850365E1,1.757456E2,2.794438E1,1.5110468E1,1.669927E1,3.2213766E2,7.64994E0,5.0339813E0,5.720109E0,6.388964E0,6.201492E0,9.877003E0,4.0857193E1,1.0301892E1],"tree_param":{"num_deleted":"0","num_feature":"45","num_nodes":"29","size_leaf_vector":"1"}},{"base_weights":[-4.5577423E-3,1.02265194E-1,-2.711151E-1,2.5331905E-1,-7.22639E-2,4.5789078E-2,-3.1333634E-1,-2.8581807E-1,3.0207407E-1,-1.4156397E-1,3.365493E-1,3.7828695E-2,-1.7921975E-1,-1.5820134E-2,-3.7795293E-1,-2.5099237E-2,8.454427E-3,1.9619834E-2,7.4171455E-4,1.7846171E-3,-1.5655963E-2,3.015793E-2,-6.158135E-3,-2.3776058E-2,1.2276259E-2,-1.2220422E-2,1.285054E-2,-6.5259053E-3,-2.2001974E-2],"categories":[],"categories_nodes":[],"categories_segments":[],"categories_sizes":[],"default_left":[0,0,0,0,0,0,0,0,0,0,0,0,0,0,0,0,0,0,0,0,0,0,0,0,0,0,0,0,0],"id":13,"left_children":[1,3,5,7,9,11,13,15,17,19,21,-1,23,25,27,-1,-1,-1,-1,-1,-1,-1,-1,-1,-1,-1,-1,-1,-1],"loss_changes":[2.3234896E1,1.5376759E1,3.1379032E0,8.30084E0,7.727004E0,4.66461E0,3.9567547E0,2.6839693E0,7.4422092E0,7.08059E0,4.925955E0,0E0,2.9254894E0,2.4217517E0,2.543501E0,0E0,0E0,0E0,0E0,0E0,0E0,0E0,0E0,0E0,0E0,0E0,0E0,0E0,0E0],"parents":[2147483647,0,0,1,1,2,2,3,3,4,4,5,5,6,6,7,7,8,8,9,9,10,10,12,12,13,13,14,14],"right_children":[2,4,6,8,10,12,14,16,18,20,22,-1,24,26,28,-1,-1,-1,-1,-1,-1,-1,-1,-1,-1,-1,-1,-1,-1],"split_conditions":[1.12265E-1,2.8951E-2,-3.9892E0,-3.7837E0,5.072E0,5.01731E1,1.9608E-2,-4.6246E-2,5.60244E1,-8.853E-1,2.61448E-1,3.7828695E-2,5.72756E1,1.93397E-1,-1.581E-2,-2.5099237E-2,8.454427E-3,1.9619834E-2,7.4171455E-4,1.7846171E-3,-1.5655963E-2,3.015793E-2,-6.158135E-3,-2.3776058E-2,1.2276259E-2,-1.2220422E-2,1.285054E-2,-6.5259053E-3,-2.2001974E-2],"split_indices":[2,6,11,11,11,26,36,1,7,31,12,0,34,2,0,0,0,0,0,0,0,0,0,0,0,0,0,0,0],"split_type":[0,0,0,0,0,0,0,0,0,0,0,0,0,0,0,0,0,0,0,0,0,0,0,0,0,0,0,0,0],"sum_hessian":[8.140176E2,5.815697E2,2.3244789E2,3.115091E2,2.700606E2,2.731824E1,2.0512965E2,2.54308E1,2.8607828E2,2.3147568E2,3.8584938E1,6.0005536E0,2.1317686E1,3.6824097E1,1.6830556E2,1.7168858E1,8.261942E0,2.173625E2,6.8715775E1,1.1423571E2,1.17239975E2,2.4224146E1,1.4360793E1,1.2487135E1,8.830551E0,2.0093317E1,1.6730782E1,3.4382492E1,1.3392307E2],"tree_param":{"num_deleted":"0","num_feature":"45","num_nodes":"29","size_leaf_vector":"1"}},{"base_weights":[-9.795937E-3,-1.3728341E-1,1.5640399E-1,-1.7078851E-1,4.4686297E-1,7.3328996E-1,1.1138468E-1,-5.1536385E-2,-3.2571977E-1,6.618986E-1,-1.76263E-2,1.0140443E0,6.3900473E-3,2.3730084E-1,-2.391898E-1,4.989282E-3,-1.7051816E-2,-2.368216E-2,1.2001807E-3,-2.3218442E-3,4.9659837E-2,2.9703045E-2,5.709244E-2,5.009848E-3,2.042266E-2,-2.197811E-2,4.0064687E-3],"categories":[],"categories_nodes":[],"categories_segments":[],"categories_sizes":[],"default_left":[0,0,0,0,0,0,0,0,0,0,0,0,0,0,0,0,0,0,0,0,0,0,0,0,0,0,0],"id":14,"left_children":[1,3,5,7,9,11,13,15,17,19,-1,21,-1,23,25,-1,-1,-1,-1,-1,-1,-1,-1,-1,-1,-1,-1],"loss_changes":[1.7795462E1,9.3777895E0,9.387552E0,8.300868E0,4.712412E0,4.326721E0,1.5038593E1,1.1230154E1,1.0131016E1,4.9462214E0,0E0,2.7526665E-1,0E0,5.83037E0,5.805517E0,0E0,0E0,0E0,0E0,0E0,0E0,0E0,0E0,0E0,0E0,0E0,0E0],"parents":[2147483647,0,0,1,1,2,2,3,3,4,4,5,5,6,6,7,7,8,8,9,9,11,11,13,13,14,14],"right_children":[2,4,6,8,10,12,14,16,18,20,-1,22,-1,24,26,-1,-1,-1,-1,-1,-1,-1,-1,-1,-1,-1,-1],"split_conditions":[4.4018E-2,6.7987E-2,1.2515E-2,1E0,5.405E-1,1.3385E-2,5.9112E2,4.72047E1,5.39647E1,-8.6691E0,-1.76263E-2,5.0842E1,6.3900473E-3,5.438E-1,7.212243E2,4.989282E-3,-1.7051816E-2,-2.368216E-2,1.2001807E-3,-2.3218442E-3,4.9659837E-2,2.9703045E-2,5.709244E-2,5.009848E-3,2.042266E-2,-2.197811E-2,4.0064687E-3],"split_indices":[2,5,4,22,43,32,14,42,42,43,0,42,0,27,14,0,0,0,0,0,0,0,0,0,0,0,0],"split_type":[0,0,0,0,0,0,0,0,0,0,0,0,0,0,0,0,0,0,0,0,0,0,0,0,0,0,0],"sum_hessian":[8.378544E2,4.742466E2,3.636078E2,4.4918988E2,2.5056723E1,2.5214607E1,3.383932E2,2.545742E2,1.9461566E2,1.9880785E1,5.1759377E0,1.6765839E1,8.448769E0,2.4920802E2,8.9185165E1,1.6761627E2,8.695794E1,1.3651796E2,5.809771E1,6.609374E0,1.327141E1,5.229424E0,1.1536415E1,1.3924742E2,1.09960594E2,5.4567543E1,3.4617626E1],"tree_param":{"num_deleted":"0","num_feature":"45","num_nodes":"27","size_leaf_vector":"1"}},{"base_weights":[7.7534127E-3,-3.64432E-1,5.1944185E-2,4.8395284E-2,-5.1154184E-1,-1.8302655E-1,1.4734307E-1,-4.504155E-1,2.9976789E-2,-5.826082E-1,-4.957324E-3,-4.5637947E-1,-2.7040862E-2,-3.0914217E-1,1.9973773E-1,-2.894461E-2,-1.1489286E-2,-1.0740767E-2,-3.182632E-2,-2.6644954E-2,-3.2244583E-3,1.8766696E-2,-1.0568315E-2,-2.0105962E-2,6.504919E-3,8.595404E-3,4.4470977E-2],"categories":[],"categories_nodes":[],"categories_segments":[],"categories_sizes":[],"default_left":[0,0,0,0,0,0,0,0,0,0,0,0,0,0,0,0,0,0,0,0,0,0,0,0,0,0,0],"id":15,"left_children":[1,3,5,7,9,11,13,15,-1,17,-1,19,21,23,25,-1,-1,-1,-1,-1,-1,-1,-1,-1,-1,-1,-1],"loss_changes":[1.2076902E1,4.75774E0,1.4736321E1,6.15012E0,1.6287298E0,8.086245E0,1.123756E1,2.0141315E-1,0E0,8.326092E-1,0E0,2.033042E0,9.127099E0,2.0331311E0,7.9038963E0,0E0,0E0,0E0,0E0,0E0,0E0,0E0,0E0,0E0,0E0,0E0,0E0],"parents":[2147483647,0,0,1,1,2,2,3,3,4,4,5,5,6,6,7,7,9,9,11,11,12,12,13,13,14,14],"right_children":[2,4,6,8,10,12,14,16,-1,18,-1,20,22,24,26,-1,-1,-1,-1,-1,-1,-1,-1,-1,-1,-1,-1],"split_conditions":[1.2681E-2,2.423105E2,2.82031E2,-1.0804E0,1.1711E-2,5.48318E-1,3.83007E1,-1.9285E0,2.9976789E-2,2.11565E-1,-4.957324E-3,1.9021E-2,9.24E-2,6.380957E2,8.29621E1,-2.894461E-2,-1.1489286E-2,-1.0740767E-2,-3.182632E-2,-2.6644954E-2,-3.2244583E-3,1.8766696E-2,-1.0568315E-2,-2.0105962E-2,6.504919E-3,8.595404E-3,4.4470977E-2],"split_indices":[4,15,15,10,37,13,38,10,0,13,0,0,27,14,8,0,0,0,0,0,0,0,0,0,0,0,0],"split_type":[0,0,0,0,0,0,0,0,0,0,0,0,0,0,0,0,0,0,0,0,0,0,0,0,0,0,0],"sum_hessian":[7.3213403E2,7.6933624E1,6.5520044E2,2.0388733E1,5.6544888E1,1.889331E2,4.662673E2,1.0798388E1,9.590344E0,4.788101E1,8.663879E0,6.79428E1,1.2099031E2,4.7502697E1,4.187646E2,5.7981834E0,5.0002046E0,6.7591047E0,4.1121906E1,5.6542606E1,1.1400196E1,3.768634E1,8.330397E1,3.9273846E1,8.22885E0,4.0372305E2,1.5041547E1],"tree_param":{"num_deleted":"0","num_feature":"45","num_nodes":"27","size_leaf_vector":"1"}},{"base_weights":[1.717607E-2,1.7037393E-1,-1.5110824E-1,2.6200742E-1,-6.683594E-2,-5.713967E-1,-1.015559E-1,4.149011E-1,2.1230595E-2,-1.7626946E-1,6.43877E-1,-6.565775E-1,-8.688006E-3,-1.5791446E-1,1.5914649E-1,-2.1360017E-2,2.249815E-2,-7.4274824E-3,2.911487E-2,-1.25782285E-2,4.163192E-2,4.643015E-3,4.660752E-2,-3.572139E-2,-1.4877488E-2,-1.643933E-3,-1.6296098E-2,1.976749E-2,-2.0910589E-2],"categories":[],"categories_nodes":[],"categories_segments":[],"categories_sizes":[],"default_left":[0,0,0,0,0,0,0,0,0,0,0,0,0,0,0,0,0,0,0,0,0,0,0,0,0,0,0,0,0],"id":16,"left_children":[1,3,5,7,9,11,13,15,17,19,21,23,-1,25,27,-1,-1,-1,-1,-1,-1,-1,-1,-1,-1,-1,-1,-1,-1],"loss_changes":[2.060311E1,9.109431E0,7.8743887E0,1.1106171E1,9.240682E0,1.2392082E0,5.049055E0,5.643009E0,1.1357148E1,7.9943643E0,2.4348354E0,4.633894E-1,0E0,5.905964E0,8.521963E0,0E0,0E0,0E0,0E0,0E0,0E0,0E0,0E0,0E0,0E0,0E0,0E0,0E0,0E0],"parents":[2147483647,0,0,1,1,2,2,3,3,4,4,5,5,6,6,7,7,8,8,9,9,10,10,11,11,13,13,14,14],"right_children":[2,4,6,8,10,12,14,16,18,20,22,24,-1,26,28,-1,-1,-1,-1,-1,-1,-1,-1,-1,-1,-1,-1,-1,-1],"split_conditions":[1.87723E-1,2.8951E-2,4.672E-1,3.4486E-2,6.194092E2,5.5382E-2,5.7156E0,-1.20146E-1,2.5252E-2,4.4893E-2,2.2541E-2,4.7719E-2,-8.688006E-3,5.32042E1,5.0393E-2,-2.1360017E-2,2.249815E-2,-7.4274824E-3,2.911487E-2,-1.25782285E-2,4.163192E-2,4.643015E-3,4.660752E-2,-3.572139E-2,-1.4877488E-2,-1.643933E-3,-1.6296098E-2,1.976749E-2,-2.0910589E-2],"split_indices":[12,6,18,2,16,4,11,2,28,32,32,5,0,8,32,0,0,0,0,0,0,0,0,0,0,0,0,0,0],"split_type":[0,0,0,0,0,0,0,0,0,0,0,0,0,0,0,0,0,0,0,0,0,0,0,0,0,0,0,0,0],"sum_hessian":[7.9716644E2,4.1728134E2,3.798851E2,3.0092883E2,1.1635248E2,3.895436E1,3.4093073E2,1.8361185E2,1.17317E2,1.0147902E2,1.4873463E1,3.1545544E1,7.4088173E0,2.8065344E2,6.0277298E1,6.8922586E0,1.7671959E2,9.062798E1,2.6689022E1,9.513009E1,6.34893E0,5.5627437E0,9.310719E0,2.6315432E1,5.230112E0,1.6158968E2,1.1906377E2,4.3000565E1,1.7276733E1],"tree_param":{"num_deleted":"0","num_feature":"45","num_nodes":"29","size_leaf_vector":"1"}},{"base_weights":[-2.6175013E-2,-1.2622026E-1,1.11006625E-1,2.016817E-1,-1.9590208E-1,2.14024E-1,-1.5244083E-1,3.4559575E-1,-4.600811E-1,5.405597E-2,-2.9333636E-1,6.467638E-2,3.9761186E-1,7.1005404E-1,-3.3149472E-1,2.2542132E-2,-1.65433E-2,1.0529944E-3,-3.4603473E-2,-4.839165E-3,3.530695E-2,2.0150726E-3,-1.719816E-2,1.6047206E-2,-8.422482E-3,3.0766193E-2,4.791342E-3,5.0110873E-2,1.0386693E-2,-2.4345528E-2,-8.159877E-4],"categories":[],"categories_nodes":[],"categories_segments":[],"categories_sizes":[],"default_left":[0,0,0,0,0,0,0,0,0,0,0,0,0,0,0,0,0,0,0,0,0,0,0,0,0,0,0,0,0,0,0],"id":17,"left_children":[1,3,5,7,9,11,13,15,17,19,21,23,25,27,29,-1,-1,-1,-1,-1,-1,-1,-1,-1,-1,-1,-1,-1,-1,-1,-1],"loss_changes":[1.1368261E1,1.0981243E1,9.516045E0,8.199097E0,9.646925E0,6.873232E0,1.54953375E1,5.1266727E0,1.7456567E0,1.10608835E1,4.822653E0,8.414545E0,7.3440876E0,2.331522E0,4.033531E0,0E0,0E0,0E0,0E0,0E0,0E0,0E0,0E0,0E0,0E0,0E0,0E0,0E0,0E0,0E0,0E0],"parents":[2147483647,0,0,1,1,2,2,3,3,4,4,5,5,6,6,7,7,8,8,9,9,10,10,11,11,12,12,13,13,14,14],"right_children":[2,4,6,8,10,12,14,16,18,20,22,24,26,28,30,-1,-1,-1,-1,-1,-1,-1,-1,-1,-1,-1,-1,-1,-1,-1,-1],"split_conditions":[4.9592E-2,3.83007E1,5.874057E2,6.845662E2,2.793943E2,4.712E-1,1.2681E-2,9.547E-3,2.41615E-1,2.466886E2,3.96936E1,9.547E-3,6.44002E1,1.4419E-2,7.596386E2,2.2542132E-2,-1.65433E-2,1.0529944E-3,-3.4603473E-2,-4.839165E-3,3.530695E-2,2.0150726E-3,-1.719816E-2,1.6047206E-2,-8.422482E-3,3.0766193E-2,4.791342E-3,5.0110873E-2,1.0386693E-2,-2.4345528E-2,-8.159877E-4],"split_indices":[2,26,14,15,14,27,36,1,12,14,42,1,42,3,15,0,0,0,0,0,0,0,0,0,0,0,0,0,0,0,0],"split_type":[0,0,0,0,0,0,0,0,0,0,0,0,0,0,0,0,0,0,0,0,0,0,0,0,0,0,0,0,0,0,0],"sum_hessian":[8.263057E2,4.7787555E2,3.4843015E2,8.3422005E1,3.9445355E2,2.5061739E2,9.781277E1,6.891318E1,1.4508834E1,1.1075856E2,2.8369498E2,1.3894154E2,1.1167584E2,1.6305292E1,8.150748E1,5.9923534E1,8.98964E0,5.015652E0,9.493181E0,9.064274E1,2.0115822E1,3.7403664E1,2.4629132E2,6.60063E1,7.293524E1,6.4270935E1,4.7404907E1,9.679975E0,6.625317E0,5.422414E1,2.7283337E1],"tree_param":{"num_deleted":"0","num_feature":"45","num_nodes":"31","size_leaf_vector":"1"}},{"base_weights":[1.8107248E-2,-1.4000136E-1,1.3252924E-1,3.7992496E-2,-1.693907E-1,-1.6861239E-1,2.8564265E-1,-4.2448008E-1,-5.985582E-2,-4.5444334E-1,1.1688913E-1,-1.7621072E-1,4.307508E-1,-2.4196291E-2,9.270853E-3,-5.3775744E-3,3.0332014E-2,1.3397986E-2,-2.561204E-2,3.7674E-2,-5.691995E-3,-1.8508805E-2,1.4487415E-2,4.7203746E-2,1.6247233E-2],"categories":[],"categories_nodes":[],"categories_segments":[],"categories_sizes":[],"default_left":[0,0,0,0,0,0,0,0,0,0,0,0,0,0,0,0,0,0,0,0,0,0,0,0,0],"id":18,"left_children":[1,3,5,-1,7,9,11,13,15,17,19,21,23,-1,-1,-1,-1,-1,-1,-1,-1,-1,-1,-1,-1],"loss_changes":[1.3286828E1,8.284941E0,1.9690704E1,0E0,8.342246E0,1.18222E1,1.9027729E1,3.3454704E0,6.7623763E0,3.1548738E0,1.0800213E1,6.281631E0,1.1395924E1,0E0,0E0,0E0,0E0,0E0,0E0,0E0,0E0,0E0,0E0,0E0,0E0],"parents":[2147483647,0,0,1,1,2,2,4,4,5,5,6,6,7,7,8,8,9,9,10,10,11,11,12,12],"right_children":[2,4,6,-1,8,10,12,14,16,18,20,22,24,-1,-1,-1,-1,-1,-1,-1,-1,-1,-1,-1,-1],"split_conditions":[2.7857E-2,4.7979E-2,2.82031E2,3.7992496E-2,1.4694E-2,6.58169E-1,-1.51084E1,4.5438E0,7.89271E1,2.85458E1,9.22E-2,4.42649E1,1.4798E-1,-2.4196291E-2,9.270853E-3,-5.3775744E-3,3.0332014E-2,1.3397986E-2,-2.561204E-2,3.7674E-2,-5.691995E-3,-1.8508805E-2,1.4487415E-2,4.7203746E-2,1.6247233E-2],"split_indices":[6,12,15,0,4,13,9,31,8,42,11,20,12,0,0,0,0,0,0,0,0,0,0,0,0],"split_type":[0,0,0,0,0,0,0,0,0,0,0,0,0,0,0,0,0,0,0,0,0,0,0,0,0],"sum_hessian":[7.324143E2,3.074103E2,4.2500397E2,8.936462E0,2.9847385E2,1.4321979E2,2.8178418E2,8.8799225E1,2.0967464E2,7.12729E1,7.194688E1,6.7315765E1,2.1446841E2,8.110098E1,7.6982403E0,1.9645462E2,1.32200165E1,5.010544E0,6.626236E1,1.853697E1,5.340991E1,4.7675415E1,1.9640348E1,3.5297585E1,1.7917084E2],"tree_param":{"num_deleted":"0","num_feature":"45","num_nodes":"25","size_leaf_vector":"1"}},{"base_weights":[-2.511503E-2,6.843391E-2,-3.0547735E-1,1.580128E-1,-1.5359549E-1,-5.275865E-2,-3.7232453E-1,-2.6629275E-1,1.890368E-1,5.3414965E-1,-2.0035125E-1,-2.3200826E-1,2.894292E-1,-4.655282E-1,-1.1083897E-1,-3.5269495E-2,7.997854E-3,2.9651407E-2,6.4821295E-3,3.4466412E-2,1.5205746E-2,-1.3387579E-2,1.0446816E-2,7.485238E-3,-2.0272402E-2,3.8071148E-2,-5.4181363E-3,-3.1050107E-2,-8.798345E-3,2.5597332E-2,-1.6757343E-2],"categories":[],"categories_nodes":[],"categories_segments":[],"categories_sizes":[],"default_left":[0,0,0,0,0,0,0,0,0,0,0,0,0,0,0,0,0,0,0,0,0,0,0,0,0,0,0,0,0,0,0],"id":19,"left_children":[1,3,5,7,9,11,13,15,17,19,21,23,25,27,29,-1,-1,-1,-1,-1,-1,-1,-1,-1,-1,-1,-1,-1,-1,-1,-1],"loss_changes":[2.1146515E1,1.2052595E1,3.3878555E0,5.729229E0,5.7137933E0,2.726593E0,3.8319035E0,5.6920676E0,9.583343E0,1.9630551E-1,4.5797753E0,1.9811624E0,2.9644902E0,5.165251E0,6.204318E0,0E0,0E0,0E0,0E0,0E0,0E0,0E0,0E0,0E0,0E0,0E0,0E0,0E0,0E0,0E0,0E0],"parents":[2147483647,0,0,1,1,2,2,3,3,4,4,5,5,6,6,7,7,8,8,9,9,10,10,11,11,12,12,13,13,14,14],"right_children":[2,4,6,8,10,12,14,16,18,20,22,24,26,28,30,-1,-1,-1,-1,-1,-1,-1,-1,-1,-1,-1,-1,-1,-1,-1,-1],"split_conditions":[1.34161E-1,3.3993E-2,-1.581E-2,-5.0717E0,2.0066E-2,3.373E-2,3.8768E0,2.8194E-2,-2.5634E0,4.775E-3,6.524396E2,-1.816E-2,6.77891E1,2.7514E-2,2.3705E-2,-3.5269495E-2,7.997854E-3,2.9651407E-2,6.4821295E-3,3.4466412E-2,1.5205746E-2,-1.3387579E-2,1.0446816E-2,7.485238E-3,-2.0272402E-2,3.8071148E-2,-5.4181363E-3,-3.1050107E-2,-8.798345E-3,2.5597332E-2,-1.6757343E-2],"split_indices":[2,6,0,27,40,25,31,6,11,0,16,25,26,0,4,0,0,0,0,0,0,0,0,0,0,0,0,0,0,0,0],"split_type":[0,0,0,0,0,0,0,0,0,0,0,0,0,0,0,0,0,0,0,0,0,0,0,0,0,0,0,0,0,0,0],"sum_hessian":[8.044726E2,6.037682E2,2.0070438E2,4.3040674E2,1.7336147E2,4.235786E1,1.5834653E2,2.8809175E1,4.0159756E2,1.0372013E1,1.6298946E2,2.80082E1,1.4349662E1,1.1616165E2,4.2184868E1,1.3868156E1,1.4941019E1,5.0322968E1,3.512746E2,5.001464E0,5.3705497E0,1.402408E2,2.2748652E1,8.793021E0,1.921518E1,6.144673E0,8.2049885E0,7.4835594E1,4.1326057E1,1.0830869E1,3.1353998E1],"tree_param":{"num_deleted":"0","num_feature":"45","num_nodes":"31","size_leaf_vector":"1"}},{"base_weights":[9.6166935E-3,-9.053699E-2,1.3978776E-1,6.3613445E-2,-2.2393422E-1,8.022296E-1,9.7010195E-2,4.1173297E-1,-1.4381E-2,-2.5384828E-1,4.359572E-2,4.749046E-2,1.6093275E-2,2.1309951E-1,-1.5847534E-1,2.843879E-2,-1.1478327E-2,-1.4717802E-2,3.2349732E-3,7.86887E-4,-1.7190883E-2,2.4030083E-3,1.7752143E-2,3.1878562E-3,-2.3652762E-2],"categories":[],"categories_nodes":[],"categories_segments":[],"categories_sizes":[],"default_left":[0,0,0,0,0,0,0,0,0,0,0,0,0,0,0,0,0,0,0,0,0,0,0,0,0],"id":20,"left_children":[1,3,5,7,9,11,13,15,17,19,-1,-1,-1,21,23,-1,-1,-1,-1,-1,-1,-1,-1,-1,-1],"loss_changes":[1.1060957E1,9.875439E0,1.037581E1,6.067483E0,8.656089E0,1.2708616E0,1.0344961E1,4.249345E0,4.078599E0,6.0991364E0,0E0,0E0,0E0,5.5927305E0,7.6636257E0,0E0,0E0,0E0,0E0,0E0,0E0,0E0,0E0,0E0,0E0],"parents":[2147483647,0,0,1,1,2,2,3,3,4,4,5,5,6,6,7,7,8,8,9,9,13,13,14,14],"right_children":[2,4,6,8,10,12,14,16,18,20,-1,-1,-1,22,24,-1,-1,-1,-1,-1,-1,-1,-1,-1,-1],"split_conditions":[4.9592E-2,4.51222E1,1.2311E-2,-2.7282E-2,3.74609E-1,1.3409E0,4.459262E2,4.59591E1,2.2103E-2,1.4647E-2,4.359572E-2,4.749046E-2,1.6093275E-2,3.3595E-2,7.66106E-1,2.843879E-2,-1.1478327E-2,-1.4717802E-2,3.2349732E-3,7.86887E-4,-1.7190883E-2,2.4030083E-3,1.7752143E-2,3.1878562E-3,-2.3652762E-2],"split_indices":[2,34,28,0,12,17,16,26,6,4,0,0,0,6,13,0,0,0,0,0,0,0,0,0,0],"split_type":[0,0,0,0,0,0,0,0,0,0,0,0,0,0,0,0,0,0,0,0,0,0,0,0,0],"sum_hessian":[8.4645E2,4.7855444E2,3.6789554E2,2.2225053E2,2.5630392E2,2.1239101E1,3.4665643E2,3.9896763E1,1.8235378E2,2.5024127E2,6.0626373E0,1.549989E1,5.739212E0,2.3846634E2,1.081901E2,3.213947E1,7.7572923E0,3.956309E1,1.4279068E2,6.282281E1,1.8741847E2,1.1088153E2,1.275848E2,6.3868225E1,4.4321877E1],"tree_param":{"num_deleted":"0","num_feature":"45","num_nodes":"25","size_leaf_vector":"1"}},{"base_weights":[6.6944435E-3,-1.7564446E-1,1.3368632E-1,-2.3106961E-1,2.8251937E-1,-1.5113673E-1,2.7075824E-1,3.5256933E-2,-2.5697657E-1,-1.2704249E-2,5.1772106E-1,-4.326518E-1,1.7261547E-1,7.7807796E-1,1.9158542E-1,-2.4041982E-2,-8.077949E-3,6.805129E-3,4.461759E-2,1.8226573E-2,-2.4975823E-2,4.0131588E-2,-2.2941583E-3,4.70622E-2,-1.3287164E-2,-1.1291819E-2,1.3433062E-2],"categories":[],"categories_nodes":[],"categories_segments":[],"categories_sizes":[],"default_left":[0,0,0,0,0,0,0,0,0,0,0,0,0,0,0,0,0,0,0,0,0,0,0,0,0,0,0],"id":21,"left_children":[1,3,5,7,9,11,13,-1,15,-1,17,19,21,23,25,-1,-1,-1,-1,-1,-1,-1,-1,-1,-1,-1,-1],"loss_changes":[1.6890032E1,7.6699247E0,1.6826056E1,6.674101E0,4.2671704E0,1.286409E1,1.1523476E1,0E0,5.5022087E0,0E0,3.182673E0,4.198184E0,9.119668E0,6.876045E0,8.190966E0,0E0,0E0,0E0,0E0,0E0,0E0,0E0,0E0,0E0,0E0,0E0,0E0],"parents":[2147483647,0,0,1,1,2,2,3,3,4,4,5,5,6,6,8,8,10,10,11,11,12,12,13,13,14,14],"right_children":[2,4,6,8,10,12,14,-1,16,-1,18,20,22,24,26,-1,-1,-1,-1,-1,-1,-1,-1,-1,-1,-1,-1],"split_conditions":[2.7857E-2,5.2805E0,2.813886E2,4.7979E-2,4.0826E-2,6.48539E-1,1.9135E-2,3.5256933E-2,1.4552E-2,-1.2704249E-2,4.3118E0,2.85458E1,-2.1896E-2,3.2601E-2,4.01383E1,-2.4041982E-2,-8.077949E-3,6.805129E-3,4.461759E-2,1.8226573E-2,-2.4975823E-2,4.0131588E-2,-2.2941583E-3,4.70622E-2,-1.3287164E-2,-1.1291819E-2,1.3433062E-2],"split_indices":[6,11,14,12,2,13,4,0,4,0,43,42,41,32,7,0,0,0,0,0,0,0,0,0,0,0,0],"split_type":[0,0,0,0,0,0,0,0,0,0,0,0,0,0,0,0,0,0,0,0,0,0,0,0,0,0,0],"sum_hessian":[7.274018E2,2.984684E2,4.2893338E2,2.6670068E2,3.1767748E1,1.3932533E2,2.8960803E2,6.4754963E0,2.602252E2,9.6565E0,2.2111248E1,7.4343994E1,6.4981346E1,3.790361E1,2.5170444E2,7.65616E1,1.8366359E2,1.1628821E1,1.0482427E1,5.408637E0,6.8935356E1,1.604474E1,4.89366E1,3.2864613E1,5.038997E0,3.8931564E1,2.1277287E2],"tree_param":{"num_deleted":"0","num_feature":"45","num_nodes":"27","size_leaf_vector":"1"}},{"base_weights":[-1.2563538E-2,1.1849884E-1,-1.5654539E-1,2.1060866E-1,-8.732449E-2,9.233559E-2,-2.2535487E-1,4.1400656E-1,1.00848116E-1,-2.0375958E-1,4.8561004E-1,-2.5115825E-2,5.930639E-1,2.954694E-1,-2.4986832E-1,3.8914108E-3,2.8620368E-2,-1.3454876E-2,1.0657438E-2,-1.3044449E-2,2.6393935E-2,3.7088373E-3,4.1249286E-2,9.088655E-3,-1.2020594E-2,3.1801283E-3,5.0985016E-2,3.1075422E-2,-4.7785207E-3,-2.3969986E-2,-1.0450411E-2],"categories":[],"categories_nodes":[],"categories_segments":[],"categories_sizes":[],"default_left":[0,0,0,0,0,0,0,0,0,0,0,0,0,0,0,0,0,0,0,0,0,0,0,0,0,0,0,0,0,0,0],"id":22,"left_children":[1,3,5,7,9,11,13,15,17,19,21,23,25,27,29,-1,-1,-1,-1,-1,-1,-1,-1,-1,-1,-1,-1,-1,-1,-1,-1],"loss_changes":[1.5207554E1,8.017387E0,6.5965776E0,6.47213E0,8.847941E0,4.947764E0,3.9180584E0,5.384037E0,7.985452E0,4.7231026E0,3.0730848E0,3.1126487E0,3.5440922E0,1.8434262E0,2.601883E0,0E0,0E0,0E0,0E0,0E0,0E0,0E0,0E0,0E0,0E0,0E0,0E0,0E0,0E0,0E0,0E0],"parents":[2147483647,0,0,1,1,2,2,3,3,4,4,5,5,6,6,7,7,8,8,9,9,10,10,11,11,12,12,13,13,14,14],"right_children":[2,4,6,8,10,12,14,16,18,20,22,24,26,28,30,-1,-1,-1,-1,-1,-1,-1,-1,-1,-1,-1,-1,-1,-1,-1,-1],"split_conditions":[1.86955E-1,2.8011E-2,4.20594E1,-1.0804E0,5.9112E2,4.3118E0,-1.2792E1,-1.2756E0,1.7867E-2,4.3336E-2,1.44815E-1,4.908E-3,-6.499E-3,-1.5815E-2,4.672E-1,3.8914108E-3,2.8620368E-2,-1.3454876E-2,1.0657438E-2,-1.3044449E-2,2.6393935E-2,3.7088373E-3,4.1249286E-2,9.088655E-3,-1.2020594E-2,3.1801283E-3,5.0985016E-2,3.1075422E-2,-4.7785207E-3,-2.3969986E-2,-1.0450411E-2],"split_indices":[12,6,42,10,14,27,27,43,6,32,12,0,41,29,18,0,0,0,0,0,0,0,0,0,0,0,0,0,0,0,0],"split_type":[0,0,0,0,0,0,0,0,0,0,0,0,0,0,0,0,0,0,0,0,0,0,0,0,0,0,0,0,0,0,0],"sum_hessian":[8.039029E2,4.2092468E2,3.8297818E2,2.907744E2,1.3015028E2,8.2876274E1,3.001019E2,1.00943504E2,1.898309E2,1.0870332E2,2.1446962E1,6.789953E1,1.4976751E1,1.2993012E1,2.871089E2,3.280721E1,6.81363E1,4.3880764E1,1.4595013E2,1.014269E2,7.2764215E0,1.0245123E1,1.1201839E1,3.4705223E1,3.3194305E1,7.195778E0,7.7809734E0,6.7639933E0,6.229019E0,4.176449E1,2.453444E2],"tree_param":{"num_deleted":"0","num_feature":"45","num_nodes":"31","size_leaf_vector":"1"}},{"base_weights":[-1.7143207E-3,7.3956005E-2,-1.7878377E-1,-2.1300223E-2,2.3210691E-1,3.403975E-1,-3.4141964E-1,6.4337945E-1,-4.523115E-2,5.2507263E-1,1.3200665E-1,5.065694E-2,1.5482502E-1,-5.0950915E-1,-2.3852551E-1,5.8654514E-3,4.935625E-2,-6.8948306E-3,8.134307E-3,1.6379777E-2,5.5809718E-2,-1.1531601E-2,1.164152E-2,-8.002791E-3,3.0817077E-2,1.2006022E-2,-2.9534688E-2,1.3500248E-2,-2.1622447E-2],"categories":[],"categories_nodes":[],"categories_segments":[],"categories_sizes":[],"default_left":[0,0,0,0,0,0,0,0,0,0,0,0,0,0,0,0,0,0,0,0,0,0,0,0,0,0,0,0,0],"id":23,"left_children":[1,3,5,7,9,11,13,15,17,19,21,-1,23,25,27,-1,-1,-1,-1,-1,-1,-1,-1,-1,-1,-1,-1,-1,-1],"loss_changes":[1.12616825E1,8.876114E0,2.1364143E1,5.8894258E0,6.424612E0,7.3992677E0,3.201191E0,2.2114282E0,6.892113E0,6.1780586E0,6.1370716E0,0E0,7.1642127E0,4.527725E0,1.2054056E1,0E0,0E0,0E0,0E0,0E0,0E0,0E0,0E0,0E0,0E0,0E0,0E0,0E0,0E0],"parents":[2147483647,0,0,1,1,2,2,3,3,4,4,5,5,6,6,7,7,8,8,9,9,10,10,12,12,13,13,14,14],"right_children":[2,4,6,8,10,12,14,16,18,20,22,-1,24,26,28,-1,-1,-1,-1,-1,-1,-1,-1,-1,-1,-1,-1,-1,-1],"split_conditions":[5.792843E2,3.7451E-2,1.4333E-2,-1.10869E-1,1.46795E2,1.63145E1,2.75222E1,1.91282E1,5.76629E1,4.1691E1,2.1939E1,5.065694E-2,7.064943E2,-5.2034E-2,2.6374E-2,5.8654514E-3,4.935625E-2,-6.8948306E-3,8.134307E-3,1.6379777E-2,5.5809718E-2,-1.1531601E-2,1.164152E-2,-8.002791E-3,3.0817077E-2,1.2006022E-2,-2.9534688E-2,1.3500248E-2,-2.1622447E-2],"split_indices":[14,5,4,1,14,20,20,20,30,15,20,0,14,2,6,0,0,0,0,0,0,0,0,0,0,0,0,0,0],"split_type":[0,0,0,0,0,0,0,0,0,0,0,0,0,0,0,0,0,0,0,0,0,0,0,0,0,0,0,0,0],"sum_hessian":[8.38506E2,5.878652E2,2.5064084E2,3.6742557E2,2.204396E2,5.952539E1,1.9111545E2,1.1869387E1,3.5555618E2,5.5057144E1,1.6538248E2,1.1905563E1,4.7619827E1,7.1067184E1,1.2004826E2,5.2207627E0,6.648624E0,2.4617612E2,1.0938005E2,4.2435E1,1.2622144E1,3.5697983E1,1.296845E2,2.8695095E1,1.892473E1,6.7531643E0,6.4314026E1,3.30329E1,8.7015366E1],"tree_param":{"num_deleted":"0","num_feature":"45","num_nodes":"29","size_leaf_vector":"1"}},{"base_weights":[-1.5763296E-2,-1.7647241E-1,8.1869714E-2,-2.4828295E-1,3.5277706E-1,-1.5021174E-1,1.9058408E-1,6.364278E-1,-2.9066885E-1,-1.9128218E-2,5.939877E-1,-3.8812566E-1,1.0109686E-1,6.9062173E-1,9.827015E-2,5.6733485E-2,1.5271496E-3,-1.6326644E-2,2.4101203E-2,5.5177648E-2,1.2102607E-2,-2.9500306E-2,-5.9810313E-3,3.6385503E-2,-7.899015E-3,4.1986875E-2,-7.1170814E-3,-1.6954744E-2,9.639142E-3],"categories":[],"categories_nodes":[],"categories_segments":[],"categories_sizes":[],"default_left":[0,0,0,0,0,0,0,0,0,0,0,0,0,0,0,0,0,0,0,0,0,0,0,0,0,0,0,0,0],"id":24,"left_children":[1,3,5,7,9,11,13,15,17,-1,19,21,23,25,27,-1,-1,-1,-1,-1,-1,-1,-1,-1,-1,-1,-1,-1,-1],"loss_changes":[1.147006E1,1.0586147E1,1.1505049E1,9.328079E0,6.154293E0,8.748262E0,1.4251133E1,3.4250817E0,6.624237E0,0E0,4.3155613E0,3.9965496E0,1.1743403E1,6.103468E0,1.0937874E1,0E0,0E0,0E0,0E0,0E0,0E0,0E0,0E0,0E0,0E0,0E0,0E0,0E0,0E0],"parents":[2147483647,0,0,1,1,2,2,3,3,4,4,5,5,6,6,7,7,8,8,10,10,11,11,12,12,13,13,14,14],"right_children":[2,4,6,8,10,12,14,16,18,-1,20,22,24,26,28,-1,-1,-1,-1,-1,-1,-1,-1,-1,-1,-1,-1,-1,-1],"split_conditions":[2.649E-2,5.072E0,2.7808E2,4.7979E-2,4.0826E-2,6.48539E-1,1.9315E-2,1.3628E-2,3.5261E-2,-1.9128218E-2,2.949E-3,-1.476E-1,9.22E-2,3.9327E0,4.09984E1,5.6733485E-2,1.5271496E-3,-1.6326644E-2,2.4101203E-2,5.5177648E-2,1.2102607E-2,-2.9500306E-2,-5.9810313E-3,3.6385503E-2,-7.899015E-3,4.1986875E-2,-7.1170814E-3,-1.6954744E-2,9.639142E-3],"split_indices":[6,11,14,12,2,13,4,6,4,0,29,11,11,11,7,0,0,0,0,0,0,0,0,0,0,0,0,0,0],"split_type":[0,0,0,0,0,0,0,0,0,0,0,0,0,0,0,0,0,0,0,0,0,0,0,0,0,0,0,0,0],"sum_hessian":[7.290979E2,2.7523648E2,4.5386142E2,2.4282057E2,3.241592E1,1.4466069E2,3.092007E2,1.0460749E1,2.3235983E2,7.8620605E0,2.455386E1,7.403105E1,7.062963E1,4.7176758E1,2.6202396E2,5.2613754E0,5.199374E0,2.2260516E2,9.754662E0,9.158158E0,1.5395701E1,4.1574856E1,3.24562E1,2.0131067E1,5.0498566E1,4.000669E1,7.170067E0,4.6100834E1,2.1592313E2],"tree_param":{"num_deleted":"0","num_feature":"45","num_nodes":"29","size_leaf_vector":"1"}},{"base_weights":[-2.0515346E-3,1.04766265E-1,-2.683863E-1,2.1972558E-1,-8.822122E-2,-2.0870033E-1,-5.080732E-1,2.7994683E-1,-8.0143265E-2,-1.4480752E-1,3.592759E-1,-5.529123E-1,-1.6884993E-1,-5.941318E-3,-5.542704E-1,1.6483745E-2,-5.3837015E-3,-1.0602713E-2,4.487353E-2,3.7835535E-2,-8.874876E-3,-2.984089E-3,4.7048405E-2,-1.185229E-2,-3.4384307E-2,5.6670043E-3,-1.1703554E-2,-3.0388137E-2,-9.809495E-3],"categories":[],"categories_nodes":[],"categories_segments":[],"categories_sizes":[],"default_left":[0,0,0,0,0,0,0,0,0,0,0,0,0,0,0,0,0,0,0,0,0,0,0,0,0,0,0,0,0],"id":25,"left_children":[1,3,5,7,9,11,13,15,17,19,21,23,25,-1,27,-1,-1,-1,-1,-1,-1,-1,-1,-1,-1,-1,-1,-1,-1],"loss_changes":[2.320231E1,1.2934095E1,3.2338333E0,6.6154957E0,5.5728636E0,2.4938345E0,7.5857925E-1,5.9002876E0,8.16452E0,5.8593373E0,6.090691E0,6.513963E-1,3.1641998E0,0E0,6.605625E-1,0E0,0E0,0E0,0E0,0E0,0E0,0E0,0E0,0E0,0E0,0E0,0E0,0E0,0E0],"parents":[2147483647,0,0,1,1,2,2,3,3,4,4,5,5,6,6,7,7,8,8,9,9,10,10,11,11,12,12,14,14],"right_children":[2,4,6,8,10,12,14,16,18,20,22,24,26,-1,28,-1,-1,-1,-1,-1,-1,-1,-1,-1,-1,-1,-1,-1,-1],"split_conditions":[1.12265E-1,2.9835E-2,3.9462E-2,6.4713E1,6.11832E1,1.29219E-1,2.52342E1,1.5053E0,2.0585E0,2.63366E1,3.5016E-2,5.3976E-1,2.1466E-2,-5.941318E-3,5.968724E2,1.6483745E-2,-5.3837015E-3,-1.0602713E-2,4.487353E-2,3.7835535E-2,-8.874876E-3,-2.984089E-3,4.7048405E-2,-1.185229E-2,-3.4384307E-2,5.6670043E-3,-1.1703554E-2,-3.0388137E-2,-9.809495E-3],"split_indices":[2,44,0,8,8,12,15,17,17,26,0,13,28,0,15,0,0,0,0,0,0,0,0,0,0,0,0,0,0],"split_type":[0,0,0,0,0,0,0,0,0,0,0,0,0,0,0,0,0,0,0,0,0,0,0,0,0,0,0,0,0],"sum_hessian":[8.1357874E2,5.811185E2,2.324602E2,3.6409494E2,2.170236E2,1.8761237E2,4.4847843E1,3.0325925E2,6.083569E1,1.9326193E2,2.3761686E1,1.8130817E1,1.6948154E2,5.136983E0,3.971086E1,2.6891013E2,3.434912E1,5.4292946E1,6.542744E0,5.987653E0,1.8727428E2,1.43346815E1,9.427004E0,6.247507E0,1.188331E1,3.167906E1,1.3780249E2,3.3942963E1,5.767896E0],"tree_param":{"num_deleted":"0","num_feature":"45","num_nodes":"29","size_leaf_vector":"1"}},{"base_weights":[2.0517072E-2,9.126969E-2,-1.5508536E-1,-1.5464209E-1,2.0307699E-1,3.39625E-1,-3.0560982E-1,1.181429E-2,-4.8982605E-1,2.6096186E-1,-1.72487E-1,7.3003256E-1,-4.3961585E-2,-5.1506793E-1,-1.8449403E-1,-2.7502237E-2,8.313418E-3,-2.9588878E-2,-8.238022E-3,2.7749151E-2,1.1309459E-2,-2.480469E-2,1.2129734E-2,4.6761733E-2,1.1524244E-2,2.3085011E-2,-2.4094133E-2,-7.540561E-3,-3.450656E-2,9.244658E-3,-1.7306097E-2],"categories":[],"categories_nodes":[],"categories_segments":[],"categories_sizes":[],"default_left":[0,0,0,0,0,0,0,0,0,0,0,0,0,0,0,0,0,0,0,0,0,0,0,0,0,0,0,0,0,0,0],"id":26,"left_children":[1,3,5,7,9,11,13,15,17,19,21,23,25,27,29,-1,-1,-1,-1,-1,-1,-1,-1,-1,-1,-1,-1,-1,-1,-1,-1],"loss_changes":[1.0275206E1,1.623463E1,1.7794123E1,1.0314401E1,8.86162E0,8.402462E0,4.5390377E0,1.088976E1,1.9351158E0,3.4711914E0,7.476185E0,2.629799E0,6.6744356E0,4.1280804E0,7.067224E0,0E0,0E0,0E0,0E0,0E0,0E0,0E0,0E0,0E0,0E0,0E0,0E0,0E0,0E0,0E0,0E0],"parents":[2147483647,0,0,1,1,2,2,3,3,4,4,5,5,6,6,7,7,8,8,9,9,10,10,11,11,12,12,13,13,14,14],"right_children":[2,4,6,8,10,12,14,16,18,20,22,24,26,28,30,-1,-1,-1,-1,-1,-1,-1,-1,-1,-1,-1,-1,-1,-1,-1,-1],"split_conditions":[5.866643E2,1.4798E-1,1.434E-2,2.4199E-2,5.3972E0,1.396E-2,2.80624E1,7.1849E-2,1.40328E-1,-5.3097E-2,2.01174E1,2.1603E0,2.014E-1,6.088157E2,3.33156E1,-2.7502237E-2,8.313418E-3,-2.9588878E-2,-8.238022E-3,2.7749151E-2,1.1309459E-2,-2.480469E-2,1.2129734E-2,4.6761733E-2,1.1524244E-2,2.3085011E-2,-2.4094133E-2,-7.540561E-3,-3.450656E-2,9.244658E-3,-1.7306097E-2],"split_indices":[14,12,28,4,31,40,20,12,12,37,9,39,11,14,20,0,0,0,0,0,0,0,0,0,0,0,0,0,0,0,0],"split_type":[0,0,0,0,0,0,0,0,0,0,0,0,0,0,0,0,0,0,0,0,0,0,0,0,0,0,0,0,0,0,0],"sum_hessian":[8.248836E2,5.8832117E2,2.3656241E2,1.8376367E2,4.0455753E2,5.489371E1,1.816687E2,1.2343107E2,6.0332592E1,3.5079535E2,5.3762184E1,2.6757366E1,2.8136345E1,6.536813E1,1.1630057E2,2.6062405E1,9.736867E1,4.5303432E1,1.5029161E1,3.5517334E1,3.15278E2,3.010022E1,2.3661963E1,1.8348207E1,8.40916E0,1.3033004E1,1.5103342E1,2.1822727E1,4.3545406E1,3.5355213E1,8.094536E1],"tree_param":{"num_deleted":"0","num_feature":"45","num_nodes":"31","size_leaf_vector":"1"}},{"base_weights":[-4.291002E-3,-2.0281099E-1,7.9097115E-2,-4.1459388E-1,-4.946515E-2,-9.0551235E-2,2.1426421E-1,9.752131E-3,-4.637696E-1,4.427154E-2,-1.0102794E-1,-1.6767526E-1,3.1715846E-1,-3.1145236E-1,2.8060335E-1,3.1976074E-3,-2.5489906E-2,-1.7155115E-2,3.611421E-3,-3.800251E-3,-2.5241304E-2,-2.0790322E-2,3.540462E-2,1.5099381E-2,-2.2471955E-2,1.8113732E-2,-8.25712E-3],"categories":[],"categories_nodes":[],"categories_segments":[],"categories_sizes":[],"default_left":[0,0,0,0,0,0,0,0,0,0,0,0,0,0,0,0,0,0,0,0,0,0,0,0,0,0,0],"id":27,"left_children":[1,3,5,7,9,11,13,-1,15,-1,17,19,21,23,25,-1,-1,-1,-1,-1,-1,-1,-1,-1,-1,-1,-1],"loss_changes":[1.2296293E1,7.114809E0,1.2014776E1,2.852687E0,6.287394E0,7.36932E0,1.0251526E1,0E0,2.110794E0,0E0,5.173005E0,6.0290165E0,1.0998869E1,2.9400165E0,9.499926E0,0E0,0E0,0E0,0E0,0E0,0E0,0E0,0E0,0E0,0E0,0E0,0E0],"parents":[2147483647,0,0,1,1,2,2,3,3,4,4,5,5,6,6,8,8,10,10,11,11,12,12,13,13,14,14],"right_children":[2,4,6,8,10,12,14,-1,16,-1,18,20,22,24,26,-1,-1,-1,-1,-1,-1,-1,-1,-1,-1,-1,-1],"split_conditions":[2.813886E2,4.9681E1,2.7857E-2,8.889E-3,3.71068E1,5.072E0,3.06622E1,9.752131E-3,7.932E-1,4.427154E-2,5.2847E1,2.70705E1,4.0826E-2,-1.09597E1,8.58176E-1,3.1976074E-3,-2.5489906E-2,-1.7155115E-2,3.611421E-3,-3.800251E-3,-2.5241304E-2,-2.0790322E-2,3.540462E-2,1.5099381E-2,-2.2471955E-2,1.8113732E-2,-8.25712E-3],"split_indices":[14,8,6,4,42,31,8,0,20,0,42,20,2,43,13,0,0,0,0,0,0,0,0,0,0,0,0],"split_type":[0,0,0,0,0,0,0,0,0,0,0,0,0,0,0,0,0,0,0,0,0,0,0,0,0,0,0],"sum_hessian":[7.408205E2,2.187103E2,5.221102E2,9.113791E1,1.2757239E2,2.3167047E2,2.9043976E2,6.581399E0,8.45565E1,5.822972E0,1.2174941E2,1.95313E2,3.6357464E1,3.212942E1,2.5831033E2,6.752219E0,7.780428E1,5.037917E1,7.137025E1,1.5452388E2,4.0789124E1,1.26243515E1,2.3733112E1,5.6817684E0,2.6447655E1,2.1846886E2,3.9841473E1],"tree_param":{"num_deleted":"0","num_feature":"45","num_nodes":"27","size_leaf_vector":"1"}},{"base_weights":[1.3773856E-2,1.3335194E-1,-1.5955244E-1,2.880158E-1,-1.5482121E-2,-3.1092571E-2,-2.7041572E-1,-2.7003595E-1,3.3141783E-1,-6.348907E-2,4.136316E-1,-1.7506565E-1,2.588579E-1,3.950103E-2,-3.2978323E-1,-2.960681E-2,9.285479E-3,1.9450119E-2,-1.4248491E-3,9.219463E-3,-8.778873E-3,-1.02289E-2,4.042589E-2,-1.1158222E-2,2.7101094E-2,2.550431E-2,-1.0767694E-2,3.1886574E-2,-9.774712E-3,1.9724541E-3,-1.914051E-2],"categories":[],"categories_nodes":[],"categories_segments":[],"categories_sizes":[],"default_left":[0,0,0,0,0,0,0,0,0,0,0,0,0,0,0,0,0,0,0,0,0,0,0,0,0,0,0,0,0,0,0],"id":28,"left_children":[1,3,5,7,9,11,13,15,17,19,21,23,25,27,29,-1,-1,-1,-1,-1,-1,-1,-1,-1,-1,-1,-1,-1,-1,-1,-1],"loss_changes":[1.6681927E1,1.0966787E1,4.671732E0,5.74716E0,5.045249E0,6.4474316E0,3.2561293E0,2.665277E0,4.5122986E0,6.144579E0,6.1823254E0,3.6760943E0,6.220071E0,4.2338767E0,2.9135208E0,0E0,0E0,0E0,0E0,0E0,0E0,0E0,0E0,0E0,0E0,0E0,0E0,0E0,0E0,0E0,0E0],"parents":[2147483647,0,0,1,1,2,2,3,3,4,4,5,5,6,6,7,7,8,8,9,9,10,10,11,11,12,12,13,13,14,14],"right_children":[2,4,6,8,10,12,14,16,18,20,22,24,26,28,30,-1,-1,-1,-1,-1,-1,-1,-1,-1,-1,-1,-1,-1,-1,-1,-1],"split_conditions":[5.0188E-2,2.8653E-2,2.7608E-2,2.70404E1,6.7922E0,2.4199E-2,2.721E-1,-2.018E0,5.55009E1,1.72672E1,5.3181E2,2.51157E1,2.3546E0,-2.1896E-2,1.54484E-1,-2.960681E-2,9.285479E-3,1.9450119E-2,-1.4248491E-3,9.219463E-3,-8.778873E-3,-1.02289E-2,4.042589E-2,-1.1158222E-2,2.7101094E-2,2.550431E-2,-1.0767694E-2,3.1886574E-2,-9.774712E-3,1.9724541E-3,-1.914051E-2],"split_indices":[2,6,32,8,11,4,19,35,7,20,15,9,11,29,12,0,0,0,0,0,0,0,0,0,0,0,0,0,0,0,0],"split_type":[0,0,0,0,0,0,0,0,0,0,0,0,0,0,0,0,0,0,0,0,0,0,0,0,0,0,0,0,0,0,0],"sum_hessian":[8.028516E2,4.7522427E2,3.2762735E2,2.3258931E2,2.4263498E2,1.5236218E2,1.7526517E2,1.640726E1,2.1618205E2,2.1898782E2,2.3647144E1,1.0207414E2,5.0288048E1,2.8230085E1,1.4703508E2,9.437791E0,6.9694705E0,1.8629498E2,2.988706E1,6.798876E1,1.5099907E2,9.405072E0,1.4242071E1,9.630336E1,5.7707763E0,3.2823265E1,1.7464785E1,7.4784064E0,2.0751678E1,1.8496702E1,1.2853838E2],"tree_param":{"num_deleted":"0","num_feature":"45","num_nodes":"31","size_leaf_vector":"1"}},{"base_weights":[2.1042362E-2,-6.0683466E-2,1.6757631E-1,-8.4247135E-2,7.200499E-1,8.4636754E-1,1.3005304E-1,-3.7846234E-2,-4.263583E-1,5.0776303E-2,5.091833E-3,5.2091103E-2,1.9529177E-2,-2.3106487E-1,2.0694932E-1,-3.4507778E-2,-7.7156484E-4,-2.623469E-2,1.0783869E-2,1.44335255E-2,-1.6734367E-2,1.2469474E-2,-1.6590185E-2],"categories":[],"categories_nodes":[],"categories_segments":[],"categories_sizes":[],"default_left":[0,0,0,0,0,0,0,0,0,0,0,0,0,0,0,0,0,0,0,0,0,0,0],"id":29,"left_children":[1,3,5,7,9,11,13,15,17,-1,-1,-1,-1,19,21,-1,-1,-1,-1,-1,-1,-1,-1],"loss_changes":[1.0053492E1,9.978708E0,7.544676E0,8.3053875E0,2.8008614E0,9.793844E-1,7.9888887E0,6.754761E0,4.0597725E0,0E0,0E0,0E0,0E0,2.8258817E0,5.4855976E0,0E0,0E0,0E0,0E0,0E0,0E0,0E0,0E0],"parents":[2147483647,0,0,1,1,2,2,3,3,4,4,5,5,6,6,7,7,8,8,13,13,14,14],"right_children":[2,4,6,8,10,12,14,16,18,-1,-1,-1,-1,20,22,-1,-1,-1,-1,-1,-1,-1,-1],"split_conditions":[7.7728E-2,8.0693E-2,1.2311E-2,4.5438E0,3.04144E-1,1.1977E-2,1.8223E-2,5.3454E-2,9.8318E0,5.0776303E-2,5.091833E-3,5.2091103E-2,1.9529177E-2,8.8863E-2,1.8725E0,-3.4507778E-2,-7.7156484E-4,-2.623469E-2,1.0783869E-2,1.44335255E-2,-1.6734367E-2,1.2469474E-2,-1.6590185E-2],"split_indices":[2,40,28,43,13,32,44,12,39,0,0,0,0,2,17,0,0,0,0,0,0,0,0],"split_type":[0,0,0,0,0,0,0,0,0,0,0,0,0,0,0,0,0,0,0,0,0,0,0],"sum_hessian":[8.376482E2,5.3811383E2,2.9953436E2,5.232146E2,1.4899284E1,1.4561566E1,2.8497278E2,4.6170383E2,6.1510757E1,9.646191E0,5.2530932E0,9.29136E0,5.2702065E0,4.967688E1,2.3529591E2,1.4348558E1,4.4735526E2,5.3499443E1,8.011314E0,7.961066E0,4.1715813E1,2.1861191E2,1.668401E1],"tree_param":{"num_deleted":"0","num_feature":"45","num_nodes":"23","size_leaf_vector":"1"}},{"base_weights":[-5.193422E-3,-6.1780795E-2,3.114094E-1,-8.990437E-2,5.769117E-1,7.524134E-1,1.8529953E-1,-2.4503638E-1,2.5395181E-2,-1.3027887E-2,7.84176E-1,6.852065E-3,1.1125278E0,3.0441653E-2,7.238164E-1,-1.3896391E-2,2.3158846E-2,-7.853527E-3,6.858278E-3,5.6286495E-2,-3.4312836E-3,6.465452E-2,3.2282867E-2,2.5704E-2,-7.0197987E-3,-9.35918E-3,5.6546327E-2],"categories":[],"categories_nodes":[],"categories_segments":[],"categories_sizes":[],"default_left":[0,0,0,0,0,0,0,0,0,0,0,0,0,0,0,0,0,0,0,0,0,0,0,0,0,0,0],"id":30,"left_children":[1,3,5,7,9,11,13,15,17,-1,19,-1,21,23,25,-1,-1,-1,-1,-1,-1,-1,-1,-1,-1,-1,-1],"loss_changes":[1.3190372E1,1.126989E1,6.0694723E0,1.072133E1,4.7997875E0,5.276615E0,7.3284225E0,6.080472E0,7.048434E0,0E0,6.331579E0,0E0,4.5609474E-1,5.8145285E0,7.4963236E0,0E0,0E0,0E0,0E0,0E0,0E0,0E0,0E0,0E0,0E0,0E0,0E0],"parents":[2147483647,0,0,1,1,2,2,3,3,4,4,5,5,6,6,7,7,8,8,10,10,12,12,13,13,14,14],"right_children":[2,4,6,8,10,12,14,16,18,-1,20,-1,22,24,26,-1,-1,-1,-1,-1,-1,-1,-1,-1,-1,-1,-1],"split_conditions":[4.9065E0,8.8545E2,2.0352E-2,2.7857E-2,-3.81492E1,2.1324E-2,4.45814E1,3.5261E-2,2.82031E2,-1.3027887E-2,1.77628E1,6.852065E-3,5.965E0,3.614629E2,-1.2616E-2,-1.3896391E-2,2.3158846E-2,-7.853527E-3,6.858278E-3,5.6286495E-2,-3.4312836E-3,6.465452E-2,3.2282867E-2,2.5704E-2,-7.0197987E-3,-9.35918E-3,5.6546327E-2],"split_indices":[39,15,4,6,10,6,9,4,15,0,10,0,27,14,33,0,0,0,0,0,0,0,0,0,0,0,0],"split_type":[0,0,0,0,0,0,0,0,0,0,0,0,0,0,0,0,0,0,0,0,0,0,0,0,0,0,0],"sum_hessian":[7.3417175E2,6.23531E2,1.1064071E2,5.98056E2,2.5474993E1,2.3498955E1,8.7141754E1,2.5450378E2,3.4355225E2,5.002963E0,2.047203E1,9.184617E0,1.4314339E1,6.850014E1,1.864162E1,2.437891E2,1.0714694E1,1.3034996E2,2.1320229E2,1.4389059E1,6.0829706E0,9.046068E0,5.26827E0,1.7356112E1,5.1144024E1,5.9244814E0,1.2717138E1],"tree_param":{"num_deleted":"0","num_feature":"45","num_nodes":"27","size_leaf_vector":"1"}},{"base_weights":[-1.2374142E-2,7.021735E-2,-2.304136E-1,1.8902282E-1,-6.625218E-2,-5.386653E-1,-1.7700955E-1,-4.3846565E-1,2.1913178E-1,-3.9843574E-1,-2.0297036E-2,-3.0732362E-2,-5.0763856E-3,-5.63926E-2,-3.9361608E-1,-3.373338E-2,-1.09355E-3,1.5194247E-2,1.2488449E-3,-2.9421164E-2,3.0112346E-3,-7.306182E-3,4.4877045E-3,2.2151522E-2,-6.8241307E-3,-2.2121858E-2,8.021503E-3],"categories":[],"categories_nodes":[],"categories_segments":[],"categories_sizes":[],"default_left":[0,0,0,0,0,0,0,0,0,0,0,0,0,0,0,0,0,0,0,0,0,0,0,0,0,0,0],"id":31,"left_children":[1,3,5,7,9,11,13,15,17,19,21,-1,-1,23,25,-1,-1,-1,-1,-1,-1,-1,-1,-1,-1,-1,-1],"loss_changes":[1.4742868E1,9.641256E0,3.6069145E0,6.0992517E0,4.2224874E0,1.0243893E0,5.02487E0,1.4496017E0,4.9925613E0,2.9656143E0,3.3988788E0,0E0,0E0,5.070332E0,1.9354286E0,0E0,0E0,0E0,0E0,0E0,0E0,0E0,0E0,0E0,0E0,0E0,0E0],"parents":[2147483647,0,0,1,1,2,2,3,3,4,4,5,5,6,6,7,7,8,8,9,9,10,10,13,13,14,14],"right_children":[2,4,6,8,10,12,14,16,18,20,22,-1,-1,24,26,-1,-1,-1,-1,-1,-1,-1,-1,-1,-1,-1,-1],"split_conditions":[1.12265E-1,2.8951E-2,4.672E-1,-5.4952E0,1.8623E-2,1.3131E0,4.916E-1,2.7315E-2,3.2453E-2,7.023E-3,4.891E-1,-3.0732362E-2,-5.0763856E-3,1.9791E-2,7.989124E2,-3.373338E-2,-1.09355E-3,1.5194247E-2,1.2488449E-3,-2.9421164E-2,3.0112346E-3,-7.306182E-3,4.4877045E-3,2.2151522E-2,-6.8241307E-3,-2.2121858E-2,8.021503E-3],"split_indices":[2,6,18,11,4,17,18,6,2,25,18,0,0,32,15,0,0,0,0,0,0,0,0,0,0,0,0],"split_type":[0,0,0,0,0,0,0,0,0,0,0,0,0,0,0,0,0,0,0,0,0,0,0,0,0,0,0],"sum_hessian":[8.167767E2,5.928776E2,2.2389905E2,3.167454E2,2.7613226E2,3.1720373E1,1.9217867E2,1.3881618E1,3.0286377E2,3.262617E1,2.4350609E2,2.667733E1,5.0430436E0,1.24250404E2,6.792826E1,8.463487E0,5.4181314E0,2.1043765E2,9.242611E1,2.2869987E1,9.756182E0,1.1345728E2,1.3004881E2,1.6545403E1,1.07705E2,6.2612465E1,5.3157973E0],"tree_param":{"num_deleted":"0","num_feature":"45","num_nodes":"27","size_leaf_vector":"1"}},{"base_weights":[-1.3727174E-2,2.4812296E-2,-3.294123E-1,-1.4586736E-1,1.1443615E-1,-3.853221E-1,2.040697E-2,1.5319249E-1,-2.8776622E-1,1.8896979E-1,-2.4084076E-1,9.500463E-3,-4.407841E-1,-9.546092E-3,2.6318407E-2,2.7817467E-2,-1.593819E-2,6.9257626E-3,2.129801E-2,1.2401815E-2,-2.511411E-2,-3.445984E-2,-1.226804E-2],"categories":[],"categories_nodes":[],"categories_segments":[],"categories_sizes":[],"default_left":[0,0,0,0,0,0,0,0,0,0,0,0,0,0,0,0,0,0,0,0,0,0,0],"id":32,"left_children":[1,3,5,7,9,11,-1,13,15,17,19,-1,21,-1,-1,-1,-1,-1,-1,-1,-1,-1,-1],"loss_changes":[1.0160361E1,1.1406682E1,3.9039059E0,1.0941979E1,1.2988579E1,2.795062E0,0E0,1.079643E1,4.743614E0,4.778715E0,1.1014239E1,0E0,3.6077623E0,0E0,0E0,0E0,0E0,0E0,0E0,0E0,0E0,0E0,0E0],"parents":[2147483647,0,0,1,1,2,2,3,3,4,4,5,5,7,7,8,8,9,9,10,10,12,12],"right_children":[2,4,6,8,10,12,-1,14,16,18,20,-1,22,-1,-1,-1,-1,-1,-1,-1,-1,-1,-1],"split_conditions":[5.7156E0,1.40328E-1,8.5237E-2,1.3743E-2,5.930129E2,4.33845E1,2.040697E-2,4.98275E1,1.65018E1,4.853986E2,2.7315E-2,9.500463E-3,5.90183E1,-9.546092E-3,2.6318407E-2,2.7817467E-2,-1.593819E-2,6.9257626E-3,2.129801E-2,1.2401815E-2,-2.511411E-2,-3.445984E-2,-1.226804E-2],"split_indices":[11,12,36,32,14,7,0,8,15,14,6,0,30,0,0,0,0,0,0,0,0,0,0],"split_type":[0,0,0,0,0,0,0,0,0,0,0,0,0,0,0,0,0,0,0,0,0,0,0],"sum_hessian":[8.3344904E2,7.435913E2,8.985771E1,2.5580629E2,4.8778503E2,8.396997E1,5.8877416E0,8.229189E1,1.735144E2,4.0358493E2,8.420009E1,7.169693E0,7.680028E1,4.3067078E1,3.9224815E1,5.5457754E0,1.6796863E2,3.34051E2,6.953396E1,2.9356598E1,5.484349E1,3.2703045E1,4.409723E1],"tree_param":{"num_deleted":"0","num_feature":"45","num_nodes":"23","size_leaf_vector":"1"}},{"base_weights":[-2.7932571E-3,-3.655635E-1,3.6402483E-2,2.193628E-2,-4.5512763E-1,-1.63555E-1,1.14653446E-1,5.179464E-3,-5.1729494E-1,-2.3863688E-1,3.2500267E-1,3.625866E-2,2.9968703E-1,-3.0726776E-2,-1.4169131E-2,-1.4649724E-2,1.2647008E-2,-1.183997E-2,3.3750948E-2,-7.685471E-3,7.12704E-3,2.8640065E-2,7.1312413E-3],"categories":[],"categories_nodes":[],"categories_segments":[],"categories_sizes":[],"default_left":[0,0,0,0,0,0,0,0,0,0,0,0,0,0,0,0,0,0,0,0,0,0,0],"id":33,"left_children":[1,3,5,-1,7,9,11,-1,13,15,17,19,21,-1,-1,-1,-1,-1,-1,-1,-1,-1,-1],"loss_changes":[1.0427025E1,5.3505554E0,1.0374992E1,0E0,2.305416E0,6.9214864E0,6.89815E0,0E0,1.1566238E0,4.410878E0,5.1302934E0,6.7996E0,5.9926186E0,0E0,0E0,0E0,0E0,0E0,0E0,0E0,0E0,0E0,0E0],"parents":[2147483647,0,0,1,1,2,2,4,4,5,5,6,6,8,8,9,9,10,10,11,11,12,12],"right_children":[2,4,6,-1,8,10,12,-1,14,16,18,20,22,-1,-1,-1,-1,-1,-1,-1,-1,-1,-1],"split_conditions":[1.2681E-2,1.2006E-2,2.793943E2,2.193628E-2,5.6252E0,6.58339E1,3.5844E0,5.179464E-3,1.3743E-2,6.5174E-2,8.664E-1,2.6568E-2,5.43801E1,-3.0726776E-2,-1.4169131E-2,-1.4649724E-2,1.2647008E-2,-1.183997E-2,3.3750948E-2,-7.685471E-3,7.12704E-3,2.8640065E-2,7.1312413E-3],"split_indices":[32,6,14,0,20,42,35,0,4,40,17,6,30,0,0,0,0,0,0,0,0,0,0],"split_type":[0,0,0,0,0,0,0,0,0,0,0,0,0,0,0,0,0,0,0,0,0,0,0],"sum_hessian":[7.31378E2,7.050481E1,6.6087317E2,6.6739583E0,6.3830845E1,1.8557544E2,4.7529773E2,6.324479E0,5.7506367E1,1.6129852E2,2.427692E1,3.3469186E2,1.4060585E2,3.9470657E1,1.803571E1,1.4560211E2,1.569641E1,9.443255E0,1.4833665E1,1.199133E2,2.1477856E2,5.037032E1,9.0235535E1],"tree_param":{"num_deleted":"0","num_feature":"45","num_nodes":"23","size_leaf_vector":"1"}},{"base_weights":[3.482187E-3,7.8480326E-2,-2.3444064E-1,9.5620185E-2,-5.1610976E-1,-5.3854954E-1,-1.8169713E-1,3.0370784E-1,5.8719676E-2,-6.7288326E-3,-3.3431556E-2,-8.381999E-3,-3.1392504E-2,2.81807E-2,-3.0003265E-1,9.6637625E-3,4.5607276E-2,-1.6888605E-2,4.003765E-3,2.1527885E-2,-3.7788693E-3,1.7149735E-2,-1.6824322E-2],"categories":[],"categories_nodes":[],"categories_segments":[],"categories_sizes":[],"default_left":[0,0,0,0,0,0,0,0,0,0,0,0,0,0,0,0,0,0,0,0,0,0,0],"id":34,"left_children":[1,3,5,7,9,11,13,15,17,-1,-1,-1,-1,19,21,-1,-1,-1,-1,-1,-1,-1,-1],"loss_changes":[1.4433979E1,6.3169518E0,3.0118704E0,4.5786476E0,9.2185116E-1,8.27013E-1,4.149353E0,5.8658543E0,4.3427563E0,0E0,0E0,0E0,0E0,2.580435E0,2.6165934E0,0E0,0E0,0E0,0E0,0E0,0E0,0E0,0E0],"parents":[2147483647,0,0,1,1,2,2,3,3,4,4,5,5,6,6,7,7,8,8,13,13,14,14],"right_children":[2,4,6,8,10,12,14,16,18,-1,-1,-1,-1,20,22,-1,-1,-1,-1,-1,-1,-1,-1],"split_conditions":[1.31964E-1,7.2985E-2,4.672E-1,8.9029E-2,3.64103E1,-1.8367E-2,4.83E-1,2.1035E-2,1.0701E-2,-6.7288326E-3,-3.3431556E-2,-8.381999E-3,-3.1392504E-2,5.30774E1,-6.5211E-2,9.6637625E-3,4.5607276E-2,-1.6888605E-2,4.003765E-3,2.1527885E-2,-3.7788693E-3,1.7149735E-2,-1.6824322E-2],"split_indices":[2,28,18,12,34,25,18,36,28,0,0,0,0,8,1,0,0,0,0,0,0,0,0],"split_type":[0,0,0,0,0,0,0,0,0,0,0,0,0,0,0,0,0,0,0,0,0,0,0],"sum_hessian":[8.0687756E2,6.1400183E2,1.9287578E2,5.9761395E2,1.6387844E1,2.7146067E1,1.657297E2,8.892451E1,5.0868945E2,5.2178097E0,1.1170034E1,5.8258133E0,2.1320253E1,6.0027615E1,1.05702095E2,7.6379196E1,1.2545311E1,2.524119E1,4.8344827E2,1.1660031E1,4.8367584E1,5.219719E0,1.0048237E2],"tree_param":{"num_deleted":"0","num_feature":"45","num_nodes":"23","size_leaf_vector":"1"}},{"base_weights":[-2.7609393E-3,-1.0686278E-1,1.2832022E-1,4.9021892E-2,-2.373793E-1,8.039884E-1,8.4863946E-2,3.7582943E-1,-2.7797546E-2,-3.249475E-1,1.7400721E-2,1.8174004E-2,4.5918513E-2,1.929432E-1,-1.6311944E-1,-6.59644E-3,4.7182743E-2,2.739616E-3,-2.2088299E-2,3.756261E-3,-1.8661592E-2,4.1181535E-2,-3.483149E-3,1.0566148E-3,1.7334828E-2,3.4527231E-3,-2.7407974E-2],"categories":[],"categories_nodes":[],"categories_segments":[],"categories_sizes":[],"default_left":[0,0,0,0,0,0,0,0,0,0,0,0,0,0,0,0,0,0,0,0,0,0,0,0,0,0,0],"id":35,"left_children":[1,3,5,7,9,11,13,15,17,19,21,-1,-1,23,25,-1,-1,-1,-1,-1,-1,-1,-1,-1,-1,-1,-1],"loss_changes":[1.1588942E1,9.6418295E0,1.0969875E1,5.4465237E0,5.7573404E0,8.04883E-1,9.528232E0,1.202623E1,6.050198E0,3.7351913E0,4.752687E0,0E0,0E0,6.5237923E0,9.701217E0,0E0,0E0,0E0,0E0,0E0,0E0,0E0,0E0,0E0,0E0,0E0,0E0],"parents":[2147483647,0,0,1,1,2,2,3,3,4,4,5,5,6,6,7,7,8,8,9,9,10,10,13,13,14,14],"right_children":[2,4,6,8,10,12,14,16,18,20,22,-1,-1,24,26,-1,-1,-1,-1,-1,-1,-1,-1,-1,-1,-1,-1],"split_conditions":[4.4018E-2,4.47709E1,1.2111E-2,2.752586E2,5.49411E1,1E0,5.3181E2,2.6002E-2,4.66795E1,2.11889E2,-2.2802E0,1.8174004E-2,4.5918513E-2,3.3728E-2,6.38672E1,-6.59644E-3,4.7182743E-2,2.739616E-3,-2.2088299E-2,3.756261E-3,-1.8661592E-2,4.1181535E-2,-3.483149E-3,1.0566148E-3,1.7334828E-2,3.4527231E-3,-2.7407974E-2],"split_indices":[2,30,4,16,38,22,15,6,38,15,39,0,0,6,8,0,0,0,0,0,0,0,0,0,0,0,0],"split_type":[0,0,0,0,0,0,0,0,0,0,0,0,0,0,0,0,0,0,0,0,0,0,0,0,0,0,0],"sum_hessian":[8.4726373E2,4.7233228E2,3.7493143E2,2.1553214E2,2.5680017E2,2.1599306E1,3.5333212E2,4.027988E1,1.7525224E2,1.9090907E2,6.589108E1,5.313539E0,1.6285767E1,2.4623628E2,1.07095856E2,2.1669943E1,1.8609938E1,1.4682681E2,2.8425432E1,2.049945E1,1.7040962E2,5.5974364E0,6.0293648E1,1.1682652E2,1.2940976E2,6.732217E1,3.977369E1],"tree_param":{"num_deleted":"0","num_feature":"45","num_nodes":"27","size_leaf_vector":"1"}},{"base_weights":[-1.50799425E-2,-7.013703E-2,3.1552082E-1,-2.4854553E-1,1.2662998E-2,1.3318415E-1,6.216667E-1,2.7970904E-1,-2.9008457E-1,2.4554549E-1,-5.5605195E-2,-6.7765854E-2,5.701027E-1,9.3947005E-1,3.551917E-1,3.7092265E-2,-1.1447763E-2,-2.8183177E-2,-7.1051405E-3,-1.49112195E-2,1.9406876E-2,-5.2148676E-3,1.6305305E-2,5.090467E-3,-2.5317699E-2,5.801638E-3,4.250947E-2,1.4548282E-2,6.151091E-2,-1.0261222E-2,4.051796E-2],"categories":[],"categories_nodes":[],"categories_segments":[],"categories_sizes":[],"default_left":[0,0,0,0,0,0,0,0,0,0,0,0,0,0,0,0,0,0,0,0,0,0,0,0,0,0,0,0,0,0,0],"id":36,"left_children":[1,3,5,7,9,11,13,15,17,19,21,23,25,27,29,-1,-1,-1,-1,-1,-1,-1,-1,-1,-1,-1,-1,-1,-1,-1,-1],"loss_changes":[1.319143E1,9.177297E0,5.6931486E0,4.4019938E0,6.772558E0,5.8439913E0,2.9140692E0,3.664031E0,7.330491E0,7.6025715E0,6.1595454E0,3.4864652E0,2.5640473E0,2.8253098E0,5.8974104E0,0E0,0E0,0E0,0E0,0E0,0E0,0E0,0E0,0E0,0E0,0E0,0E0,0E0,0E0,0E0,0E0],"parents":[2147483647,0,0,1,1,2,2,3,3,4,4,5,5,6,6,7,7,8,8,9,9,10,10,11,11,12,12,13,13,14,14],"right_children":[2,4,6,8,10,12,14,16,18,20,22,24,26,28,30,-1,-1,-1,-1,-1,-1,-1,-1,-1,-1,-1,-1,-1,-1,-1,-1],"split_conditions":[4.9065E0,2.4401E-2,6.152E-1,5.3454E-2,1.4798E-1,6.08908E1,2.9843E-2,1.3628E-2,1.4648E-2,2.6568E-2,4.35797E1,7.03265E1,5.544829E2,2.0575E-2,4.1443E-2,3.7092265E-2,-1.1447763E-2,-2.8183177E-2,-7.1051405E-3,-1.49112195E-2,1.9406876E-2,-5.2148676E-3,1.6305305E-2,5.090467E-3,-2.5317699E-2,5.801638E-3,4.250947E-2,1.4548282E-2,6.151091E-2,-1.0261222E-2,4.051796E-2],"split_indices":[39,6,19,12,12,8,4,6,28,6,20,42,14,6,44,0,0,0,0,0,0,0,0,0,0,0,0,0,0,0,0],"split_type":[0,0,0,0,0,0,0,0,0,0,0,0,0,0,0,0,0,0,0,0,0,0,0,0,0,0,0,0,0,0,0],"sum_hessian":[7.225118E2,6.200403E2,1.0247148E2,1.9591095E2,4.2412936E2,6.512116E1,3.7350315E1,1.3864291E1,1.8204666E2,9.55577E1,3.2857166E2,4.518454E1,1.9936625E1,1.5882725E1,2.1467588E1,7.024192E0,6.8400993E0,6.2918343E1,1.1912832E2,1.9625412E1,7.593229E1,2.920444E2,3.6527237E1,3.3139423E1,1.2045117E1,8.14554E0,1.1791084E1,5.535877E0,1.0346848E1,9.867519E0,1.1600069E1],"tree_param":{"num_deleted":"0","num_feature":"45","num_nodes":"31","size_leaf_vector":"1"}},{"base_weights":[1.4203682E-2,9.557237E-2,-1.296284E-1,1.6667779E-1,-5.556035E-2,-1.8231435E-1,3.7484226E-1,4.4982187E-2,3.5529485E-1,3.7638314E-2,-9.062659E-2,9.9983566E-2,-2.2307803E-1,6.044256E-1,3.1435225E-2,-3.724157E-2,3.9019142E-3,-1.5079051E-2,2.0558512E-2,-8.768476E-3,1.3657733E-2,2.0907534E-2,-1.3279355E-2,6.8410533E-3,-1.2925051E-2,-2.541969E-3,5.1952012E-2,2.9896075E-2,-2.5282687E-2],"categories":[],"categories_nodes":[],"categories_segments":[],"categories_sizes":[],"default_left":[0,0,0,0,0,0,0,0,0,0,0,0,0,0,0,0,0,0,0,0,0,0,0,0,0,0,0,0,0],"id":37,"left_children":[1,3,5,7,9,11,13,15,17,-1,19,21,23,25,27,-1,-1,-1,-1,-1,-1,-1,-1,-1,-1,-1,-1,-1,-1],"loss_changes":[9.450851E0,5.550671E0,7.8243475E0,8.038999E0,4.7659607E0,3.0705614E0,2.1823752E0,5.656876E0,5.169796E0,0E0,4.9722333E0,4.079005E0,2.990244E0,4.802912E0,4.027159E0,0E0,0E0,0E0,0E0,0E0,0E0,0E0,0E0,0E0,0E0,0E0,0E0,0E0,0E0],"parents":[2147483647,0,0,1,1,2,2,3,3,4,4,5,5,6,6,7,7,8,8,10,10,11,11,12,12,13,13,14,14],"right_children":[2,4,6,8,10,12,14,16,18,-1,20,22,24,26,28,-1,-1,-1,-1,-1,-1,-1,-1,-1,-1,-1,-1,-1,-1],"split_conditions":[3.381E-2,5.60244E1,6.571368E2,2.256E-1,1.68992E1,2.5844E-2,4.2055E-2,1.4659E-2,8.412E-3,3.7638314E-2,5.7156E0,2.928424E2,-7.4207E0,-1.5241E-2,4.853E-1,-3.724157E-2,3.9019142E-3,-1.5079051E-2,2.0558512E-2,-8.768476E-3,1.3657733E-2,2.0907534E-2,-1.3279355E-2,6.8410533E-3,-1.2925051E-2,-2.541969E-3,5.1952012E-2,2.9896075E-2,-2.5282687E-2],"split_indices":[6,7,16,43,15,44,6,6,28,0,11,16,27,25,18,0,0,0,0,0,0,0,0,0,0,0,0,0,0],"split_type":[0,0,0,0,0,0,0,0,0,0,0,0,0,0,0,0,0,0,0,0,0,0,0,0,0,0,0,0,0],"sum_hessian":[8.054698E2,5.1465485E2,2.9081497E2,3.4992032E2,1.6473451E2,2.638931E2,2.692188E1,2.1344453E2,1.3647577E2,5.9982967E0,1.5873622E2,3.3114536E1,2.3077856E2,1.5679399E1,1.1242482E1,7.709444E0,2.0573509E2,1.0354139E1,1.26121635E2,1.291651E2,2.9571117E1,1.7628283E1,1.5486255E1,2.0422504E1,2.1035606E2,6.604648E0,9.074751E0,5.416378E0,5.826104E0],"tree_param":{"num_deleted":"0","num_feature":"45","num_nodes":"29","size_leaf_vector":"1"}},{"base_weights":[2.461558E-2,-7.641174E-2,1.5022942E-1,-1.11568674E-1,4.2503268E-1,7.6753473E-1,1.0074883E-1,2.0767874E-1,-1.6345398E-1,6.0027564E-1,-1.7957948E-2,4.38397E-2,1.2921058E-2,2.0234017E-1,-1.8986638E-1,2.2995856E-2,-5.7484824E-3,3.369091E-3,-1.3216707E-2,5.152982E-2,2.3686832E-3,1.2912978E-3,1.6620712E-2,8.221224E-3,-1.6494546E-2],"categories":[],"categories_nodes":[],"categories_segments":[],"categories_sizes":[],"default_left":[0,0,0,0,0,0,0,0,0,0,0,0,0,0,0,0,0,0,0,0,0,0,0,0,0],"id":38,"left_children":[1,3,5,7,9,11,13,15,17,19,-1,-1,-1,21,23,-1,-1,-1,-1,-1,-1,-1,-1,-1,-1],"loss_changes":[1.0558255E1,8.17948E0,1.124859E1,7.187251E0,4.3974247E0,1.2956066E0,1.020748E1,5.0022173E0,8.681357E0,5.9579124E0,0E0,0E0,0E0,5.8622904E0,4.50584E0,0E0,0E0,0E0,0E0,0E0,0E0,0E0,0E0,0E0,0E0],"parents":[2147483647,0,0,1,1,2,2,3,3,4,4,5,5,6,6,7,7,8,8,9,9,13,13,14,14],"right_children":[2,4,6,8,10,12,14,16,18,20,-1,-1,-1,22,24,-1,-1,-1,-1,-1,-1,-1,-1,-1,-1],"split_conditions":[4.4018E-2,6.7987E-2,1.2515E-2,3.04386E1,2.0968E0,2.5844E-2,5.874057E2,-2.018E0,2.757071E2,5.20923E-1,-1.7957948E-2,4.38397E-2,1.2921058E-2,1.308E-1,-2.4318E0,2.2995856E-2,-5.7484824E-3,3.369091E-3,-1.3216707E-2,5.152982E-2,2.3686832E-3,1.2912978E-3,1.6620712E-2,8.221224E-3,-1.6494546E-2],"split_indices":[2,5,32,8,43,44,14,35,14,12,0,0,0,39,31,0,0,0,0,0,0,0,0,0,0],"split_type":[0,0,0,0,0,0,0,0,0,0,0,0,0,0,0,0,0,0,0,0,0,0,0,0,0],"sum_hessian":[8.300811E2,4.6028217E2,3.6979895E2,4.3085205E2,2.943011E1,2.6365013E1,3.4343393E2,5.981444E1,3.710376E2,2.4246325E1,5.1837864E0,2.1112032E1,5.252981E0,2.54701E2,8.873293E1,3.333137E1,2.6483068E1,1.1293948E2,2.580981E2,1.3148747E1,1.1097576E1,1.0856872E2,1.4613228E2,2.5085983E1,6.364695E1],"tree_param":{"num_deleted":"0","num_feature":"45","num_nodes":"25","size_leaf_vector":"1"}},{"base_weights":[5.1811393E-3,-1.4682661E-1,1.1569504E-1,-1.9258367E-1,4.909982E-1,-1.237079E-1,2.4009281E-1,-2.5241208E-1,1.7333654E-1,9.828284E-1,-3.0373603E-2,-4.0311882E-1,1.271522E-1,7.408789E-1,1.5262E-1,1.8882437E-2,-1.4855206E-2,-1.0081885E-3,3.6739722E-2,6.420394E-2,3.311404E-2,1.1656954E-2,-2.309881E-2,3.863457E-2,-2.272616E-3,4.6596773E-2,-1.5771484E-2,-8.7883305E-3,1.3227843E-2],"categories":[],"categories_nodes":[],"categories_segments":[],"categories_sizes":[],"default_left":[0,0,0,0,0,0,0,0,0,0,0,0,0,0,0,0,0,0,0,0,0,0,0,0,0,0,0,0,0],"id":39,"left_children":[1,3,5,7,9,11,13,15,17,19,-1,21,23,25,27,-1,-1,-1,-1,-1,-1,-1,-1,-1,-1,-1,-1,-1,-1],"loss_changes":[1.1794983E1,8.721323E0,1.2136503E1,6.097481E0,1.1438799E1,9.840934E0,1.1620499E1,6.815958E0,4.3008757E0,5.249882E-1,0E0,2.591035E0,8.319822E0,8.279861E0,8.474784E0,0E0,0E0,0E0,0E0,0E0,0E0,0E0,0E0,0E0,0E0,0E0,0E0,0E0,0E0],"parents":[2147483647,0,0,1,1,2,2,3,3,4,4,5,5,6,6,7,7,8,8,9,9,11,11,12,12,13,13,14,14],"right_children":[2,4,6,8,10,12,14,16,18,20,-1,22,24,26,28,-1,-1,-1,-1,-1,-1,-1,-1,-1,-1,-1,-1,-1,-1],"split_conditions":[2.8011E-2,8.810414E2,2.859848E2,7.4974E-2,2.4766E-2,6.48539E-1,1.9315E-2,5.3454E-2,2.4243E-2,-3.5038E0,-3.0373603E-2,-4.9386E0,9.22E-2,4.6066E-2,4.23135E1,1.8882437E-2,-1.4855206E-2,-1.0081885E-3,3.6739722E-2,6.420394E-2,3.311404E-2,1.1656954E-2,-2.309881E-2,3.863457E-2,-2.272616E-3,4.6596773E-2,-1.5771484E-2,-8.7883305E-3,1.3227843E-2],"split_indices":[6,15,15,1,36,13,4,12,6,35,0,43,11,44,30,0,0,0,0,0,0,0,0,0,0,0,0,0,0],"split_type":[0,0,0,0,0,0,0,0,0,0,0,0,0,0,0,0,0,0,0,0,0,0,0,0,0,0,0,0,0],"sum_hessian":[7.0011426E2,2.945892E2,4.0552505E2,2.7552155E2,1.9067636E1,1.3866687E2,2.668582E2,2.3707043E2,3.845112E1,1.324333E1,5.8243065E0,6.5313255E1,7.3353615E1,3.857048E1,2.282877E2,1.520884E1,2.218616E2,2.9312853E1,9.138266E0,5.2775764E0,7.965754E0,5.279533E0,6.003372E1,1.4742006E1,5.861161E1,3.2762424E1,5.808058E0,5.7889206E1,1.703985E2],"tree_param":{"num_deleted":"0","num_feature":"45","num_nodes":"29","size_leaf_vector":"1"}},{"base_weights":[6.5546646E-3,7.5152814E-2,-2.2483033E-1,1.8087621E-1,-4.931856E-2,2.758E-3,-3.301906E-1,2.8285462E-1,7.346983E-4,-1.0021978E-1,2.90826E-1,-1.264703E-1,5.323208E-1,5.957785E-3,-3.6331645E-1,-1.7229306E-2,1.6998598E-2,-2.703132E-3,3.871809E-2,5.264559E-4,-1.0553974E-2,-1.5961904E-3,3.3222646E-2,-2.9070368E-2,1.2930688E-3,-1.0690005E-4,5.062127E-2,-5.305325E-3,-2.2231407E-2],"categories":[],"categories_nodes":[],"categories_segments":[],"categories_sizes":[],"default_left":[0,0,0,0,0,0,0,0,0,0,0,0,0,0,0,0,0,0,0,0,0,0,0,0,0,0,0,0,0],"id":40,"left_children":[1,3,5,7,9,11,13,15,17,19,21,23,25,-1,27,-1,-1,-1,-1,-1,-1,-1,-1,-1,-1,-1,-1,-1,-1],"loss_changes":[1.2633539E1,8.086954E0,4.3654327E0,6.1013584E0,4.924017E0,4.0769E0,1.8953714E0,7.7175236E0,5.173982E0,3.030599E0,4.4897785E0,3.334918E0,3.0004838E0,0E0,2.381589E0,0E0,0E0,0E0,0E0,0E0,0E0,0E0,0E0,0E0,0E0,0E0,0E0,0E0,0E0],"parents":[2147483647,0,0,1,1,2,2,3,3,4,4,5,5,6,6,7,7,8,8,9,9,10,10,11,11,12,12,14,14],"right_children":[2,4,6,8,10,12,14,16,18,20,22,24,26,-1,28,-1,-1,-1,-1,-1,-1,-1,-1,-1,-1,-1,-1,-1,-1],"split_conditions":[1.45156E-1,2.8861E-2,2.7608E-2,3.2453E-2,6.524396E2,3.2818E-2,-6.8571E0,2.70404E1,2.0585E0,3.157586E2,4.921E-1,7.218E-1,7.96E-2,5.957785E-3,-1.4361E-2,-1.7229306E-2,1.6998598E-2,-2.703132E-3,3.871809E-2,5.264559E-4,-1.0553974E-2,-1.5961904E-3,3.3222646E-2,-2.9070368E-2,1.2930688E-3,-1.0690005E-4,5.062127E-2,-5.305325E-3,-2.2231407E-2],"split_indices":[2,6,32,2,16,5,39,8,17,14,18,17,27,0,25,0,0,0,0,0,0,0,0,0,0,0,0,0,0],"split_type":[0,0,0,0,0,0,0,0,0,0,0,0,0,0,0,0,0,0,0,0,0,0,0,0,0,0,0,0,0],"sum_hessian":[7.938702E2,6.12854E2,1.8101614E2,3.311386E2,2.8171542E2,5.7590004E1,1.2342614E2,2.1107726E2,1.2006135E2,2.4565894E2,3.6056473E1,4.690503E1,1.0684974E1,8.295952E0,1.1513019E2,1.7191685E1,1.9388557E2,1.1298831E2,7.0730386E0,1.2334361E2,1.2231532E2,1.9836063E1,1.6220411E1,1.1059429E1,3.58456E1,5.5273747E0,5.157599E0,2.8207499E1,8.692268E1],"tree_param":{"num_deleted":"0","num_feature":"45","num_nodes":"29","size_leaf_vector":"1"}},{"base_weights":[2.0536864E-2,-2.0714004E-2,2.828606E-1,2.2800367E-1,-6.258976E-2,3.9179784E-1,-5.464177E-1,-4.998975E-1,3.206932E-1,3.8837478E-2,-7.522937E-2,4.526544E-1,-2.2417685E-2,-3.3005487E-2,-1.567842E-2,-3.135229E-2,-1.3431241E-2,1.9990703E-2,-6.248697E-3,-1.1165021E-2,8.651835E-5,2.6068008E-2,-4.6982574E-3],"categories":[],"categories_nodes":[],"categories_segments":[],"categories_sizes":[],"default_left":[0,0,0,0,0,0,0,0,0,0,0,0,0,0,0,0,0,0,0,0,0,0,0],"id":41,"left_children":[1,3,5,7,9,11,13,15,17,-1,19,21,-1,-1,-1,-1,-1,-1,-1,-1,-1,-1,-1],"loss_changes":[8.935882E0,7.4511447E0,1.0350638E1,7.1171083E0,6.550317E0,5.303528E0,1.4896536E-1,1.8553925E-1,3.2966251E0,0E0,6.8805375E0,3.561184E0,0E0,0E0,0E0,0E0,0E0,0E0,0E0,0E0,0E0,0E0,0E0],"parents":[2147483647,0,0,1,1,2,2,3,3,4,4,5,5,6,6,7,7,8,8,10,10,11,11],"right_children":[2,4,6,8,10,12,14,16,18,-1,20,22,-1,-1,-1,-1,-1,-1,-1,-1,-1,-1,-1],"split_conditions":[5.4347E-2,1.3517E-2,5.874057E2,5.3454E-2,1.57779E1,1.09729E1,6.4554E2,1.103E-2,3.3111E0,3.8837478E-2,1.46213E-1,1.40248E-1,-2.2417685E-2,-3.3005487E-2,-1.567842E-2,-3.135229E-2,-1.3431241E-2,1.9990703E-2,-6.248697E-3,-1.1165021E-2,8.651835E-5,2.6068008E-2,-4.6982574E-3],"split_indices":[28,28,14,12,14,11,14,32,39,0,12,6,0,0,0,0,0,0,0,0,0,0,0],"split_type":[0,0,0,0,0,0,0,0,0,0,0,0,0,0,0,0,0,0,0,0,0,0,0],"sum_hessian":[8.2424304E2,7.1303766E2,1.1120538E2,1.0211126E2,6.1092645E2,9.875949E1,1.2445887E1,1.1037703E1,9.1073555E1,8.166594E0,6.027598E2,9.251907E1,6.240418E0,7.1297565E0,5.31613E0,6.017914E0,5.019789E0,7.7430016E1,1.364354E1,2.0549142E2,3.972684E2,8.222967E1,1.0289409E1],"tree_param":{"num_deleted":"0","num_feature":"45","num_nodes":"23","size_leaf_vector":"1"}},{"base_weights":[-3.791265E-3,-5.0524704E-2,2.727593E-1,-1.864708E-1,3.192861E-2,3.9477333E-1,-1.686535E-1,-2.2034286E-1,3.2429814E-2,3.241594E-1,-4.529425E-2,-1.5446524E-1,4.9692577E-1,-4.207688E-1,2.25263E-2,2.719785E-2,-1.2864371E-2,-4.7330274E-3,2.998809E-2,-3.7047663E-3,4.07224E-2,1.706308E-2,-2.5205037E-2,1.3803661E-2,3.7319627E-2,-5.2567758E-3,-2.7602628E-2],"categories":[],"categories_nodes":[],"categories_segments":[],"categories_sizes":[],"default_left":[0,0,0,0,0,0,0,0,0,0,0,0,0,0,0,0,0,0,0,0,0,0,0,0,0,0,0],"id":42,"left_children":[1,3,5,7,9,11,13,15,-1,17,19,21,23,25,-1,-1,-1,-1,-1,-1,-1,-1,-1,-1,-1,-1,-1],"loss_changes":[9.306476E0,6.9099402E0,5.673061E0,6.7243004E0,8.685864E0,4.6692E0,3.8179798E0,6.4749756E0,0E0,9.341415E0,7.6078157E0,2.5290935E0,3.609497E0,6.478429E-1,0E0,0E0,0E0,0E0,0E0,0E0,0E0,0E0,0E0,0E0,0E0,0E0,0E0],"parents":[2147483647,0,0,1,1,2,2,3,3,4,4,5,5,6,6,7,7,9,9,10,10,11,11,12,12,13,13],"right_children":[2,4,6,8,10,12,14,16,-1,18,20,22,24,26,-1,-1,-1,-1,-1,-1,-1,-1,-1,-1,-1,-1,-1],"split_conditions":[4.9065E0,2.6568E-2,6.919106E2,3.5261E-2,1.4798E-1,-3.5038E-2,4.2084E-2,4.7979E-2,3.2429814E-2,2.82031E2,1.0626696E3,4.93941E1,5.602E-1,1.8274E-2,2.25263E-2,2.719785E-2,-1.2864371E-2,-4.7330274E-3,2.998809E-2,-3.7047663E-3,4.07224E-2,1.706308E-2,-2.5205037E-2,1.3803661E-2,3.7319627E-2,-5.2567758E-3,-2.7602628E-2],"split_indices":[39,6,16,4,12,33,1,12,0,15,16,30,19,32,0,0,0,0,0,0,0,0,0,0,0,0,0],"split_type":[0,0,0,0,0,0,0,0,0,0,0,0,0,0,0,0,0,0,0,0,0,0,0,0,0,0,0],"sum_hessian":[7.180174E2,6.14921E2,1.03096344E2,2.3167763E2,3.832434E2,8.0852875E1,2.2243464E1,2.2335406E2,8.323566E0,7.94368E1,3.038066E2,1.2599198E1,6.825368E1,1.603488E1,6.208584E0,9.665842E0,2.1368822E2,3.1787445E1,4.764935E1,2.9484326E2,8.963334E0,5.2208395E0,7.3783593E0,3.7320526E1,3.0933153E1,5.2393136E0,1.0795567E1],"tree_param":{"num_deleted":"0","num_feature":"45","num_nodes":"27","size_leaf_vector":"1"}},{"base_weights":[-1.3083082E-2,4.7127787E-2,-2.2249629E-1,1.0811937E-1,-1.0602164E-1,1.6078861E-1,-2.8024465E-1,3.4532705E-1,5.0350647E-2,-1.6094127E-1,3.3984363E-1,4.515811E-1,-2.1688908E-1,-4.6510231E-1,-1.6694705E-1,4.689546E-3,2.8555507E-2,1.3752191E-2,-1.0612567E-3,-1.0404839E-2,2.5716767E-2,4.117724E-2,-4.76855E-3,-9.472353E-3,4.738E-2,1.9068938E-3,-2.1947993E-2,-2.6075918E-2,-5.5755987E-3,1.0699512E-2,-1.3045725E-2],"categories":[],"categories_nodes":[],"categories_segments":[],"categories_sizes":[],"default_left":[0,0,0,0,0,0,0,0,0,0,0,0,0,0,0,0,0,0,0,0,0,0,0,0,0,0,0,0,0,0,0],"id":43,"left_children":[1,3,5,7,9,11,13,15,17,19,21,23,25,27,29,-1,-1,-1,-1,-1,-1,-1,-1,-1,-1,-1,-1,-1,-1,-1,-1],"loss_changes":[1.0205624E1,5.8852086E0,4.045539E0,6.152038E0,4.4526796E0,2.7668324E0,3.2197094E0,4.944236E0,5.8473163E0,5.220648E0,4.292674E0,4.6482515E0,6.536933E-1,1.1240835E0,3.6057587E0,0E0,0E0,0E0,0E0,0E0,0E0,0E0,0E0,0E0,0E0,0E0,0E0,0E0,0E0,0E0,0E0],"parents":[2147483647,0,0,1,1,2,2,3,3,4,4,5,5,6,6,7,7,8,8,9,9,10,10,11,11,12,12,13,13,14,14],"right_children":[2,4,6,8,10,12,14,16,18,20,22,24,26,28,30,-1,-1,-1,-1,-1,-1,-1,-1,-1,-1,-1,-1,-1,-1,-1,-1],"split_conditions":[1.45156E-1,3.3993E-2,1.9608E-2,2.412671E2,6.977871E2,6.771E-1,2.5534E-1,2.11889E2,2.721E-1,8.38811E-1,3.9602E-2,3.691E-1,1.9983E-2,6.65442E1,5.82174E1,4.689546E-3,2.8555507E-2,1.3752191E-2,-1.0612567E-3,-1.0404839E-2,2.5716767E-2,4.117724E-2,-4.76855E-3,-9.472353E-3,4.738E-2,1.9068938E-3,-2.1947993E-2,-2.6075918E-2,-5.5755987E-3,1.0699512E-2,-1.3045725E-2],"split_indices":[2,6,36,14,15,19,12,15,19,13,6,19,4,34,7,0,0,0,0,0,0,0,0,0,0,0,0,0,0,0,0],"split_type":[0,0,0,0,0,0,0,0,0,0,0,0,0,0,0,0,0,0,0,0,0,0,0,0,0,0,0,0,0,0,0],"sum_hessian":[8.0756354E2,6.278251E2,1.7973846E2,4.492184E2,1.7860667E2,2.3301105E1,1.5643736E2,8.700091E1,3.622175E2,1.5958836E2,1.901832E1,1.3054291E1,1.0246814E1,5.8265522E1,9.817184E1,4.1822968E1,4.5177937E1,8.6821556E1,2.7539594E2,1.4981818E2,9.770179E0,8.584815E0,1.0433506E1,5.9643497E0,7.0899405E0,5.155025E0,5.0917892E0,4.9838734E1,8.426788E0,1.9172127E1,7.899971E1],"tree_param":{"num_deleted":"0","num_feature":"45","num_nodes":"31","size_leaf_vector":"1"}},{"base_weights":[-1.86866E-2,-5.9178468E-2,2.4663146E-1,-1.8343393E-2,-3.59262E-1,3.3461183E-1,-2.9115487E-2,-1.085294E-1,1.0077086E-1,-4.536333E-2,-5.065408E-1,4.2378652E-1,-1.3484137E-1,6.057493E-3,-1.0003135E-2,3.60015E-2,2.57091E-3,-1.3652995E-2,3.1238167E-2,-3.1337526E-2,-2.3766872E-3,1.4683673E-2,4.0084798E-2,2.6755547E-2,-2.8152142E-2],"categories":[],"categories_nodes":[],"categories_segments":[],"categories_sizes":[],"default_left":[0,0,0,0,0,0,0,0,0,0,0,0,0,0,0,0,0,0,0,0,0,0,0,0,0],"id":44,"left_children":[1,3,5,7,9,11,-1,13,15,17,19,21,23,-1,-1,-1,-1,-1,-1,-1,-1,-1,-1,-1,-1],"loss_changes":[8.741486E0,8.639351E0,8.053196E0,6.693874E0,3.8815851E0,4.161731E0,0E0,7.477555E0,8.171332E0,4.4537473E0,3.1367102E0,3.8279123E0,5.0089207E0,0E0,0E0,0E0,0E0,0E0,0E0,0E0,0E0,0E0,0E0,0E0,0E0],"parents":[2147483647,0,0,1,1,2,2,3,3,4,4,5,5,7,7,8,8,9,9,10,10,11,11,12,12],"right_children":[2,4,6,8,10,12,-1,14,16,18,20,22,24,-1,-1,-1,-1,-1,-1,-1,-1,-1,-1,-1,-1],"split_conditions":[5.4347E-2,4.9065E0,5.874057E2,3.6491E-2,1.97426E-1,1.2206E-1,-2.9115487E-2,4.14746E1,1.1481E-2,5.79912E1,3.11596E-1,6.8955E-2,2.362386E2,6.057493E-3,-1.0003135E-2,3.60015E-2,2.57091E-3,-1.3652995E-2,3.1238167E-2,-3.1337526E-2,-2.3766872E-3,1.4683673E-2,4.0084798E-2,2.6755547E-2,-2.8152142E-2],"split_indices":[28,11,14,2,12,6,0,34,32,38,2,6,14,0,0,0,0,0,0,0,0,0,0,0,0],"split_type":[0,0,0,0,0,0,0,0,0,0,0,0,0,0,0,0,0,0,0,0,0,0,0,0,0],"sum_hessian":[8.113157E2,7.045646E2,1.0675111E2,6.211062E2,8.3458405E1,9.704726E1,9.703855E0,3.535265E2,2.6757968E2,2.7070478E1,5.6387924E1,8.163719E1,1.5410065E1,1.0064934E2,2.5287715E2,1.8747942E1,2.4883174E2,2.06474E1,6.4230785E0,4.4395657E1,1.1992269E1,6.2050495E1,1.9586695E1,5.9114695E0,9.498595E0],"tree_param":{"num_deleted":"0","num_feature":"45","num_nodes":"25","size_leaf_vector":"1"}},{"base_weights":[-3.1331964E-2,-8.106254E-2,2.4966535E-1,-2.0209411E-1,-2.1495104E-3,-9.453341E-3,4.431915E-1,-2.4148485E-1,5.0895195E-2,3.4753513E-1,-9.213092E-2,-2.3425725E-1,3.3748153E-1,-1.5925007E-2,5.2712715E-1,3.3819843E-2,-1.3389142E-2,-3.2745767E-3,2.7949056E-2,1.3199571E-2,-7.1889395E-3,-3.8879458E-3,-3.244449E-2,3.0648548E-2,1.5475741E-3,9.5598055E-3,3.8062397E-2],"categories":[],"categories_nodes":[],"categories_segments":[],"categories_sizes":[],"default_left":[0,0,0,0,0,0,0,0,0,0,0,0,0,0,0,0,0,0,0,0,0,0,0,0,0,0,0],"id":45,"left_children":[1,3,5,7,9,11,13,15,-1,17,19,21,23,-1,25,-1,-1,-1,-1,-1,-1,-1,-1,-1,-1,-1,-1],"loss_changes":[1.0047272E1,5.8294907E0,5.426987E0,1.1822613E1,1.168992E1,3.761364E0,4.1270084E0,5.8336906E0,0E0,6.6770496E0,5.472456E0,1.8468971E0,1.5832889E0,0E0,4.2710295E0,0E0,0E0,0E0,0E0,0E0,0E0,0E0,0E0,0E0,0E0,0E0,0E0],"parents":[2147483647,0,0,1,1,2,2,3,3,4,4,5,5,6,6,7,7,9,9,10,10,11,11,12,12,14,14],"right_children":[2,4,6,8,10,12,14,16,-1,18,20,22,24,-1,26,-1,-1,-1,-1,-1,-1,-1,-1,-1,-1,-1,-1],"split_conditions":[4.9065E0,2.6788E-2,-8.406E-3,8.8545E2,1.4798E-1,7.023E-3,4.48222E1,4.0217E-2,5.0895195E-2,2.82031E2,-7.4207E0,9.5184E0,-1.2603E-2,-1.5925007E-2,4.301072E2,3.3819843E-2,-1.3389142E-2,-3.2745767E-3,2.7949056E-2,1.3199571E-2,-7.1889395E-3,-3.8879458E-3,-3.244449E-2,3.0648548E-2,1.5475741E-3,9.5598055E-3,3.8062397E-2],"split_indices":[39,6,25,15,12,0,38,12,0,15,43,39,29,0,16,0,0,0,0,0,0,0,0,0,0,0,0],"split_type":[0,0,0,0,0,0,0,0,0,0,0,0,0,0,0,0,0,0,0,0,0,0,0,0,0,0,0],"sum_hessian":[7.165412E2,6.0940155E2,1.07139656E2,2.3989917E2,3.6950238E2,4.6213707E1,6.0925945E1,2.3317265E2,6.7265134E0,7.503602E1,2.9446637E2,2.8239862E1,1.7973846E1,5.7700315E0,5.5155914E1,5.8059635E0,2.273667E2,2.5640865E1,4.9395153E1,3.6776142E1,2.5769022E2,2.1363855E1,6.8760076E0,8.939706E0,9.03414E0,2.3398684E1,3.175723E1],"tree_param":{"num_deleted":"0","num_feature":"45","num_nodes":"27","size_leaf_vector":"1"}},{"base_weights":[-7.7100517E-3,1.6179343E-1,-7.1966656E-2,4.76284E-1,1.7698966E-2,-4.2923397E-1,-4.110868E-2,5.753362E-1,-1.8695587E-2,-2.7418333E-1,1.2332708E-1,-5.6031704E-1,-2.2848539E-2,1.06331535E-1,-1.3146432E-1,-4.402441E-3,3.4601104E-2,-2.271832E-2,2.1667687E-2,4.681863E-2,2.8204438E-3,-7.966782E-3,-3.3639077E-2,-2.0770617E-2,2.1306016E-2,-8.7075477E-4,2.407286E-2,-2.0686923E-2,-4.4356016E-3],"categories":[],"categories_nodes":[],"categories_segments":[],"categories_sizes":[],"default_left":[0,0,0,0,0,0,0,0,0,0,0,0,0,0,0,0,0,0,0,0,0,0,0,0,0,0,0,0,0],"id":46,"left_children":[1,3,5,7,9,11,13,15,-1,17,19,21,23,25,27,-1,-1,-1,-1,-1,-1,-1,-1,-1,-1,-1,-1,-1,-1],"loss_changes":[8.720395E0,9.965578E0,6.3818626E0,6.0359316E0,4.7194443E0,2.440032E0,7.1470485E0,4.883486E0,0E0,5.384883E0,6.05625E0,1.4609165E0,2.3400202E0,9.478272E0,3.975028E0,0E0,0E0,0E0,0E0,0E0,0E0,0E0,0E0,0E0,0E0,0E0,0E0,0E0,0E0],"parents":[2147483647,0,0,1,1,2,2,3,3,4,4,5,5,6,6,7,7,9,9,10,10,11,11,12,12,13,13,14,14],"right_children":[2,4,6,8,10,12,14,16,-1,18,20,22,24,26,28,-1,-1,-1,-1,-1,-1,-1,-1,-1,-1,-1,-1,-1,-1],"split_conditions":[2.2548E-2,-1.0804E0,1.4699E-2,6.626629E2,1.6973E-2,2.60145E1,1.88842E-1,1.2834E-2,-1.8695587E-2,6.46096E1,9.467E-3,2.642532E2,2.5689E-2,5.930129E2,4.686E-1,-4.402441E-3,3.4601104E-2,-2.271832E-2,2.1667687E-2,4.681863E-2,2.8204438E-3,-7.966782E-3,-3.3639077E-2,-2.0770617E-2,2.1306016E-2,-8.7075477E-4,2.407286E-2,-2.0686923E-2,-4.4356016E-3],"split_indices":[6,10,28,14,6,20,12,6,0,42,44,16,6,14,18,0,0,0,0,0,0,0,0,0,0,0,0,0,0],"split_type":[0,0,0,0,0,0,0,0,0,0,0,0,0,0,0,0,0,0,0,0,0,0,0,0,0,0,0,0,0],"sum_hessian":[7.9857556E2,2.1909735E2,5.794782E2,6.811938E1,1.5097798E2,4.5045113E1,5.344331E2,6.1300804E1,6.8185725E0,3.9694466E1,1.1128351E2,3.377267E1,1.1272441E1,2.0300214E2,3.3143097E2,9.206308E0,5.2094498E1,3.192276E1,7.7717047E0,7.47467E0,1.0380884E2,7.9268866E0,2.5845783E1,6.0538726E0,5.2185683E0,1.5336394E2,4.96382E1,4.2453297E1,2.889777E2],"tree_param":{"num_deleted":"0","num_feature":"45","num_nodes":"29","size_leaf_vector":"1"}},{"base_weights":[4.4526267E-3,-2.7047751E-2,2.6463804E-1,8.0663525E-4,-3.463628E-1,4.0917778E-1,-2.3225383E-1,-8.596386E-2,1.3481694E-1,5.1672567E-2,-4.986346E-1,5.060913E-1,-1.0461711E-2,2.174431E-2,-5.621541E-1,6.2570474E-3,-6.9853403E-3,3.2061886E-2,4.571247E-3,-1.4153684E-2,2.689151E-2,5.198579E-4,-3.233778E-2,-2.7284434E-3,3.0119551E-2,-3.7969798E-2,-8.533452E-3],"categories":[],"categories_nodes":[],"categories_segments":[],"categories_sizes":[],"default_left":[0,0,0,0,0,0,0,0,0,0,0,0,0,0,0,0,0,0,0,0,0,0,0,0,0,0,0],"id":47,"left_children":[1,3,5,7,9,11,13,15,17,19,21,23,-1,-1,25,-1,-1,-1,-1,-1,-1,-1,-1,-1,-1,-1,-1],"loss_changes":[6.75253E0,6.5379677E0,6.485163E0,7.8845825E0,3.600317E0,4.2583923E0,4.7974973E0,4.686988E0,5.797316E0,2.9554563E0,3.2301178E0,3.282714E0,0E0,0E0,9.7292995E-1,0E0,0E0,0E0,0E0,0E0,0E0,0E0,0E0,0E0,0E0,0E0,0E0],"parents":[2147483647,0,0,1,1,2,2,3,3,4,4,5,5,6,6,7,7,8,8,9,9,10,10,11,11,14,14],"right_children":[2,4,6,8,10,12,14,16,18,20,22,24,-1,-1,26,-1,-1,-1,-1,-1,-1,-1,-1,-1,-1,-1,-1],"split_conditions":[6.0375E-2,6.1603E0,1.2206E-1,5.8221E-2,4.23639E2,5.517971E2,2.378371E2,4.04664E1,-6.3711E-2,7.5798E0,5.8913E1,5.1864E-2,-1.0461711E-2,2.174431E-2,5.072E0,6.2570474E-3,-6.9853403E-3,3.2061886E-2,4.571247E-3,-1.4153684E-2,2.689151E-2,5.198579E-4,-3.233778E-2,-2.7284434E-3,3.0119551E-2,-3.7969798E-2,-8.533452E-3],"split_indices":[5,11,6,2,15,15,14,42,1,27,8,6,0,0,11,0,0,0,0,0,0,0,0,0,0,0,0],"split_type":[0,0,0,0,0,0,0,0,0,0,0,0,0,0,0,0,0,0,0,0,0,0,0,0,0,0,0],"sum_hessian":[8.220139E2,7.340404E2,8.7973465E1,6.760637E2,5.7976696E1,6.828633E1,1.968713E1,4.1057718E2,2.6548657E2,1.6225147E1,4.175155E1,5.9191807E1,9.094527E0,6.408772E0,1.3278358E1,8.304479E1,3.2753238E2,1.9865223E1,2.4562134E2,9.856286E0,6.368862E0,9.620296E0,3.2131252E1,8.740085E0,5.045172E1,8.204769E0,5.07359E0],"tree_param":{"num_deleted":"0","num_feature":"45","num_nodes":"27","size_leaf_vector":"1"}},{"base_weights":[1.8467216E-3,-3.2234368E-1,3.463213E-2,2.2642663E-2,-4.1489258E-1,-5.281502E-2,1.5139374E-1,1.0017694E-2,-4.7743666E-1,-3.506695E-1,3.629378E-2,5.923691E-1,5.574811E-2,-2.8461097E-2,1.2542246E-3,3.6967366E-3,-2.200301E-2,7.3401555E-3,-1.3512154E-2,-2.4467711E-3,3.726205E-2,8.494287E-5,3.4782846E-2],"categories":[],"categories_nodes":[],"categories_segments":[],"categories_sizes":[],"default_left":[0,0,0,0,0,0,0,0,0,0,0,0,0,0,0,0,0,0,0,0,0,0,0],"id":48,"left_children":[1,3,5,-1,7,9,11,-1,13,15,17,19,21,-1,-1,-1,-1,-1,-1,-1,-1,-1,-1],"loss_changes":[7.711967E0,4.968826E0,6.735563E0,0E0,2.4065237E0,1.0031546E1,1.1878325E1,0E0,2.5422354E0,3.3353767E0,9.912925E0,4.9611015E0,8.063678E0,0E0,0E0,0E0,0E0,0E0,0E0,0E0,0E0,0E0,0E0],"parents":[2147483647,0,0,1,1,2,2,4,4,5,5,6,6,8,8,9,9,10,10,11,11,12,12],"right_children":[2,4,6,-1,8,10,12,-1,14,16,18,20,22,-1,-1,-1,-1,-1,-1,-1,-1,-1,-1],"split_conditions":[1.2681E-2,5.0867E0,6.37054E-1,2.2642663E-2,5.3454E-2,2.757071E2,7.93E-2,1.0017694E-2,2.3716E-2,1.7809E-2,2.8997E0,2.5888E-2,4.45814E1,-2.8461097E-2,1.2542246E-3,3.6967366E-3,-2.200301E-2,7.3401555E-3,-1.3512154E-2,-2.4467711E-3,3.726205E-2,8.494287E-5,3.4782846E-2],"split_indices":[32,20,13,0,12,14,11,0,5,40,9,6,9,0,0,0,0,0,0,0,0,0,0],"split_type":[0,0,0,0,0,0,0,0,0,0,0,0,0,0,0,0,0,0,0,0,0,0,0],"sum_hessian":[7.235282E2,6.563921E1,6.57889E2,6.585493E0,5.905372E1,3.764781E2,2.814109E2,5.2459426E0,5.3807777E1,8.601837E1,2.9045972E2,4.9232147E1,2.3217876E2,4.5385418E1,8.4223585E0,1.4989834E1,7.1028534E1,2.1387642E2,7.658331E1,9.607626E0,3.962452E1,2.1501996E2,1.7158789E1],"tree_param":{"num_deleted":"0","num_feature":"45","num_nodes":"23","size_leaf_vector":"1"}},{"base_weights":[-2.747965E-3,9.126976E-2,-1.4825211E-1,2.0917144E-1,-6.7247334E-3,1.636587E-1,-2.1753721E-1,2.302441E-1,-2.60501E-2,-9.1319144E-2,2.164576E-1,-1.451296E-1,4.4014207E-1,-2.5027665E-1,1.856983E-1,2.6315782E-2,8.506048E-3,-2.929545E-2,-1.5638996E-3,3.5674018E-3,3.747154E-2,7.455274E-3,-2.5073811E-2,3.5166916E-2,-2.3883786E-2,-2.0111315E-2,-8.595279E-3,3.183343E-2,-1.3748579E-2],"categories":[],"categories_nodes":[],"categories_segments":[],"categories_sizes":[],"default_left":[0,0,0,0,0,0,0,0,0,0,0,0,0,0,0,0,0,0,0,0,0,0,0,0,0,0,0,0,0],"id":49,"left_children":[1,3,5,7,9,11,13,15,-1,17,19,21,23,25,27,-1,-1,-1,-1,