{"learner":{"attributes":{"scikit_learn":"{\"_estimator_type\": \"classifier\"}"},"feature_names":[],"feature_types":[],"gradient_booster":{"model":{"cats":{"enc":[],"feature_segments":[],"sorted_idx":[]},"gbtree_model_param":{"num_parallel_tree":"1","num_trees":"300"},"iteration_indptr":[0,1,2,3,4,5,6,7,8,9,10,11,12,13,14,15,16,17,18,19,20,21,22,23,24,25,26,27,28,29,30,31,32,33,34,35,36,37,38,39,40,41,42,43,44,45,46,47,48,49,50,51,52,53,54,55,56,57,58,59,60,61,62,63,64,65,66,67,68,69,70,71,72,73,74,75,76,77,78,79,80,81,82,83,84,85,86,87,88,89,90,91,92,93,94,95,96,97,98,99,100,101,102,103,104,105,106,107,108,109,110,111,112,113,114,115,116,117,118,119,120,121,122,123,124,125,126,127,128,129,130,131,132,133,134,135,136,137,138,139,140,141,142,143,144,145,146,147,148,149,150,151,152,153,154,155,156,157,158,159,160,161,162,163,164,165,166,167,168,169,170,171,172,173,174,175,176,177,178,179,180,181,182,183,184,185,186,187,188,189,190,191,192,193,194,195,196,197,198,199,200,201,202,203,204,205,206,207,208,209,210,211,212,213,214,215,216,217,218,219,220,221,222,223,224,225,226,227,228,229,230,231,232,233,234,235,236,237,238,239,240,241,242,243,244,245,246,247,248,249,250,251,252,253,254,255,256,257,258,259,260,261,262,263,264,265,266,267,268,269,270,271,272,273,274,275,276,277,278,279,280,281,282,283,284,285,286,287,288,289,290,291,292,293,294,295,296,297,298,299,300],"tree_info":[0,0,0,0,0,0,0,0,0,0,0,0,0,0,0,0,0,0,0,0,0,0,0,0,0,0,0,0,0,0,0,0,0,0,0,0,0,0,0,0,0,0,0,0,0,0,0,0,0,0,0,0,0,0,0,0,0,0,0,0,0,0,0,0,0,0,0,0,0,0,0,0,0,0,0,0,0,0,0,0,0,0,0,0,0,0,0,0,0,0,0,0,0,0,0,0,0,0,0,0,0,0,0,0,0,0,0,0,0,0,0,0,0,0,0,0,0,0,0,0,0,0,0,0,0,0,0,0,0,0,0,0,0,0,0,0,0,0,0,0,0,0,0,0,0,0,0,0,0,0,0,0,0,0,0,0,0,0,0,0,0,0,0,0,0,0,0,0,0,0,0,0,0,0,0,0,0,0,0,0,0,0,0,0,0,0,0,0,0,0,0,0,0,0,0,0,0,0,0,0,0,0,0,0,0,0,0,0,0,0,0,0,0,0,0,0,0,0,0,0,0,0,0,0,0,0,0,0,0,0,0,0,0,0,0,0,0,0,0,0,0,0,0,0,0,0,0,0,0,0,0,0,0,0,0,0,0,0,0,0,0,0,0,0,0,0,0,0,0,0,0,0,0,0,0,0,0,0,0,0,0,0,0,0,0,0,0,0,0,0,0,0,0,0,0,0,0,0,0,0],"trees":[{"base_weights":[-2.1661727E-3,7.34946E-2,-4.1627027E-2,-1.2138006E-1,6.0242975E-1,1.1029838E0,-1.572986E-1,8.238449E-1,-3.4819897E-2,7.079274E-2,3.065036E-2,2.8570355E-3,-1.781702E-2,7.7673267E-3,5.360805E-2],"categories":[],"categories_nodes":[],"categories_segments":[],"categories_sizes":[],"default_left":[0,0,0,0,0,0,0,0,0,0,0,0,0,0,0],"id":0,"left_children":[1,-1,3,5,7,9,11,13,-1,-1,-1,-1,-1,-1,-1],"loss_changes":[2.6597088E1,0E0,2.2975122E1,1.7657501E1,1.475005E1,8.882189E-1,1.654326E1,6.900627E0,0E0,0E0,0E0,0E0,0E0,0E0,0E0],"parents":[2147483647,0,0,2,2,3,3,4,4,5,5,6,6,7,7],"right_children":[2,-1,4,6,8,10,12,14,-1,-1,-1,-1,-1,-1,-1],"split_conditions":[3.415991E2,7.34946E-2,7.04186E1,8.758901E3,7.936873E2,4.54672E1,-5.46E-3,2.0624E-2,-3.4819897E-2,7.079274E-2,3.065036E-2,2.8570355E-3,-1.781702E-2,7.7673267E-3,5.360805E-2],"split_indices":[20,0,7,15,43,11,1,5,0,0,0,0,0,0,0],"split_type":[0,0,0,0,0,0,0,0,0,0,0,0,0,0,0],"sum_hessian":[4.5581717E2,1.0953553E1,4.4486362E2,3.9656842E2,4.829521E1,1.0455665E1,3.8611273E2,4.157371E1,6.7214985E0,5.2278323E0,5.2278323E0,1.862104E2,1.9990234E2,1.1700386E1,2.9873327E1],"tree_param":{"num_deleted":"0","num_feature":"45","num_nodes":"15","size_leaf_vector":"1"}},{"base_weights":[1.3737785E-2,-9.637078E-2,4.4733363E-1,1.1056648E0,-1.404498E-1,1.3606374E0,2.8749636E-1,3.2315433E-2,7.174702E-2,1.2849477E-1,-2.8226903E-1,4.2427868E-2,8.151432E-2,5.448221E-1,-7.961155E-1,4.5751538E-2,-3.1458803E-3,-4.517549E-3,-3.519798E-2,-8.898239E-3,4.1211825E-2,-8.668731E-3,-7.287709E-2],"categories":[],"categories_nodes":[],"categories_segments":[],"categories_sizes":[],"default_left":[0,0,0,0,0,0,0,0,0,0,0,0,0,0,0,0,0,0,0,0,0,0,0],"id":1,"left_children":[1,3,5,7,9,11,13,-1,-1,15,17,-1,-1,19,21,-1,-1,-1,-1,-1,-1,-1,-1],"loss_changes":[2.1696283E1,1.9362919E1,1.3042786E1,1.029211E0,1.3407832E1,4.722576E-1,2.2625957E1,0E0,0E0,1.8383858E1,1.8538239E1,0E0,0E0,1.3255352E1,6.205472E0,0E0,0E0,0E0,0E0,0E0,0E0,0E0,0E0],"parents":[2147483647,0,0,1,1,2,2,3,3,4,4,5,5,6,6,9,9,10,10,13,13,14,14],"right_children":[2,4,6,8,10,12,14,-1,-1,16,18,-1,-1,20,22,-1,-1,-1,-1,-1,-1,-1,-1],"split_conditions":[1.86635E-1,8.408E-3,5.75192E1,8.96E-4,4.41731E1,3.528E-2,4.122E-2,3.2315433E-2,7.174702E-2,9.189444E2,2.8232837E3,4.2427868E-2,8.151432E-2,1.1419E0,4.7066E-2,4.5751538E-2,-3.1458803E-3,-4.517549E-3,-3.519798E-2,-8.898239E-3,4.1211825E-2,-8.668731E-3,-7.287709E-2],"split_indices":[2,32,26,25,7,44,40,0,0,20,20,0,0,39,36,0,0,0,0,0,0,0,0],"split_type":[0,0,0,0,0,0,0,0,0,0,0,0,0,0,0,0,0,0,0,0,0,0,0],"sum_hessian":[4.5253967E2,3.6151364E2,9.1026054E1,1.1935969E1,3.4957767E2,1.2438771E1,7.858729E1,6.2206554E0,5.715314E0,1.2072669E2,2.2885097E2,5.721046E0,6.7177253E0,6.39082E1,1.467909E1,2.288972E1,9.783697E1,1.5810783E2,7.074313E1,1.7918873E1,4.5989323E1,8.210718E0,6.468371E0],"tree_param":{"num_deleted":"0","num_feature":"45","num_nodes":"23","size_leaf_vector":"1"}},{"base_weights":[6.862555E-3,-1.0384005E-1,5.2624714E-1,-2.4830945E-2,-7.6966304E-1,7.267324E-1,-2.1369357E-1,7.196769E-2,-5.9140787E-2,-1.0068274E0,2.3768632E-2,4.2424332E-2,1.0813984E0,6.367249E-1,-8.88201E-2,-5.513505E-2,-6.699964E-4,-1.8225408E-3,-6.487709E-2,4.0631916E-2,-4.7836438E-2,6.460693E-2,1.7944958E-2,5.7448424E-2,-1.9104847E-3],"categories":[],"categories_nodes":[],"categories_segments":[],"categories_sizes":[],"default_left":[0,0,0,0,0,0,0,0,0,0,0,0,0,0,0,0,0,0,0,0,0,0,0,0,0],"id":2,"left_children":[1,3,5,7,9,11,13,-1,15,17,-1,19,21,23,-1,-1,-1,-1,-1,-1,-1,-1,-1,-1,-1],"loss_changes":[2.5909689E1,1.9524292E1,1.18999405E1,1.682023E1,1.2105055E1,1.5127605E1,2.458804E1,0E0,1.55684E1,9.373516E0,0E0,1.8002214E1,5.799721E0,4.2502265E0,0E0,0E0,0E0,0E0,0E0,0E0,0E0,0E0,0E0,0E0,0E0],"parents":[2147483647,0,0,1,1,2,2,3,3,4,4,5,5,6,6,8,8,9,9,11,11,12,12,13,13],"right_children":[2,4,6,8,10,12,14,-1,16,18,-1,20,22,24,-1,-1,-1,-1,-1,-1,-1,-1,-1,-1,-1],"split_conditions":[2.15293E-1,5.418748E2,4.1482E-2,7.433E-3,1.22714E-1,3.57247E1,3.1294607E3,7.196769E-2,6.7946E-2,-1.4284027E3,2.3768632E-2,-7.63054E1,6.029884E2,8.107E-3,-8.88201E-2,-5.513505E-2,-6.699964E-4,-1.8225408E-3,-6.487709E-2,4.0631916E-2,-4.7836438E-2,6.460693E-2,1.7944958E-2,5.7448424E-2,-1.9104847E-3],"split_indices":[2,43,44,32,2,35,10,0,12,10,0,11,27,33,0,0,0,0,0,0,0,0,0,0,0],"split_type":[0,0,0,0,0,0,0,0,0,0,0,0,0,0,0,0,0,0,0,0,0,0,0,0,0],"sum_hessian":[4.486746E2,3.705046E2,7.816998E1,3.3213007E2,3.8374535E1,6.1519314E1,1.6650665E1,6.666881E0,3.254632E2,3.2395E1,5.979532E0,2.1382536E1,4.013678E1,1.1166474E1,5.4841914E0,1.269622E1,3.1276697E2,7.7273264E0,2.4667677E1,1.2180029E1,9.202507E0,3.0462873E1,9.673907E0,5.9490705E0,5.217404E0],"tree_param":{"num_deleted":"0","num_feature":"45","num_nodes":"25","size_leaf_vector":"1"}},{"base_weights":[-2.610209E-3,-1.2129334E-1,4.718729E-1,4.9590805E-1,-2.1230593E-1,1.2210928E0,3.2242596E-1,-4.1936114E-2,7.6172E-1,-1.8317269E-1,-8.0431126E-2,8.013236E-2,2.8834403E-2,-4.5570517E-1,6.750982E-1,5.254048E-2,1.9753215E-4,6.082052E-2,-1.0515208E-2,6.776621E-3,-6.323855E-2,4.7576647E-2,-3.7839196E-3],"categories":[],"categories_nodes":[],"categories_segments":[],"categories_sizes":[],"default_left":[0,0,0,0,0,0,0,0,0,0,0,0,0,0,0,0,0,0,0,0,0,0,0],"id":3,"left_children":[1,3,5,7,9,11,13,-1,15,17,-1,-1,-1,19,21,-1,-1,-1,-1,-1,-1,-1,-1],"loss_changes":[2.6105925E1,2.093491E1,9.992174E0,1.7650625E1,1.2879669E1,2.7802753E0,2.1902306E1,0E0,8.870649E0,1.2345144E1,0E0,0E0,0E0,1.2196571E1,1.1393711E1,0E0,0E0,0E0,0E0,0E0,0E0,0E0,0E0],"parents":[2147483647,0,0,1,1,2,2,3,3,4,4,5,5,6,6,8,8,9,9,13,13,14,14],"right_children":[2,4,6,8,10,12,14,-1,16,18,-1,-1,-1,20,22,-1,-1,-1,-1,-1,-1,-1,-1],"split_conditions":[1.86635E-1,1.2069E-2,5.75192E1,9.364E-3,2.7398357E3,-1.480685E2,1.88478E1,-4.1936114E-2,5.66101E1,-3.49593E-1,-8.0431126E-2,8.013236E-2,2.8834403E-2,-8.19302E1,3.5857E-2,5.254048E-2,1.9753215E-4,6.082052E-2,-1.0515208E-2,6.776621E-3,-6.323855E-2,4.7576647E-2,-3.7839196E-3],"split_indices":[2,28,7,5,10,27,35,0,7,2,0,0,0,35,6,0,0,0,0,0,0,0,0],"split_type":[0,0,0,0,0,0,0,0,0,0,0,0,0,0,0,0,0,0,0,0,0,0,0],"sum_hessian":[4.6156854E2,3.6981146E2,9.1757095E1,4.695276E1,3.228587E2,1.4066585E1,7.769051E1,7.440252E0,3.951251E1,3.173682E2,5.4905E0,7.901222E0,6.1653624E0,2.4138815E1,5.3551697E1,2.8321224E1,1.1191285E1,5.2017384E0,3.1216644E2,1.442789E1,9.710925E0,3.894486E1,1.4606837E1],"tree_param":{"num_deleted":"0","num_feature":"45","num_nodes":"23","size_leaf_vector":"1"}},{"base_weights":[1.6524995E-2,4.8631858E-2,-6.610972E-2,-3.1907752E-2,5.672941E-1,1.224112E0,-7.1263276E-2,9.871875E-1,9.768825E-2,7.6409295E-2,3.4874294E-2,5.851766E-2,-5.388668E-3,6.1829936E-2,-9.19731E-3,3.0187432E-2,-3.791012E-2],"categories":[],"categories_nodes":[],"categories_segments":[],"categories_sizes":[],"default_left":[0,0,0,0,0,0,0,0,0,0,0,0,0,0,0,0,0],"id":4,"left_children":[1,3,-1,5,7,9,11,13,15,-1,-1,-1,-1,-1,-1,-1,-1],"loss_changes":[1.9699314E1,1.8694067E1,0E0,1.9263489E1,1.1763504E1,8.302746E-1,1.7220474E1,9.470526E0,1.3236168E1,0E0,0E0,0E0,0E0,0E0,0E0,0E0,0E0],"parents":[2147483647,0,0,1,1,3,3,4,4,5,5,6,6,7,7,8,8],"right_children":[2,4,-1,6,8,10,12,14,16,-1,-1,-1,-1,-1,-1,-1,-1],"split_conditions":[1.15871555E5,6.82195E1,-6.610972E-2,8.758901E3,3.534153E4,2.703E-3,3.415991E2,3.9115E-2,7.49494E1,7.6409295E-2,3.4874294E-2,5.851766E-2,-5.388668E-3,6.1829936E-2,-9.19731E-3,3.0187432E-2,-3.791012E-2],"split_indices":[14,26,0,15,14,37,20,36,7,0,0,0,0,0,0,0,0],"split_type":[0,0,0,0,0,0,0,0,0,0,0,0,0,0,0,0,0],"sum_hessian":[4.5581866E2,4.460838E2,9.734873E0,3.8693735E2,5.9146442E1,1.0841155E1,3.760962E2,3.0644135E1,2.8502308E1,5.6671195E0,5.174036E0,9.856192E0,3.6624E2,2.5217726E1,5.426408E0,1.8096832E1,1.0405475E1],"tree_param":{"num_deleted":"0","num_feature":"45","num_nodes":"17","size_leaf_vector":"1"}},{"base_weights":[1.0634591E-2,-9.349686E-2,4.9524853E-1,6.254624E-2,-1.1885251E-1,9.75664E-1,1.6498995E-1,2.9877803E-1,-1.9750707E-1,1.1304955E0,1.6894614E-2,3.4115836E-1,-5.613934E-2,5.325616E-2,-4.176808E-3,5.7884652E-2,-1.1467693E-2,2.6009714E-2,6.5135814E-2,3.401723E-2,-1.3052794E-2],"categories":[],"categories_nodes":[],"categories_segments":[],"categories_sizes":[],"default_left":[0,0,0,0,0,0,0,0,0,0,0,0,0,0,0,0,0,0,0,0,0],"id":5,"left_children":[1,3,5,-1,7,9,11,13,15,17,-1,19,-1,-1,-1,-1,-1,-1,-1,-1,-1],"loss_changes":[2.3348406E1,1.3134098E1,1.2822365E1,0E0,1.2370397E1,2.8898335E0,1.1657656E1,1.7608742E1,1.3903471E1,2.0797462E0,0E0,9.26399E0,0E0,0E0,0E0,0E0,0E0,0E0,0E0,0E0,0E0],"parents":[2147483647,0,0,1,1,2,2,4,4,5,5,6,6,7,7,8,8,9,9,11,11],"right_children":[2,4,6,-1,8,10,12,14,16,18,-1,20,-1,-1,-1,-1,-1,-1,-1,-1,-1],"split_conditions":[2.15293E-1,-3.49593E-1,-1.232E-3,6.254624E-2,1.307E-2,4.3327E-2,4.7066E-2,2.7094186E4,8.341714E3,2.7881E1,1.6894614E-2,3.76502E-1,-5.613934E-2,5.325616E-2,-4.176808E-3,5.7884652E-2,-1.1467693E-2,2.6009714E-2,6.5135814E-2,3.401723E-2,-1.3052794E-2],"split_indices":[2,2,29,0,4,44,36,16,16,39,0,2,0,0,0,0,0,0,0,0,0],"split_type":[0,0,0,0,0,0,0,0,0,0,0,0,0,0,0,0,0,0,0,0,0],"sum_hessian":[4.6076105E2,3.799305E2,8.083053E1,6.1380906E0,3.7379242E2,3.213322E1,4.8697304E1,5.8797565E1,3.1499484E2,2.5234484E1,6.898736E0,4.3483784E1,5.2135205E0,1.8975454E1,3.982211E1,6.42064E0,3.0857422E2,6.4385605E0,1.8795923E1,2.7733599E1,1.5750186E1],"tree_param":{"num_deleted":"0","num_feature":"45","num_nodes":"21","size_leaf_vector":"1"}},{"base_weights":[-1.792901E-2,-1.13938466E-1,4.5461056E-1,9.411211E-1,-1.4958411E-1,7.0964617E-1,-5.2010685E-1,1.8497463E-2,6.452703E-2,-1.1173935E0,-1.1179318E-1,2.3340406E-1,1.0371846E0,1.0748152E-2,-8.474985E-2,-2.2519363E-2,-8.698629E-2,-2.195088E-3,-3.391077E-2,4.6857737E-2,-1.3993922E-2,6.055233E-2,1.2669161E-2],"categories":[],"categories_nodes":[],"categories_segments":[],"categories_sizes":[],"default_left":[0,0,0,0,0,0,0,0,0,0,0,0,0,0,0,0,0,0,0,0,0,0,0],"id":6,"left_children":[1,3,5,7,9,11,13,-1,-1,15,17,19,21,-1,-1,-1,-1,-1,-1,-1,-1,-1,-1],"loss_changes":[2.0723236E1,1.4412893E1,1.9545788E1,2.025179E0,1.3332803E1,9.361626E0,1.467939E1,0E0,0E0,4.9102573E0,1.3630964E1,9.790922E0,4.6246376E0,0E0,0E0,0E0,0E0,0E0,0E0,0E0,0E0,0E0,0E0],"parents":[2147483647,0,0,1,1,2,2,3,3,4,4,5,5,6,6,9,9,10,10,11,11,12,12],"right_children":[2,4,6,8,10,12,14,-1,-1,16,18,20,22,-1,-1,-1,-1,-1,-1,-1,-1,-1,-1],"split_conditions":[2.15293E-1,8.143E-3,4.122E-2,-2.0244E-2,6.7946E-2,8.39535E1,3.1294607E3,1.8497463E-2,6.452703E-2,1.5736E-2,5.563389E2,-9.77545E1,3.6519E-2,1.0748152E-2,-8.474985E-2,-2.2519363E-2,-8.698629E-2,-2.195088E-3,-3.391077E-2,4.6857737E-2,-1.3993922E-2,6.055233E-2,1.2669161E-2],"split_indices":[2,36,44,2,12,39,10,0,0,6,43,11,6,0,0,0,0,0,0,0,0,0,0],"split_type":[0,0,0,0,0,0,0,0,0,0,0,0,0,0,0,0,0,0,0,0,0,0,0],"sum_hessian":[4.546365E2,3.784939E2,7.61426E1,1.1539495E1,3.669544E2,6.0567116E1,1.5575488E1,5.1613483E0,6.378147E0,1.2716731E1,3.5423767E2,2.537882E1,3.5188293E1,1.0083674E1,5.491814E0,6.970049E0,5.7466826E0,3.1728534E2,3.6952347E1,1.0355208E1,1.5023612E1,2.8353792E1,6.8345013E0],"tree_param":{"num_deleted":"0","num_feature":"45","num_nodes":"23","size_leaf_vector":"1"}},{"base_weights":[3.254466E-2,-6.45774E-1,8.653918E-2,-9.236026E-1,3.7245344E-2,1.1606807E-1,-5.318662E-2,5.032416E-4,-1.3843678E0,5.864966E-1,3.784581E-2,-8.1477E-2,-3.0673204E-2,-2.7750527E-2,3.715346E-2,-1.2401133E-2,1.2201173E-2],"categories":[],"categories_nodes":[],"categories_segments":[],"categories_sizes":[],"default_left":[0,0,0,0,0,0,0,0,0,0,0,0,0,0,0,0,0],"id":7,"left_children":[1,3,5,7,-1,9,-1,-1,11,13,15,-1,-1,-1,-1,-1,-1],"loss_changes":[1.6840036E1,1.3788546E1,1.4571263E1,1.2363815E1,0E0,1.5271524E1,0E0,0E0,2.6346283E0,1.0990616E1,2.112717E1,0E0,0E0,0E0,0E0,0E0,0E0],"parents":[2147483647,0,0,1,1,2,2,3,3,5,5,8,8,9,9,10,10],"right_children":[2,4,6,8,-1,10,-1,-1,12,14,16,-1,-1,-1,-1,-1,-1],"split_conditions":[-7.433642E2,5.1118E-2,1.15871555E5,2.94789E-1,3.7245344E-2,1.2952E-2,-5.318662E-2,5.032416E-4,2.8726E-2,-1.1912E-2,1.5307E-1,-8.1477E-2,-3.0673204E-2,-2.7750527E-2,3.715346E-2,-1.2401133E-2,1.2201173E-2],"split_indices":[43,6,14,13,0,32,0,0,4,41,12,0,0,0,0,0,0],"split_type":[0,0,0,0,0,0,0,0,0,0,0,0,0,0,0,0,0],"sum_hessian":[4.5726422E2,3.2906662E1,4.2435754E2,2.770721E1,5.1994505E0,4.1461304E2,9.744534E0,9.478565E0,1.8228647E1,5.818582E1,3.5642722E2,1.2985148E1,5.2434983E0,6.7113495E0,5.1474472E1,1.4926544E2,2.0716177E2],"tree_param":{"num_deleted":"0","num_feature":"45","num_nodes":"17","size_leaf_vector":"1"}},{"base_weights":[-1.6830288E-2,1.06699485E-2,-5.9212606E-2,-2.7881954E-2,7.7592653E-1,-5.202433E-2,5.0441958E-2,1.1004746E0,1.5169125E-3,-1.2032762E-2,5.045965E-3,7.30227E-2,2.7659243E-2],"categories":[],"categories_nodes":[],"categories_segments":[],"categories_sizes":[],"default_left":[0,0,0,0,0,0,0,0,0,0,0,0,0],"id":8,"left_children":[1,3,-1,5,7,9,-1,11,-1,-1,-1,-1,-1],"loss_changes":[1.4628304E1,1.3172738E1,0E0,1.069863E1,5.1484585E0,1.2043878E1,0E0,2.1259346E0,0E0,0E0,0E0,0E0,0E0],"parents":[2147483647,0,0,1,1,3,3,4,4,5,5,7,7],"right_children":[2,4,-1,6,8,10,-1,12,-1,-1,-1,-1,-1],"split_conditions":[1.15871555E5,7.71344E1,-5.9212606E-2,1.13067945E5,3.99941E-1,1.49525E-1,5.0441958E-2,1.4594E-2,1.5169125E-3,-1.2032762E-2,5.045965E-3,7.30227E-2,2.7659243E-2],"split_indices":[14,38,0,15,2,12,0,37,0,0,0,0,0],"split_type":[0,0,0,0,0,0,0,0,0,0,0,0,0],"sum_hessian":[4.542547E2,4.4476843E2,9.486275E0,4.2435397E2,2.0414433E1,4.1562503E2,8.728943E0,1.3891572E1,6.5228605E0,1.8584373E2,2.2978131E2,7.373281E0,6.518291E0],"tree_param":{"num_deleted":"0","num_feature":"45","num_nodes":"13","size_leaf_vector":"1"}},{"base_weights":[-2.3464005E-2,6.1481965E-1,-7.418354E-2,-4.757939E-1,1.1910504E0,-6.6547024E-1,1.1817842E-2,3.1015227E-2,-6.92864E-2,7.9864874E-2,8.054614E-1,-8.592503E-1,2.3124997E-2,4.844747E-2,-1.1005462E0,-3.0172903E-3,7.595819E-2,-5.316505E-2,6.2568784E-3,5.6634643E-3,-2.6600255E-2,-7.36742E-2,-2.8562246E-2],"categories":[],"categories_nodes":[],"categories_segments":[],"categories_sizes":[],"default_left":[0,0,0,0,0,0,0,0,0,0,0,0,0,0,0,0,0,0,0,0,0,0,0],"id":9,"left_children":[1,3,5,7,9,11,13,-1,-1,-1,15,17,-1,19,21,-1,-1,-1,-1,-1,-1,-1,-1],"loss_changes":[1.4622247E1,2.1464378E1,2.1264399E1,1.3037718E1,2.1663227E0,1.2003075E1,1.4962741E1,0E0,0E0,0E0,8.326291E0,9.304913E0,0E0,1.3425329E1,1.4692936E0,0E0,0E0,0E0,0E0,0E0,0E0,0E0,0E0],"parents":[2147483647,0,0,1,1,2,2,3,3,4,4,5,5,6,6,10,10,11,11,13,13,14,14],"right_children":[2,4,6,8,10,12,14,-1,-1,-1,16,18,-1,20,22,-1,-1,-1,-1,-1,-1,-1,-1],"split_conditions":[-7.31717E2,-1.1163E-1,-4.452925E2,2.8833E1,4.38218E1,1.74904E-1,1.1302814E5,3.1015227E-2,-6.92864E-2,7.9864874E-2,7.0529E-2,1.0401381E5,2.3124997E-2,6.673192E2,3.469536E2,-3.0172903E-3,7.595819E-2,-5.316505E-2,6.2568784E-3,5.6634643E-3,-2.6600255E-2,-7.36742E-2,-2.8562246E-2],"split_indices":[11,2,39,7,26,2,14,0,0,0,2,16,0,43,39,0,0,0,0,0,0,0,0],"split_type":[0,0,0,0,0,0,0,0,0,0,0,0,0,0,0,0,0,0,0,0,0,0,0],"sum_hessian":[4.4926517E2,3.2253E1,4.1701218E2,1.121017E1,2.104283E1,5.2096226E1,3.6491595E2,5.229299E0,5.9808702E0,8.716673E0,1.2326158E1,4.4661774E1,7.434452E0,3.5420847E2,1.0707474E1,5.9832273E0,6.3429303E0,3.6927105E1,7.7346683E0,3.1935004E2,3.4858433E1,5.235083E0,5.472391E0],"tree_param":{"num_deleted":"0","num_feature":"45","num_nodes":"23","size_leaf_vector":"1"}},{"base_weights":[1.2422384E-2,-7.707529E-2,3.7313235E-1,5.006936E-1,-1.5078734E-1,4.8757142E-1,-3.0474951E-2,1.1554605E0,6.0677595E-2,6.542798E-2,-1.8054613E-1,2.1163902E-1,8.6547697E-1,7.745613E-2,2.278316E-2,-6.699949E-2,3.1179307E-2,-2.4537038E-2,-3.7067046E-3,2.3660168E-2,-4.481831E-2,6.1217096E-2,1.5012295E-3],"categories":[],"categories_nodes":[],"categories_segments":[],"categories_sizes":[],"default_left":[0,0,0,0,0,0,0,0,0,0,0,0,0,0,0,0,0,0,0,0,0,0,0],"id":10,"left_children":[1,3,5,7,9,11,-1,13,15,-1,17,19,21,-1,-1,-1,-1,-1,-1,-1,-1,-1,-1],"loss_changes":[1.465094E1,1.5566196E1,1.0441684E1,1.1853449E1,1.4278545E1,8.3005085E0,0E0,3.861189E0,2.118336E1,0E0,1.0452397E1,1.443577E1,1.016017E1,0E0,0E0,0E0,0E0,0E0,0E0,0E0,0E0,0E0,0E0],"parents":[2147483647,0,0,1,1,2,2,3,3,4,4,5,5,7,7,8,8,10,10,11,11,12,12],"right_children":[2,4,6,8,10,12,-1,14,16,-1,18,20,22,-1,-1,-1,-1,-1,-1,-1,-1,-1,-1],"split_conditions":[1.86635E-1,1.1637E-2,4.9037E-2,2.7966672E4,-3.49593E-1,3.26E-2,-3.0474951E-2,1.7941E-2,1.0879E-2,6.542798E-2,1.979E-2,5.007573E2,4.122E-2,7.745613E-2,2.278316E-2,-6.699949E-2,3.1179307E-2,-2.4537038E-2,-3.7067046E-3,2.3660168E-2,-4.481831E-2,6.1217096E-2,1.5012295E-3],"split_indices":[2,28,40,16,2,28,0,44,5,0,5,27,36,0,0,0,0,0,0,0,0,0,0],"split_type":[0,0,0,0,0,0,0,0,0,0,0,0,0,0,0,0,0,0,0,0,0,0,0],"sum_hessian":[4.5194165E2,3.6272928E2,8.921237E1,4.038574E1,3.2234354E2,8.035759E1,8.854783E0,1.5578365E1,2.4807375E1,5.5830503E0,3.167605E2,4.7346786E1,3.3010803E1,9.193184E0,6.3851814E0,6.7159114E0,1.8091463E1,7.9986244E1,2.3677425E2,3.8767864E1,8.578921E0,2.2766201E1,1.0244604E1],"tree_param":{"num_deleted":"0","num_feature":"45","num_nodes":"23","size_leaf_vector":"1"}},{"base_weights":[1.6047008E-2,-6.978442E-2,4.2315915E-1,3.9189216E-1,-1.6475008E-1,5.662611E-1,-3.9817464E-2,-8.264526E-2,6.8517524E-1,-5.648351E-1,-3.881228E-2,8.591501E-1,2.6396954E-1,-2.5711292E-2,5.388335E-2,5.773595E-2,5.827847E-3,-3.880787E-2,-3.0234512E-3,-4.7621097E-2,1.1817741E-3,3.5199597E-3,5.180649E-2,4.123123E-3,4.7479346E-2],"categories":[],"categories_nodes":[],"categories_segments":[],"categories_sizes":[],"default_left":[0,0,0,0,0,0,0,0,0,0,0,0,0,0,0,0,0,0,0,0,0,0,0,0,0],"id":11,"left_children":[1,3,5,7,9,11,-1,13,15,17,19,21,23,-1,-1,-1,-1,-1,-1,-1,-1,-1,-1,-1,-1],"loss_changes":[1.5753086E1,1.6395603E1,1.4148841E1,8.94199E0,1.5579633E1,6.0446033E0,0E0,1.3212893E1,1.0428928E1,7.846571E0,1.3520233E1,4.8871326E0,4.439081E0,0E0,0E0,0E0,0E0,0E0,0E0,0E0,0E0,0E0,0E0,0E0,0E0],"parents":[2147483647,0,0,1,1,2,2,3,3,4,4,5,5,7,7,8,8,9,9,10,10,11,11,12,12],"right_children":[2,4,6,8,10,12,-1,14,16,18,20,22,24,-1,-1,-1,-1,-1,-1,-1,-1,-1,-1,-1,-1],"split_conditions":[2.15293E-1,1.3505E-2,4.9037E-2,-3.27655E1,2.001E-2,3.723E-3,-3.9817464E-2,9.8547914E4,5.60532E1,1.469654E2,4.938133E2,-4.9353E1,1.6755E-1,-2.5711292E-2,5.388335E-2,5.773595E-2,5.827847E-3,-3.880787E-2,-3.0234512E-3,-4.7621097E-2,1.1817741E-3,3.5199597E-3,5.180649E-2,4.123123E-3,4.7479346E-2],"split_indices":[2,32,40,43,5,29,0,14,7,11,20,43,1,0,0,0,0,0,0,0,0,0,0,0,0],"split_type":[0,0,0,0,0,0,0,0,0,0,0,0,0,0,0,0,0,0,0,0,0,0,0,0,0],"sum_hessian":[4.4897714E2,3.7148547E2,7.749167E1,6.2843662E1,3.0864178E2,6.983286E1,7.6588025E0,2.4278616E1,3.856505E1,7.305914E1,2.3558266E2,3.4532425E1,3.5300438E1,1.8102262E1,6.1763535E0,2.055815E1,1.8006897E1,5.11071E1,2.195204E1,1.4160678E1,2.2142198E2,6.5845675E0,2.7947857E1,2.8797104E1,6.5033336E0],"tree_param":{"num_deleted":"0","num_feature":"45","num_nodes":"25","size_leaf_vector":"1"}},{"base_weights":[1.1363619E-2,-8.1761934E-2,4.7032073E-1,9.6625876E-1,-1.1534366E-1,6.192353E-1,-2.804182E-1,1.3910889E-2,7.2021596E-2,-2.1916325E-1,1.7752697E-1,1.12028755E-1,9.057818E-1,3.666782E-2,-5.109288E-2,2.4478484E-2,-1.4758557E-2,-1.2375219E-3,5.2339103E-2,6.313371E-2,-2.14973E-2,6.0834892E-2,2.7713805E-2],"categories":[],"categories_nodes":[],"categories_segments":[],"categories_sizes":[],"default_left":[0,0,0,0,0,0,0,0,0,0,0,0,0,0,0,0,0,0,0,0,0,0,0],"id":12,"left_children":[1,3,5,7,9,11,13,-1,-1,15,17,19,21,-1,-1,-1,-1,-1,-1,-1,-1,-1,-1],"loss_changes":[1.9342028E1,1.3355537E1,8.707218E0,3.4458876E0,1.1152874E1,9.201435E0,1.0763694E1,0E0,0E0,1.4705775E1,1.6943455E1,1.5664683E1,3.7802467E0,0E0,0E0,0E0,0E0,0E0,0E0,0E0,0E0,0E0,0E0],"parents":[2147483647,0,0,1,1,2,2,3,3,4,4,5,5,6,6,9,9,10,10,11,11,12,12],"right_children":[2,4,6,8,10,12,14,-1,-1,16,18,20,22,-1,-1,-1,-1,-1,-1,-1,-1,-1,-1],"split_conditions":[2.15293E-1,3.415991E2,4.64204E-1,-3.53442E1,3.26E-2,4.03152E1,2.6278667E3,1.3910889E-2,7.2021596E-2,5.4482E-2,5.934484E2,-4.698567E2,2.94745E-1,3.666782E-2,-5.109288E-2,2.4478484E-2,-1.4758557E-2,-1.2375219E-3,5.2339103E-2,6.313371E-2,-2.14973E-2,6.0834892E-2,2.7713805E-2],"split_indices":[2,20,2,10,44,39,20,0,0,13,10,31,2,0,0,0,0,0,0,0,0,0,0],"split_type":[0,0,0,0,0,0,0,0,0,0,0,0,0,0,0,0,0,0,0,0,0,0,0],"sum_hessian":[4.5064453E2,3.7531284E2,7.53317E1,1.079045E1,3.645224E2,6.3008644E1,1.2323057E1,5.049785E0,5.740665E0,2.693074E2,9.5215E1,2.3248394E1,3.976025E1,5.210124E0,7.112933E0,2.5557384E1,2.4375002E2,7.8029015E1,1.7185982E1,7.0183163E0,1.6230078E1,1.9792168E1,1.9968084E1],"tree_param":{"num_deleted":"0","num_feature":"45","num_nodes":"23","size_leaf_vector":"1"}},{"base_weights":[-6.06724E-3,-9.0516046E-2,3.347744E-1,-5.507107E-1,-2.38282E-2,4.5285958E-1,-3.742059E-2,3.665928E-1,-9.3575287E-1,2.2758415E-1,-2.5196442E-1,1.5049613E-1,8.58751E-1,-2.3916956E-2,6.1013337E-2,-5.9017416E-2,7.354408E-4,1.788325E-2,-2.7832424E-2,-8.2589835E-3,-5.9269387E-2,3.0737152E-2,-1.2167487E-2,5.2214395E-2,4.2068152E-4],"categories":[],"categories_nodes":[],"categories_segments":[],"categories_sizes":[],"default_left":[0,0,0,0,0,0,0,0,0,0,0,0,0,0,0,0,0,0,0,0,0,0,0,0,0],"id":13,"left_children":[1,3,5,7,9,11,-1,13,15,17,19,21,23,-1,-1,-1,-1,-1,-1,-1,-1,-1,-1,-1,-1],"loss_changes":[1.3168975E1,1.1237953E1,1.1959569E1,1.6716356E1,1.848329E1,1.0001085E1,0E0,1.0987745E1,7.6735516E0,1.5843508E1,1.3486119E1,9.020567E0,5.517313E0,0E0,0E0,0E0,0E0,0E0,0E0,0E0,0E0,0E0,0E0,0E0,0E0],"parents":[2147483647,0,0,1,1,2,2,3,3,4,4,5,5,7,7,8,8,9,9,10,10,11,11,12,12],"right_children":[2,4,6,8,10,12,-1,14,16,18,20,22,24,-1,-1,-1,-1,-1,-1,-1,-1,-1,-1,-1,-1],"split_conditions":[1.86635E-1,-5.684207E2,4.7993E-2,-7.127845E2,4.8854E1,3.2257E-2,-3.742059E-2,8.758874E4,4.6363E-2,2.165641E2,4.0661E-2,4.4657E-2,4.0476765E3,-2.3916956E-2,6.1013337E-2,-5.9017416E-2,7.354408E-4,1.788325E-2,-2.7832424E-2,-8.2589835E-3,-5.9269387E-2,3.0737152E-2,-1.2167487E-2,5.2214395E-2,4.2068152E-4],"split_indices":[2,39,36,11,38,28,0,14,36,39,32,1,9,0,0,0,0,0,0,0,0,0,0,0,0],"split_type":[0,0,0,0,0,0,0,0,0,0,0,0,0,0,0,0,0,0,0,0,0,0,0,0,0],"sum_hessian":[4.554627E2,3.656113E2,8.985143E1,4.5356995E1,3.202543E2,8.154374E1,8.3076935E0,1.342409E1,3.1932905E1,1.5235611E2,1.6789818E2,4.751721E1,3.402653E1,6.967556E0,6.456535E0,2.5204752E1,6.728153E0,1.3114671E2,2.1209402E1,1.5469264E2,1.3205543E1,2.1551933E1,2.5965273E1,2.7744759E1,6.2817736E0],"tree_param":{"num_deleted":"0","num_feature":"45","num_nodes":"25","size_leaf_vector":"1"}},{"base_weights":[-8.0515025E-3,-5.195849E-1,6.762747E-2,-8.103408E-2,-3.3939916E-1,1.2828395E-1,-4.6169913E-1,8.1220865E-2,-6.211826E-1,6.2472522E-2,7.4217904E-1,-1.0524762E0,3.0803695E-1,-3.7515637E-2,2.1325639E-2,1.524087E-2,-4.2616274E-2,4.7897495E-2,9.506543E-4,5.8474656E-2,1.5221626E-2,-1.1039528E-2,-6.393549E-2,4.659062E-2,-4.4155788E-2],"categories":[],"categories_nodes":[],"categories_segments":[],"categories_sizes":[],"default_left":[0,0,0,0,0,0,0,0,0,0,0,0,0,0,0,0,0,0,0,0,0,0,0,0,0],"id":14,"left_children":[1,3,5,-1,7,9,11,13,15,17,19,21,23,-1,-1,-1,-1,-1,-1,-1,-1,-1,-1,-1,-1],"loss_changes":[1.7627121E1,1.1092398E1,1.2797628E1,0E0,6.1773934E0,1.4366401E1,1.8971931E1,6.5282736E0,6.9102707E0,1.2563293E1,6.087803E0,4.1255913E0,1.4628206E1,0E0,0E0,0E0,0E0,0E0,0E0,0E0,0E0,0E0,0E0,0E0,0E0],"parents":[2147483647,0,0,1,1,2,2,4,4,5,5,6,6,7,7,8,8,9,9,10,10,11,11,12,12],"right_children":[2,4,6,-1,8,10,12,14,16,18,20,22,24,-1,-1,-1,-1,-1,-1,-1,-1,-1,-1,-1,-1],"split_conditions":[-5.265811E2,2.0837207E3,6.673192E2,-8.103408E-2,6.337787E4,7.04186E1,1.31192E-1,-1.7507E-2,-8.746286E2,9.402E-3,1.0412559E3,1.5035E-2,3.7024E-2,-3.7515637E-2,2.1325639E-2,1.524087E-2,-4.2616274E-2,4.7897495E-2,9.506543E-4,5.8474656E-2,1.5221626E-2,-1.1039528E-2,-6.393549E-2,4.659062E-2,-4.4155788E-2],"split_indices":[43,20,43,0,14,7,2,37,27,32,10,32,44,0,0,0,0,0,0,0,0,0,0,0,0],"split_type":[0,0,0,0,0,0,0,0,0,0,0,0,0,0,0,0,0,0,0,0,0,0,0,0,0],"sum_hessian":[4.534285E2,5.7681168E1,3.957473E2,6.9873967E0,5.069377E1,3.5574008E2,4.000724E1,2.0622375E1,3.0071396E1,3.2229126E2,3.3448833E1,2.2427036E1,1.7580204E1,5.7066393E0,1.4915736E1,5.9431834E0,2.4128212E1,1.3943543E1,3.0834772E2,1.6080221E1,1.7368614E1,5.218521E0,1.7208515E1,1.168093E1,5.899274E0],"tree_param":{"num_deleted":"0","num_feature":"45","num_nodes":"25","size_leaf_vector":"1"}},{"base_weights":[4.6656877E-2,4.5387852E-1,-1.8664276E-2,1.1064965E0,1.1020907E-1,-4.4999045E-1,8.387911E-2,1.9224543E-2,7.141358E-2,-5.8686095E-1,7.6565725E-1,4.1277196E-2,-5.6047904E-1,8.612382E-3,5.596758E-1,7.053246E-3,-6.0750306E-2,-1.5015882E-2,5.512641E-2,2.2066815E-2,-3.280414E-2,4.674207E-2,-1.6219715E-3,4.226948E-2,-1.5669921E-2],"categories":[],"categories_nodes":[],"categories_segments":[],"categories_sizes":[],"default_left":[0,0,0,0,0,0,0,0,0,0,0,0,0,0,0,0,0,0,0,0,0,0,0,0,0],"id":15,"left_children":[1,3,5,7,9,11,13,-1,-1,15,17,-1,19,21,23,-1,-1,-1,-1,-1,-1,-1,-1,-1,-1],"loss_changes":[1.208926E1,1.3967579E1,1.7390892E1,4.4595203E0,1.9757969E1,1.1105395E1,1.1377039E1,0E0,0E0,9.794624E0,8.308251E0,0E0,7.0027885E0,1.0503146E1,1.1089652E1,0E0,0E0,0E0,0E0,0E0,0E0,0E0,0E0,0E0,0E0],"parents":[2147483647,0,0,1,1,2,2,3,3,4,4,5,5,6,6,9,9,10,10,12,12,13,13,14,14],"right_children":[2,4,6,8,10,12,14,-1,-1,16,18,-1,20,22,24,-1,-1,-1,-1,-1,-1,-1,-1,-1,-1],"split_conditions":[1.307E-2,2.7094186E4,1.979E-2,-1.562E0,1.3756E-2,1.2938E-2,6.80115E1,1.9224543E-2,7.141358E-2,5.21266E-1,3.4689758E4,4.1277196E-2,9.701E-3,8.758901E3,3.1294607E3,7.053246E-3,-6.0750306E-2,-1.5015882E-2,5.512641E-2,2.2066815E-2,-3.280414E-2,4.674207E-2,-1.6219715E-3,4.226948E-2,-1.5669921E-2],"split_indices":[4,16,5,31,5,5,26,0,0,13,14,0,40,15,10,0,0,0,0,0,0,0,0,0,0],"split_type":[0,0,0,0,0,0,0,0,0,0,0,0,0,0,0,0,0,0,0,0,0,0,0,0,0],"sum_hessian":[4.531618E2,6.1819786E1,3.91342E2,2.0559072E1,4.126071E1,7.4516495E1,3.168255E2,7.0145597E0,1.3544513E1,2.0046198E1,2.1214516E1,5.4242744E0,6.909222E1,2.744311E2,4.2394413E1,9.644777E0,1.040142E1,5.1203823E0,1.6094133E1,5.704054E0,6.3388165E1,1.0722951E1,2.6370816E2,3.1965427E1,1.0428987E1],"tree_param":{"num_deleted":"0","num_feature":"45","num_nodes":"25","size_leaf_vector":"1"}},{"base_weights":[1.0601141E-2,-4.4616163E-1,7.686508E-2,-5.735414E-1,2.4109472E-2,4.6566915E-2,1.0055672E0,-6.980753E-1,6.1907577E-3,3.4603584E-1,-5.1938392E-2,7.11186E-2,2.349873E-2,-4.297154E-2,4.2647757E-3,-7.575699E-3,3.0332921E-2,-1.9543132E-2,8.204615E-3],"categories":[],"categories_nodes":[],"categories_segments":[],"categories_sizes":[],"default_left":[0,0,0,0,0,0,0,0,0,0,0,0,0,0,0,0,0,0,0],"id":16,"left_children":[1,3,5,7,-1,9,11,13,-1,15,17,-1,-1,-1,-1,-1,-1,-1,-1],"loss_changes":[1.3525689E1,6.972064E0,1.0930565E1,4.4499645E0,0E0,1.1193787E1,2.0721903E0,5.4810963E0,0E0,1.2268486E1,2.1000692E1,0E0,0E0,0E0,0E0,0E0,0E0,0E0,0E0],"parents":[2147483647,0,0,1,1,2,2,3,3,5,5,6,6,7,7,9,9,10,10],"right_children":[2,4,6,8,-1,10,12,14,-1,16,18,-1,-1,-1,-1,-1,-1,-1,-1],"split_conditions":[-5.265811E2,1.74904E-1,1.0100722E3,-1.441043E2,2.4109472E-2,1.6047E-2,9.033E-1,1.0401381E5,6.1907577E-3,-1.48269E1,1.49525E-1,7.11186E-2,2.349873E-2,-4.297154E-2,4.2647757E-3,-7.575699E-3,3.0332921E-2,-1.9543132E-2,8.204615E-3],"split_indices":[43,2,31,35,0,32,17,16,0,39,12,0,0,0,0,0,0,0,0],"split_type":[0,0,0,0,0,0,0,0,0,0,0,0,0,0,0,0,0,0,0],"sum_hessian":[4.4474747E2,5.562014E1,3.8912732E2,4.9245342E1,6.3747973E0,3.778504E2,1.1276924E1,4.1782753E1,7.4625926E0,9.290234E1,2.8494803E2,5.4106174E0,5.8663073E0,3.4565914E1,7.216839E0,3.207919E1,6.082316E1,1.1060842E2,1.7433961E2],"tree_param":{"num_deleted":"0","num_feature":"45","num_nodes":"19","size_leaf_vector":"1"}},{"base_weights":[-4.2357694E-2,-4.7457138E-1,1.5204644E-2,1.7140163E-2,-6.7225975E-1,3.3366394E-1,-6.5797694E-2,-8.5403156E-1,2.666846E-2,-1.3803433E-1,5.527435E-1,-6.176802E-1,3.8358204E-2,-6.0204368E-2,-5.864232E-3,-4.480307E-2,2.5334036E-2,4.1159824E-2,-1.6609019E-2,-4.0507417E-2,2.7800659E-2,5.027568E-2,-1.1522147E-3],"categories":[],"categories_nodes":[],"categories_segments":[],"categories_sizes":[],"default_left":[0,0,0,0,0,0,0,0,0,0,0,0,0,0,0,0,0,0,0,0,0,0,0],"id":17,"left_children":[1,3,5,-1,7,9,11,13,-1,15,17,19,21,-1,-1,-1,-1,-1,-1,-1,-1,-1,-1],"loss_changes":[1.1127384E1,8.723711E0,1.0221776E1,0E0,9.80509E0,8.379026E0,1.8191381E1,9.51927E0,0E0,1.3297977E1,1.3451687E1,1.1799068E1,1.5868599E1,0E0,0E0,0E0,0E0,0E0,0E0,0E0,0E0,0E0,0E0],"parents":[2147483647,0,0,1,1,2,2,4,4,5,5,6,6,7,7,9,9,10,10,11,11,12,12],"right_children":[2,4,6,-1,8,10,12,14,-1,16,18,20,22,-1,-1,-1,-1,-1,-1,-1,-1,-1,-1],"split_conditions":[-5.515546E2,-7.31717E2,4.24294E1,1.7140163E-2,-3.8054E1,-1.756982E2,-4.6934E-2,2.50986E-1,2.666846E-2,2.6918E-2,4.122E-2,5.2599E-2,4.21216E1,-6.0204368E-2,-5.864232E-3,-4.480307E-2,2.5334036E-2,4.1159824E-2,-1.6609019E-2,-4.0507417E-2,2.7800659E-2,5.027568E-2,-1.1522147E-3],"split_indices":[43,11,7,0,35,43,2,12,0,6,4,44,38,0,0,0,0,0,0,0,0,0,0],"split_type":[0,0,0,0,0,0,0,0,0,0,0,0,0,0,0,0,0,0,0,0,0,0,0],"sum_hessian":[4.45966E2,5.1562008E1,3.94404E2,9.898988E0,4.166302E1,7.9344246E1,3.1505972E2,3.6457916E1,5.205105E0,2.5281277E1,5.406297E1,4.9237675E1,2.6582205E2,2.428492E1,1.2172997E1,1.1440359E1,1.3840919E1,4.1461224E1,1.2601747E1,4.2567062E1,6.6706147E0,1.4951058E1,2.50871E2],"tree_param":{"num_deleted":"0","num_feature":"45","num_nodes":"23","size_leaf_vector":"1"}},{"base_weights":[1.3279203E-4,-3.804878E-2,5.7230103E-1,-6.3905925E-2,4.8184987E-2,8.185882E-1,-2.0589918E-2,-1.4677756E-3,-8.7825674E-1,4.0761474E-1,5.949548E-2,-1.9859872E-3,3.411835E-2,-5.9967972E-2,-1.9841935E-2,5.2733995E-2,-1.2129811E-2],"categories":[],"categories_nodes":[],"categories_segments":[],"categories_sizes":[],"default_left":[0,0,0,0,0,0,0,0,0,0,0,0,0,0,0,0,0],"id":18,"left_children":[1,3,5,7,-1,9,-1,11,13,15,-1,-1,-1,-1,-1,-1,-1],"loss_changes":[9.925542E0,1.1093836E1,7.225711E0,2.1157877E1,0E0,3.0351152E0,0E0,1.0163473E1,4.104765E0,5.502385E0,0E0,0E0,0E0,0E0,0E0,0E0,0E0],"parents":[2147483647,0,0,1,1,2,2,3,3,5,5,7,7,8,8,9,9],"right_children":[2,4,6,8,-1,10,-1,12,14,16,-1,-1,-1,-1,-1,-1,-1],"split_conditions":[7.49494E1,1.0100722E3,3.9319E-2,6.673192E2,4.8184987E-2,2.7402E-2,-2.0589918E-2,8.07757E1,7.262256E4,1.6973E-2,5.949548E-2,-1.9859872E-3,3.411835E-2,-5.9967972E-2,-1.9841935E-2,5.2733995E-2,-1.2129811E-2],"split_indices":[42,31,5,39,0,4,0,8,16,4,0,0,0,0,0,0,0],"split_type":[0,0,0,0,0,0,0,0,0,0,0,0,0,0,0,0,0],"sum_hessian":[4.523387E2,4.2491693E2,2.742179E1,4.151376E2,9.779329E0,2.2067276E1,5.354514E0,3.8650516E2,2.8632435E1,1.1470085E1,1.0597191E1,3.669224E2,1.958278E1,1.6281487E1,1.2350948E1,5.4371667E0,6.0329185E0],"tree_param":{"num_deleted":"0","num_feature":"45","num_nodes":"17","size_leaf_vector":"1"}},{"base_weights":[3.313336E-3,-1.9402197E-2,5.297282E-2,4.9964376E-2,-4.4198863E-2,5.5320364E-1,-8.991652E-2,-2.5556896E-2,6.395709E-2,-3.4609485E-2,-1.8199316E-3],"categories":[],"categories_nodes":[],"categories_segments":[],"categories_sizes":[],"default_left":[0,0,0,0,0,0,0,0,0,0,0],"id":19,"left_children":[1,3,-1,-1,5,7,9,-1,-1,-1,-1],"loss_changes":[1.0783566E1,1.1162805E1,0E0,0E0,1.181196E1,2.441617E1,1.2897066E1,0E0,0E0,0E0,0E0],"parents":[2147483647,0,0,1,1,4,4,5,5,6,6],"right_children":[2,4,-1,-1,6,8,10,-1,-1,-1,-1],"split_conditions":[8.18682E1,8.143E-3,5.297282E-2,4.9964376E-2,-7.31717E2,-9.24712E1,-5.220318E2,-2.5556896E-2,6.395709E-2,-3.4609485E-2,-1.8199316E-3],"split_indices":[34,40,0,0,11,10,35,0,0,0,0],"split_type":[0,0,0,0,0,0,0,0,0,0,0],"sum_hessian":[4.476298E2,4.3916583E2,8.463952E0,9.502146E0,4.296637E2,2.9754519E1,3.9990918E2,1.21851015E1,1.7569418E1,3.1661947E1,3.6824722E2],"tree_param":{"num_deleted":"0","num_feature":"45","num_nodes":"11","size_leaf_vector":"1"}},{"base_weights":[-4.1378443E-3,-3.231405E-2,7.4594116E-1,7.984186E-1,-5.5294372E-2,6.943104E-2,1.2308984E-2,6.106158E-2,9.9829445E-3,-2.2153676E-2,-8.169606E-1,-2.5987974E-3,3.6322188E-2,-6.874009E-2,1.3085826E-2],"categories":[],"categories_nodes":[],"categories_segments":[],"categories_sizes":[],"default_left":[0,0,0,0,0,0,0,0,0,0,0,0,0,0,0],"id":20,"left_children":[1,3,5,7,9,-1,-1,-1,-1,11,13,-1,-1,-1,-1],"loss_changes":[9.671234E0,8.461126E0,4.97943E0,2.7771482E0,1.083516E1,0E0,0E0,0E0,0E0,9.259393E0,1.1130909E1,0E0,0E0,0E0,0E0],"parents":[2147483647,0,0,1,1,2,2,3,3,4,4,9,9,10,10],"right_children":[2,4,6,8,10,-1,-1,-1,-1,12,14,-1,-1,-1,-1],"split_conditions":[1.6755E-1,-2.94183E-1,3.0428E-2,2.21257E-1,5.5821E-2,6.943104E-2,1.2308984E-2,6.106158E-2,9.9829445E-3,1.9285E0,7.28729E1,-2.5987974E-3,3.6322188E-2,-6.874009E-2,1.3085826E-2],"split_indices":[1,2,40,13,4,0,0,0,0,17,10,0,0,0,0],"split_type":[0,0,0,0,0,0,0,0,0,0,0,0,0,0,0],"sum_hessian":[4.554662E2,4.3989862E2,1.5567572E1,1.09329195E1,4.289657E2,6.0320077E0,9.535564E0,5.798628E0,5.1342916E0,4.120655E2,1.690021E1,3.9717365E2,1.4891849E1,1.0958475E1,5.9417343E0],"tree_param":{"num_deleted":"0","num_feature":"45","num_nodes":"15","size_leaf_vector":"1"}},{"base_weights":[-7.507317E-3,2.0388583E-2,-1.0624812E0,4.5959753E-1,-4.8249736E-2,-2.1936683E-2,-7.4961066E-2,-2.703911E-1,7.4220353E-1,-4.4122922E-1,5.1384326E-2,-6.230044E-2,3.1930957E-2,-9.573583E-3,4.4446573E-2,2.6403746E-2,-3.0140975E-2,2.7618675E-2,-1.8075809E-3],"categories":[],"categories_nodes":[],"categories_segments":[],"categories_sizes":[],"default_left":[0,0,0,0,0,0,0,0,0,0,0,0,0,0,0,0,0,0,0],"id":21,"left_children":[1,3,5,7,9,-1,-1,11,13,15,17,-1,-1,-1,-1,-1,-1,-1,-1],"loss_changes":[1.3244917E1,1.3248281E1,2.500578E0,1.2453066E1,1.4914381E1,0E0,0E0,1.6145754E1,6.072386E0,1.2383465E1,1.3365173E1,0E0,0E0,0E0,0E0,0E0,0E0,0E0,0E0],"parents":[2147483647,0,0,1,1,2,2,3,3,4,4,7,7,8,8,9,9,10,10],"right_children":[2,4,6,8,10,-1,-1,12,14,16,18,-1,-1,-1,-1,-1,-1,-1,-1],"split_conditions":[1.15871555E5,1.307E-2,1.1392694E5,-1.855669E2,2.001E-2,-2.1936683E-2,-7.4961066E-2,1.8201E-2,-1.2589E-2,1.1446E-2,2.3239E-2,-6.230044E-2,3.1930957E-2,-9.573583E-3,4.4446573E-2,2.6403746E-2,-3.0140975E-2,2.7618675E-2,-1.8075809E-3],"split_indices":[14,4,16,10,5,0,0,6,41,36,6,0,0,0,0,0,0,0,0],"split_type":[0,0,0,0,0,0,0,0,0,0,0,0,0,0,0,0,0,0,0],"sum_hessian":[4.4832062E2,4.377268E2,1.0593815E1,5.839132E1,3.7933548E2,5.188385E0,5.4054294E0,1.6308552E1,4.2082767E1,7.602946E1,3.0330603E2,7.6872697E0,8.621284E0,5.673783E0,3.640898E1,1.0539566E1,6.548989E1,4.4323246E1,2.5898276E2],"tree_param":{"num_deleted":"0","num_feature":"45","num_nodes":"19","size_leaf_vector":"1"}},{"base_weights":[-3.0829703E-2,1.6206753E-2,-5.1307315E-1,-9.307578E-2,2.9000026E-1,3.777324E-2,-7.69879E-1,-2.1135888E-1,2.3801295E-1,7.093544E-1,-1.4848195E-1,-9.8702097E-1,2.4820766E-3,4.094206E-2,-1.3168086E-2,4.1614868E-2,8.6533075E-4,4.3961853E-2,-4.2384353E-2,-2.2991972E-2,2.1850048E-2,-4.538584E-3,-6.1360277E-2],"categories":[],"categories_nodes":[],"categories_segments":[],"categories_sizes":[],"default_left":[0,0,0,0,0,0,0,0,0,0,0,0,0,0,0,0,0,0,0,0,0,0,0],"id":22,"left_children":[1,3,5,7,9,-1,11,13,15,17,19,21,-1,-1,-1,-1,-1,-1,-1,-1,-1,-1,-1],"loss_changes":[1.0158517E1,1.225512E1,1.354641E1,1.1519036E1,2.1588026E1,0E0,6.0268784E0,1.1803438E1,1.0157825E1,1.6587305E1,1.0763016E1,5.6155396E0,0E0,0E0,0E0,0E0,0E0,0E0,0E0,0E0,0E0,0E0,0E0],"parents":[2147483647,0,0,1,1,2,2,3,3,4,4,6,6,7,7,8,8,9,9,10,10,11,11],"right_children":[2,4,6,8,10,-1,12,14,16,18,20,22,-1,-1,-1,-1,-1,-1,-1,-1,-1,-1,-1],"split_conditions":[6.673192E2,1.625413E2,1.3759E-2,3.26E-2,2.9652E-2,3.777324E-2,7.39998E1,3.415991E2,3.2645E-2,1.0817404E5,2.99531E-1,-7.462178E2,2.4820766E-3,4.094206E-2,-1.3168086E-2,4.1614868E-2,8.6533075E-4,4.3961853E-2,-4.2384353E-2,-2.2991972E-2,2.1850048E-2,-4.538584E-3,-6.1360277E-2],"split_indices":[43,11,4,44,6,0,42,20,5,16,12,9,0,0,0,0,0,0,0,0,0,0,0],"split_type":[0,0,0,0,0,0,0,0,0,0,0,0,0,0,0,0,0,0,0,0,0,0,0],"sum_hessian":[4.4648013E2,4.076825E2,3.879763E1,2.9185208E2,1.1583042E2,6.2050266E0,3.2592606E1,2.1529758E2,7.65545E1,5.8890842E1,5.6939575E1,2.5604097E1,6.9885087E0,9.637057E0,2.0566052E2,1.9981174E1,5.6573322E1,5.3490067E1,5.400775E0,3.731187E1,1.9627707E1,5.7026315E0,1.9901464E1],"tree_param":{"num_deleted":"0","num_feature":"45","num_nodes":"23","size_leaf_vector":"1"}},{"base_weights":[2.005367E-3,9.0294194E-1,-2.358984E-2,1.2110403E-2,6.714057E-2,-6.912636E-1,2.1927541E-2,-1.2797207E0,1.18988276E-1,8.1018543E-1,-2.0307345E-2,-8.309934E-2,-3.1765435E-2,3.572295E-2,-2.752891E-2,7.515668E-2,1.3212374E-2,-6.043892E-2,1.633749E-4],"categories":[],"categories_nodes":[],"categories_segments":[],"categories_sizes":[],"default_left":[0,0,0,0,0,0,0,0,0,0,0,0,0,0,0,0,0,0,0],"id":23,"left_children":[1,3,5,-1,-1,7,9,11,13,15,17,-1,-1,-1,-1,-1,-1,-1,-1],"loss_changes":[1.0449382E1,3.3129425E0,1.3408485E1,0E0,0E0,1.3577682E1,1.3784237E1,2.9831257E0,5.4813304E0,7.5682154E0,1.1028788E1,0E0,0E0,0E0,0E0,0E0,0E0,0E0,0E0],"parents":[2147483647,0,0,1,1,2,2,5,5,6,6,7,7,8,8,9,9,10,10],"right_children":[2,4,6,-1,-1,8,10,12,14,16,18,-1,-1,-1,-1,-1,-1,-1,-1],"split_conditions":[3.415991E2,9.406963E3,4.890437E2,1.2110403E-2,6.714057E-2,-1.562E0,1.66402E4,4.273656E2,5.54283E1,5.21299E1,9.683E-3,-8.309934E-2,-3.1765435E-2,3.572295E-2,-2.752891E-2,7.515668E-2,1.3212374E-2,-6.043892E-2,1.633749E-4],"split_indices":[20,16,20,0,0,35,14,20,43,8,5,0,0,0,0,0,0,0,0],"split_type":[0,0,0,0,0,0,0,0,0,0,0,0,0,0,0,0,0,0,0],"sum_hessian":[4.5122186E2,1.1517975E1,4.397039E2,5.223028E0,6.294947E0,2.7157408E1,4.1254648E2,1.539625E1,1.1761158E1,2.0055445E1,3.9249103E2,8.672585E0,6.723665E0,6.1895294E0,5.5716286E0,8.065176E0,1.199027E1,6.6562753E0,3.8583475E2],"tree_param":{"num_deleted":"0","num_feature":"45","num_nodes":"19","size_leaf_vector":"1"}},{"base_weights":[1.7897755E-2,-1.5848167E-2,8.496979E-1,6.470956E-1,-5.5848297E-2,5.9757788E-2,5.6353104E-3,-2.0699913E-2,1.1313992E0,9.187889E-1,-8.44313E-2,6.717046E-2,2.7590621E-2,1.8305996E-2,6.502228E-2,-2.9237391E-3,-5.421824E-2],"categories":[],"categories_nodes":[],"categories_segments":[],"categories_sizes":[],"default_left":[0,0,0,0,0,0,0,0,0,0,0,0,0,0,0,0,0],"id":24,"left_children":[1,3,5,7,9,-1,-1,-1,11,13,15,-1,-1,-1,-1,-1,-1],"loss_changes":[1.2608616E1,1.1497006E1,4.3239756E0,1.3147607E1,1.1458197E1,0E0,0E0,0E0,1.3732681E0,1.996706E0,1.0261362E1,0E0,0E0,0E0,0E0,0E0,0E0],"parents":[2147483647,0,0,1,1,2,2,3,3,4,4,8,8,9,9,10,10],"right_children":[2,4,6,8,10,-1,-1,-1,12,14,16,-1,-1,-1,-1,-1,-1],"split_conditions":[1.6755E-1,-8.45755E2,3.9115E-2,-1.1163E-1,3.415991E2,5.9757788E-2,5.6353104E-3,-2.0699913E-2,4.103588E3,-3.53442E1,1.15871555E5,6.717046E-2,2.7590621E-2,1.8305996E-2,6.502228E-2,-2.9237391E-3,-5.421824E-2],"split_indices":[1,11,36,2,20,0,0,0,20,10,14,0,0,0,0,0,0],"split_type":[0,0,0,0,0,0,0,0,0,0,0,0,0,0,0,0,0],"sum_hessian":[4.4770715E2,4.3119464E2,1.651251E1,2.3672935E1,4.0752173E2,1.0819367E1,5.693144E0,7.4642224E0,1.6208714E1,1.0723457E1,3.9679825E2,1.0902687E1,5.306026E0,5.180694E0,5.5427637E0,3.8779037E2,9.007878E0],"tree_param":{"num_deleted":"0","num_feature":"45","num_nodes":"17","size_leaf_vector":"1"}},{"base_weights":[8.365524E-5,3.813864E-1,-6.867173E-2,-3.2389976E-2,5.3030807E-1,-6.8490654E-2,-4.2055886E-2,-1.3839143E-2,6.377529E-1,1.5337419E-2,-5.9137005E-1,1.0584178E-2,4.4902913E-2,-2.3800967E-2,4.504549E-3,-4.928703E-2,2.2970957E-3],"categories":[],"categories_nodes":[],"categories_segments":[],"categories_sizes":[],"default_left":[0,0,0,0,0,0,0,0,0,0,0,0,0,0,0,0,0],"id":25,"left_children":[1,3,5,-1,7,-1,9,-1,11,13,15,-1,-1,-1,-1,-1,-1],"loss_changes":[1.1871798E1,1.0946552E1,1.3228783E1,0E0,5.464964E0,0E0,1.1894648E1,0E0,5.8125134E0,1.2616117E1,9.0151205E0,0E0,0E0,0E0,0E0,0E0,0E0],"parents":[2147483647,0,0,1,1,2,2,4,4,6,6,8,8,9,9,10,10],"right_children":[2,4,6,-1,8,-1,10,-1,12,14,16,-1,-1,-1,-1,-1,-1],"split_conditions":[1.3407E-2,9.683E-3,6.7946E-2,-3.2389976E-2,-1.1912E-2,-6.8490654E-2,6.341058E2,-1.3839143E-2,-3.17323E1,-5.99046E2,3.2084E-2,1.0584178E-2,4.4902913E-2,-2.3800967E-2,4.504549E-3,-4.928703E-2,2.2970957E-3],"split_indices":[32,5,12,0,41,0,43,0,39,43,28,0,0,0,0,0,0],"split_type":[0,0,0,0,0,0,0,0,0,0,0,0,0,0,0,0,0],"sum_hessian":[4.5083582E2,6.817955E1,3.8265628E2,8.194952E0,5.9984596E1,6.658992E0,3.7599728E2,6.8621655E0,5.312243E1,3.413088E2,3.468846E1,2.0834162E1,3.228827E1,4.4360226E1,2.9694858E2,2.1090736E1,1.3597725E1],"tree_param":{"num_deleted":"0","num_feature":"45","num_nodes":"17","size_leaf_vector":"1"}},{"base_weights":[2.210163E-2,3.1763107E-1,-5.998667E-2,1.1993271E-1,7.320625E-1,4.4351804E-1,-1.2905876E-1,6.8753093E-1,-1.2727374E-1,1.0343709E0,2.433926E-3,6.41459E-1,-1.080523E-2,-6.8243283E-1,-6.673358E-2,5.5439383E-2,-7.7373437E-3,-2.349568E-2,1.1155775E-2,1.6538924E-2,7.205402E-2,-2.0981308E-2,4.331127E-2,5.739149E-3,-4.3773517E-2,-1.3487208E-2,4.75747E-3],"categories":[],"categories_nodes":[],"categories_segments":[],"categories_sizes":[],"default_left":[0,0,0,0,0,0,0,0,0,0,0,0,0,0,0,0,0,0,0,0,0,0,0,0,0,0,0],"id":26,"left_children":[1,3,5,7,9,11,13,15,17,19,-1,21,-1,23,25,-1,-1,-1,-1,-1,-1,-1,-1,-1,-1,-1,-1],"loss_changes":[1.0780764E1,7.826252E0,1.2160567E1,9.431302E0,6.3540916E0,5.6495447E0,1.05359955E1,7.39555E0,5.775425E0,5.6594734E0,0E0,8.166492E0,0E0,4.86327E0,9.124346E0,0E0,0E0,0E0,0E0,0E0,0E0,0E0,0E0,0E0,0E0,0E0,0E0],"parents":[2147483647,0,0,1,1,2,2,3,3,4,4,5,5,6,6,7,7,8,8,9,9,11,11,13,13,14,14],"right_children":[2,4,6,8,10,12,14,16,18,20,-1,22,-1,24,26,-1,-1,-1,-1,-1,-1,-1,-1,-1,-1,-1,-1],"split_conditions":[-1.5396E-2,4.923E-1,1.1637E-2,-1.779503E2,4.4918E-2,2.1653E-2,-6.356871E2,6.965349E4,1.77E-4,-1.363506E2,2.433926E-3,-1.863141E2,-1.080523E-2,-9.649143E2,1.51977E-1,5.5439383E-2,-7.7373437E-3,-2.349568E-2,1.1155775E-2,1.6538924E-2,7.205402E-2,-2.0981308E-2,4.331127E-2,5.739149E-3,-4.3773517E-2,-1.3487208E-2,4.75747E-3],"split_indices":[0,18,4,31,36,1,43,15,41,11,0,39,0,31,12,0,0,0,0,0,0,0,0,0,0,0,0],"split_type":[0,0,0,0,0,0,0,0,0,0,0,0,0,0,0,0,0,0,0,0,0,0,0,0,0,0,0],"sum_hessian":[4.4260794E2,9.5592415E1,3.4701553E2,6.559208E1,3.0000332E1,4.1207825E1,3.058077E2,1.9359806E1,4.6232273E1,2.0443254E1,9.557077E0,3.1717505E1,9.49032E0,2.9948738E1,2.7585895E2,1.269441E1,6.6653957E0,2.3202152E1,2.303012E1,8.152695E0,1.229056E1,5.3926673E0,2.6324837E1,5.917157E0,2.4031582E1,1.22087685E2,1.5377127E2],"tree_param":{"num_deleted":"0","num_feature":"45","num_nodes":"27","size_leaf_vector":"1"}},{"base_weights":[-1.6001819E-3,-3.30844E-2,7.86851E-1,-7.073219E-2,5.058924E-1,5.7418138E-2,-4.7847475E-3,-1.7548226E-2,-5.408826E-1,9.3829024E-1,-2.7217457E-2,4.1040624E-3,-1.4116871E-2,-4.3008126E-2,7.5944886E-3,5.775621E-2,1.5859254E-2],"categories":[],"categories_nodes":[],"categories_segments":[],"categories_sizes":[],"default_left":[0,0,0,0,0,0,0,0,0,0,0,0,0,0,0,0,0],"id":27,"left_children":[1,3,5,7,9,-1,-1,11,13,15,-1,-1,-1,-1,-1,-1,-1],"loss_changes":[1.1373437E1,8.974613E0,5.7229443E0,1.0308373E1,1.3627874E1,0E0,0E0,9.829971E0,9.3987055E0,2.438631E0,0E0,0E0,0E0,0E0,0E0,0E0,0E0],"parents":[2147483647,0,0,1,1,2,2,3,3,4,4,7,7,8,8,9,9],"right_children":[2,4,6,8,10,-1,-1,12,14,16,-1,-1,-1,-1,-1,-1,-1],"split_conditions":[1.6755E-1,7.39998E1,1.847941E2,5.563389E2,3.99941E-1,5.7418138E-2,-4.7847475E-3,1.1945E-2,1.22714E-1,4.8488E-2,-2.7217457E-2,4.1040624E-3,-1.4116871E-2,-4.3008126E-2,7.5944886E-3,5.775621E-2,1.5859254E-2],"split_indices":[1,42,43,43,2,0,0,37,2,1,0,0,0,0,0,0,0],"split_type":[0,0,0,0,0,0,0,0,0,0,0,0,0,0,0,0,0],"sum_hessian":[4.5611853E2,4.3952554E2,1.6592976E1,4.11641E2,2.7884558E1,1.1557539E1,5.0354357E0,3.7073978E2,4.09012E1,1.9827797E1,8.056761E0,2.6988354E2,1.00856255E2,2.7832386E1,1.3068813E1,1.4059648E1,5.768149E0],"tree_param":{"num_deleted":"0","num_feature":"45","num_nodes":"17","size_leaf_vector":"1"}},{"base_weights":[4.678633E-2,2.8736928E-2,5.946533E-2,5.049465E-2,7.784631E-3,4.582911E-1,-3.7856538E-2,4.1029986E-2,-9.546625E-3,2.0153835E-2,-4.3146536E-3],"categories":[],"categories_nodes":[],"categories_segments":[],"categories_sizes":[],"default_left":[0,0,0,0,0,0,0,0,0,0,0],"id":28,"left_children":[1,3,-1,-1,5,7,9,-1,-1,-1,-1],"loss_changes":[9.130896E0,9.007589E0,0E0,0E0,8.8668165E0,9.48738E0,8.400835E0,0E0,0E0,0E0,0E0],"parents":[2147483647,0,0,1,1,4,4,5,5,6,6],"right_children":[2,4,-1,-1,6,8,10,-1,-1,-1,-1],"split_conditions":[1.0873593E3,7.4961885E3,5.946533E-2,5.049465E-2,8.333E-2,3.3238E-2,1.1637E-2,4.1029986E-2,-9.546625E-3,2.0153835E-2,-4.3146536E-3],"split_indices":[11,15,0,0,13,5,28,0,0,0,0],"split_type":[0,0,0,0,0,0,0,0,0,0,0],"sum_hessian":[4.4343585E2,4.3754865E2,5.8871903E0,8.161502E0,4.2938715E2,3.866809E1,3.9071906E2,2.464861E1,1.4019482E1,3.7947655E1,3.5277142E2],"tree_param":{"num_deleted":"0","num_feature":"45","num_nodes":"11","size_leaf_vector":"1"}},{"base_weights":[-1.0427882E-2,-3.003808E-2,4.8104834E-2,8.258705E-1,-5.237614E-2,9.7719915E-3,6.6651836E-2,-9.092469E-3,-4.8148355E-1,1.3754395E-3,-3.202286E-2,1.2549685E-2,-4.136538E-2],"categories":[],"categories_nodes":[],"categories_segments":[],"categories_sizes":[],"default_left":[0,0,0,0,0,0,0,0,0,0,0,0,0],"id":29,"left_children":[1,3,-1,5,7,-1,-1,9,11,-1,-1,-1,-1],"loss_changes":[8.58662E0,8.4714575E0,0E0,3.343452E0,7.9923534E0,0E0,0E0,9.07898E0,1.0195737E1,0E0,0E0,0E0,0E0],"parents":[2147483647,0,0,1,1,3,3,4,4,7,7,8,8],"right_children":[2,4,-1,6,8,-1,-1,10,12,-1,-1,-1,-1],"split_conditions":[1.0873593E3,8.143E-3,4.8104834E-2,-1.3276E-2,6.341058E2,9.7719915E-3,6.6651836E-2,5.4912E-2,3.769E-1,1.3754395E-3,-3.202286E-2,1.2549685E-2,-4.136538E-2],"split_indices":[31,40,0,2,43,0,0,36,19,0,0,0,0],"split_type":[0,0,0,0,0,0,0,0,0,0,0,0,0],"sum_hessian":[4.4772025E2,4.398207E2,7.8995275E0,1.027184E1,4.2954886E2,5.197039E0,5.074801E0,3.9111832E2,3.8430557E1,3.7059097E2,2.0527342E1,1.2413081E1,2.6017475E1],"tree_param":{"num_deleted":"0","num_feature":"45","num_nodes":"13","size_leaf_vector":"1"}},{"base_weights":[1.4044078E-2,6.428606E-1,-2.6528519E-2,-1.0249004E-2,1.116682E0,-5.74228E-1,3.0300675E-2,6.9580235E-2,1.7960725E-2,-7.685396E-1,2.8257731E-2,6.468557E-2,-9.7426736E-1,-5.1675867E-2,1.4921153E-2,5.191719E-3,-3.0422295E-2,-2.3877911E-2,-6.1991602E-2],"categories":[],"categories_nodes":[],"categories_segments":[],"categories_sizes":[],"default_left":[0,0,0,0,0,0,0,0,0,0,0,0,0,0,0,0,0,0,0],"id":30,"left_children":[1,3,5,-1,7,9,11,-1,-1,13,-1,15,17,-1,-1,-1,-1,-1,-1],"loss_changes":[1.15407505E1,1.1242932E1,1.3253988E1,0E0,3.1949806E0,9.296293E0,1.3404501E1,0E0,0E0,1.0096149E1,0E0,9.929338E0,1.1022911E0,0E0,0E0,0E0,0E0,0E0,0E0],"parents":[2147483647,0,0,1,1,2,2,4,4,5,5,6,6,9,9,11,11,12,12],"right_children":[2,4,6,-1,8,10,12,-1,-1,14,-1,16,18,-1,-1,-1,-1,-1,-1],"split_conditions":[-8.224081E2,-6.099764E2,-5.684207E2,-1.0249004E-2,4.1304976E3,4.3294E-2,1.1302814E5,6.9580235E-2,1.7960725E-2,1.0401381E5,2.8257731E-2,5.1898E-2,1.1510714E5,-5.1675867E-2,1.4921153E-2,5.191719E-3,-3.0422295E-2,-2.3877911E-2,-6.1991602E-2],"split_indices":[11,10,39,0,20,6,14,0,0,16,0,36,15,0,0,0,0,0,0],"split_type":[0,0,0,0,0,0,0,0,0,0,0,0,0,0,0,0,0,0,0],"sum_hessian":[4.506844E2,2.6416843E1,4.2426755E2,9.673961E0,1.6742882E1,3.9027737E1,3.852398E2,1.1670057E1,5.072825E0,3.3619675E1,5.4080615E0,3.7339468E2,1.1845142E1,2.6956446E1,6.663227E0,3.5367117E2,1.9723505E1,5.1015453E0,6.743597E0],"tree_param":{"num_deleted":"0","num_feature":"45","num_nodes":"19","size_leaf_vector":"1"}},{"base_weights":[4.2139914E-2,5.626623E-2,2.486854E-2,4.45841E-2,-4.2657517E-2,2.0897321E-2,5.6506068E-2,5.456221E-2,1.8371751E-4],"categories":[],"categories_nodes":[],"categories_segments":[],"categories_sizes":[],"default_left":[0,0,0,0,0,0,0,0,0],"id":31,"left_children":[1,-1,3,5,-1,7,-1,-1,-1],"loss_changes":[8.441589E0,0E0,7.7696548E0,1.1233001E1,0E0,7.91274E0,0E0,0E0,0E0],"parents":[2147483647,0,0,2,2,3,3,5,5],"right_children":[2,-1,4,6,-1,8,-1,-1,-1],"split_conditions":[-3.49593E-1,5.626623E-2,1.15871555E5,1.1239046E5,-4.2657517E-2,7.433E-3,5.6506068E-2,5.456221E-2,1.8371751E-4],"split_indices":[2,0,14,15,0,32,0,0,0],"split_type":[0,0,0,0,0,0,0,0,0],"sum_hessian":[4.517226E2,6.082766E0,4.4563983E2,4.367813E2,8.858525E0,4.284516E2,8.329703E0,5.797502E0,4.226541E2],"tree_param":{"num_deleted":"0","num_feature":"45","num_nodes":"9","size_leaf_vector":"1"}},{"base_weights":[3.0008486E-2,-8.245998E-4,6.9142455E-1,6.23037E-1,-3.3864465E-2,-3.58757E-3,9.9984497E-1,-7.883681E-3,1.0610813E0,-4.513502E-1,1.7348606E-2,6.919522E-2,3.0591656E-2,6.633501E-2,2.5906852E-2,-6.617246E-2,-1.2554026E-2,3.5854434E-3,-1.7486183E-2],"categories":[],"categories_nodes":[],"categories_segments":[],"categories_sizes":[],"default_left":[0,0,0,0,0,0,0,0,0,0,0,0,0,0,0,0,0,0,0],"id":32,"left_children":[1,3,5,7,9,-1,11,-1,13,15,17,-1,-1,-1,-1,-1,-1,-1,-1],"loss_changes":[9.118392E0,8.846867E0,4.759309E0,7.549923E0,8.7224455E0,0E0,1.2768297E0,0E0,1.3255424E0,7.452633E0,7.2887635E0,0E0,0E0,0E0,0E0,0E0,0E0,0E0,0E0],"parents":[2147483647,0,0,1,1,2,2,3,3,4,4,6,6,8,8,9,9,10,10],"right_children":[2,4,6,8,10,-1,12,-1,14,16,18,-1,-1,-1,-1,-1,-1,-1,-1],"split_conditions":[1.9285E0,-8.45755E2,-1.4509E-2,3.88424E1,-5.515546E2,-3.58757E-3,4.8312E1,-7.883681E-3,4.0757014E3,2.404257E3,4.2509E-2,6.919522E-2,3.0591656E-2,6.633501E-2,2.5906852E-2,-6.617246E-2,-1.2554026E-2,3.5854434E-3,-1.7486183E-2],"split_indices":[17,11,29,30,43,0,34,0,20,20,36,0,0,0,0,0,0,0,0],"split_type":[0,0,0,0,0,0,0,0,0,0,0,0,0,0,0,0,0,0,0],"sum_hessian":[4.4609457E2,4.271796E2,1.8914982E1,2.05875E1,4.0659207E2,5.664852E0,1.325013E1,7.6295958E0,1.2957905E1,4.357317E1,3.6301892E2,5.369083E0,7.8810463E0,7.7318187E0,5.226086E0,7.0901046E0,3.6483063E1,3.1689423E2,4.612468E1],"tree_param":{"num_deleted":"0","num_feature":"45","num_nodes":"19","size_leaf_vector":"1"}},{"base_weights":[-2.2367705E-3,-2.7529871E-2,8.718402E-1,1.7624507E-2,-6.703122E-1,2.0031458E-2,5.829471E-2,-2.8087446E-2,5.6392497E-1,-3.0025753E-1,-6.280322E-2,-9.41926E-3,7.3360004E-3,4.8028305E-2,1.2912956E-2,2.1214923E-2,-3.062048E-2],"categories":[],"categories_nodes":[],"categories_segments":[],"categories_sizes":[],"default_left":[0,0,0,0,0,0,0,0,0,0,0,0,0,0,0,0,0],"id":33,"left_children":[1,3,5,7,9,-1,-1,11,13,15,-1,-1,-1,-1,-1,-1,-1],"loss_changes":[9.967481E0,1.2727033E1,1.2897911E0,1.0262192E1,5.8613243E0,0E0,0E0,1.066386E1,3.5987425E0,4.5462117E0,0E0,0E0,0E0,0E0,0E0,0E0,0E0],"parents":[2147483647,0,0,1,1,2,2,3,3,4,4,7,7,8,8,9,9],"right_children":[2,4,6,8,10,-1,-1,12,14,16,-1,-1,-1,-1,-1,-1,-1],"split_conditions":[1.0100722E3,6.673192E2,3.1566E-2,7.04186E1,3.2179E-2,2.0031458E-2,5.829471E-2,2.277797E3,2.2822E-2,5.239236E2,-6.280322E-2,-9.41926E-3,7.3360004E-3,4.8028305E-2,1.2912956E-2,2.1214923E-2,-3.062048E-2],"split_indices":[31,35,44,7,6,0,0,20,6,43,0,0,0,0,0,0,0],"split_type":[0,0,0,0,0,0,0,0,0,0,0,0,0,0,0,0,0],"sum_hessian":[4.4876605E2,4.370866E2,1.1679439E1,4.0930612E2,2.7780483E1,5.3956056E0,6.2838335E0,3.785771E2,3.0729036E1,1.7951834E1,9.8286495E0,1.9744403E2,1.8113307E2,1.2441732E1,1.8287304E1,5.2971096E0,1.2654725E1],"tree_param":{"num_deleted":"0","num_feature":"45","num_nodes":"17","size_leaf_vector":"1"}},{"base_weights":[2.8892318E-2,9.464595E-1,5.22432E-3,2.2568239E-2,6.434935E-2,-1.43367015E-2,5.5941332E-2,3.3846747E-2,-5.913732E-1,-2.5658607E-3,1.4421654E-2,-4.6249058E-2,-2.3922368E-3],"categories":[],"categories_nodes":[],"categories_segments":[],"categories_sizes":[],"default_left":[0,0,0,0,0,0,0,0,0,0,0,0,0],"id":34,"left_children":[1,3,5,-1,-1,7,-1,9,11,-1,-1,-1,-1],"loss_changes":[9.668338E0,1.3064966E0,9.49674E0,0E0,0E0,1.193954E1,0E0,8.613963E0,5.956314E0,0E0,0E0,0E0,0E0],"parents":[2147483647,0,0,1,1,2,2,5,5,7,7,8,8],"right_children":[2,4,6,-1,-1,8,-1,10,12,-1,-1,-1,-1],"split_conditions":[8.143E-3,-6.622E-3,1.0873593E3,2.2568239E-2,6.434935E-2,6.673192E2,5.5941332E-2,1.706915E2,1.15859E-1,-2.5658607E-3,1.4421654E-2,-4.6249058E-2,-2.3922368E-3],"split_indices":[40,2,31,0,0,39,0,11,2,0,0,0,0],"split_type":[0,0,0,0,0,0,0,0,0,0,0,0,0],"sum_hessian":[4.444249E2,1.0194962E1,4.3422995E2,5.102255E0,5.092706E0,4.2770422E2,6.525728E0,3.956114E2,3.2092827E1,2.970432E2,9.856817E1,1.9451834E1,1.2640991E1],"tree_param":{"num_deleted":"0","num_feature":"45","num_nodes":"13","size_leaf_vector":"1"}},{"base_weights":[-2.7381673E-3,-6.387308E-2,2.9222503E-1,3.9565798E-2,-8.771426E-2,5.9228957E-1,-4.0973134E-2,-7.165604E-1,-5.2241642E-2,-1.7783588E-2,8.014134E-1,1.4689983E-1,-4.477401E-2,-5.9910636E-2,2.6000807E-2,3.304643E-2,-4.7300644E-3,5.637875E-2,1.4592898E-2,2.0290049E-2,-3.682595E-2],"categories":[],"categories_nodes":[],"categories_segments":[],"categories_sizes":[],"default_left":[0,0,0,0,0,0,0,0,0,0,0,0,0,0,0,0,0,0,0,0,0],"id":35,"left_children":[1,3,5,-1,7,9,11,13,15,-1,17,19,-1,-1,-1,-1,-1,-1,-1,-1,-1],"loss_changes":[8.20474E0,7.752806E0,7.8343186E0,0E0,8.160878E0,8.445835E0,6.223897E0,1.2264734E1,1.0605049E1,0E0,5.3271523E0,7.6106977E0,0E0,0E0,0E0,0E0,0E0,0E0,0E0,0E0,0E0],"parents":[2147483647,0,0,1,1,2,2,4,4,5,5,6,6,7,7,8,8,10,10,11,11],"right_children":[2,4,6,-1,8,10,12,14,16,-1,18,20,-1,-1,-1,-1,-1,-1,-1,-1,-1],"split_conditions":[2.15293E-1,3.415991E2,3.31872E-1,3.9565798E-2,4.717179E2,1.41796E-1,4.7066E-2,-1.562E0,1.911812E4,-1.7783588E-2,7.9119E-2,8.08147E1,-4.477401E-2,-5.9910636E-2,2.6000807E-2,3.304643E-2,-4.7300644E-3,5.637875E-2,1.4592898E-2,2.0290049E-2,-3.682595E-2],"split_indices":[2,20,2,0,20,12,40,35,16,0,1,42,0,0,0,0,0,0,0,0,0],"split_type":[0,0,0,0,0,0,0,0,0,0,0,0,0,0,0,0,0,0,0,0,0],"sum_hessian":[4.5296097E2,3.758456E2,7.711538E1,9.320643E0,3.6652496E2,4.016597E1,3.694941E1,1.8546085E1,3.4797888E2,7.1326747E0,3.3033295E1,3.0968685E1,5.9807243E0,1.3369592E1,5.1764936E0,1.869111E1,3.2928775E2,1.9401636E1,1.363166E1,2.4367899E1,6.6007857E0],"tree_param":{"num_deleted":"0","num_feature":"45","num_nodes":"21","size_leaf_vector":"1"}},{"base_weights":[1.767718E-2,5.2972455E-2,-8.9408766E-4,-3.163614E-2,6.482106E-1,5.7607133E-2,-3.0162194E-1,1.5790735E-1,5.9064876E-2,5.1350025E-3,-2.4789711E-2,-3.0766333E-2,-3.1144422E-4,3.475452E-2,-1.9300694E-2],"categories":[],"categories_nodes":[],"categories_segments":[],"categories_sizes":[],"default_left":[0,0,0,0,0,0,0,0,0,0,0,0,0,0,0],"id":36,"left_children":[1,-1,3,5,7,9,11,13,-1,-1,-1,-1,-1,-1,-1],"loss_changes":[8.5783E0,0E0,8.732308E0,1.0083743E1,4.985571E0,7.9075065E0,9.628959E0,3.617339E0,0E0,0E0,0E0,0E0,0E0,0E0,0E0],"parents":[2147483647,0,0,2,2,3,3,4,4,5,5,6,6,7,7],"right_children":[2,-1,4,6,8,10,12,14,-1,-1,-1,-1,-1,-1,-1],"split_conditions":[-3.24533E-1,5.2972455E-2,7.71344E1,1.3982E-2,2.5467371E4,6.673192E2,3.2382E-2,3.68E-1,5.9064876E-2,5.1350025E-3,-2.4789711E-2,-3.0766333E-2,-3.1144422E-4,3.475452E-2,-1.9300694E-2],"split_indices":[2,0,38,37,16,39,2,2,0,0,0,0,0,0,0],"split_type":[0,0,0,0,0,0,0,0,0,0,0,0,0,0,0],"sum_hessian":[4.423422E2,6.7657137E0,4.3557648E2,4.1678836E2,1.8788128E1,3.1383685E2,1.02951515E2,1.0461991E1,8.326137E0,2.909442E2,2.2892645E1,4.9402958E1,5.3548557E1,5.12377E0,5.3382206E0],"tree_param":{"num_deleted":"0","num_feature":"45","num_nodes":"15","size_leaf_vector":"1"}},{"base_weights":[-3.1632802E-3,1.9369448E-2,-5.3200454E-2,-6.7425533E-3,8.6996824E-1,-2.3933869E-2,5.840034E-2,6.372764E-2,1.2605473E-2,2.1786371E-2,-3.4138958E-3],"categories":[],"categories_nodes":[],"categories_segments":[],"categories_sizes":[],"default_left":[0,0,0,0,0,0,0,0,0,0,0],"id":37,"left_children":[1,3,-1,5,7,9,-1,-1,-1,-1,-1],"loss_changes":[1.0633217E1,9.683586E0,0E0,8.585497E0,2.9246655E0,8.562254E0,0E0,0E0,0E0,0E0,0E0],"parents":[2147483647,0,0,1,1,3,3,4,4,5,5],"right_children":[2,4,-1,6,8,10,-1,-1,-1,-1,-1],"split_conditions":[1.15871555E5,9.44E-1,-5.3200454E-2,1.1492129E3,5.17265E1,1.1637E-2,5.840034E-2,6.372764E-2,1.2605473E-2,2.1786371E-2,-3.4138958E-3],"split_indices":[14,19,0,27,34,4,0,0,0,0,0],"split_type":[0,0,0,0,0,0,0,0,0,0,0],"sum_hessian":[4.4297247E2,4.347206E2,8.251873E0,4.2273538E2,1.1985216E1,4.176038E2,5.1316E0,6.6003437E0,5.384873E0,3.5965614E1,3.8163818E2],"tree_param":{"num_deleted":"0","num_feature":"45","num_nodes":"11","size_leaf_vector":"1"}},{"base_weights":[-2.2435555E-2,4.470233E-2,-4.4153407E-2,-2.164878E-1,6.4247064E-2,5.821071E-2,-2.7240688E-1,6.76171E-1,-2.4155155E-2,5.694609E-3,-2.1868689E-2,7.134386E-2,1.53543595E-2,-8.220502E-3,1.040639E-2],"categories":[],"categories_nodes":[],"categories_segments":[],"categories_sizes":[],"default_left":[0,0,0,0,0,0,0,0,0,0,0,0,0,0,0],"id":38,"left_children":[1,-1,3,5,7,-1,9,11,13,-1,-1,-1,-1,-1,-1],"loss_changes":[8.864447E0,0E0,8.122747E0,1.3275284E1,1.4472287E1,0E0,1.0380699E1,8.917776E0,7.6727653E0,0E0,0E0,0E0,0E0,0E0,0E0],"parents":[2147483647,0,0,2,2,3,3,4,4,6,6,7,7,8,8],"right_children":[2,-1,4,6,8,-1,10,12,14,-1,-1,-1,-1,-1,-1],"split_conditions":[8.143E-3,4.470233E-2,2.2788E-2,-8.224081E2,2.4733E-2,5.821071E-2,1.3407E-2,-2.2138E-2,8.4693E-2,5.694609E-3,-2.1868689E-2,7.134386E-2,1.53543595E-2,-8.220502E-3,1.040639E-2],"split_indices":[44,0,5,11,5,0,32,1,2,0,0,0,0,0,0],"split_type":[0,0,0,0,0,0,0,0,0,0,0,0,0,0,0],"sum_hessian":[4.423763E2,9.310525E0,4.3306577E2,1.6683516E2,2.6623062E2,5.7224364E0,1.6111273E2,3.276703E1,2.3346358E2,4.8305798E1,1.1280693E2,9.855407E0,2.2911621E1,1.4575024E2,8.771333E1],"tree_param":{"num_deleted":"0","num_feature":"45","num_nodes":"15","size_leaf_vector":"1"}},{"base_weights":[7.544989E-3,-1.4528545E-2,7.999619E-1,-3.327489E-1,4.0281996E-2,6.19734E-2,9.934193E-3,5.4017227E-2,-5.0147533E-1,-9.3975335E-2,2.8122595E-1,-4.420196E-3,-4.426308E-2,-1.6385356E-2,5.4252106E-3,2.0654827E-2,-1.6881084E-2],"categories":[],"categories_nodes":[],"categories_segments":[],"categories_sizes":[],"default_left":[0,0,0,0,0,0,0,0,0,0,0,0,0,0,0,0,0],"id":39,"left_children":[1,3,5,7,9,-1,-1,-1,11,13,15,-1,-1,-1,-1,-1,-1],"loss_changes":[7.5222926E0,7.3169317E0,2.8336945E0,1.5236967E1,1.1610495E1,0E0,0E0,0E0,8.75872E0,1.0954256E1,1.061704E1,0E0,0E0,0E0,0E0,0E0,0E0],"parents":[2147483647,0,0,1,1,2,2,3,3,4,4,8,8,9,9,10,10],"right_children":[2,4,6,8,10,-1,-1,-1,12,14,16,-1,-1,-1,-1,-1,-1],"split_conditions":[9.518E-1,1.7632E-2,5.09574E1,1.6855777E4,5.678473E4,6.19734E-2,9.934193E-3,5.4017227E-2,1.2476E-2,1.92553E-1,9.950014E4,-4.420196E-3,-4.426308E-2,-1.6385356E-2,5.4252106E-3,2.0654827E-2,-1.6881084E-2],"split_indices":[19,6,34,16,16,0,0,0,44,12,15,0,0,0,0,0,0],"split_type":[0,0,0,0,0,0,0,0,0,0,0,0,0,0,0,0,0],"sum_hessian":[4.2839114E2,4.1773636E2,1.0654782E1,6.0634167E1,3.571022E2,5.54226E0,5.1125216E0,5.8912954E0,5.474287E1,2.2971292E2,1.2738928E2,2.695808E1,2.7784792E1,1.0634053E2,1.2337239E2,1.0528625E2,2.2103035E1],"tree_param":{"num_deleted":"0","num_feature":"45","num_nodes":"17","size_leaf_vector":"1"}},{"base_weights":[-6.5197605E-3,4.3550467E-1,-6.299972E-2,9.393925E-1,9.668234E-2,-4.3468174E-1,3.3460546E-2,1.0422496E-2,6.3985385E-2,-4.9628976E-1,4.6135524E-1,-6.263874E-1,1.600516E-2,4.7328225E-1,-5.5733617E-2,-5.6263246E-2,8.107385E-3,5.367706E-2,1.2048536E-3,-3.7671346E-2,1.6579157E-2,4.3641552E-2,-3.843338E-2,3.7006848E-2,-2.455137E-2,1.358704E-2,-9.095317E-3],"categories":[],"categories_nodes":[],"categories_segments":[],"categories_sizes":[],"default_left":[0,0,0,0,0,0,0,0,0,0,0,0,0,0,0,0,0,0,0,0,0,0,0,0,0,0,0],"id":40,"left_children":[1,3,5,7,9,11,13,-1,-1,15,17,19,21,23,25,-1,-1,-1,-1,-1,-1,-1,-1,-1,-1,-1,-1],"loss_changes":[1.09586525E1,8.40028E0,1.3965415E1,4.6788273E0,6.9006166E0,6.9434624E0,1.2182396E1,0E0,0E0,5.2476435E0,5.226688E0,7.1046505E0,1.7427553E1,1.3834814E1,1.07309885E1,0E0,0E0,0E0,0E0,0E0,0E0,0E0,0E0,0E0,0E0,0E0,0E0],"parents":[2147483647,0,0,1,1,2,2,3,3,4,4,5,5,6,6,9,9,10,10,11,11,12,12,13,13,14,14],"right_children":[2,4,6,8,10,12,14,-1,-1,16,18,20,22,24,26,-1,-1,-1,-1,-1,-1,-1,-1,-1,-1,-1,-1],"split_conditions":[1.2476E-2,-5.46E-3,1.9908E-2,-3.3926E-2,-3.17323E1,1.706915E2,2.3658E-2,1.0422496E-2,6.3985385E-2,1.2952E-2,1.158403E2,1.0401381E5,1.0595575E3,9.950014E4,-1.5153E-2,-5.6263246E-2,8.107385E-3,5.367706E-2,1.2048536E-3,-3.7671346E-2,1.6579157E-2,4.3641552E-2,-3.843338E-2,3.7006848E-2,-2.455137E-2,1.358704E-2,-9.095317E-3],"split_indices":[32,1,5,2,39,27,6,0,0,40,39,16,9,15,0,0,0,0,0,0,0,0,0,0,0,0,0],"split_type":[0,0,0,0,0,0,0,0,0,0,0,0,0,0,0,0,0,0,0,0,0,0,0,0,0,0,0],"sum_hessian":[4.368525E2,4.8734547E1,3.8811795E2,1.8881678E1,2.9852869E1,7.924885E1,3.088691E2,6.510558E0,1.237112E1,1.1230587E1,1.8622282E1,5.5325546E1,2.3923307E1,5.135051E1,2.575186E2,5.38119E0,5.849397E0,7.152798E0,1.1469483E1,4.9036213E1,6.2893305E0,1.1382165E1,1.2541142E1,4.0402374E1,1.0948134E1,7.130267E1,1.8621593E2],"tree_param":{"num_deleted":"0","num_feature":"45","num_nodes":"27","size_leaf_vector":"1"}},{"base_weights":[8.285565E-3,6.62679E-1,-1.8674185E-2,-4.2318096E-3,9.8664737E-1,-4.7251943E-2,6.137011E-1,2.5074182E-2,6.588602E-2,-1.2013436E-3,-5.8905554E-1,8.463176E-1,3.9413157E-3,-1.9946373E-3,3.2930575E-2,-3.7609033E-2,6.1381496E-3,5.7064395E-2,2.0105096E-2],"categories":[],"categories_nodes":[],"categories_segments":[],"categories_sizes":[],"default_left":[0,0,0,0,0,0,0,0,0,0,0,0,0,0,0,0,0,0,0],"id":41,"left_children":[1,3,5,-1,7,9,11,-1,-1,13,15,17,-1,-1,-1,-1,-1,-1,-1],"loss_changes":[7.769142E0,4.3020225E0,7.6778245E0,0E0,1.3042555E0,1.0125991E1,2.2190704E0,0E0,0E0,9.601739E0,3.7839718E0,1.2052488E0,0E0,0E0,0E0,0E0,0E0,0E0,0E0],"parents":[2147483647,0,0,1,1,2,2,4,4,5,5,6,6,9,9,10,10,11,11],"right_children":[2,4,6,-1,8,10,12,-1,-1,14,16,18,-1,-1,-1,-1,-1,-1,-1],"split_conditions":[9.402E-3,-1.57531E1,7.71344E1,-4.2318096E-3,-7.66316E1,6.673192E2,6.856E-1,2.5074182E-2,6.588602E-2,5.1118E-2,9.424429E2,1.8873E-2,3.9413157E-3,-1.9946373E-3,3.2930575E-2,-3.7609033E-2,6.1381496E-3,5.7064395E-2,2.0105096E-2],"split_indices":[36,11,38,0,10,39,19,0,0,6,27,37,0,0,0,0,0,0,0],"split_type":[0,0,0,0,0,0,0,0,0,0,0,0,0,0,0,0,0,0,0],"sum_hessian":[4.386691E2,1.6424213E1,4.2224487E2,5.190276E0,1.1233936E1,4.0487347E2,1.7371412E1,5.5765805E0,5.6573563E0,3.740807E2,3.0792772E1,1.1700575E1,5.670839E0,3.542472E2,1.9833502E1,2.5005615E1,5.7871566E0,6.0884624E0,5.612112E0],"tree_param":{"num_deleted":"0","num_feature":"45","num_nodes":"19","size_leaf_vector":"1"}},{"base_weights":[-3.0792046E-2,-5.7289076E-1,1.2133909E-2,2.7480308E-2,-8.2777375E-1,-1.1879587E-2,4.5675952E-2,-1.3882368E-2,-1.1408782E0,4.5759764E-2,-3.4782995E-2,-3.6229033E-2,-7.2047934E-2,-1.3957E-2,2.946155E-3],"categories":[],"categories_nodes":[],"categories_segments":[],"categories_sizes":[],"default_left":[0,0,0,0,0,0,0,0,0,0,0,0,0,0,0],"id":42,"left_children":[1,3,5,-1,7,9,-1,-1,11,-1,13,-1,-1,-1,-1],"loss_changes":[1.024402E1,9.696138E0,8.855678E0,0E0,4.286007E0,8.504024E0,0E0,0E0,1.043108E0,0E0,8.954599E0,0E0,0E0,0E0,0E0],"parents":[2147483647,0,0,1,1,2,2,4,4,5,5,8,8,10,10],"right_children":[2,4,6,-1,8,10,-1,-1,12,-1,14,-1,-1,-1,-1],"split_conditions":[-7.433642E2,4.4069926E4,9.518E-1,2.7480308E-2,-6.629E-3,8.408E-3,4.5675952E-2,-1.3882368E-2,-9.367642E2,4.5759764E-2,1.9847E-2,-3.6229033E-2,-7.2047934E-2,-1.3957E-2,2.946155E-3],"split_indices":[43,16,19,0,0,36,0,0,39,0,5,0,0,0,0],"split_type":[0,0,0,0,0,0,0,0,0,0,0,0,0,0,0],"sum_hessian":[4.3892355E2,3.129996E1,4.076236E2,5.578057E0,2.5721903E1,3.9800726E2,9.616356E0,1.0014E1,1.5707902E1,8.656441E0,3.893508E2,8.01015E0,7.6977515E0,1.0737377E2,2.8197702E2],"tree_param":{"num_deleted":"0","num_feature":"45","num_nodes":"15","size_leaf_vector":"1"}},{"base_weights":[-1.4888534E-2,5.7235815E-2,-3.1140793E-2,2.2052715E-2,-4.7954482E-1,8.0477935E-1,-1.3429479E-2,-7.6381576E-1,3.324351E-1,6.658156E-2,1.712125E-2,-2.9909164E-3,2.34517E-2,-2.6043627E-2,-7.7693306E-2,6.168101E-2,-3.0879814E-2],"categories":[],"categories_nodes":[],"categories_segments":[],"categories_sizes":[],"default_left":[0,0,0,0,0,0,0,0,0,0,0,0,0,0,0,0,0],"id":43,"left_children":[1,-1,3,5,7,9,11,13,15,-1,-1,-1,-1,-1,-1,-1,-1],"loss_changes":[8.415753E0,0E0,1.0493258E1,1.0948724E1,1.1021914E1,3.7083063E0,8.482214E0,5.8809547E0,1.1715348E1,0E0,0E0,0E0,0E0,0E0,0E0,0E0,0E0],"parents":[2147483647,0,0,2,2,3,3,4,4,5,5,6,6,7,7,8,8],"right_children":[2,-1,4,6,8,10,12,14,16,-1,-1,-1,-1,-1,-1,-1,-1],"split_conditions":[-3.49593E-1,5.7235815E-2,4.5018E-2,-1.86394E-1,5.124287E2,2.2387E-2,3.8834E-2,-6.1766E-2,5.75192E1,6.658156E-2,1.712125E-2,-2.9909164E-3,2.34517E-2,-2.6043627E-2,-7.7693306E-2,6.168101E-2,-3.0879814E-2],"split_indices":[2,0,5,2,10,36,41,2,26,0,0,0,0,0,0,0,0],"split_type":[0,0,0,0,0,0,0,0,0,0,0,0,0,0,0,0,0],"sum_hessian":[4.4365768E2,5.1723757E0,4.384853E2,3.9283472E2,4.565058E1,1.609533E1,3.7673938E2,3.3856777E1,1.1793806E1,6.644184E0,9.451145E0,3.4449246E2,3.224692E1,2.7163267E1,6.6935086E0,5.8993087E0,5.8944974E0],"tree_param":{"num_deleted":"0","num_feature":"45","num_nodes":"17","size_leaf_vector":"1"}},{"base_weights":[-2.1522548E-2,2.4723376E-1,-1.2350799E-1,-2.585106E-2,5.169318E-1,-6.7247075E-1,-2.7330397E-2,7.531437E-1,-5.892061E-1,7.080607E-1,-3.2859063E-1,-9.749876E-1,-3.069009E-1,-1.882783E-1,2.5094905E-1,-2.3090098E-2,5.93217E-2,-7.430302E-2,-1.0575763E-2,1.6935363E-2,4.7676276E-2,8.045273E-3,-3.9996248E-2,-1.7986134E-2,-7.2556905E-2,5.1746186E-2,-3.8224738E-2,1.0054082E-2,-1.6916601E-2,1.6928231E-2,-5.6780387E-2],"categories":[],"categories_nodes":[],"categories_segments":[],"categories_sizes":[],"default_left":[0,0,0,0,0,0,0,0,0,0,0,0,0,0,0,0,0,0,0,0,0,0,0,0,0,0,0,0,0,0,0],"id":44,"left_children":[1,3,5,7,9,11,13,15,17,19,21,23,25,27,29,-1,-1,-1,-1,-1,-1,-1,-1,-1,-1,-1,-1,-1,-1,-1,-1],"loss_changes":[1.188481E1,8.80024E0,1.6570038E1,2.687693E1,9.940592E0,4.8760643E0,1.2068043E1,1.4086108E1,1.1715948E1,4.1479797E0,2.8416276E0,6.8451023E0,1.4698167E1,1.0036154E1,1.2384182E1,0E0,0E0,0E0,0E0,0E0,0E0,0E0,0E0,0E0,0E0,0E0,0E0,0E0,0E0,0E0,0E0],"parents":[2147483647,0,0,1,1,2,2,3,3,4,4,5,5,6,6,7,7,8,8,9,9,10,10,11,11,12,12,13,13,14,14],"right_children":[2,4,6,8,10,12,14,16,18,20,22,24,26,28,30,-1,-1,-1,-1,-1,-1,-1,-1,-1,-1,-1,-1,-1,-1,-1,-1],"split_conditions":[4.41731E1,2.3028945E3,-4.0676E-2,9.189444E2,4.6526E-2,-5.342235E2,1.706915E2,2.75644E1,2.0144E-2,-5.931484E2,-1.5396E-2,4.63379E1,-3.041022E2,-2.011122E2,1.1356684E5,-2.3090098E-2,5.93217E-2,-7.430302E-2,-1.0575763E-2,1.6935363E-2,4.7676276E-2,8.045273E-3,-3.9996248E-2,-1.7986134E-2,-7.2556905E-2,5.1746186E-2,-3.8224738E-2,1.0054082E-2,-1.6916601E-2,1.6928231E-2,-5.6780387E-2],"split_indices":[7,20,2,20,5,9,27,8,40,11,0,7,9,11,16,0,0,0,0,0,0,0,0,0,0,0,0,0,0,0,0],"split_type":[0,0,0,0,0,0,0,0,0,0,0,0,0,0,0,0,0,0,0,0,0,0,0,0,0,0,0,0,0,0,0],"sum_hessian":[4.3149207E2,1.1830515E2,3.1318692E2,5.9232735E1,5.907242E1,4.5796654E1,2.6739026E2,2.4717306E1,3.451543E1,4.8313755E1,1.0758664E1,2.4147255E1,2.16494E1,1.6961424E2,9.777602E1,6.4804177E0,1.8236889E1,9.358469E0,2.5156961E1,2.0239313E1,2.8074442E1,5.600735E0,5.1579294E0,1.1300556E1,1.2846698E1,5.1846204E0,1.646478E1,4.7088573E1,1.22525665E2,9.267572E1,5.1002927E0],"tree_param":{"num_deleted":"0","num_feature":"45","num_nodes":"31","size_leaf_vector":"1"}},{"base_weights":[2.4977176E-2,-1.906701E-2,4.6464407E-1,5.651944E-2,-3.383901E-1,8.0170906E-1,-5.5143405E-2,1.07450865E-1,-5.166707E-1,-4.9724865E-1,1.23938374E-1,-7.2954845E-4,1.050096E0,2.5119916E-1,-3.141611E-2,-1.2849524E-3,1.5348092E-2,2.0990359E-2,-4.357441E-2,-7.048841E-2,-1.7863626E-2,-2.3262566E-2,3.2079566E-2,3.6688603E-2,7.033624E-2,3.2615524E-2,-8.445568E-3],"categories":[],"categories_nodes":[],"categories_segments":[],"categories_sizes":[],"default_left":[0,0,0,0,0,0,0,0,0,0,0,0,0,0,0,0,0,0,0,0,0,0,0,0,0,0,0],"id":45,"left_children":[1,3,5,7,9,11,13,15,17,19,21,-1,23,25,-1,-1,-1,-1,-1,-1,-1,-1,-1,-1,-1,-1,-1],"loss_changes":[8.501599E0,9.663916E0,7.0475616E0,9.5132265E0,5.6894197E0,4.94497E0,3.0831552E0,7.933728E0,9.207636E0,6.8063374E0,6.519307E0,0E0,1.0722065E0,2.0601325E0,0E0,0E0,0E0,0E0,0E0,0E0,0E0,0E0,0E0,0E0,0E0,0E0,0E0],"parents":[2147483647,0,0,1,1,2,2,3,3,4,4,5,5,6,6,7,7,8,8,9,9,10,10,12,12,13,13],"right_children":[2,4,6,8,10,12,14,16,18,20,22,-1,24,26,-1,-1,-1,-1,-1,-1,-1,-1,-1,-1,-1,-1,-1],"split_conditions":[3.8834E-2,1.3774E-2,6.0812E-2,6.673192E2,1.3105885E3,-4.4474E-2,8.13878E-1,3.2382E-2,1.6565E-2,-4.531568E2,2.68959E2,-7.2954845E-4,4.769E-2,2.618818E2,-3.141611E-2,-1.2849524E-3,1.5348092E-2,2.0990359E-2,-4.357441E-2,-7.048841E-2,-1.7863626E-2,-2.3262566E-2,3.2079566E-2,3.6688603E-2,7.033624E-2,3.2615524E-2,-8.445568E-3],"split_indices":[41,41,41,43,10,2,13,2,4,39,43,0,41,39,0,0,0,0,0,0,0,0,0,0,0,0,0],"split_type":[0,0,0,0,0,0,0,0,0,0,0,0,0,0,0,0,0,0,0,0,0,0,0,0,0,0,0],"sum_hessian":[4.3756653E2,3.9859357E2,3.8972977E1,3.2296747E2,7.56261E1,2.3312933E1,1.5660044E1,2.9735794E2,2.5609518E1,5.622973E1,1.9396366E1,5.658399E0,1.7654533E1,1.0571641E1,5.0884023E0,1.7886078E2,1.1849717E2,6.9865623E0,1.8622955E1,6.271788E0,4.9957943E1,9.11872E0,1.0277646E1,1.0976276E1,6.6782575E0,5.12536E0,5.446281E0],"tree_param":{"num_deleted":"0","num_feature":"45","num_nodes":"27","size_leaf_vector":"1"}},{"base_weights":[1.1398326E-2,6.319471E-1,-2.1723164E-2,8.8221276E-1,-8.968424E-3,-4.6590213E-2,8.949199E-1,9.083416E-3,1.257434E0,1.4828855E-2,-5.515585E-1,2.4658695E-2,5.7481766E-2,3.949335E-2,7.5729676E-2,-2.9300813E-2,2.81944E-3,-1.2734132E-2,-5.2225776E-2],"categories":[],"categories_nodes":[],"categories_segments":[],"categories_sizes":[],"default_left":[0,0,0,0,0,0,0,0,0,0,0,0,0,0,0,0,0,0,0],"id":46,"left_children":[1,3,5,7,-1,9,11,-1,13,15,17,-1,-1,-1,-1,-1,-1,-1,-1],"loss_changes":[9.061813E0,4.6941013E0,9.589774E0,4.3037224E0,0E0,1.2686016E1,5.7022667E-1,0E0,1.334076E-1,9.157877E0,6.224925E0,0E0,0E0,0E0,0E0,0E0,0E0,0E0,0E0],"parents":[2147483647,0,0,1,1,2,2,3,3,5,5,6,6,8,8,9,9,10,10],"right_children":[2,4,6,8,-1,10,12,-1,14,16,18,-1,-1,-1,-1,-1,-1,-1,-1],"split_conditions":[-1.14684E-1,3.8417805E3,1.0100722E3,2.0228098E3,-8.968424E-3,5.563389E2,3.2257E-2,9.083416E-3,-9.93181E1,3.46711E1,3.28E-2,2.4658695E-2,5.7481766E-2,3.949335E-2,7.5729676E-2,-2.9300813E-2,2.81944E-3,-1.2734132E-2,-5.2225776E-2],"split_indices":[1,20,31,20,0,39,44,0,39,34,6,0,0,0,0,0,0,0,0],"split_type":[0,0,0,0,0,0,0,0,0,0,0,0,0,0,0,0,0,0,0],"sum_hessian":[4.3922113E2,2.1339249E1,4.1788187E2,1.624178E1,5.09747E0,4.0776892E2,1.011294E1,6.1827126E0,1.0059067E1,3.6441583E2,4.3353104E1,5.0632243E0,5.049716E0,5.014045E0,5.045022E0,2.2728102E1,3.4168774E2,2.8004477E1,1.5348627E1],"tree_param":{"num_deleted":"0","num_feature":"45","num_nodes":"19","size_leaf_vector":"1"}},{"base_weights":[2.0552969E-2,3.3299315E-1,-2.8514141E-2,-2.7238676E-2,4.6099383E-1,-5.4170334E-1,1.6426688E-2,5.8744156E-1,-2.642401E-2,-1.074958E0,2.644791E-2,2.699903E-1,-7.081696E-2,1.2612045E-2,4.3138877E-2,-1.274831E-2,-7.0738666E-2,1.7841293E-2,-3.7870638E-2,1.1346743E-2,-8.3911475E-3],"categories":[],"categories_nodes":[],"categories_segments":[],"categories_sizes":[],"default_left":[0,0,0,0,0,0,0,0,0,0,0,0,0,0,0,0,0,0,0,0,0],"id":47,"left_children":[1,3,5,-1,7,9,11,13,-1,15,-1,17,19,-1,-1,-1,-1,-1,-1,-1,-1],"loss_changes":[6.7274413E0,6.9425764E0,8.764833E0,0E0,6.8813915E0,1.803867E1,7.7628927E0,4.1239223E0,0E0,5.4227257E0,0E0,8.283373E0,7.5834804E0,0E0,0E0,0E0,0E0,0E0,0E0,0E0,0E0],"parents":[2147483647,0,0,1,1,2,2,4,4,5,5,6,6,7,7,9,9,11,11,12,12],"right_children":[2,4,6,-1,8,10,12,14,-1,16,-1,18,20,-1,-1,-1,-1,-1,-1,-1,-1],"split_conditions":[1.307E-2,9.683E-3,1.7216E-2,-2.7238676E-2,4.9522E-2,1.645381E2,-1.5153E-2,-7.1685E0,-2.642401E-2,-3.445327E2,2.644791E-2,9.950014E4,2.3732E-2,1.2612045E-2,4.3138877E-2,-1.274831E-2,-7.0738666E-2,1.7841293E-2,-3.7870638E-2,1.1346743E-2,-8.3911475E-3],"split_indices":[4,5,6,0,1,11,0,35,0,9,0,15,6,0,0,0,0,0,0,0,0],"split_type":[0,0,0,0,0,0,0,0,0,0,0,0,0,0,0,0,0,0,0,0,0],"sum_hessian":[4.3720688E2,5.8556362E1,3.786505E2,7.0378914E0,5.151847E1,2.9599026E1,3.4905148E2,4.604106E1,5.4774103E0,1.9755547E1,9.843479E0,8.881788E1,2.602336E2,2.1627428E1,2.4413631E1,6.3010645E0,1.3454482E1,8.2497894E1,6.319985E0,6.3619488E1,1.9661412E2],"tree_param":{"num_deleted":"0","num_feature":"45","num_nodes":"21","size_leaf_vector":"1"}},{"base_weights":[1.435433E-2,-1.9538732E-2,6.6440445E-1,1.1647246E-2,-7.7645636E-1,1.0984571E0,-7.1152435E-3,-7.13878E-2,2.6169872E-1,2.9065364E-4,-6.187135E-2,7.491946E-2,1.4681043E-2,-5.7669454E-3,3.0490875E-2,5.8266528E-2,6.6720904E-3],"categories":[],"categories_nodes":[],"categories_segments":[],"categories_sizes":[],"default_left":[0,0,0,0,0,0,0,0,0,0,0,0,0,0,0,0,0],"id":48,"left_children":[1,3,5,7,9,11,-1,13,15,-1,-1,-1,-1,-1,-1,-1,-1],"loss_changes":[9.753639E0,9.950918E0,7.8378296E0,8.437923E0,6.0224037E0,4.1879826E0,0E0,9.207718E0,1.1584779E1,0E0,0E0,0E0,0E0,0E0,0E0,0E0,0E0],"parents":[2147483647,0,0,1,1,2,2,3,3,4,4,5,5,7,7,8,8],"right_children":[2,4,6,8,10,12,-1,14,16,-1,-1,-1,-1,-1,-1,-1,-1],"split_conditions":[5.1118E-2,4.4471E-2,1.749142E2,3.1889E-2,1.768897E2,6.0105E-2,-7.1152435E-3,7.39998E1,1.22872E-1,2.9065364E-4,-6.187135E-2,7.491946E-2,1.4681043E-2,-5.7669454E-3,3.0490875E-2,5.8266528E-2,6.6720904E-3],"split_indices":[6,6,11,44,43,5,0,42,12,0,0,0,0,0,0,0,0],"split_type":[0,0,0,0,0,0,0,0,0,0,0,0,0,0,0,0,0],"sum_hessian":[4.411103E2,4.2017276E2,2.093751E1,4.044918E2,1.5680969E1,1.3377856E1,7.5596533E0,3.0419257E2,1.0029925E2,6.1803217E0,9.500648E0,8.361301E0,5.0165553E0,2.8653604E2,1.7656513E1,1.1461509E1,8.8837746E1],"tree_param":{"num_deleted":"0","num_feature":"45","num_nodes":"17","size_leaf_vector":"1"}},{"base_weights":[2.0647526E-2,3.7125673E-2,-5.2761406E-2,1.4119026E-2,4.7647726E-2,4.78622E-1,-2.0028079E-2,-2.4187038E-2,4.9631465E-2,-3.4447905E-2,7.915985E-4],"categories":[],"categories_nodes":[],"categories_segments":[],"categories_sizes":[],"default_left":[0,0,0,0,0,0,0,0,0,0,0],"id":49,"left_children":[1,3,-1,5,-1,7,9,-1,-1,-1,-1],"loss_changes":[7.8663483E0,9.169121E0,0E0,6.768855E0,0E0,1.49352665E1,9.556224E0,0E0,0E0,0E0,0E0],"parents":[2147483647,0,0,1,1,3,3,5,5,6,6],"right_children":[2,4,-1,6,-1,8,10,-1,-1,-1,-1],"split_conditions":[1.180075E5,1.0100722E3,-5.2761406E-2,-7.31717E2,4.7647726E-2,-9.6001E-2,-5.720154E2,-2.4187038E-2,4.9631465E-2,-3.4447905E-2,7.915985E-4],"split_indices":[14,31,0,11,0,2,27,0,0,0,0],"split_type":[0,0,0,0,0,0,0,0,0,0,0],"sum_hessian":[4.4050375E2,4.348097E2,5.694067E0,4.25145E2,9.664702E0,2.8222189E1,3.969228E2,9.84623E0,1.837596E1,1.9268963E1,3.7765384E2],"tree_param":{"num_deleted":"0","num_feature":"45","num_nodes":"11","size_leaf_vector":"1"}},{"base_weights":[2.683404E-2,5.198832E-2,-7.1624863E-1,5.1105106E-1,7.9238685E-3,1.7139163E-3,-6.681647E-2,-1.7585943E-2,7.5241554E-1,-1.2930301E-2,4.46777E-2,5.0282188E-2,6.8080256E-4,1.3409908E-3,-3.1715322E-2],"categories":[],"categories_nodes":[],"categories_segments":[],"categories_sizes":[],"default_left":[0,0,0,0,0,0,0,0,0,0,0,0,0,0,0],"id":50,"left_children":[1,3,5,7,9,-1,-1,-1,11,13,-1,-1,-1,-1,-1],"loss_changes":[8.195077E0,8.5542345E0,6.7278495E0,7.9775887E0,7.159925E0,0E0,0E0,0E0,5.46047E0,9.381359E0,0E0,0E0,0E0,0E0,0E0],"parents":[2147483647,0,0,1,1,2,2,3,3,4,4,8,8,9,9],"right_children":[2,4,6,8,10,-1,-1,-1,12,14,-1,-1,-1,-1,-1],"split_conditions":[1.1302814E5,1.1637E-2,1.5031E-2,2.71101E-1,1.0100722E3,1.7139163E-3,-6.681647E-2,-1.7585943E-2,2.1653E-2,6.823809E2,4.46777E-2,5.0282188E-2,6.8080256E-4,1.3409908E-3,-3.1715322E-2],"split_indices":[14,4,5,13,31,0,0,0,1,31,0,0,0,0,0],"split_type":[0,0,0,0,0,0,0,0,0,0,0,0,0,0,0],"sum_hessian":[4.3544168E2,4.2208368E2,1.3358024E1,3.60384E1,3.8604526E2,6.470747E0,6.8872766E0,7.7780695E0,2.8260328E1,3.7812683E2,7.918453E0,2.0777517E1,7.4828115E0,3.5629132E2,2.183551E1],"tree_param":{"num_deleted":"0","num_feature":"45","num_nodes":"15","size_leaf_vector":"1"}},{"base_weights":[1.2692901E-2,2.2850858E-1,-6.380611E-2,-2.3972441E-1,5.498972E-1,-5.5559468E-2,-3.5890516E-2,-5.126063E-1,3.1028968E-1,7.0896916E-2,4.2714912E-1,-1.3952017E-1,2.1687187E-1,3.5942656E-3,-4.70395E-2,3.7674334E-2,-2.6609797E-2,5.2817028E-2,1.2399666E-2,-1.6502272E-2,1.0931431E-2,2.6739338E-2,-4.7695558E-3],"categories":[],"categories_nodes":[],"categories_segments":[],"categories_sizes":[],"default_left":[0,0,0,0,0,0,0,0,0,0,0,0,0,0,0,0,0,0,0,0,0,0,0],"id":51,"left_children":[1,3,5,7,9,-1,11,13,15,-1,17,19,21,-1,-1,-1,-1,-1,-1,-1,-1,-1,-1],"loss_changes":[7.1526613E0,1.7191761E1,9.316109E0,7.188979E0,6.5894775E0,0E0,8.221461E0,7.9970036E0,6.4331036E0,0E0,6.568306E0,1.5247612E1,9.116778E0,0E0,0E0,0E0,0E0,0E0,0E0,0E0,0E0,0E0,0E0],"parents":[2147483647,0,0,1,1,2,2,3,3,4,4,6,6,7,7,8,8,10,10,11,11,12,12],"right_children":[2,4,6,8,10,-1,12,14,16,-1,18,20,22,-1,-1,-1,-1,-1,-1,-1,-1,-1,-1],"split_conditions":[-2.063771E2,4.15461E1,-7.433642E2,-6.4278E-2,1.531326E3,-5.5559468E-2,3.2436E-2,3.21062E1,3.0428E-2,7.0896916E-2,-8.224081E2,1.768897E2,1.645381E2,3.5942656E-3,-4.70395E-2,3.7674334E-2,-2.6609797E-2,5.2817028E-2,1.2399666E-2,-1.6502272E-2,1.0931431E-2,2.6739338E-2,-4.7695558E-3],"split_indices":[31,34,43,2,20,0,44,7,32,0,11,11,39,0,0,0,0,0,0,0,0,0,0],"split_type":[0,0,0,0,0,0,0,0,0,0,0,0,0,0,0,0,0,0,0,0,0,0,0],"sum_hessian":[4.3135718E2,1.1236653E2,3.1899066E2,4.5838398E1,6.652813E1,7.273828E0,3.1171683E2,3.068331E1,1.5155087E1,6.9348874E0,5.9593246E1,2.2139532E2,9.03215E1,1.3325486E1,1.7357822E1,1.0000091E1,5.154997E0,1.2122624E1,4.747062E1,1.4456775E2,7.682758E1,4.4402603E1,4.59189E1],"tree_param":{"num_deleted":"0","num_feature":"45","num_nodes":"23","size_leaf_vector":"1"}},{"base_weights":[-2.2247232E-2,6.7898154E-1,-4.4652417E-2,6.3604794E-2,-4.4588195E-3,5.8514816E-1,-7.07027E-2,-7.113792E-3,9.0218306E-1,-4.586947E-2,-8.802818E-1,2.3428002E-2,5.8640063E-2,-3.5026444E-3,3.9804365E-2,-9.013717E-3,-6.960306E-2],"categories":[],"categories_nodes":[],"categories_segments":[],"categories_sizes":[],"default_left":[0,0,0,0,0,0,0,0,0,0,0,0,0,0,0,0,0],"id":52,"left_children":[1,3,5,-1,-1,7,9,-1,11,13,15,-1,-1,-1,-1,-1,-1],"loss_changes":[6.92086E0,6.32832E0,7.0294743E0,0E0,0E0,4.0548472E0,8.200632E0,0E0,8.5793114E-1,8.175176E0,4.099803E0,0E0,0E0,0E0,0E0,0E0,0E0],"parents":[2147483647,0,0,1,1,2,2,5,5,6,6,8,8,9,9,10,10],"right_children":[2,4,6,-1,-1,8,10,-1,12,14,16,-1,-1,-1,-1,-1,-1],"split_conditions":[-2.85636E-1,3.18542E1,9.153E-3,6.3604794E-2,-4.4588195E-3,4.906E-1,1.1302814E5,-7.113792E-3,2.9607543E4,9.735895E2,1.5031E-2,2.3428002E-2,5.8640063E-2,-3.5026444E-3,3.9804365E-2,-9.013717E-3,-6.960306E-2],"split_indices":[2,8,32,0,0,18,14,0,14,27,5,0,0,0,0,0,0],"split_type":[0,0,0,0,0,0,0,0,0,0,0,0,0,0,0,0,0],"sum_hessian":[4.3757626E2,1.2640923E1,4.2493536E2,6.763002E0,5.877921E0,1.6025883E1,4.0890945E2,5.031814E0,1.0994069E1,3.9776498E2,1.11444845E1,5.2742915E0,5.7197776E0,3.8755023E2,1.0214756E1,5.2778025E0,5.866682E0],"tree_param":{"num_deleted":"0","num_feature":"45","num_nodes":"17","size_leaf_vector":"1"}},{"base_weights":[-3.496481E-3,1.199363E-1,-1.3464764E-1,-3.454139E-1,2.248811E-1,-4.5816377E-1,2.1038365E-2,-5.058609E-1,3.52986E-2,3.161241E-1,-2.354717E-1,-4.5227006E-2,-8.0480856E-1,7.247963E-1,-1.7505613E-1,-4.3866664E-2,8.487209E-3,4.087318E-3,3.3607554E-2,2.3601286E-2,-3.7277542E-2,4.256841E-2,-1.1992562E-2,-7.62837E-2,-2.510654E-2,4.5143448E-2,-4.8851753E-3,-3.139803E-2,-4.4268704E-4],"categories":[],"categories_nodes":[],"categories_segments":[],"categories_sizes":[],"default_left":[0,0,0,0,0,0,0,0,0,0,0,0,0,0,0,0,0,0,0,0,0,0,0,0,0,0,0,0,0],"id":53,"left_children":[1,3,5,7,9,11,13,15,-1,17,19,21,23,25,27,-1,-1,-1,-1,-1,-1,-1,-1,-1,-1,-1,-1,-1,-1],"loss_changes":[7.134545E0,1.1166215E1,1.0771396E1,7.47201E0,7.8821115E0,9.906461E0,2.0165718E1,9.478729E0,0E0,1.2925621E1,1.1654892E1,5.920638E0,7.4601555E0,4.7512913E0,8.60337E0,0E0,0E0,0E0,0E0,0E0,0E0,0E0,0E0,0E0,0E0,0E0,0E0,0E0,0E0],"parents":[2147483647,0,0,1,1,2,2,3,3,4,4,5,5,6,6,7,7,9,9,10,10,11,11,12,12,13,13,14,14],"right_children":[2,4,6,8,10,12,14,16,-1,18,20,22,24,26,28,-1,-1,-1,-1,-1,-1,-1,-1,-1,-1,-1,-1,-1,-1],"split_conditions":[5.16233E1,-5.684207E2,6.0543E-2,5.1118E-2,2.521843E2,2.0111E-2,-9.492E-3,9.353151E4,3.52986E-2,4.2014145E4,2.4812E-2,-2.183621E2,1.1813214E3,3.8447E-2,1.9847E-2,-4.3866664E-2,8.487209E-3,4.087318E-3,3.3607554E-2,2.3601286E-2,-3.7277542E-2,4.256841E-2,-1.1992562E-2,-7.62837E-2,-2.510654E-2,4.5143448E-2,-4.8851753E-3,-3.139803E-2,-4.4268704E-4],"split_indices":[42,39,2,6,39,44,1,15,0,16,40,9,20,32,5,0,0,0,0,0,0,0,0,0,0,0,0,0,0],"split_type":[0,0,0,0,0,0,0,0,0,0,0,0,0,0,0,0,0,0,0,0,0,0,0,0,0,0,0,0,0],"sum_hessian":[4.387233E2,2.2605623E2,2.1266708E2,4.117686E1,1.8487936E2,6.846132E1,1.4420575E2,3.6175198E1,5.001662E0,1.5455876E2,3.0320612E1,3.1759108E1,3.6702213E1,3.0837559E1,1.13368195E2,2.314864E1,1.3026558E1,9.3943794E1,6.0614967E1,1.2733462E1,1.7587149E1,5.062546E0,2.6696562E1,9.658553E0,2.704366E1,2.5269053E1,5.5685062E0,2.9688421E1,8.367978E1],"tree_param":{"num_deleted":"0","num_feature":"45","num_nodes":"29","size_leaf_vector":"1"}},{"base_weights":[-6.912708E-3,4.3911148E-2,-2.764185E-2,3.6431533E-1,-7.7347234E-2,4.937947E-1,-1.8435393E-2,-1.0062131E-1,6.484331E-1,4.843329E-2,1.008429E-2,-2.8600847E-2,-3.3492525E-3,5.1835384E-2,8.722443E-3],"categories":[],"categories_nodes":[],"categories_segments":[],"categories_sizes":[],"default_left":[0,0,0,0,0,0,0,0,0,0,0,0,0,0,0],"id":54,"left_children":[1,-1,3,5,7,9,-1,11,13,-1,-1,-1,-1,-1,-1],"loss_changes":[8.066473E0,0E0,8.391025E0,4.783727E0,6.514018E0,5.5796947E0,0E0,5.8406334E0,2.026907E0,0E0,0E0,0E0,0E0,0E0,0E0],"parents":[2147483647,0,0,2,2,3,3,4,4,5,5,7,7,8,8],"right_children":[2,-1,4,6,8,10,-1,12,14,-1,-1,-1,-1,-1,-1],"split_conditions":[8.143E-3,4.3911148E-2,-2.9514E-2,4.5841E-2,9.44E-1,-1.0812E-2,-1.8435393E-2,-7.433642E2,2.5068E-2,4.843329E-2,1.008429E-2,-2.8600847E-2,-3.3492525E-3,5.1835384E-2,8.722443E-3],"split_indices":[36,0,25,40,19,37,0,43,28,0,0,0,0,0,0],"split_type":[0,0,0,0,0,0,0,0,0,0,0,0,0,0,0],"sum_hessian":[4.3731216E2,9.060527E0,4.2825165E2,4.748377E1,3.8076788E2,4.0632843E1,6.850925E0,3.697715E2,1.09963455E1,1.4593156E1,2.6039688E1,2.3561583E1,3.4620993E2,5.3920836E0,5.6042614E0],"tree_param":{"num_deleted":"0","num_feature":"45","num_nodes":"15","size_leaf_vector":"1"}},{"base_weights":[-4.3707276E-3,-9.39428E-2,1.9603959E-1,-1.22806214E-1,4.3771032E-2,3.3617464E-1,-2.8153372E-1,4.1395685E-1,-1.7535914E-1,4.152183E-1,-3.8556382E-2,2.2180501E-2,-6.0200626E-1,3.5482254E-2,-7.250843E-3,1.2066866E-2,-1.3066108E-2,1.09292595E-2,4.195279E-2,-7.889072E-2,-2.243629E-3],"categories":[],"categories_nodes":[],"categories_segments":[],"categories_sizes":[],"default_left":[0,0,0,0,0,0,0,0,0,0,0,0,0,0,0,0,0,0,0,0,0],"id":55,"left_children":[1,3,5,7,-1,9,11,13,15,17,-1,-1,19,-1,-1,-1,-1,-1,-1,-1,-1],"loss_changes":[7.6527524E0,8.350012E0,8.907895E0,8.16711E0,0E0,9.271338E0,7.3362145E0,4.3815594E0,9.450419E0,7.826067E0,0E0,0E0,1.1628924E1,0E0,0E0,0E0,0E0,0E0,0E0,0E0,0E0],"parents":[2147483647,0,0,1,1,2,2,3,3,5,5,6,6,7,7,8,8,9,9,12,12],"right_children":[2,4,6,8,-1,10,12,14,16,18,-1,-1,20,-1,-1,-1,-1,-1,-1,-1,-1],"split_conditions":[3.2436E-2,1.6755E-1,4.9853E-2,5.9701E-2,4.3771032E-2,4.142632E3,2.24964E-1,6.5064527E4,1.3073E-2,6.705635E2,-3.8556382E-2,2.2180501E-2,-1.4647968E3,3.5482254E-2,-7.250843E-3,1.2066866E-2,-1.3066108E-2,1.09292595E-2,4.195279E-2,-7.889072E-2,-2.243629E-3],"split_indices":[44,1,36,13,0,9,13,14,28,10,0,0,10,0,0,0,0,0,0,0,0],"split_type":[0,0,0,0,0,0,0,0,0,0,0,0,0,0,0,0,0,0,0,0,0],"sum_hessian":[4.2428357E2,2.9359464E2,1.3068895E2,2.859535E2,7.6411357E0,1.01269394E2,2.9419552E1,2.4886967E1,2.6106653E2,9.510541E1,6.1639857E0,8.899078E0,2.0520473E1,1.6100506E1,8.786462E0,4.4337563E1,2.1672896E2,6.600097E1,2.9104437E1,6.792147E0,1.3728327E1],"tree_param":{"num_deleted":"0","num_feature":"45","num_nodes":"21","size_leaf_vector":"1"}},{"base_weights":[-3.219446E-2,4.0245924E-2,-5.1480226E-2,-6.8781115E-2,4.2698193E-2,-3.0122302E-2,-5.010021E-1,-5.39601E-3,9.143491E-3,-4.1453425E-2,3.4176693E-3],"categories":[],"categories_nodes":[],"categories_segments":[],"categories_sizes":[],"default_left":[0,0,0,0,0,0,0,0,0,0,0],"id":56,"left_children":[1,-1,3,5,-1,7,9,-1,-1,-1,-1],"loss_changes":[7.00583E0,0E0,6.6788783E0,6.929388E0,0E0,6.358756E0,6.41809E0,0E0,0E0,0E0,0E0],"parents":[2147483647,0,0,2,2,3,3,5,5,6,6],"right_children":[2,-1,4,6,-1,8,10,-1,-1,-1,-1],"split_conditions":[8.143E-3,4.0245924E-2,1.0873593E3,6.673192E2,4.2698193E-2,3.2892E-2,7.0044E1,-5.39601E-3,9.143491E-3,-4.1453425E-2,3.4176693E-3],"split_indices":[40,0,31,43,0,44,42,0,0,0,0],"split_type":[0,0,0,0,0,0,0,0,0,0,0],"sum_hessian":[4.303823E2,8.774674E0,4.216076E2,4.1460944E2,6.9981656E0,3.8155225E2,3.3057194E1,2.7983316E2,1.0171907E2,2.068323E1,1.2373966E1],"tree_param":{"num_deleted":"0","num_feature":"45","num_nodes":"11","size_leaf_vector":"1"}},{"base_weights":[4.435483E-2,1.4665845E-1,-1.542114E-1,-4.902227E-2,1.7371832E-1,3.3065017E-2,-2.1522819E-1,6.8478596E-1,1.2272504E-1,-3.6652467E-1,1.2612055E-1,1.2173346E-2,5.79866E-2,-1.0376107E-2,1.1219138E-2,4.6095098E-4,-2.9656678E-2,2.1671893E-2,-2.0605152E-2],"categories":[],"categories_nodes":[],"categories_segments":[],"categories_sizes":[],"default_left":[0,0,0,0,0,0,0,0,0,0,0,0,0,0,0,0,0,0,0],"id":57,"left_children":[1,3,5,-1,7,-1,9,11,13,15,17,-1,-1,-1,-1,-1,-1,-1,-1],"loss_changes":[8.830476E0,8.913465E0,7.502695E0,0E0,7.233777E0,0E0,7.192596E0,5.0115747E0,8.659123E0,8.191042E0,7.33083E0,0E0,0E0,0E0,0E0,0E0,0E0,0E0,0E0],"parents":[2147483647,0,0,1,1,2,2,4,4,6,6,7,7,8,8,9,9,10,10],"right_children":[2,4,6,-1,8,-1,10,12,14,16,18,-1,-1,-1,-1,-1,-1,-1,-1],"split_conditions":[6.856E-1,9.683E-3,1.0947E-2,-4.902227E-2,1.2069E-2,3.3065017E-2,1.399353E2,1.55078E1,1.9908E-2,-9.104E-3,5.239236E2,1.2173346E-2,5.79866E-2,-1.0376107E-2,1.1219138E-2,4.6095098E-4,-2.9656678E-2,2.1671893E-2,-2.0605152E-2],"split_indices":[19,5,36,0,28,0,27,31,5,37,31,0,0,0,0,0,0,0,0],"split_type":[0,0,0,0,0,0,0,0,0,0,0,0,0,0,0,0,0,0,0],"sum_hessian":[4.3258472E2,2.856671E2,1.4691759E2,5.871551E0,2.7979556E2,9.542363E0,1.3737523E2,2.425698E1,2.5553859E2,9.513476E1,4.224047E1,1.3357674E1,1.0899308E1,5.990116E1,1.9563742E2,3.6151207E1,5.898355E1,2.7011826E1,1.5228643E1],"tree_param":{"num_deleted":"0","num_feature":"45","num_nodes":"19","size_leaf_vector":"1"}},{"base_weights":[1.6453775E-2,-1.0425104E-2,6.3499665E-1,7.5852954E-1,-3.390578E-2,4.7593415E-3,9.4728845E-1,1.110367E-2,6.1955463E-2,-6.124015E-1,4.0899594E-3,5.883242E-2,2.864601E-2,-6.1549533E-2,2.231223E-2,2.8615057E-2,-2.0358989E-3],"categories":[],"categories_nodes":[],"categories_segments":[],"categories_sizes":[],"default_left":[0,0,0,0,0,0,0,0,0,0,0,0,0,0,0,0,0],"id":58,"left_children":[1,3,5,7,9,-1,11,-1,-1,13,15,-1,-1,-1,-1,-1,-1],"loss_changes":[7.153953E0,7.482244E0,2.9306417E0,2.8906565E0,8.831945E0,0E0,2.9101944E-1,0E0,0E0,1.676651E1,9.645605E0,0E0,0E0,0E0,0E0,0E0,0E0],"parents":[2147483647,0,0,1,1,2,2,3,3,4,4,6,6,9,9,10,10],"right_children":[2,4,6,8,10,-1,12,-1,-1,14,16,-1,-1,-1,-1,-1,-1],"split_conditions":[7.71344E1,3.722409E2,7.11018E1,2.2753E0,4.938133E2,4.7593415E-3,8.34929E-1,1.110367E-2,6.1955463E-2,9.004E-1,1.911812E4,5.883242E-2,2.864601E-2,-6.1549533E-2,2.231223E-2,2.8615057E-2,-2.0358989E-3],"split_indices":[38,20,11,43,20,0,13,0,0,31,16,0,0,0,0,0,0],"split_type":[0,0,0,0,0,0,0,0,0,0,0,0,0,0,0,0,0],"sum_hessian":[4.2889563E2,4.119763E2,1.6919348E1,1.1279701E1,4.0069656E2,6.6790767E0,1.0240272E1,6.020878E0,5.2588234E0,2.3764091E1,3.769325E2,5.0210557E0,5.219216E0,1.4896787E1,8.867304E0,2.6690966E1,3.5024152E2],"tree_param":{"num_deleted":"0","num_feature":"45","num_nodes":"17","size_leaf_vector":"1"}},{"base_weights":[1.6521098E-2,5.6161726E-1,-1.1718213E-2,-2.2008143E-2,9.688868E-1,-6.3712054E-1,2.375202E-2,6.487922E-2,1.8953202E-2,2.2754562E-3,-9.5547897E-1,-2.361584E-1,1.1029398E-1,-1.5720436E-2,-6.52032E-2,1.581405E-2,-1.8415825E-2,7.989715E-3,-2.3840787E-2],"categories":[],"categories_nodes":[],"categories_segments":[],"categories_sizes":[],"default_left":[0,0,0,0,0,0,0,0,0,0,0,0,0,0,0,0,0,0,0],"id":59,"left_children":[1,3,5,-1,7,9,11,-1,-1,-1,13,15,17,-1,-1,-1,-1,-1,-1],"loss_changes":[6.690237E0,9.160227E0,9.194317E0,0E0,2.5193024E0,4.8777485E0,8.855637E0,0E0,0E0,0E0,2.9901495E0,7.2987227E0,8.654498E0,0E0,0E0,0E0,0E0,0E0,0E0],"parents":[2147483647,0,0,1,1,2,2,4,4,5,5,6,6,10,10,11,11,12,12],"right_children":[2,4,6,-1,8,10,12,-1,-1,-1,14,16,18,-1,-1,-1,-1,-1,-1],"split_conditions":[-8.45755E2,-2.4506057E3,-7.433642E2,-2.2008143E-2,3.75007E1,5.718598E4,4.886E-1,6.487922E-2,1.8953202E-2,2.2754562E-3,2.4318E-2,1.4041E-2,5.0447E-2,-1.5720436E-2,-6.52032E-2,1.581405E-2,-1.8415825E-2,7.989715E-3,-2.3840787E-2],"split_indices":[11,9,39,0,8,16,18,0,0,0,40,28,40,0,0,0,0,0,0],"split_type":[0,0,0,0,0,0,0,0,0,0,0,0,0,0,0,0,0,0,0],"sum_hessian":[4.3319702E2,2.0406565E1,4.1279047E2,5.8749366E0,1.4531628E1,2.1244827E1,3.9154562E2,8.560858E0,5.97077E0,7.029374E0,1.4215454E1,9.737416E1,2.9417148E2,5.6770134E0,8.538441E0,1.8528639E1,7.884552E1,2.719691E2,2.2202389E1],"tree_param":{"num_deleted":"0","num_feature":"45","num_nodes":"19","size_leaf_vector":"1"}},{"base_weights":[4.369119E-3,4.0404585E-1,-3.3996414E-2,7.184178E-1,-9.501913E-2,4.0103566E-2,-5.2375246E-2,-4.6879235E-3,1.1807376E0,-2.6302118E-2,2.7533943E-2,-2.6552734E-1,3.2220896E-2,3.4676243E-2,7.1734846E-2,-2.449526E-3,-2.7033022E-2,2.5811464E-2,-2.2681046E-3],"categories":[],"categories_nodes":[],"categories_segments":[],"categories_sizes":[],"default_left":[0,0,0,0,0,0,0,0,0,0,0,0,0,0,0,0,0,0,0],"id":60,"left_children":[1,3,5,7,9,-1,11,-1,13,-1,-1,15,17,-1,-1,-1,-1,-1,-1],"loss_changes":[6.7796645E0,6.143661E0,6.242462E0,9.075282E0,4.700565E0,0E0,7.1451664E0,0E0,8.965893E-1,0E0,0E0,6.679235E0,1.069617E1,0E0,0E0,0E0,0E0,0E0,0E0],"parents":[2147483647,0,0,1,1,2,2,3,3,4,4,6,6,8,8,11,11,12,12],"right_children":[2,4,6,8,10,-1,12,-1,14,-1,-1,16,18,-1,-1,-1,-1,-1,-1],"split_conditions":[6.5036E-2,3.1566E-2,8.143E-3,2.1752E-2,4.1907E-2,4.0103566E-2,1.9908E-2,-4.6879235E-3,2.86E-1,-2.6302118E-2,2.7533943E-2,1.6326E-2,2.2822E-2,3.4676243E-2,7.1734846E-2,-2.449526E-3,-2.7033022E-2,2.5811464E-2,-2.2681046E-3],"split_indices":[13,4,40,6,36,0,5,0,19,0,0,28,6,0,0,0,0,0,0],"split_type":[0,0,0,0,0,0,0,0,0,0,0,0,0,0,0,0,0,0,0],"sum_hessian":[4.4024246E2,3.7723427E1,4.02519E2,2.2874655E1,1.4848773E1,7.7408442E0,3.9477817E2,8.586897E0,1.4287757E1,9.015777E0,5.8329954E0,1.11556595E2,2.832216E2,6.1739964E0,8.113761E0,6.308508E1,4.8471516E1,3.8345554E1,2.4487604E2],"tree_param":{"num_deleted":"0","num_feature":"45","num_nodes":"19","size_leaf_vector":"1"}},{"base_weights":[2.2701388E-2,4.028446E-2,4.329212E-3,4.9945003E-1,-2.351709E-2,9.948696E-1,-1.032957E-2,-5.175863E-3,-4.3633334E-2,6.6301696E-2,2.2089966E-2,1.8319089E-2,-2.1772983E-3],"categories":[],"categories_nodes":[],"categories_segments":[],"categories_sizes":[],"default_left":[0,0,0,0,0,0,0,0,0,0,0,0,0],"id":61,"left_children":[1,-1,3,5,7,9,-1,11,-1,-1,-1,-1,-1],"loss_changes":[6.267806E0,0E0,5.8984404E0,8.173497E0,6.3060308E0,1.8974724E0,0E0,5.684779E0,0E0,0E0,0E0,0E0,0E0],"parents":[2147483647,0,0,2,2,3,3,4,4,5,5,7,7],"right_children":[2,-1,4,6,8,10,-1,12,-1,-1,-1,-1,-1],"split_conditions":[7.4961885E3,4.028446E-2,-8.45755E2,4.1304976E3,1.1510714E5,3.0275E-2,-1.032957E-2,1.1637E-2,-4.3633334E-2,6.6301696E-2,2.2089966E-2,1.8319089E-2,-2.1772983E-3],"split_indices":[15,0,11,20,15,28,0,4,0,0,0,0,0],"split_type":[0,0,0,0,0,0,0,0,0,0,0,0,0],"sum_hessian":[4.3495493E2,8.989408E0,4.259655E2,2.1779497E1,4.0418604E2,1.2558376E1,9.221122E0,3.966252E2,7.5608206E0,6.9808416E0,5.577534E0,3.632479E1,3.603004E2],"tree_param":{"num_deleted":"0","num_feature":"45","num_nodes":"13","size_leaf_vector":"1"}},{"base_weights":[-5.1338397E-2,-1.4079059E-2,-4.464732E-1,-5.3753812E-2,4.403724E-1,-1.1178695E-1,-9.2856866E-1,7.0492595E-2,-2.3091069E-1,1.039472E0,-2.8765503E-2,-5.6494236E-1,3.125864E-2,-7.191949E-2,-2.3817722E-2,-2.103318E-2,7.792578E-3,-2.5706246E-2,-3.085524E-3,2.6109075E-2,6.6025004E-2,-4.148236E-2,3.898209E-2,-5.8906596E-2,4.1707405E-3],"categories":[],"categories_nodes":[],"categories_segments":[],"categories_sizes":[],"default_left":[0,0,0,0,0,0,0,0,0,0,0,0,0,0,0,0,0,0,0,0,0,0,0,0,0],"id":62,"left_children":[1,3,5,7,9,11,13,15,17,19,21,23,-1,-1,-1,-1,-1,-1,-1,-1,-1,-1,-1,-1,-1],"loss_changes":[6.4112906E0,7.224495E0,5.9515615E0,8.120741E0,9.073205E0,8.130388E0,2.8286486E0,9.1708975E0,7.2528286E0,1.3685827E0,1.2959912E1,6.0403056E0,0E0,0E0,0E0,0E0,0E0,0E0,0E0,0E0,0E0,0E0,0E0,0E0,0E0],"parents":[2147483647,0,0,1,1,2,2,3,3,4,4,5,5,6,6,7,7,8,8,9,9,10,10,11,11],"right_children":[2,4,6,8,10,12,14,16,18,20,22,24,-1,-1,-1,-1,-1,-1,-1,-1,-1,-1,-1,-1,-1],"split_conditions":[6.500649E2,7.04186E1,4.996E-3,1.168E-2,1.0412559E3,1.22714E-1,8.692E-1,1.7632E-2,3.1132443E4,4.963E-1,2.542E-2,9.995E-1,3.125864E-2,-7.191949E-2,-2.3817722E-2,-2.103318E-2,7.792578E-3,-2.5706246E-2,-3.085524E-3,2.6109075E-2,6.6025004E-2,-4.148236E-2,3.898209E-2,-5.8906596E-2,4.1707405E-3],"split_indices":[43,7,29,1,10,2,17,6,14,18,5,17,0,0,0,0,0,0,0,0,0,0,0,0,0],"split_type":[0,0,0,0,0,0,0,0,0,0,0,0,0,0,0,0,0,0,0,0,0,0,0,0,0],"sum_hessian":[4.3490378E2,3.9837457E2,3.65292E1,3.6719888E2,3.1175667E1,2.2288017E1,1.4241185E1,2.1618369E2,1.5101521E2,1.31575165E1,1.801815E1,1.3946035E1,8.341982E0,5.669116E0,8.572069E0,3.1426601E1,1.8475708E2,5.5716343E1,9.529887E1,5.637899E0,7.5196176E0,9.038007E0,8.980144E0,6.747461E0,7.198574E0],"tree_param":{"num_deleted":"0","num_feature":"45","num_nodes":"25","size_leaf_vector":"1"}},{"base_weights":[-1.9953547E-2,-4.314772E-2,7.308483E-1,-2.6257142E-2,-4.1661125E-2,1.2738362E-2,5.6089025E-2,2.2528197E-1,-8.815896E-2,-1.0986897E-2,2.7588824E-2,-5.9356713E-3,2.399501E-2],"categories":[],"categories_nodes":[],"categories_segments":[],"categories_sizes":[],"default_left":[0,0,0,0,0,0,0,0,0,0,0,0,0],"id":63,"left_children":[1,3,5,7,-1,-1,-1,9,11,-1,-1,-1,-1],"loss_changes":[7.487404E0,5.533065E0,2.112486E0,6.3817797E0,0E0,0E0,0E0,1.1886284E1,5.76056E0,0E0,0E0,0E0,0E0],"parents":[2147483647,0,0,1,1,2,2,3,3,7,7,8,8],"right_children":[2,4,6,8,-1,-1,-1,10,12,-1,-1,-1,-1],"split_conditions":[9.44E-1,1.15871555E5,-1.575E-3,1.6047E-2,-4.1661125E-2,1.2738362E-2,5.6089025E-2,-1.48269E1,7.71344E1,-1.0986897E-2,2.7588824E-2,-5.9356713E-3,2.399501E-2],"split_indices":[19,14,25,32,0,0,0,39,38,0,0,0,0],"split_type":[0,0,0,0,0,0,0,0,0,0,0,0,0],"sum_hessian":[4.2714816E2,4.152622E2,1.1885971E1,4.0758197E2,7.6802387E0,6.1040683E0,5.781903E0,7.997259E1,3.2760938E2,3.3981693E1,4.5990894E1,3.1163815E2,1.597121E1],"tree_param":{"num_deleted":"0","num_feature":"45","num_nodes":"13","size_leaf_vector":"1"}},{"base_weights":[-2.053136E-2,2.318029E-2,-4.8967043E-1,2.9854348E-1,-7.322189E-2,-1.5908265E-1,-1.09826E0,9.367404E-1,9.4066955E-2,-5.983954E-1,1.7898634E-2,1.614901E-1,-5.8491856E-2,-3.0591896E-2,-7.520069E-2,-1.1655554E-2,6.371753E-2,-2.069206E-2,2.855744E-2,-1.5254899E-2,-7.193645E-2,-1.2134972E-2,7.7158087E-3,-1.4586709E-2,5.9781294E-2],"categories":[],"categories_nodes":[],"categories_segments":[],"categories_sizes":[],"default_left":[0,0,0,0,0,0,0,0,0,0,0,0,0,0,0,0,0,0,0,0,0,0,0,0,0],"id":64,"left_children":[1,3,5,7,9,11,13,15,17,19,21,23,-1,-1,-1,-1,-1,-1,-1,-1,-1,-1,-1,-1,-1],"loss_changes":[8.804969E0,1.04601145E1,7.187746E0,1.3243701E1,1.398684E1,8.251353E0,1.5886555E0,1.004385E1,1.9254148E1,1.0211013E1,8.919543E0,9.614771E0,0E0,0E0,0E0,0E0,0E0,0E0,0E0,0E0,0E0,0E0,0E0,0E0,0E0],"parents":[2147483647,0,0,1,1,2,2,3,3,4,4,5,5,6,6,7,7,8,8,9,9,10,10,11,11],"right_children":[2,4,6,8,10,12,14,16,18,20,22,24,-1,-1,-1,-1,-1,-1,-1,-1,-1,-1,-1,-1,-1],"split_conditions":[3.9214705E3,4.41731E1,9.950014E4,9.189444E2,-4.0676E-2,6.59857E-1,4.24294E1,3.49972E1,2.3028945E3,3.073751E2,1.1214088E3,-5.9352E-2,-5.8491856E-2,-3.0591896E-2,-7.520069E-2,-1.1655554E-2,6.371753E-2,-2.069206E-2,2.855744E-2,-1.5254899E-2,-7.193645E-2,-1.2134972E-2,7.7158087E-3,-1.4586709E-2,5.9781294E-2],"split_indices":[20,7,15,20,2,13,7,26,20,27,20,2,0,0,0,0,0,0,0,0,0,0,0,0,0],"split_type":[0,0,0,0,0,0,0,0,0,0,0,0,0,0,0,0,0,0,0,0,0,0,0,0,0],"sum_hessian":[4.2781375E2,3.922196E2,3.559415E1,1.0116242E2,2.910572E2,2.38825E1,1.1711653E1,2.36783E1,7.7484116E1,4.221039E1,2.488468E2,1.8769695E1,5.1128035E0,6.4669304E0,5.244723E0,5.372298E0,1.8306004E1,3.7593792E1,3.9890327E1,3.229996E1,9.910425E0,8.523792E1,1.6360887E2,1.3549386E1,5.2203097E0],"tree_param":{"num_deleted":"0","num_feature":"45","num_nodes":"25","size_leaf_vector":"1"}},{"base_weights":[-4.591558E-3,-2.3805622E-2,4.5458738E-2,1.7051165E-1,-1.0197022E-1,-6.4243763E-3,6.0922545E-1,-1.9360659E-1,1.3472044E-1,2.2971174E-2,-8.28934E-3,-1.5713826E-2,4.150492E-2,-1.1330291E-2,4.6183746E-2,1.3328828E-2,-3.500518E-2],"categories":[],"categories_nodes":[],"categories_segments":[],"categories_sizes":[],"default_left":[0,0,0,0,0,0,0,0,0,0,0,0,0,0,0,0,0],"id":65,"left_children":[1,3,-1,5,7,9,11,13,15,-1,-1,-1,-1,-1,-1,-1,-1],"loss_changes":[7.605219E0,6.4576416E0,0E0,9.474693E0,6.598152E0,6.604177E0,7.4153967E0,8.278109E0,9.560682E0,0E0,0E0,0E0,0E0,0E0,0E0,0E0,0E0],"parents":[2147483647,0,0,1,1,3,3,4,4,5,5,6,6,7,7,8,8],"right_children":[2,4,-1,6,8,10,12,14,16,-1,-1,-1,-1,-1,-1,-1,-1],"split_conditions":[8.13125E1,-1.0433E-2,4.5458738E-2,1.1312E0,3.26E-2,2.0122E-2,3.43421E1,1.6755E-1,2.4398755E3,2.2971174E-2,-8.28934E-3,-1.5713826E-2,4.150492E-2,-1.1330291E-2,4.6183746E-2,1.3328828E-2,-3.500518E-2],"split_indices":[34,37,0,17,44,28,30,1,9,0,0,0,0,0,0,0,0],"split_type":[0,0,0,0,0,0,0,0,0,0,0,0,0,0,0,0,0],"sum_hessian":[4.3093625E2,4.2301532E2,7.9209347E0,1.21007965E2,3.0200735E2,8.6932785E1,3.407518E1,2.1784805E2,8.4159294E1,2.167872E1,6.525406E1,6.4951453E0,2.7580034E1,2.1237276E2,5.475306E0,7.3267715E1,1.0891579E1],"tree_param":{"num_deleted":"0","num_feature":"45","num_nodes":"17","size_leaf_vector":"1"}},{"base_weights":[3.6968037E-2,1.981339E-2,5.2473623E-2,5.909889E-2,-4.5981666E-1,2.997963E-2,6.646014E-1,-8.326936E-2,-1.004897E0,4.459245E-3,-1.9251684E-2,9.907669E-3,6.8114206E-2,1.5620763E-2,-4.632272E-2,-7.1163386E-2,-2.23538E-2],"categories":[],"categories_nodes":[],"categories_segments":[],"categories_sizes":[],"default_left":[0,0,0,0,0,0,0,0,0,0,0,0,0,0,0,0,0],"id":66,"left_children":[1,3,-1,5,7,9,11,13,15,-1,-1,-1,-1,-1,-1,-1,-1],"loss_changes":[7.519941E0,8.09047E0,0E0,6.969667E0,6.5892086E0,9.353563E0,5.634145E0,7.0684247E0,2.4425497E0,0E0,0E0,0E0,0E0,0E0,0E0,0E0,0E0],"parents":[2147483647,0,0,1,1,3,3,4,4,5,5,6,6,7,7,8,8],"right_children":[2,4,-1,6,8,10,12,14,16,-1,-1,-1,-1,-1,-1,-1,-1],"split_conditions":[1.0873593E3,6.500649E2,5.2473623E-2,5.2236E-2,3.2179E-2,4.2141E-2,-7.2367E-2,9.69631E4,3.81E-2,4.459245E-3,-1.9251684E-2,9.907669E-3,6.8114206E-2,1.5620763E-2,-4.632272E-2,-7.1163386E-2,-2.23538E-2],"split_indices":[31,31,0,6,6,28,2,16,6,0,0,0,0,0,0,0,0],"split_type":[0,0,0,0,0,0,0,0,0,0,0,0,0,0,0,0,0],