{"learner":{"attributes":{"scikit_learn":"{\"_estimator_type\": \"classifier\"}"},"feature_names":[],"feature_types":[],"gradient_booster":{"model":{"cats":{"enc":[],"feature_segments":[],"sorted_idx":[]},"gbtree_model_param":{"num_parallel_tree":"1","num_trees":"300"},"iteration_indptr":[0,1,2,3,4,5,6,7,8,9,10,11,12,13,14,15,16,17,18,19,20,21,22,23,24,25,26,27,28,29,30,31,32,33,34,35,36,37,38,39,40,41,42,43,44,45,46,47,48,49,50,51,52,53,54,55,56,57,58,59,60,61,62,63,64,65,66,67,68,69,70,71,72,73,74,75,76,77,78,79,80,81,82,83,84,85,86,87,88,89,90,91,92,93,94,95,96,97,98,99,100,101,102,103,104,105,106,107,108,109,110,111,112,113,114,115,116,117,118,119,120,121,122,123,124,125,126,127,128,129,130,131,132,133,134,135,136,137,138,139,140,141,142,143,144,145,146,147,148,149,150,151,152,153,154,155,156,157,158,159,160,161,162,163,164,165,166,167,168,169,170,171,172,173,174,175,176,177,178,179,180,181,182,183,184,185,186,187,188,189,190,191,192,193,194,195,196,197,198,199,200,201,202,203,204,205,206,207,208,209,210,211,212,213,214,215,216,217,218,219,220,221,222,223,224,225,226,227,228,229,230,231,232,233,234,235,236,237,238,239,240,241,242,243,244,245,246,247,248,249,250,251,252,253,254,255,256,257,258,259,260,261,262,263,264,265,266,267,268,269,270,271,272,273,274,275,276,277,278,279,280,281,282,283,284,285,286,287,288,289,290,291,292,293,294,295,296,297,298,299,300],"tree_info":[0,0,0,0,0,0,0,0,0,0,0,0,0,0,0,0,0,0,0,0,0,0,0,0,0,0,0,0,0,0,0,0,0,0,0,0,0,0,0,0,0,0,0,0,0,0,0,0,0,0,0,0,0,0,0,0,0,0,0,0,0,0,0,0,0,0,0,0,0,0,0,0,0,0,0,0,0,0,0,0,0,0,0,0,0,0,0,0,0,0,0,0,0,0,0,0,0,0,0,0,0,0,0,0,0,0,0,0,0,0,0,0,0,0,0,0,0,0,0,0,0,0,0,0,0,0,0,0,0,0,0,0,0,0,0,0,0,0,0,0,0,0,0,0,0,0,0,0,0,0,0,0,0,0,0,0,0,0,0,0,0,0,0,0,0,0,0,0,0,0,0,0,0,0,0,0,0,0,0,0,0,0,0,0,0,0,0,0,0,0,0,0,0,0,0,0,0,0,0,0,0,0,0,0,0,0,0,0,0,0,0,0,0,0,0,0,0,0,0,0,0,0,0,0,0,0,0,0,0,0,0,0,0,0,0,0,0,0,0,0,0,0,0,0,0,0,0,0,0,0,0,0,0,0,0,0,0,0,0,0,0,0,0,0,0,0,0,0,0,0,0,0,0,0,0,0,0,0,0,0,0,0,0,0,0,0,0,0,0,0,0,0,0,0,0,0,0,0,0,0],"trees":[{"base_weights":[2.0848248E-2,5.2536845E-2,-5.953489E-1,-2.5834158E-2,2.9056454E-1,2.2164262E-4,-5.6921523E-2,-1.3991071E-1,2.3199335E-1,5.0978214E-2,7.644419E-1,-2.4063392E-3,-3.8980547E-2,4.7453854E-2,2.6307218E-3,2.4374597E-2,-1.4626599E-2,5.117942E-2,-1.8309932E-2],"categories":[],"categories_nodes":[],"categories_segments":[],"categories_sizes":[],"default_left":[0,0,0,0,0,0,0,0,0,0,0,0,0,0,0,0,0,0,0],"id":0,"left_children":[1,3,5,7,9,-1,-1,11,13,15,17,-1,-1,-1,-1,-1,-1,-1,-1],"loss_changes":[7.9833665E0,7.250061E0,6.5196176E0,8.650145E0,1.0888666E1,0E0,0E0,1.1925427E1,1.1558827E1,9.8891E0,9.824081E0,0E0,0E0,0E0,0E0,0E0,0E0,0E0,0E0],"parents":[2147483647,0,0,1,1,2,2,3,3,4,4,7,7,8,8,9,9,10,10],"right_children":[2,4,6,8,10,-1,-1,12,14,16,18,-1,-1,-1,-1,-1,-1,-1,-1],"split_conditions":[3.1881E0,4.50608E-1,6.52717E1,4.8246E-2,1.1192E0,2.2164262E-4,-5.6921523E-2,5.89263E1,1.98829E-1,6.146E-2,1.38873E-1,-2.4063392E-3,-3.8980547E-2,4.7453854E-2,2.6307218E-3,2.4374597E-2,-1.4626599E-2,5.117942E-2,-1.8309932E-2],"split_indices":[32,12,7,1,17,0,0,30,12,4,0,0,0,0,0,0,0,0,0],"split_type":[0,0,0,0,0,0,0,0,0,0,0,0,0,0,0,0,0,0,0],"sum_hessian":[4.062476E2,3.8724768E2,1.8999887E1,2.9199826E2,9.5249435E1,9.499944E0,9.499944E0,2.027488E2,8.9249466E1,6.399962E1,3.1249813E1,1.7824893E2,2.4499853E1,1.6999899E1,7.224957E1,2.7999832E1,3.5999786E1,2.5499847E1,5.7499657E0],"tree_param":{"num_deleted":"0","num_feature":"34","num_nodes":"19","size_leaf_vector":"1"}},{"base_weights":[1.2032904E-3,-5.0684493E-2,3.8190198E-1,-1.7024066E-1,1.2735762E-1,1.2554061E0,8.8303626E-2,-8.933957E-2,-5.3986216E-1,-4.2824585E-2,1.8915033E-1,7.748661E-2,3.7828263E-2,4.815415E-1,-3.2511097E-1,4.872336E-2,-6.848115E-3,4.662554E-3,-5.158445E-2,2.3461232E-2,-1.4009648E-3,-3.731217E-4,5.18743E-2,1.30756125E-2,-3.2553114E-2],"categories":[],"categories_nodes":[],"categories_segments":[],"categories_sizes":[],"default_left":[0,0,0,0,0,0,0,0,0,0,0,0,0,0,0,0,0,0,0,0,0,0,0,0,0],"id":1,"left_children":[1,3,5,7,9,11,13,15,17,-1,19,-1,-1,21,23,-1,-1,-1,-1,-1,-1,-1,-1,-1,-1],"loss_changes":[8.068E0,7.673193E0,1.2453112E1,6.39524E0,8.976086E0,6.258564E-1,6.292237E0,9.150416E0,1.2083139E1,0E0,8.360119E0,0E0,0E0,5.3758464E0,3.802461E0,0E0,0E0,0E0,0E0,0E0,0E0,0E0,0E0,0E0,0E0],"parents":[2147483647,0,0,1,1,2,2,3,3,4,4,5,5,6,6,7,7,8,8,10,10,13,13,14,14],"right_children":[2,4,6,8,10,12,14,16,18,-1,20,-1,-1,22,24,-1,-1,-1,-1,-1,-1,-1,-1,-1,-1],"split_conditions":[9.4118E-1,5.1569E-2,3.82E-2,4.5282E-2,-9.6054E-2,4.95E-1,1.033019E0,-5.6956E-2,-1.882E-2,-4.2824585E-2,-1.4196E-2,7.748661E-2,3.7828263E-2,1.0777E0,3.3712E-2,4.872336E-2,-6.848115E-3,4.662554E-3,-5.158445E-2,2.3461232E-2,-1.4009648E-3,-3.731217E-4,5.18743E-2,1.30756125E-2,-3.2553114E-2],"split_indices":[13,5,33,5,27,18,13,27,0,0,25,0,0,33,25,0,0,0,0,0,0,0,0,0,0],"split_type":[0,0,0,0,0,0,0,0,0,0,0,0,0,0,0,0,0,0,0,0,0,0,0,0,0],"sum_hessian":[4.0645175E2,3.5846164E2,4.7990093E1,2.1448065E2,1.43981E2,1.1248374E1,3.6741722E1,1.7698474E2,3.749591E1,7.7486157E0,1.3623238E2,5.7494297E0,5.4989443E0,1.8745913E1,1.7995808E1,6.749552E0,1.7023518E2,1.674762E1,2.0748293E1,5.8992134E1,7.724025E1,1.0498286E1,8.247626E0,6.498314E0,1.1497495E1],"tree_param":{"num_deleted":"0","num_feature":"34","num_nodes":"25","size_leaf_vector":"1"}},{"base_weights":[-1.0064551E-2,2.4868192E-2,-7.337956E-1,-7.534561E-2,3.3765566E-1,-5.8701605E-2,-9.653323E-3,-2.0448545E-1,2.3783626E-1,6.6316557E-1,5.5017143E-2,4.1740697E-2,-1.2869576E-2,2.3082245E-2,-1.8173369E-2,1.6580604E-2,6.0372014E-2,-3.591625E-2,9.4607435E-3],"categories":[],"categories_nodes":[],"categories_segments":[],"categories_sizes":[],"default_left":[0,0,0,0,0,0,0,0,0,0,0,0,0,0,0,0,0,0,0],"id":2,"left_children":[1,3,5,7,9,-1,-1,11,13,15,17,-1,-1,-1,-1,-1,-1,-1,-1],"loss_changes":[1.0153735E1,1.2043558E1,4.175378E0,1.1825654E1,8.539461E0,0E0,0E0,1.1581046E1,1.1671197E1,7.4009895E0,5.4270396E0,0E0,0E0,0E0,0E0,0E0,0E0,0E0,0E0],"parents":[2147483647,0,0,1,1,2,2,3,3,4,4,7,7,8,8,9,9,10,10],"right_children":[2,4,6,8,10,-1,-1,12,14,16,18,-1,-1,-1,-1,-1,-1,-1,-1],"split_conditions":[3.1881E0,4.50608E-1,2.7096E-2,4.8246E-2,6.09746E-1,-5.8701605E-2,-9.653323E-3,-3.873E0,3.8638E-2,1.1487E0,-1.45407E-1,4.1740697E-2,-1.2869576E-2,2.3082245E-2,-1.8173369E-2,1.6580604E-2,6.0372014E-2,-3.591625E-2,9.4607435E-3],"split_indices":[31,12,26,1,12,0,0,11,27,17,1,0,0,0,0,0,0,0,0],"split_type":[0,0,0,0,0,0,0,0,0,0,0,0,0,0,0,0,0,0,0],"sum_hessian":[3.9989877E2,3.8240656E2,1.7492199E1,2.901914E2,9.221516E1,8.996481E0,8.495719E0,2.0571313E2,8.447827E1,4.223151E1,4.9983643E1,9.248779E0,1.9646436E2,6.1733116E1,2.2745155E1,2.724442E1,1.4987093E1,6.7474327E0,4.323621E1],"tree_param":{"num_deleted":"0","num_feature":"34","num_nodes":"19","size_leaf_vector":"1"}},{"base_weights":[3.0620694E-2,-8.278875E-2,1.9591147E-1,7.615033E-2,-2.63536E-1,6.1960727E-2,1.4959025E-1,-9.906174E-2,5.5965817E-1,-1.7976609E-1,-9.660892E-1,4.9327474E-2,8.7929934E-2,-2.9424447E-4,-3.8740132E-2,1.1571963E-2,6.646785E-2,-3.9226126E-2,-2.715878E-3,-6.183162E-2,-2.5959997E-2,-3.1962533E-2,6.844289E-3],"categories":[],"categories_nodes":[],"categories_segments":[],"categories_sizes":[],"default_left":[0,0,0,0,0,0,0,0,0,0,0,0,0,0,0,0,0,0,0,0,0,0,0],"id":3,"left_children":[1,3,5,7,9,-1,11,13,15,17,19,-1,21,-1,-1,-1,-1,-1,-1,-1,-1,-1,-1],"loss_changes":[7.726142E0,7.047808E0,7.9172306E0,1.11486E1,6.5760036E0,0E0,8.25667E0,6.1006517E0,8.529366E0,7.8245125E0,8.0750084E-1,0E0,5.4871345E0,0E0,0E0,0E0,0E0,0E0,0E0,0E0,0E0,0E0,0E0],"parents":[2147483647,0,0,1,1,2,2,3,3,4,4,6,6,7,7,8,8,9,9,10,10,12,12],"right_children":[2,4,6,8,10,-1,12,14,16,18,20,-1,22,-1,-1,-1,-1,-1,-1,-1,-1,-1,-1],"split_conditions":[5.1569E-2,4.0989E-2,2.46442E1,7.611E-1,5.9804E-2,6.1960727E-2,5.2589E-2,5.87821E1,3.2057E-2,5.528E-1,1.376251E2,4.9327474E-2,-9.2331E-2,-2.9424447E-4,-3.8740132E-2,1.1571963E-2,6.646785E-2,-3.9226126E-2,-2.715878E-3,-6.183162E-2,-2.5959997E-2,-3.1962533E-2,6.844289E-3],"split_indices":[5,6,8,11,27,0,5,30,27,17,15,0,27,0,0,0,0,0,0,0,0,0,0],"split_type":[0,0,0,0,0,0,0,0,0,0,0,0,0,0,0,0,0,0,0,0,0,0,0],"sum_hessian":[4.1029385E2,2.43632E2,1.6666187E2,1.2994463E2,1.1368738E2,5.9902163E0,1.6067165E2,9.596444E1,3.398018E1,1.0269793E2,1.0989454E1,9.995528E0,1.5067612E2,8.522202E1,1.0742423E1,2.4733768E1,9.246411E0,1.6740824E1,8.595711E1,5.7445498E0,5.244904E0,8.743542E0,1.4193257E2],"tree_param":{"num_deleted":"0","num_feature":"34","num_nodes":"23","size_leaf_vector":"1"}},{"base_weights":[2.0367047E-2,6.2137324E-2,-4.3306923E-1,-1.1681891E-1,1.8454002E-1,-9.70219E-1,-3.031416E-2,1.688252E-1,-3.6447805E-1,2.326885E-1,-6.2612516E-1,-7.0241E-2,-2.5577826E-2,3.4778595E-2,-4.298271E-1,-5.983102E-3,3.106354E-2,-1.1967704E-2,-6.083892E-2,3.7729617E-3,2.316252E-2,-4.795424E-2,-9.39882E-3,-5.3458404E-2,5.482813E-3],"categories":[],"categories_nodes":[],"categories_segments":[],"categories_sizes":[],"default_left":[0,0,0,0,0,0,0,0,0,0,0,0,0,0,0,0,0,0,0,0,0,0,0,0,0],"id":4,"left_children":[1,3,5,7,9,11,13,15,17,19,21,-1,-1,-1,23,-1,-1,-1,-1,-1,-1,-1,-1,-1,-1],"loss_changes":[7.7394867E0,8.208109E0,7.4284945E0,1.0843505E1,8.823459E0,2.2194948E0,6.3116865E0,9.401837E0,8.448199E0,7.5990667E0,1.6776047E0,0E0,0E0,0E0,4.9429965E0,0E0,0E0,0E0,0E0,0E0,0E0,0E0,0E0,0E0,0E0],"parents":[2147483647,0,0,1,1,2,2,3,3,4,4,5,5,6,6,7,7,8,8,9,9,10,10,14,14],"right_children":[2,4,6,8,10,12,14,16,18,20,22,-1,-1,-1,24,-1,-1,-1,-1,-1,-1,-1,-1,-1,-1],"split_conditions":[9.009E-1,3.8118E-2,-1.06E-1,2.8852E-2,3.5956E0,-1.166E-2,2.88032E-1,2.4434E-2,8.121E-1,9.1665E-2,1.5535E-2,-7.0241E-2,-2.5577826E-2,3.4778595E-2,4.42689E-1,-5.983102E-3,3.106354E-2,-1.1967704E-2,-6.083892E-2,3.7729617E-3,2.316252E-2,-4.795424E-2,-9.39882E-3,-5.3458404E-2,5.482813E-3],"split_indices":[19,4,11,4,33,27,12,4,19,2,27,0,0,0,12,0,0,0,0,0,0,0,0,0,0],"split_type":[0,0,0,0,0,0,0,0,0,0,0,0,0,0,0,0,0,0,0,0,0,0,0,0,0],"sum_hessian":[4.062076E2,3.727345E2,3.3473114E1,1.5141177E2,2.2132274E2,1.3739692E1,1.9733423E1,7.0461494E1,8.095028E1,2.095875E2,1.1735231E1,5.9956827E0,7.7440095E0,6.74223E0,1.2991193E1,4.3475975E1,2.6985521E1,7.1704384E1,9.245899E0,1.2539974E2,8.418776E1,5.992467E0,5.7427645E0,5.4960246E0,7.4951687E0],"tree_param":{"num_deleted":"0","num_feature":"34","num_nodes":"25","size_leaf_vector":"1"}},{"base_weights":[-1.6580593E-2,2.258525E-2,-6.9764215E-1,-7.0994474E-2,3.2790765E-1,-9.226153E-1,-1.8261152E-3,-1.0329216E-1,4.1540146E-2,1.2673633E-1,8.214616E-1,-1.4135897E-2,-6.382694E-2,-6.9433176E-3,3.7705522E-2,2.608264E-2,-5.422749E-3,5.278604E-2,-5.231135E-3],"categories":[],"categories_nodes":[],"categories_segments":[],"categories_sizes":[],"default_left":[0,0,0,0,0,0,0,0,0,0,0,0,0,0,0,0,0,0,0],"id":5,"left_children":[1,3,5,7,9,11,-1,13,-1,15,17,-1,-1,-1,-1,-1,-1,-1,-1],"loss_changes":[1.10152855E1,1.1192294E1,3.306223E0,8.824349E0,9.0187845E0,3.4241877E0,0E0,8.966638E0,0E0,6.2292943E0,5.8429546E0,0E0,0E0,0E0,0E0,0E0,0E0,0E0,0E0],"parents":[2147483647,0,0,1,1,2,2,3,3,4,4,5,5,7,7,9,9,10,10],"right_children":[2,4,6,8,10,12,-1,14,-1,16,18,-1,-1,-1,-1,-1,-1,-1,-1],"split_conditions":[2.9571E0,4.61531E-1,6.0073E-2,9.657E-2,1.1487E0,-1.3807E-2,-1.8261152E-3,1.057771E0,4.1540146E-2,5.8268E-2,1.18278E-1,-1.4135897E-2,-6.382694E-2,-6.9433176E-3,3.7705522E-2,2.608264E-2,-5.422749E-3,5.278604E-2,-5.231135E-3],"split_indices":[31,12,4,0,17,0,0,13,0,4,0,0,0,0,0,0,0,0,0],"split_type":[0,0,0,0,0,0,0,0,0,0,0,0,0,0,0,0,0,0,0],"sum_hessian":[4.113635E2,3.899079E2,2.1455616E1,2.9902557E2,9.088231E1,1.5713066E1,5.7425504E0,2.895412E2,9.484395E0,6.5458405E1,2.5423899E1,6.236401E0,9.4766655E0,2.7881116E2,1.0730021E1,2.3978098E1,4.148031E1,2.01794E1,5.2444987E0],"tree_param":{"num_deleted":"0","num_feature":"34","num_nodes":"19","size_leaf_vector":"1"}},{"base_weights":[-6.7664054E-3,6.512699E-1,-3.6546934E-2,5.1734306E-2,1.1564884E-2,3.4263026E-2,-3.9984903E-1,1.8822375E-1,-9.169987E-2,6.220593E-2,-6.0360754E-1,4.7507095E-3,4.4539213E-2,-5.3615667E-2,-3.2486286E-4,3.2712676E-2,-1.5574172E-2,-4.1551594E-2,-9.31837E-3],"categories":[],"categories_nodes":[],"categories_segments":[],"categories_sizes":[],"default_left":[0,0,0,0,0,0,0,0,0,0,0,0,0,0,0,0,0,0,0],"id":6,"left_children":[1,3,5,-1,-1,7,9,11,13,15,17,-1,-1,-1,-1,-1,-1,-1,-1],"loss_changes":[8.018229E0,2.6134071E0,1.0078304E1,0E0,0E0,6.384821E0,6.053067E0,9.61219E0,1.5137561E1,4.7304378E0,4.0615234E0,0E0,0E0,0E0,0E0,0E0,0E0,0E0,0E0],"parents":[2147483647,0,0,1,1,2,2,5,5,6,6,7,7,8,8,9,9,10,10],"right_children":[2,4,6,-1,-1,8,10,12,14,16,18,-1,-1,-1,-1,-1,-1,-1,-1],"split_conditions":[-3.873E0,-2.5257E0,1.24617E1,5.1734306E-2,1.1564884E-2,4.34E-2,-2.1456E-2,1.00272E1,-4.93E-2,-1.4258E-2,7.872E-1,4.7507095E-3,4.4539213E-2,-5.3615667E-2,-3.2486286E-4,3.2712676E-2,-1.5574172E-2,-4.1551594E-2,-9.31837E-3],"split_indices":[11,9,20,0,0,33,27,20,31,0,33,0,0,0,0,0,0,0,0],"split_type":[0,0,0,0,0,0,0,0,0,0,0,0,0,0,0,0,0,0,0],"sum_hessian":[4.0694824E2,1.671614E1,3.902321E2,7.973231E0,8.742911E0,3.2733755E2,6.2894543E1,1.4707628E2,1.8026128E2,1.946018E1,4.3434364E1,1.308513E2,1.6224964E1,1.3484147E1,1.6677713E2,7.2395477E0,1.2220633E1,2.7469744E1,1.5964619E1],"tree_param":{"num_deleted":"0","num_feature":"34","num_nodes":"19","size_leaf_vector":"1"}},{"base_weights":[5.6470665E-3,5.5532068E-2,-3.5074747E-1,4.1709056E-1,7.894084E-3,-9.0252364E-1,1.0874318E-2,6.303442E-1,-3.029637E-2,-2.393602E-2,6.80402E-1,-1.029859E-2,-1.136444E0,2.7452686E-1,-3.140848E-2,8.460336E-3,4.7671333E-2,-2.0276595E-4,-4.697114E-2,5.5436082E-2,9.6992515E-3,-7.767965E-2,-2.952821E-2,-1.1409448E-3,4.4585433E-2],"categories":[],"categories_nodes":[],"categories_segments":[],"categories_sizes":[],"default_left":[0,0,0,0,0,0,0,0,0,0,0,0,0,0,0,0,0,0,0,0,0,0,0,0,0],"id":7,"left_children":[1,3,5,7,9,11,13,15,-1,17,19,-1,21,23,-1,-1,-1,-1,-1,-1,-1,-1,-1,-1,-1],"loss_changes":[7.297616E0,6.196828E0,1.00666485E1,9.52033E0,6.8465877E0,3.0191803E0,5.468833E0,5.0758934E0,0E0,5.558809E0,2.7962685E0,0E0,2.4356747E0,4.232004E0,0E0,0E0,0E0,0E0,0E0,0E0,0E0,0E0,0E0,0E0,0E0],"parents":[2147483647,0,0,1,1,2,2,3,3,4,4,5,5,6,6,7,7,9,9,10,10,12,12,13,13],"right_children":[2,4,6,8,10,12,14,16,-1,18,20,-1,22,24,-1,-1,-1,-1,-1,-1,-1,-1,-1,-1,-1],"split_conditions":[8.696E-1,-1.37918E-1,-1.06E-1,5.93278E-1,1.057771E0,6.595E-1,3.8372E-2,3.6394E-2,-3.029637E-2,1.027148E0,1.4073E-2,-1.029859E-2,4.16427E1,4.0839E-1,-3.140848E-2,8.460336E-3,4.7671333E-2,-2.0276595E-4,-4.697114E-2,5.5436082E-2,9.6992515E-3,-7.767965E-2,-2.952821E-2,-1.1409448E-3,4.4585433E-2],"split_indices":[19,1,11,12,13,17,27,13,0,13,27,0,28,12,0,0,0,0,0,0,0,0,0,0,0],"split_type":[0,0,0,0,0,0,0,0,0,0,0,0,0,0,0,0,0,0,0,0,0,0,0,0,0],"sum_hessian":[4.083731E2,3.5897156E2,4.9401527E1,4.0888012E1,3.1808356E2,1.8966286E1,3.0435242E1,3.415256E1,6.735449E0,3.046297E2,1.3453855E1,5.240878E0,1.3725409E1,2.1949762E1,8.485479E0,1.4697894E1,1.9454666E1,2.9913806E2,5.4916496E0,6.473861E0,6.979994E0,6.733661E0,6.991747E0,1.5463018E1,6.4867444E0],"tree_param":{"num_deleted":"0","num_feature":"34","num_nodes":"25","size_leaf_vector":"1"}},{"base_weights":[3.679146E-2,6.261861E-2,-6.5586525E-1,-6.8748863E-3,2.9273227E-1,3.4446798E-3,-6.1734475E-2,7.306143E-2,-3.133191E-1,3.857784E-2,8.082484E-1,-2.7707543E-3,1.56220365E-2,-4.7353655E-2,-9.852591E-3,2.1724112E-2,-9.819402E-3,6.2175423E-2,9.856864E-3],"categories":[],"categories_nodes":[],"categories_segments":[],"categories_sizes":[],"default_left":[0,0,0,0,0,0,0,0,0,0,0,0,0,0,0,0,0,0,0],"id":8,"left_children":[1,3,5,7,9,-1,-1,11,13,15,17,-1,-1,-1,-1,-1,-1,-1,-1],"loss_changes":[7.3228955E0,6.2918935E0,6.2598877E0,7.446994E0,1.1925127E1,0E0,0E0,7.4348145E0,4.447455E0,5.8687882E0,7.7568073E0,0E0,0E0,0E0,0E0,0E0,0E0,0E0,0E0],"parents":[2147483647,0,0,1,1,2,2,3,3,4,4,7,7,8,8,9,9,10,10],"right_children":[2,4,6,8,10,-1,-1,12,14,16,18,-1,-1,-1,-1,-1,-1,-1,-1],"split_conditions":[1.94366E1,4.58729E-1,-4.0835E0,3.50372E-1,1.0864E0,3.4446798E-3,-6.1734475E-2,4.2685E-2,-5.2242E-2,5.77E-1,5.0339E-2,-2.7707543E-3,1.56220365E-2,-4.7353655E-2,-9.852591E-3,2.1724112E-2,-9.819402E-3,6.2175423E-2,9.856864E-3],"split_indices":[20,12,11,12,17,0,0,5,26,12,0,0,0,0,0,0,0,0,0],"split_type":[0,0,0,0,0,0,0,0,0,0,0,0,0,0,0,0,0,0,0],"sum_hessian":[4.060481E2,3.923289E2,1.3719208E1,3.020738E2,9.025509E1,6.4828553E0,7.236352E0,2.401833E2,6.18905E1,6.117169E1,2.9083397E1,1.567975E2,8.3385796E1,8.486473E0,5.3404026E1,2.246697E1,3.870472E1,1.6381176E1,1.2702221E1],"tree_param":{"num_deleted":"0","num_feature":"34","num_nodes":"19","size_leaf_vector":"1"}},{"base_weights":[-2.70625E-2,-9.1778964E-2,1.6678861E-1,3.1071128E-2,-3.128049E-1,3.2610482E-1,-4.355837E-1,-3.3111773E-2,8.402778E-1,-1.759843E-1,-7.758984E-1,1.8783568E-1,8.557546E-1,9.702786E-3,-6.882529E-1,2.0753949E-4,-4.6881773E-2,-4.7295736E-3,7.3307484E-2,-2.186543E-3,-3.7874766E-2,-2.9971958E-3,-6.2264223E-2,1.8333813E-2,-1.2648001E-2,5.8431465E-2,1.4758453E-2,-9.609356E-3,-5.724975E-2],"categories":[],"categories_nodes":[],"categories_segments":[],"categories_sizes":[],"default_left":[0,0,0,0,0,0,0,0,0,0,0,0,0,0,0,0,0,0,0,0,0,0,0,0,0,0,0,0,0],"id":9,"left_children":[1,3,5,7,9,11,13,15,17,19,21,23,25,-1,27,-1,-1,-1,-1,-1,-1,-1,-1,-1,-1,-1,-1,-1,-1],"loss_changes":[5.086127E0,8.255493E0,9.884803E0,1.0212616E1,6.7431326E0,5.760886E0,3.5798588E0,6.160069E0,8.592683E0,6.512373E0,8.148734E0,5.2484565E0,2.541627E0,0E0,3.332378E0,0E0,0E0,0E0,0E0,0E0,0E0,0E0,0E0,0E0,0E0,0E0,0E0,0E0,0E0],"parents":[2147483647,0,0,1,1,2,2,3,3,4,4,5,5,6,6,7,7,8,8,9,9,10,10,11,11,12,12,14,14],"right_children":[2,4,6,8,10,12,14,16,18,20,22,24,26,-1,28,-1,-1,-1,-1,-1,-1,-1,-1,-1,-1,-1,-1,-1,-1],"split_conditions":[8.137E-1,4.34E-2,2.9571E0,8.4303E-2,3.7228E-2,6.85179E1,1.091319E2,6.2552E-2,5.37622E1,1.448561E2,1.84922E1,6.03753E1,7.71877E1,9.702786E-3,6.63077E1,2.0753949E-4,-4.6881773E-2,-4.7295736E-3,7.3307484E-2,-2.186543E-3,-3.7874766E-2,-2.9971958E-3,-6.2264223E-2,1.8333813E-2,-1.2648001E-2,5.8431465E-2,1.4758453E-2,-9.609356E-3,-5.724975E-2],"split_indices":[32,33,31,25,27,29,15,25,28,16,16,30,30,0,7,0,0,0,0,0,0,0,0,0,0,0,0,0,0],"split_type":[0,0,0,0,0,0,0,0,0,0,0,0,0,0,0,0,0,0,0,0,0,0,0,0,0,0,0,0,0],"sum_hessian":[4.0319882E2,3.0267758E2,1.0052123E2,1.9509808E2,1.0757951E2,7.985873E1,2.0662508E1,1.8164948E2,1.3448599E1,8.410946E1,2.3470055E1,6.440099E1,1.5457732E1,5.9836125E0,1.4678895E1,1.754184E2,6.2310877E0,5.7334175E0,7.7151814E0,6.9400795E1,1.4708666E1,9.740531E0,1.3729525E1,4.5933075E1,1.8467916E1,9.224619E0,6.233113E0,7.7176075E0,6.9612875E0],"tree_param":{"num_deleted":"0","num_feature":"34","num_nodes":"29","size_leaf_vector":"1"}},{"base_weights":[-1.843661E-2,-1.3286418E-1,1.4472778E-1,1.2957201E-2,-3.3701855E-1,2.1219386E-1,-5.440927E-1,-1.7330141E-1,2.3526563E-1,1.6104248E-1,-4.640376E-1,9.4481736E-1,1.477893E-1,-5.9765615E-3,-4.448145E-2,1.4726302E-3,-3.5782322E-2,4.6450403E-2,5.236391E-4,-3.376632E-2,2.7044801E-2,-3.4219097E-2,-4.016751E-3,1.640689E-2,7.207304E-2,1.3823273E-2,-1.081461E-2],"categories":[],"categories_nodes":[],"categories_segments":[],"categories_sizes":[],"default_left":[0,0,0,0,0,0,0,0,0,0,0,0,0,0,0,0,0,0,0,0,0,0,0,0,0,0,0],"id":10,"left_children":[1,3,5,7,9,11,13,15,17,19,21,23,25,-1,-1,-1,-1,-1,-1,-1,-1,-1,-1,-1,-1,-1,-1],"loss_changes":[7.5861797E0,7.111798E0,7.901599E0,5.8473253E0,6.3702116E0,7.0945716E0,2.1274467E0,8.474819E0,1.0026068E1,7.025415E0,6.6706047E0,3.2645912E0,6.717663E0,0E0,0E0,0E0,0E0,0E0,0E0,0E0,0E0,0E0,0E0,0E0,0E0,0E0,0E0],"parents":[2147483647,0,0,1,1,2,2,3,3,4,4,5,5,6,6,7,7,8,8,9,9,10,10,11,11,12,12],"right_children":[2,4,6,8,10,12,14,16,18,20,22,24,26,-1,-1,-1,-1,-1,-1,-1,-1,-1,-1,-1,-1,-1,-1],"split_conditions":[5.1569E-2,4.2304E-2,9.009E-1,9.17E-2,-3.2232E-2,5.2863E-2,8.4303E-2,6.853E-1,-6.3971E-2,-6.4772E-2,1.30205E-1,5.1285E-2,4.165E-2,-5.9765615E-3,-4.448145E-2,1.4726302E-3,-3.5782322E-2,4.6450403E-2,5.236391E-4,-3.376632E-2,2.7044801E-2,-3.4219097E-2,-4.016751E-3,1.640689E-2,7.207304E-2,1.3823273E-2,-1.081461E-2],"split_indices":[5,6,19,11,0,5,0,19,2,0,2,4,27,0,0,0,0,0,0,0,0,0,0,0,0,0,0],"split_type":[0,0,0,0,0,0,0,0,0,0,0,0,0,0,0,0,0,0,0,0,0,0,0,0,0,0,0],"sum_hessian":[4.04289E2,2.3774417E2,1.6654483E2,1.3923166E2,9.8512505E1,1.5231808E2,1.4226749E1,7.587832E1,6.335335E1,1.9963747E1,7.854875E1,1.1203577E1,1.411145E2,6.9873266E0,7.2394223E0,5.59189E1,1.9959415E1,1.4737774E1,4.8615578E1,5.9921827E0,1.3971565E1,4.939795E1,2.9150806E1,5.7386436E0,5.4649334E0,1.0444241E2,3.6672092E1],"tree_param":{"num_deleted":"0","num_feature":"34","num_nodes":"27","size_leaf_vector":"1"}},{"base_weights":[-1.2499877E-2,5.1594604E-2,-2.9287558E-2,-2.6205743E-3,-5.034233E-1,-2.8994009E-2,4.79624E-2,-8.6793244E-1,1.2163186E-3,-2.8239863E-3,2.7208997E-2,-1.3459744E-2,-6.604014E-2],"categories":[],"categories_nodes":[],"categories_segments":[],"categories_sizes":[],"default_left":[0,0,0,0,0,0,0,0,0,0,0,0,0],"id":11,"left_children":[1,-1,3,5,7,9,-1,11,-1,-1,-1,-1,-1],"loss_changes":[7.1729E0,0E0,5.0803933E0,9.706082E0,4.1370716E0,5.8961E0,0E0,3.0833235E0,0E0,0E0,0E0,0E0,0E0],"parents":[2147483647,0,0,2,2,3,3,4,4,5,5,7,7],"right_children":[2,-1,4,6,8,10,-1,12,-1,-1,-1,-1,-1],"split_conditions":[-1.1976E-1,5.1594604E-2,2.9571E0,2.4042E0,4.9964E-2,1.06713E0,4.79624E-2,1.555829E2,1.2163186E-3,-2.8239863E-3,2.7208997E-2,-1.3459744E-2,-6.604014E-2],"split_indices":[26,0,31,31,4,13,0,16,0,0,0,0,0],"split_type":[0,0,0,0,0,0,0,0,0,0,0,0,0],"sum_hessian":[4.0638675E2,5.4723887E0,4.0091437E2,3.8051825E2,2.0396097E1,3.7130725E2,9.211001E0,1.1682541E1,8.713556E0,3.5517673E2,1.613052E1,5.7176647E0,5.964876E0],"tree_param":{"num_deleted":"0","num_feature":"34","num_nodes":"13","size_leaf_vector":"1"}},{"base_weights":[-1.2694404E-3,-1.8124579E-2,4.679446E-2,-6.857443E-1,2.033072E-3,-3.1635542E-3,-5.9025444E-2,2.8445357E-1,-5.6147505E-2,2.5448594E-2,-8.595046E-3,6.1361603E-3,-7.3232907E-3],"categories":[],"categories_nodes":[],"categories_segments":[],"categories_sizes":[],"default_left":[0,0,0,0,0,0,0,0,0,0,0,0,0],"id":12,"left_children":[1,3,-1,5,7,-1,-1,9,11,-1,-1,-1,-1],"loss_changes":[6.4229703E0,5.3758893E0,0E0,3.5310078E0,6.4021297E0,0E0,0E0,6.9066153E0,5.2377844E0,0E0,0E0,0E0,0E0],"parents":[2147483647,0,0,1,1,3,3,4,4,7,7,8,8],"right_children":[2,4,-1,6,8,-1,-1,10,12,-1,-1,-1,-1],"split_conditions":[2.8168E0,-9.6054E-2,4.679446E-2,4.909E-1,-3.6708E-2,-3.1635542E-3,-5.9025444E-2,7.178E-1,-1.8507E-2,2.5448594E-2,-8.595046E-3,6.1361603E-3,-7.3232907E-3],"split_indices":[17,27,0,18,27,0,0,10,25,0,0,0,0],"split_type":[0,0,0,0,0,0,0,0,0,0,0,0,0],"sum_hessian":[4.0454776E2,3.983637E2,6.1840563E0,1.0707666E1,3.8765604E2,5.2413287E0,5.4663377E0,6.5554054E1,3.22102E2,4.3860275E1,2.1693775E1,1.0795129E2,2.1415071E2],"tree_param":{"num_deleted":"0","num_feature":"34","num_nodes":"13","size_leaf_vector":"1"}},{"base_weights":[7.855729E-4,-3.3490703E-1,5.009785E-2,1.6599534E-1,-5.663898E-1,7.9148725E-2,-5.9114295E-1,-2.6133096E-2,2.8414581E-2,-8.627411E-1,-1.1435694E-1,3.8320974E-3,3.436255E-1,-5.1301975E-2,-9.877841E-3,-2.0262176E-2,-6.795769E-2,1.990153E-2,-3.3908576E-2,1.4099209E-3,-4.560561E-2,1.0650231E-2,3.85719E-2],"categories":[],"categories_nodes":[],"categories_segments":[],"categories_sizes":[],"default_left":[0,0,0,0,0,0,0,0,0,0,0,0,0,0,0,0,0,0,0,0,0,0,0],"id":13,"left_children":[1,3,5,7,9,11,13,-1,-1,15,17,19,21,-1,-1,-1,-1,-1,-1,-1,-1,-1,-1],"loss_changes":[6.7905483E0,6.186176E0,6.7094417E0,5.112016E0,4.7455215E0,6.8318253E0,2.4708214E0,0E0,0E0,4.374954E0,4.739733E0,6.007293E0,4.0840254E0,0E0,0E0,0E0,0E0,0E0,0E0,0E0,0E0,0E0,0E0],"parents":[2147483647,0,0,1,1,2,2,3,3,4,4,5,5,6,6,9,9,10,10,11,11,12,12],"right_children":[2,4,6,8,10,12,14,-1,-1,16,18,20,22,-1,-1,-1,-1,-1,-1,-1,-1,-1,-1],"split_conditions":[-4.8387E-2,-1.37918E-1,3.2899E0,2.2716E-2,7.2365E-2,8.626E-1,6.63077E1,-2.6133096E-2,2.8414581E-2,-2.4968E0,5.92348E1,7.97147E1,6.81971E1,-5.1301975E-2,-9.877841E-3,-2.0262176E-2,-6.795769E-2,1.990153E-2,-3.3908576E-2,1.4099209E-3,-4.560561E-2,1.0650231E-2,3.85719E-2],"split_indices":[26,1,32,13,2,32,29,0,0,9,29,7,29,0,0,0,0,0,0,0,0,0,0],"split_type":[0,0,0,0,0,0,0,0,0,0,0,0,0,0,0,0,0,0,0,0,0,0,0],"sum_hessian":[4.0819815E2,5.1541126E1,3.5665704E2,1.6379866E1,3.5161263E1,3.4203787E2,1.4619171E1,5.929852E0,1.0450013E1,2.0689022E1,1.447224E1,2.6701337E2,7.5024506E1,6.1817217E0,8.437449E0,1.171174E1,8.977283E0,7.735948E0,6.736292E0,2.6103833E2,5.9750333E0,5.8623352E1,1.6401152E1],"tree_param":{"num_deleted":"0","num_feature":"34","num_nodes":"23","size_leaf_vector":"1"}},{"base_weights":[1.0356816E-2,1.6445367E-1,-6.6241525E-2,1.129384E-1,4.876804E-2,-1.756544E-1,1.7089358E-1,-8.651771E-3,4.7156397E-1,3.103138E-1,-2.3560953E-1,6.5785253E-1,-7.7503614E-2,-5.908828E-3,2.9234413E-2,4.9269922E-2,-2.0263286E-3,-7.394273E-4,5.180475E-2,1.4208311E-2,-1.4631693E-2,5.6886345E-2,1.2456504E-2,1.897027E-2,-1.4569017E-2],"categories":[],"categories_nodes":[],"categories_segments":[],"categories_sizes":[],"default_left":[0,0,0,0,0,0,0,0,0,0,0,0,0,0,0,0,0,0,0,0,0,0,0,0,0],"id":14,"left_children":[1,3,5,7,-1,9,11,13,15,17,19,21,23,-1,-1,-1,-1,-1,-1,-1,-1,-1,-1,-1,-1],"loss_changes":[4.7988257E0,5.5281386E0,7.0784984E0,5.5872955E0,0E0,5.5037203E0,1.048699E1,6.3468323E0,8.57522E0,4.9470177E0,5.0177555E0,5.453336E0,5.7811728E0,0E0,0E0,0E0,0E0,0E0,0E0,0E0,0E0,0E0,0E0,0E0,0E0],"parents":[2147483647,0,0,1,1,2,2,3,3,5,5,6,6,7,7,8,8,9,9,10,10,11,11,12,12],"right_children":[2,4,6,8,-1,10,12,14,16,18,20,22,24,-1,-1,-1,-1,-1,-1,-1,-1,-1,-1,-1,-1],"split_conditions":[2.4248E-1,1.046096E0,4.98654E-1,2.13229E-1,4.876804E-2,3.56881E1,6.09746E-1,2.3092E0,4.977E-1,5.017E-1,-2.8189E0,3.6577E1,-2.7663E-2,-5.908828E-3,2.9234413E-2,4.9269922E-2,-2.0263286E-3,-7.394273E-4,5.180475E-2,1.4208311E-2,-1.4631693E-2,5.6886345E-2,1.2456504E-2,1.897027E-2,-1.4569017E-2],"split_indices":[12,13,12,12,0,30,12,9,19,18,31,15,25,0,0,0,0,0,0,0,0,0,0,0,0],"split_type":[0,0,0,0,0,0,0,0,0,0,0,0,0,0,0,0,0,0,0,0,0,0,0,0,0],"sum_hessian":[4.0463446E2,1.3397104E2,2.7066342E2,1.2703974E2,6.9313E0,1.853864E2,8.527703E1,9.560218E1,3.1437555E1,1.9901161E1,1.6548524E2,2.8249062E1,5.7027973E1,8.138089E1,1.42212925E1,1.5230711E1,1.6206844E1,1.4421085E1,5.4800754E0,1.596661E1,1.4951863E2,1.2173148E1,1.6075912E1,1.7936321E1,3.9091652E1],"tree_param":{"num_deleted":"0","num_feature":"34","num_nodes":"25","size_leaf_vector":"1"}},{"base_weights":[2.5779573E-2,1.1882114E-1,-1.8042202E-1,1.7483022E-2,3.4085387E-1,-5.650965E-1,-5.2183107E-2,-5.787216E-1,8.4662184E-2,6.6201395E-1,1.1500594E-1,-1.0852504E0,-1.5143701E-1,2.448263E-2,-4.297098E-2,-4.1920457E-2,6.3137985E-3,1.40112415E-2,-6.636607E-3,5.798194E-3,4.8837535E-2,3.1148577E-2,-8.268646E-3,-7.158572E-2,-2.8229296E-2,2.2050366E-2,-2.6638111E-2,5.536658E-3,-2.9440999E-2],"categories":[],"categories_nodes":[],"categories_segments":[],"categories_sizes":[],"default_left":[0,0,0,0,0,0,0,0,0,0,0,0,0,0,0,0,0,0,0,0,0,0,0,0,0,0,0,0,0],"id":15,"left_children":[1,3,5,7,9,11,13,15,17,19,21,23,25,27,-1,-1,-1,-1,-1,-1,-1,-1,-1,-1,-1,-1,-1,-1,-1],"loss_changes":[7.8903975E0,6.366856E0,6.28102E0,7.8803196E0,6.3579464E0,6.6955576E0,6.0267105E0,3.7542825E0,7.54513E0,6.1449547E0,7.692868E0,1.7100849E0,4.5094757E0,4.8046865E0,0E0,0E0,0E0,0E0,0E0,0E0,0E0,0E0,0E0,0E0,0E0,0E0,0E0,0E0,0E0],"parents":[2147483647,0,0,1,1,2,2,3,3,4,4,5,5,6,6,7,7,8,8,9,9,10,10,11,11,12,12,13,13],"right_children":[2,4,6,8,10,12,14,16,18,20,22,24,26,28,-1,-1,-1,-1,-1,-1,-1,-1,-1,-1,-1,-1,-1,-1,-1],"split_conditions":[1.42874E2,4.50608E-1,-1.26175E-1,-4.7397E-2,5.9903E-1,2.88032E-1,1.72106E1,3.7285E-2,2.38791E-1,8.221E-1,-2.1976E-2,1.775357E2,-1.33605E-1,2.115426E2,-4.297098E-2,-4.1920457E-2,6.3137985E-3,1.40112415E-2,-6.636607E-3,5.798194E-3,4.8837535E-2,3.1148577E-2,-8.268646E-3,-7.158572E-2,-2.8229296E-2,2.2050366E-2,-2.6638111E-2,5.536658E-3,-2.9440999E-2],"split_indices":[14,12,2,26,12,12,9,2,12,17,25,14,1,16,0,0,0,0,0,0,0,0,0,0,0,0,0,0,0],"split_type":[0,0,0,0,0,0,0,0,0,0,0,0,0,0,0,0,0,0,0,0,0,0,0,0,0,0,0,0,0],"sum_hessian":[4.091552E2,2.8223148E2,1.2692374E2,1.9452634E2,8.7705154E1,3.0881832E1,9.604191E1,1.8928068E1,1.7559827E2,3.541422E1,5.2290936E1,1.2960805E1,1.7921026E1,8.859723E1,7.4446807E0,1.3694448E1,5.23362E0,9.2288635E1,8.330963E1,1.3449155E1,2.1965063E1,1.8162973E1,3.412796E1,6.7316203E0,6.2291846E0,6.95653E0,1.0964497E1,7.839216E1,1.020507E1],"tree_param":{"num_deleted":"0","num_feature":"34","num_nodes":"29","size_leaf_vector":"1"}},{"base_weights":[1.9984485E-3,2.5476469E-2,-6.918927E-1,-3.970946E-2,4.1442372E-2,-7.0318244E-2,-3.1281056E-4,1.6598205E-1,-5.787558E-2,5.6768437E-3,5.993343E-2,-3.3220768E-2,-7.3029405E-5],"categories":[],"categories_nodes":[],"categories_segments":[],"categories_sizes":[],"default_left":[0,0,0,0,0,0,0,0,0,0,0,0,0],"id":16,"left_children":[1,3,5,-1,7,-1,-1,9,11,-1,-1,-1,-1],"loss_changes":[6.5551057E0,5.1252146E0,6.442219E0,0E0,4.7424417E0,0E0,0E0,9.072149E0,7.308494E0,0E0,0E0,0E0,0E0],"parents":[2147483647,0,0,1,1,2,2,4,4,7,7,8,8],"right_children":[2,4,6,-1,8,-1,-1,10,12,-1,-1,-1,-1],"split_conditions":[2.257157E2,2.3108E-2,7.116E-1,-3.970946E-2,-2.01E-2,-7.0318244E-2,-3.1281056E-4,9.75741E-1,-1.084E-1,5.6768437E-3,5.993343E-2,-3.3220768E-2,-7.3029405E-5],"split_indices":[14,6,17,0,33,0,0,13,31,0,0,0,0],"split_type":[0,0,0,0,0,0,0,0,0,0,0,0,0],"sum_hessian":[4.002892E2,3.8812033E2,1.2168885E1,6.484279E0,3.8163605E2,5.444366E0,6.7245197E0,1.6902103E2,2.1261502E2,1.6190842E2,7.112606E0,1.7175644E1,1.9543938E2],"tree_param":{"num_deleted":"0","num_feature":"34","num_nodes":"13","size_leaf_vector":"1"}},{"base_weights":[-1.4778911E-3,2.872968E-2,-6.7592514E-1,-2.2620086E-2,4.5045012E-1,-5.3201552E-2,-1.498607E-2,3.9105885E-2,-2.973437E-1,5.9656274E-1,-7.7193617E-3,3.2779064E-3,-4.4087023E-2,-3.15673E-2,2.1338577E-3,5.644355E-3,3.8589574E-2],"categories":[],"categories_nodes":[],"categories_segments":[],"categories_sizes":[],"default_left":[0,0,0,0,0,0,0,0,0,0,0,0,0,0,0,0,0],"id":17,"left_children":[1,3,5,7,9,-1,-1,11,13,15,-1,-1,-1,-1,-1,-1,-1],"loss_changes":[8.211844E0,8.365535E0,2.2039146E0,5.8604026E0,3.7975092E0,0E0,0E0,6.9393735E0,7.2264204E0,2.7924786E0,0E0,0E0,0E0,0E0,0E0,0E0,0E0],"parents":[2147483647,0,0,1,1,2,2,3,3,4,4,7,7,8,8,9,9],"right_children":[2,4,6,8,10,-1,-1,12,14,16,-1,-1,-1,-1,-1,-1,-1],"split_conditions":[3.1881E0,6.70822E1,2.0222E-2,8.194E-1,8.01061E1,-5.3201552E-2,-1.498607E-2,1.94366E1,-1.24E-2,9.3129E-2,-7.7193617E-3,3.2779064E-3,-4.4087023E-2,-3.15673E-2,2.1338577E-3,5.644355E-3,3.8589574E-2],"split_indices":[31,28,26,19,7,0,0,20,11,1,0,0,0,0,0,0,0],"split_type":[0,0,0,0,0,0,0,0,0,0,0,0,0,0,0,0,0],"sum_hessian":[4.0111353E2,3.8483472E2,1.627882E1,3.439062E2,4.092854E1,7.1127267E0,9.166093E0,2.815125E2,6.2393673E1,3.2976078E1,7.9524617E0,2.7455444E2,6.958049E0,3.104318E1,3.135049E1,9.206906E0,2.376917E1],"tree_param":{"num_deleted":"0","num_feature":"34","num_nodes":"17","size_leaf_vector":"1"}},{"base_weights":[-3.4699988E-2,-4.0232083E-1,1.7019603E-2,1.610289E-2,-8.00316E-1,-1.4666764E-1,1.5376174E-1,-3.4179437E-1,3.737628E-2,-1.1110697E0,-5.9512695E-3,2.0893445E-2,-3.409463E-1,-3.8831025E-2,1.9850887E-1,1.1827633E-2,-4.7205757E-2,-2.131888E-2,-7.0177846E-2,-9.247709E-3,1.6376717E-2,-2.4046663E-2,9.412581E-3,1.539589E-2,-6.9351248E-3],"categories":[],"categories_nodes":[],"categories_segments":[],"categories_sizes":[],"default_left":[0,0,0,0,0,0,0,0,0,0,0,0,0,0,0,0,0,0,0,0,0,0,0,0,0],"id":18,"left_children":[1,3,5,7,9,11,13,15,-1,17,-1,19,21,-1,23,-1,-1,-1,-1,-1,-1,-1,-1,-1,-1],"loss_changes":[7.773055E0,8.409148E0,8.059042E0,6.9461455E0,5.342642E0,5.3437324E0,8.3186865E0,6.440584E0,0E0,2.934084E0,0E0,5.6759233E0,5.7186127E0,0E0,6.9754157E0,0E0,0E0,0E0,0E0,0E0,0E0,0E0,0E0,0E0,0E0],"parents":[2147483647,0,0,1,1,2,2,3,3,4,4,5,5,6,6,7,7,9,9,11,11,12,12,14,14],"right_children":[2,4,6,8,10,12,14,16,-1,18,-1,20,22,-1,24,-1,-1,-1,-1,-1,-1,-1,-1,-1,-1],"split_conditions":[-4.8387E-2,-7.7353E-2,4.2685E-2,-9.7816E-2,5.75971E1,3.695E-3,-9.2331E-2,3.50899E1,3.737628E-2,4.24952E1,-5.9512695E-3,4.5047E-1,8.95789E-1,-3.8831025E-2,4.165E-2,1.1827633E-2,-4.7205757E-2,-2.131888E-2,-7.0177846E-2,-9.247709E-3,1.6376717E-2,-2.4046663E-2,9.412581E-3,1.539589E-2,-6.9351248E-3],"split_indices":[26,1,5,2,7,26,27,28,0,28,0,13,13,0,27,0,0,0,0,0,0,0,0,0,0],"split_type":[0,0,0,0,0,0,0,0,0,0,0,0,0,0,0,0,0,0,0,0,0,0,0,0,0],"sum_hessian":[4.07464E2,4.9418724E1,3.5804526E2,2.4558846E1,2.4859879E1,1.6293329E2,1.9511195E2,1.684769E1,7.7111554E0,1.66394E1,8.220479E0,8.796117E1,7.497212E1,8.202837E0,1.8690912E2,8.904691E0,7.942999E0,5.7161217E0,1.0923279E1,5.2867874E1,3.5093296E1,5.936081E1,1.5611315E1,1.4118744E2,4.5721687E1],"tree_param":{"num_deleted":"0","num_feature":"34","num_nodes":"25","size_leaf_vector":"1"}},{"base_weights":[-4.403284E-2,-6.1754156E-2,4.2838022E-2,-7.4807835E-1,-4.04727E-2,-9.14179E-3,-5.812298E-2,4.226927E-2,-5.772847E-2,-4.5997507E-4,-2.1229994E-2],"categories":[],"categories_nodes":[],"categories_segments":[],"categories_sizes":[],"default_left":[0,0,0,0,0,0,0,0,0,0,0],"id":19,"left_children":[1,3,-1,5,7,-1,-1,-1,9,-1,-1],"loss_changes":[6.517991E0,5.784611E0,0E0,2.5785666E0,5.967615E0,0E0,0E0,0E0,6.7747216E0,0E0,0E0],"parents":[2147483647,0,0,1,1,3,3,4,4,8,8],"right_children":[2,4,-1,6,8,-1,-1,-1,10,-1,-1],"split_conditions":[2.8168E0,-9.2331E-2,4.2838022E-2,4.926E-1,-4.7974E0,-9.14179E-3,-5.812298E-2,4.226927E-2,1.814294E2,-4.5997507E-4,-2.1229994E-2],"split_indices":[17,27,0,18,11,0,0,0,16,0,0],"split_type":[0,0,0,0,0,0,0,0,0,0,0],"sum_hessian":[4.0399808E2,3.9711703E2,6.8810434E0,1.0916294E1,3.8620074E2,5.2272363E0,5.689058E0,6.462154E0,3.797386E2,3.3628113E2,4.3457478E1],"tree_param":{"num_deleted":"0","num_feature":"34","num_nodes":"11","size_leaf_vector":"1"}},{"base_weights":[3.3453465E-3,-7.253455E-2,2.132423E-1,1.1721346E-1,-1.9915606E-1,4.9186416E-2,1.306996E-1,-1.6387623E-2,5.7418066E-1,-1.55855E-1,-5.7988133E-2,-3.3804083E-1,2.8606224E-1,-1.3128958E-2,1.0485615E-2,-1.995501E-2,4.2264577E-2,-4.4036694E-3,-2.746424E-2,-3.7770413E-2,2.37734E-2,5.116729E-2,8.965905E-3],"categories":[],"categories_nodes":[],"categories_segments":[],"categories_sizes":[],"default_left":[0,0,0,0,0,0,0,0,0,0,0,0,0,0,0,0,0,0,0,0,0,0,0],"id":20,"left_children":[1,3,5,7,9,-1,11,13,15,17,-1,19,21,-1,-1,-1,-1,-1,-1,-1,-1,-1,-1],"loss_changes":[6.5746684E0,7.3087177E0,6.841993E0,7.4571047E0,7.3993936E0,0E0,7.390177E0,5.3634906E0,7.6266985E0,4.6325545E0,0E0,8.979794E0,5.778968E0,0E0,0E0,0E0,0E0,0E0,0E0,0E0,0E0,0E0,0E0],"parents":[2147483647,0,0,1,1,2,2,3,3,4,4,6,6,7,7,8,8,9,9,11,11,12,12],"right_children":[2,4,6,8,10,-1,12,14,16,18,-1,20,22,-1,-1,-1,-1,-1,-1,-1,-1,-1,-1],"split_conditions":[2.14703E-1,3.636E-1,4.40966E1,2.889E-1,6.0858E0,4.9186416E-2,-1.084E-1,4.1657E-2,-2.9911E-2,4.4179E-2,-5.7988133E-2,4.929E-1,3.82E-2,-1.3128958E-2,1.0485615E-2,-1.995501E-2,4.2264577E-2,-4.4036694E-3,-2.746424E-2,-3.7770413E-2,2.37734E-2,5.116729E-2,8.965905E-3],"split_indices":[2,19,8,19,10,0,31,5,26,27,0,18,32,0,0,0,0,0,0,0,0,0,0],"split_type":[0,0,0,0,0,0,0,0,0,0,0,0,0,0,0,0,0,0,0,0,0,0,0],"sum_hessian":[4.1083008E2,3.022265E2,1.0860355E2,1.2099075E2,1.8123576E2,9.452489E0,9.915106E1,9.436569E1,2.662506E1,1.7453072E2,6.705038E0,2.438971E1,7.476135E1,4.5098415E1,4.9267273E1,5.697848E0,2.0927212E1,1.4992493E2,2.460579E1,1.6166811E1,8.2228985E0,8.369079E0,6.639227E1],"tree_param":{"num_deleted":"0","num_feature":"34","num_nodes":"23","size_leaf_vector":"1"}},{"base_weights":[-2.0253276E-2,2.7018818E-1,-7.3485695E-2,2.7752558E-2,1.0153382E0,-3.6001515E-1,3.742527E-2,3.8521597E-1,-2.99623E-1,7.709444E-2,1.0056988E-2,-4.843366E-1,2.2744729E-1,-1.981558E-1,1.4896022E-1,6.855005E-2,1.5382435E-3,-3.4521062E-2,1.4796145E-2,2.0053996E-2,-2.792487E-2,-1.7861895E-2,3.5068072E-2,-5.2741426E-3,-3.9814E-2,3.4758165E-2,3.423292E-3],"categories":[],"categories_nodes":[],"categories_segments":[],"categories_sizes":[],"default_left":[0,0,0,0,0,0,0,0,0,0,0,0,0,0,0,0,0,0,0,0,0,0,0,0,0,0,0],"id":21,"left_children":[1,3,5,7,9,11,13,15,17,-1,-1,19,21,23,25,-1,-1,-1,-1,-1,-1,-1,-1,-1,-1,-1,-1],"loss_changes":[6.292788E0,1.1363319E1,1.0935076E1,5.8035827E0,6.3142204E0,7.1214437E0,6.5634713E0,8.229467E0,6.2400236E0,0E0,0E0,5.4476337E0,5.085225E0,4.36879E0,7.397611E0,0E0,0E0,0E0,0E0,0E0,0E0,0E0,0E0,0E0,0E0,0E0,0E0],"parents":[2147483647,0,0,1,1,2,2,3,3,4,4,5,5,6,6,7,7,8,8,11,11,12,12,13,13,14,14],"right_children":[2,4,6,8,10,12,14,16,18,-1,-1,20,22,24,26,-1,-1,-1,-1,-1,-1,-1,-1,-1,-1,-1,-1],"split_conditions":[2.6973E-2,2.4875E-2,3.7674E-2,3.2456E-2,7.079E-3,5.1778E-2,-1.56318E-1,-8.3777E-2,1.19595E-1,7.709444E-2,1.0056988E-2,2.73474E1,-1.221E-3,8.548E-1,4.44783E1,6.855005E-2,1.5382435E-3,-3.4521062E-2,1.4796145E-2,2.0053996E-2,-2.792487E-2,-1.7861895E-2,3.5068072E-2,-5.2741426E-3,-3.9814E-2,3.4758165E-2,3.423292E-3],"split_indices":[4,4,4,6,25,6,2,2,2,0,0,8,0,19,28,0,0,0,0,0,0,0,0,0,0,0,0],"split_type":[0,0,0,0,0,0,0,0,0,0,0,0,0,0,0,0,0,0,0,0,0,0,0,0,0,0,0],"sum_hessian":[4.0472882E2,6.2058075E1,3.4267075E2,4.7606483E1,1.4451593E1,9.499999E1,2.4767075E2,2.2673006E1,2.4933475E1,8.233288E0,6.218305E0,7.855201E1,1.6447987E1,7.933176E1,1.6833899E2,5.237825E0,1.7435183E1,1.4958424E1,9.975051E0,5.7301846E0,7.282182E1,7.4736576E0,8.974328E0,6.970766E1,9.624102E0,2.064102E1,1.4769797E2],"tree_param":{"num_deleted":"0","num_feature":"34","num_nodes":"27","size_leaf_vector":"1"}},{"base_weights":[1.3349255E-2,3.1912066E-2,-3.9646056E-2,2.971684E-1,-1.6491959E-2,1.1417353E-1,6.1493643E-2,-3.0460498E-1,7.83623E-2,1.0764427E-2,-3.3509664E-2,-4.554911E-3,-6.230234E-2,2.8746622E-3,3.8035206E-2],"categories":[],"categories_nodes":[],"categories_segments":[],"categories_sizes":[],"default_left":[0,0,0,0,0,0,0,0,0,0,0,0,0,0,0],"id":22,"left_children":[1,3,-1,5,7,9,-1,11,13,-1,-1,-1,-1,-1,-1],"loss_changes":[6.0848413E0,5.0985675E0,0E0,1.0317877E1,9.21849E0,4.2943635E0,0E0,1.6677599E1,3.5718832E0,0E0,0E0,0E0,0E0,0E0,0E0],"parents":[2147483647,0,0,1,1,3,3,4,4,5,5,7,7,8,8],"right_children":[2,4,-1,6,8,10,-1,12,14,-1,-1,-1,-1,-1,-1],"split_conditions":[1.72106E1,2.6973E-2,-3.9646056E-2,2.5579E-2,3.8785E-2,1.673576E2,6.1493643E-2,8.079E-1,5.127E-1,1.0764427E-2,-3.3509664E-2,-4.554911E-3,-6.230234E-2,2.8746622E-3,3.8035206E-2],"split_indices":[9,4,0,4,5,15,0,19,18,0,0,0,0,0,0],"split_type":[0,0,0,0,0,0,0,0,0,0,0,0,0,0,0],"sum_hessian":[4.0386948E2,3.9571924E2,8.150248E0,6.0274235E1,3.3544498E2,5.1326485E1,8.94775E0,8.2536125E1,2.5290886E2,4.6108086E1,5.218402E0,6.81723E1,1.4363826E1,2.4645541E2,6.453447E0],"tree_param":{"num_deleted":"0","num_feature":"34","num_nodes":"15","size_leaf_vector":"1"}},{"base_weights":[-1.1187586E-3,1.4448737E-1,-7.4989E-2,5.462326E-2,8.5800177E-1,4.738491E-1,-1.0815702E-1,4.4151824E-2,1.4374128E-3,4.6837362E-3,6.1865587E-2,4.4981416E-2,-1.3598605E-2,2.2845618E-1,-1.6503161E-1,-5.9973127E-3,1.36169065E-2,-3.3274673E-2,2.4565909E-2,9.6147145E-5,-1.3221196E-2],"categories":[],"categories_nodes":[],"categories_segments":[],"categories_sizes":[],"default_left":[0,0,0,0,0,0,0,0,0,0,0,0,0,0,0,0,0,0,0,0,0],"id":23,"left_children":[1,3,5,7,9,11,13,-1,15,-1,-1,-1,-1,17,19,-1,-1,-1,-1,-1,-1],"loss_changes":[4.403833E0,8.789235E0,4.995738E0,5.4383755E0,4.333393E0,5.219198E0,4.956989E0,0E0,3.8804197E0,0E0,0E0,0E0,0E0,9.152835E0,3.6577106E0,0E0,0E0,0E0,0E0,0E0,0E0],"parents":[2147483647,0,0,1,1,2,2,3,3,4,4,5,5,6,6,8,8,13,13,14,14],"right_children":[2,4,6,8,10,12,14,-1,16,-1,-1,-1,-1,18,20,-1,-1,-1,-1,-1,-1],"split_conditions":[-1.7413E-2,5.051E-1,8.24E-2,-8.0554E-2,-3.291E-1,3.667E-1,1.96216E1,4.4151824E-2,3.521E-1,4.6837362E-3,6.1865587E-2,4.4981416E-2,-1.3598605E-2,2.1182E0,4.0989E-2,-5.9973127E-3,1.36169065E-2,-3.3274673E-2,2.4565909E-2,9.6147145E-5,-1.3221196E-2],"split_indices":[25,18,19,13,31,32,14,0,11,0,0,0,0,16,6,0,0,0,0,0,0],"split_type":[0,0,0,0,0,0,0,0,0,0,0,0,0,0,0,0,0,0,0,0,0],"sum_hessian":[4.0742456E2,1.3680714E2,2.7061743E2,1.22460335E2,1.4346804E1,1.4665072E1,2.5595235E2,6.4465885E0,1.1601375E2,5.1719823E0,9.174821E0,9.20426E0,5.4608126E0,3.655922E1,2.1939313E2,8.050069E1,3.551306E1,7.9592886E0,2.859993E1,8.223658E1,1.3715656E2],"tree_param":{"num_deleted":"0","num_feature":"34","num_nodes":"21","size_leaf_vector":"1"}},{"base_weights":[3.6418599E-3,7.3216096E-2,-1.6863503E-1,3.1194134E-2,6.911413E-1,1.364196E-1,-3.257578E-1,-6.00083E-2,2.794716E-1,1.3791184E-2,4.7963083E-2,3.607783E-1,-3.6680305E-1,-1.0271242E0,-1.7821926E-1,-1.4223041E-3,-5.1161688E-2,3.179162E-3,3.66978E-2,4.6904456E-2,5.7275495E-3,-3.2521807E-2,1.309268E-3,-7.301424E-2,-2.5776038E-2,-6.2377382E-2,-2.304836E-3],"categories":[],"categories_nodes":[],"categories_segments":[],"categories_sizes":[],"default_left":[0,0,0,0,0,0,0,0,0,0,0,0,0,0,0,0,0,0,0,0,0,0,0,0,0,0,0],"id":24,"left_children":[1,3,5,7,9,11,13,15,17,-1,-1,19,21,23,25,-1,-1,-1,-1,-1,-1,-1,-1,-1,-1,-1,-1],"loss_changes":[4.924129E0,7.576293E0,5.7093706E0,6.2441616E0,1.8048534E0,4.7483115E0,7.9197855E0,6.110704E0,7.220092E0,0E0,0E0,3.983825E0,1.4775686E0,2.2165594E0,9.253742E0,0E0,0E0,0E0,0E0,0E0,0E0,0E0,0E0,0E0,0E0,0E0,0E0],"parents":[2147483647,0,0,1,1,2,2,3,3,4,4,5,5,6,6,7,7,8,8,11,11,12,12,13,13,14,14],"right_children":[2,4,6,8,10,12,14,16,18,-1,-1,20,22,24,26,-1,-1,-1,-1,-1,-1,-1,-1,-1,-1,-1,-1],"split_conditions":[7.13E-1,6.673E-1,-1.1738E0,1.1636E0,4.57681E1,1.1691E0,4.86611E1,3.913E0,4.23289E-1,1.3791184E-2,4.7963083E-2,-2.3091E-2,3.68976E1,4.74146E1,7.338E-1,-1.4223041E-3,-5.1161688E-2,3.179162E-3,3.66978E-2,4.6904456E-2,5.7275495E-3,-3.2521807E-2,1.309268E-3,-7.301424E-2,-2.5776038E-2,-6.2377382E-2,-2.304836E-3],"split_indices":[19,19,9,17,28,17,8,31,12,0,0,25,28,30,19,0,0,0,0,0,0,0,0,0,0,0,0],"split_type":[0,0,0,0,0,0,0,0,0,0,0,0,0,0,0,0,0,0,0,0,0,0,0,0,0,0,0],"sum_hessian":[4.0879214E2,2.9160294E2,1.171892E2,2.740188E2,1.7584148E1,3.9884674E1,7.730453E1,2.0095729E2,7.30615E1,7.694352E0,9.889795E0,2.7781519E1,1.2103154E1,1.2399282E1,6.490524E1,1.9557826E2,5.379023E0,5.0305416E1,2.2756086E1,7.4662075E0,2.0315311E1,6.649141E0,5.4540133E0,5.7102447E0,6.6890373E0,6.2091765E0,5.8696068E1],"tree_param":{"num_deleted":"0","num_feature":"34","num_nodes":"27","size_leaf_vector":"1"}},{"base_weights":[1.5904512E-2,-6.38875E-3,6.553199E-1,1.3968362E-1,-9.739255E-2,6.810572E-3,5.5214018E-2,5.3286202E-2,8.141369E-1,-1.5668952E-1,2.3856692E-1,-1.0382322E-2,9.176648E-3,6.1332572E-2,3.08324E-3,1.9907925E-2,-1.012017E-2,4.67919E-2,-2.252775E-3],"categories":[],"categories_nodes":[],"categories_segments":[],"categories_sizes":[],"default_left":[0,0,0,0,0,0,0,0,0,0,0,0,0,0,0,0,0,0,0],"id":25,"left_children":[1,3,5,7,9,-1,-1,11,13,15,17,-1,-1,-1,-1,-1,-1,-1,-1],"loss_changes":[5.884771E0,5.325936E0,3.0910254E0,8.919409E0,4.954323E0,0E0,0E0,4.7082872E0,5.3241444E0,5.4170513E0,7.443265E0,0E0,0E0,0E0,0E0,0E0,0E0,0E0,0E0],"parents":[2147483647,0,0,1,1,2,2,3,3,4,4,7,7,8,8,9,9,10,10],"right_children":[2,4,6,8,10,-1,-1,12,14,16,18,-1,-1,-1,-1,-1,-1,-1,-1],"split_conditions":[1.111045E0,3.636E-1,2.6056E-2,3.222E-1,5.056E-1,6.810572E-3,5.5214018E-2,-1.7966E-2,5.36E-3,-3.369E0,-1.8507E-2,-1.0382322E-2,9.176648E-3,6.1332572E-2,3.08324E-3,1.9907925E-2,-1.012017E-2,4.67919E-2,-2.252775E-3],"split_indices":[13,19,26,19,18,0,0,27,25,31,25,0,0,0,0,0,0,0,0],"split_type":[0,0,0,0,0,0,0,0,0,0,0,0,0,0,0,0,0,0,0],"sum_hessian":[4.1153775E2,3.9862952E2,1.29082365E1,1.5281216E2,2.4581735E2,6.5909133E0,6.317323E0,1.3641626E2,1.6395906E1,2.0939302E2,3.6424335E1,4.5223175E1,9.119308E1,1.0183192E1,6.2127137E0,1.5351829E1,1.9404118E2,9.867068E0,2.6557266E1],"tree_param":{"num_deleted":"0","num_feature":"34","num_nodes":"19","size_leaf_vector":"1"}},{"base_weights":[2.225867E-2,4.0772405E-2,-4.9703792E-1,-8.3416805E-2,1.3888437E-1,1.4748397E-2,-5.2258637E-2,1.7700511E-1,-2.1326534E-1,-3.6710742E-1,1.9073339E-1,-1.0800246E-3,4.154623E-2,-2.1301946E-2,1.0376395E-2,1.1003547E-2,-3.0277153E-2,1.7848033E-2,1.1726249E-3],"categories":[],"categories_nodes":[],"categories_segments":[],"categories_sizes":[],"default_left":[0,0,0,0,0,0,0,0,0,0,0,0,0,0,0,0,0,0,0],"id":26,"left_children":[1,3,5,7,9,-1,-1,11,13,15,17,-1,-1,-1,-1,-1,-1,-1,-1],"loss_changes":[3.8567388E0,4.717621E0,6.3047333E0,5.823144E0,5.7406344E0,0E0,0E0,7.4816613E0,1.0350573E1,2.9937947E0,5.4615765E0,0E0,0E0,0E0,0E0,0E0,0E0,0E0,0E0],"parents":[2147483647,0,0,1,1,2,2,3,3,4,4,7,7,8,8,9,9,10,10],"right_children":[2,4,6,8,10,-1,-1,12,14,16,18,-1,-1,-1,-1,-1,-1,-1,-1],"split_conditions":[1.94366E1,4.2685E-2,4.13334E1,2.7302E-2,3.36555E1,1.4748397E-2,-5.2258637E-2,1.519E-2,3.8287E-2,4.752E-2,5.21519E1,-1.0800246E-3,4.154623E-2,-2.1301946E-2,1.0376395E-2,1.1003547E-2,-3.0277153E-2,1.7848033E-2,1.1726249E-3],"split_indices":[20,5,8,4,28,0,0,3,4,4,29,0,0,0,0,0,0,0,0],"split_type":[0,0,0,0,0,0,0,0,0,0,0,0,0,0,0,0,0,0,0],"sum_hessian":[3.980457E2,3.85233E2,1.2812674E1,1.7008755E2,2.1514546E2,5.429459E0,7.3832145E0,5.6469723E1,1.13617836E2,1.9431751E1,1.957137E2,4.4056145E1,1.2413575E1,7.545277E1,3.8165066E1,5.6340947E0,1.3797656E1,9.759727E1,9.811644E1],"tree_param":{"num_deleted":"0","num_feature":"34","num_nodes":"19","size_leaf_vector":"1"}},{"base_weights":[1.3003766E-2,-6.9318734E-2,1.8176399E-1,3.846356E-1,-1.2080884E-1,6.6820934E-2,4.9218872E-1,6.187098E-1,-3.2184876E-3,3.1026183E-2,-1.4532411E-1,2.6394922E-1,-1.3949274E-1,6.4557153E-1,-1.132429E-2,4.1453045E-2,2.8594946E-3,-8.9193685E-3,2.2435132E-2,2.2740416E-2,-1.36428345E-2,-1.4797509E-2,3.2409593E-2,1.0944748E-3,4.1438125E-2],"categories":[],"categories_nodes":[],"categories_segments":[],"categories_sizes":[],"default_left":[0,0,0,0,0,0,0,0,0,0,0,0,0,0,0,0,0,0,0,0,0,0,0,0,0],"id":27,"left_children":[1,3,5,7,9,11,13,15,-1,-1,17,19,21,23,-1,-1,-1,-1,-1,-1,-1,-1,-1,-1,-1],"loss_changes":[5.7490625E0,6.5504017E0,4.80751E0,3.0441184E0,4.645813E0,4.11022E0,4.169712E0,2.1830745E0,0E0,0E0,4.8616014E0,5.4070816E0,6.3035636E0,3.4482927E0,0E0,0E0,0E0,0E0,0E0,0E0,0E0,0E0,0E0,0E0,0E0],"parents":[2147483647,0,0,1,1,2,2,3,3,4,4,5,5,6,6,7,7,10,10,11,11,12,12,13,13],"right_children":[2,4,6,8,10,12,14,16,-1,-1,18,20,22,24,-1,-1,-1,-1,-1,-1,-1,-1,-1,-1,-1],"split_conditions":[1.0992E0,-4.9809E-2,2.6178E0,6.973E-1,-3.5063E0,1.425E0,3.33394E-1,3.6181E-2,-3.2184876E-3,3.1026183E-2,9.69183E-1,5.2585E1,2.3076E0,2.1962E-2,-1.132429E-2,4.1453045E-2,2.8594946E-3,-8.9193685E-3,2.2435132E-2,2.2740416E-2,-1.36428345E-2,-1.4797509E-2,3.2409593E-2,1.0944748E-3,4.1438125E-2],"split_indices":[17,25,9,19,11,17,1,27,0,0,13,29,17,1,0,0,0,0,0,0,0,0,0,0,0],"split_type":[0,0,0,0,0,0,0,0,0,0,0,0,0,0,0,0,0,0,0,0,0,0,0,0,0],"sum_hessian":[4.1191013E2,2.772532E2,1.3465694E2,2.7584932E1,2.4966826E2,9.915675E1,3.550018E1,1.788383E1,9.701102E0,7.2138057E0,2.4245445E2,5.0564297E1,4.8592457E1,2.934002E1,6.160161E0,1.2663496E1,5.220334E0,2.3033386E2,1.2120583E1,3.7414482E1,1.3149814E1,4.106084E1,7.531618E0,6.9154716E0,2.242455E1],"tree_param":{"num_deleted":"0","num_feature":"34","num_nodes":"25","size_leaf_vector":"1"}},{"base_weights":[-6.633492E-2,-3.7048396E-2,-4.707007E-2,2.128686E-1,-9.521535E-2,3.5828617E-1,-2.9369999E-2,-4.9411315E-2,-7.518669E-2,2.3928447E-2,-3.0947197E-2,-1.0764933E-2,1.3566724E-3],"categories":[],"categories_nodes":[],"categories_segments":[],"categories_sizes":[],"default_left":[0,0,0,0,0,0,0,0,0,0,0,0,0],"id":28,"left_children":[1,-1,3,5,7,9,-1,-1,11,-1,-1,-1,-1],"loss_changes":[5.20657E0,0E0,4.9406166E0,7.396465E0,5.8711567E0,6.5114193E0,0E0,0E0,4.682371E0,0E0,0E0,0E0,0E0],"parents":[2147483647,0,0,2,2,3,3,4,4,5,5,8,8],"right_children":[2,-1,4,6,8,10,-1,-1,12,-1,-1,-1,-1],"split_conditions":[-9.6054E-2,-3.7048396E-2,-3.6708E-2,6.114E1,-3.4773E-2,6.1863E-2,-2.9369999E-2,-4.9411315E-2,5.2554E0,2.3928447E-2,-3.0947197E-2,-1.0764933E-2,1.3566724E-3],"split_indices":[27,0,27,7,27,26,0,0,20,0,0,0,0],"split_type":[0,0,0,0,0,0,0,0,0,0,0,0,0],"sum_hessian":[4.022906E2,1.0128815E1,3.9216177E2,6.074972E1,3.3141205E2,5.187564E1,8.874081E0,6.2095237E0,3.252025E2,4.6644646E1,5.2309947E0,1.3678793E2,1.8841458E2],"tree_param":{"num_deleted":"0","num_feature":"34","num_nodes":"13","size_leaf_vector":"1"}},{"base_weights":[5.518381E-2,7.345712E-2,-3.414483E-2,3.810463E-2,4.8480797E-1,-3.8778286E-2,5.5425704E-2,7.7921385E-1,-1.9256879E-2,5.6261835E-3,-1.1464675E-2,5.0057996E-2,-4.464638E-4],"categories":[],"categories_nodes":[],"categories_segments":[],"categories_sizes":[],"default_left":[0,0,0,0,0,0,0,0,0,0,0,0,0],"id":29,"left_children":[1,3,-1,5,7,-1,9,11,-1,-1,-1,-1,-1],"loss_changes":[5.52495E0,5.7551203E0,0E0,5.210928E0,8.325615E0,0E0,5.8778915E0,4.162181E0,0E0,0E0,0E0,0E0,0E0],"parents":[2147483647,0,0,1,1,3,3,4,4,6,6,7,7],"right_children":[2,4,-1,6,8,-1,10,12,-1,-1,-1,-1,-1],"split_conditions":[8.18752E1,7.07516E1,-3.414483E-2,2.3108E-2,2.7488E0,-3.8778286E-2,4.165E-2,8.01061E1,-1.9256879E-2,5.6261835E-3,-1.1464675E-2,5.0057996E-2,-4.464638E-4],"split_indices":[7,29,0,6,31,0,27,30,0,0,0,0,0],"split_type":[0,0,0,0,0,0,0,0,0,0,0,0,0],"sum_hessian":[4.0492545E2,3.9602127E2,8.904178E0,3.6568597E2,3.0335312E1,6.709852E0,3.589761E2,2.2742962E1,7.59235E0,2.9951566E2,5.946047E1,1.7534782E1,5.2081804E0],"tree_param":{"num_deleted":"0","num_feature":"34","num_nodes":"13","size_leaf_vector":"1"}},{"base_weights":[1.0655739E-2,-7.020061E-2,2.1446106E-1,-5.097854E-2,-4.1855566E-2,7.344108E-3,7.127967E-1,-7.29035E-2,3.0250305E-2,-3.3149257E-1,3.1386858E-1,9.098106E-1,-1.5435213E-3,-9.892258E-4,-1.7212393E-2,-3.7271973E-2,1.2538164E-4,3.241007E-2,-2.1799558E-3,6.2282432E-2,2.3789039E-2],"categories":[],"categories_nodes":[],"categories_segments":[],"categories_sizes":[],"default_left":[0,0,0,0,0,0,0,0,0,0,0,0,0,0,0,0,0,0,0,0,0],"id":30,"left_children":[1,3,5,7,-1,9,11,13,-1,15,17,19,-1,-1,-1,-1,-1,-1,-1,-1,-1],"loss_changes":[6.7437506E0,4.2779894E0,1.1991037E1,4.171742E0,0E0,8.736424E0,5.026125E0,4.0088277E0,0E0,5.5270476E0,5.3049374E0,3.3431892E0,0E0,0E0,0E0,0E0,0E0,0E0,0E0,0E0,0E0],"parents":[2147483647,0,0,1,1,2,2,3,3,5,5,6,6,7,7,9,9,10,10,11,11],"right_children":[2,4,6,8,-1,10,12,14,-1,16,18,20,-1,-1,-1,-1,-1,-1,-1,-1,-1],"split_conditions":[1.1636E0,1.72106E1,4.42689E-1,1.24753E1,-4.1855566E-2,-1.909E-1,8.34676E1,4.4168E0,3.0250305E-2,-2.414E-1,-3.7E-3,1.5144E0,-1.5435213E-3,-9.892258E-4,-1.7212393E-2,-3.7271973E-2,1.2538164E-4,3.241007E-2,-2.1799558E-3,6.2282432E-2,2.3789039E-2],"split_indices":[17,9,12,9,0,10,8,9,0,31,33,17,0,0,0,0,0,0,0,0,0],"split_type":[0,0,0,0,0,0,0,0,0,0,0,0,0,0,0,0,0,0,0,0,0],"sum_hessian":[4.0732053E2,2.9209305E2,1.1522748E2,2.8599136E2,6.1016965E0,8.211414E1,3.311333E1,2.7760193E2,8.389419E0,3.8962723E1,4.3151424E1,2.6001535E1,7.111795E0,2.3305205E2,4.4549885E1,1.6848946E1,2.2113777E1,2.1876982E1,2.1274443E1,1.3604703E1,1.2396833E1],"tree_param":{"num_deleted":"0","num_feature":"34","num_nodes":"21","size_leaf_vector":"1"}},{"base_weights":[2.512635E-3,2.8961387E-2,-3.0514467E-1,4.846948E-1,2.236621E-3,2.6039594E-1,-6.318916E-1,7.982508E-1,-2.472192E-3,-2.806926E-1,4.1258972E-2,3.2342356E-2,-8.957809E-3,-5.455003E-2,-6.4620017E-3,6.227393E-2,1.7837588E-2,9.621146E-3,-4.5709465E-2,3.7862435E-2,6.570499E-4],"categories":[],"categories_nodes":[],"categories_segments":[],"categories_sizes":[],"default_left":[0,0,0,0,0,0,0,0,0,0,0,0,0,0,0,0,0,0,0,0,0],"id":31,"left_children":[1,3,5,7,9,11,13,15,-1,17,19,-1,-1,-1,-1,-1,-1,-1,-1,-1,-1],"loss_changes":[3.3459418E0,4.6094813E0,6.179764E0,3.5506773E0,3.970625E0,2.2610075E0,4.687563E0,2.1755104E0,0E0,1.3240992E1,6.3518047E0,0E0,0E0,0E0,0E0,0E0,0E0,0E0,0E0,0E0,0E0],"parents":[2147483647,0,0,1,1,2,2,3,3,4,4,5,5,6,6,7,7,9,9,10,10],"right_children":[2,4,6,8,10,12,14,16,-1,18,20,-1,-1,-1,-1,-1,-1,-1,-1,-1,-1],"split_conditions":[9.034E-1,-3.369E0,4.548E-2,2.16234E-1,-1.3806E0,-1.6E-3,-1.24E-2,9.917E-1,-2.472192E-3,4.078E-1,-1.0489E0,3.2342356E-2,-8.957809E-3,-5.455003E-2,-6.4620017E-3,6.227393E-2,1.7837588E-2,9.621146E-3,-4.5709465E-2,3.7862435E-2,6.570499E-4],"split_indices":[19,31,0,13,11,9,11,17,0,19,31,0,0,0,0,0,0,0,0,0,0],"split_type":[0,0,0,0,0,0,0,0,0,0,0,0,0,0,0,0,0,0,0,0,0],"sum_hessian":[4.0910724E2,3.7755533E2,3.1551897E1,1.9964647E1,3.575907E2,1.1628355E1,1.9923542E1,1.2268307E1,7.6963415E0,4.259137E1,3.1499933E2,5.93699E0,5.6913652E0,9.801037E0,1.0122505E1,5.18997E0,7.0783367E0,2.4780645E1,1.7810724E1,1.0923166E1,3.0407614E2],"tree_param":{"num_deleted":"0","num_feature":"34","num_nodes":"21","size_leaf_vector":"1"}},{"base_weights":[2.8618501E-2,-5.442555E-1,5.343077E-2,7.6075306E-4,-4.2560436E-2,5.991445E-1,2.8159738E-2,8.559529E-1,1.6277675E-3,-4.5264233E-2,2.0080353E-1,6.0044345E-2,1.7617984E-2,4.374567E-3,-1.592145E-2,1.5847715E-2,-1.3661364E-2],"categories":[],"categories_nodes":[],"categories_segments":[],"categories_sizes":[],"default_left":[0,0,0,0,0,0,0,0,0,0,0,0,0,0,0,0,0],"id":32,"left_children":[1,3,5,-1,-1,7,9,11,-1,13,15,-1,-1,-1,-1,-1,-1],"loss_changes":[5.78768E0,2.9165473E0,5.350755E0,0E0,0E0,2.4714737E0,4.737846E0,1.6231441E0,0E0,9.548886E0,6.2254486E0,0E0,0E0,0E0,0E0,0E0,0E0],"parents":[2147483647,0,0,1,1,2,2,5,5,6,6,7,7,9,9,10,10],"right_children":[2,4,6,-1,-1,8,10,12,-1,14,16,-1,-1,-1,-1,-1,-1],"split_conditions":[4.088E-1,-2.1554E0,-3.873E0,7.6075306E-4,-4.2560436E-2,5.6131E-2,6.329E-1,4.31907E1,1.6277675E-3,4.34E-2,4.1621E-2,6.0044345E-2,1.7617984E-2,4.374567E-3,-1.592145E-2,1.5847715E-2,-1.3661364E-2],"split_indices":[17,9,11,0,0,6,32,29,0,33,25,0,0,0,0,0,0],"split_type":[0,0,0,0,0,0,0,0,0,0,0,0,0,0,0,0,0],"sum_hessian":[4.0412714E2,1.590779E1,3.8821936E2,5.972464E0,9.935327E0,1.6177015E1,3.7204233E2,1.0780161E1,5.396855E0,2.6154657E2,1.10495766E2,5.5761595E0,5.2040014E0,1.764656E2,8.5080956E1,8.9015785E1,2.147998E1],"tree_param":{"num_deleted":"0","num_feature":"34","num_nodes":"17","size_leaf_vector":"1"}},{"base_weights":[-1.2784238E-3,3.7904713E-2,-1.719892E-2,2.3214959E-2,-3.13499E-1,-7.804682E-2,1.7596555E-1,-6.34901E-1,7.545479E-2,-2.763701E-2,-2.1231363E-3,3.8297128E-2,6.253518E-3,-8.08864E-3,-4.2098653E-2,4.6197206E-2,-1.3113028E-2],"categories":[],"categories_nodes":[],"categories_segments":[],"categories_sizes":[],"default_left":[0,0,0,0,0,0,0,0,0,0,0,0,0,0,0,0,0],"id":33,"left_children":[1,-1,3,5,7,9,11,13,15,-1,-1,-1,-1,-1,-1,-1,-1],"loss_changes":[4.962713E0,0E0,4.8209233E0,5.4996915E0,6.0880594E0,3.5908725E0,4.158906E0,2.4661303E0,6.7627053E0,0E0,0E0,0E0,0E0,0E0,0E0,0E0,0E0],"parents":[2147483647,0,0,2,2,3,3,4,4,5,5,6,6,7,7,8,8],"right_children":[2,-1,4,6,8,10,12,14,16,-1,-1,-1,-1,-1,-1,-1,-1],"split_conditions":[2.0924E-2,3.7904713E-2,8.647E-1,5.1569E-2,2.38E-2,4.605E-1,5.2863E-2,4.00546E1,3.521E-1,-2.763701E-2,-2.1231363E-3,3.8297128E-2,6.253518E-3,-8.08864E-3,-4.2098653E-2,4.6197206E-2,-1.3113028E-2],"split_indices":[5,0,19,5,31,17,5,29,32,0,0,0,0,0,0,0,0],"split_type":[0,0,0,0,0,0,0,0,0,0,0,0,0,0,0,0,0],"sum_hessian":[4.0841626E2,7.4294677E0,4.009868E2,3.5366965E2,4.7317154E1,2.1297368E2,1.4069595E2,2.5562176E1,2.175498E1,1.3838196E1,1.9913548E2,1.00577E1,1.3063826E2,8.324102E0,1.7238073E1,5.6994896E0,1.605549E1],"tree_param":{"num_deleted":"0","num_feature":"34","num_nodes":"17","size_leaf_vector":"1"}},{"base_weights":[-2.0333652E-3,-2.3236426E-2,4.4353563E-1,-9.096142E-3,-4.4750035E-2,-1.1046507E-2,7.226896E-1,-3.3923205E-2,5.050416E-1,5.851707E-2,1.3646074E-2,-4.4392687E-3,1.0757357E-2,4.3292236E-2,-1.115746E-2],"categories":[],"categories_nodes":[],"categories_segments":[],"categories_sizes":[],"default_left":[0,0,0,0,0,0,0,0,0,0,0,0,0,0,0],"id":34,"left_children":[1,3,5,7,-1,-1,9,11,13,-1,-1,-1,-1,-1,-1],"loss_changes":[3.8296154E0,4.760632E0,3.5751865E0,4.889247E0,0E0,0E0,2.338358E0,5.0072913E0,4.829228E0,0E0,0E0,0E0,0E0,0E0,0E0],"parents":[2147483647,0,0,1,1,2,2,3,3,6,6,7,7,8,8],"right_children":[2,4,6,8,-1,-1,10,12,14,-1,-1,-1,-1,-1,-1],"split_conditions":[1.14102E-1,1.59862E-1,-2.1927E-2,9.657E-2,-4.4750035E-2,-1.1046507E-2,6.59E-2,4.91044E-1,6.08694E-1,5.851707E-2,1.3646074E-2,-4.4392687E-3,1.0757357E-2,4.3292236E-2,-1.115746E-2],"split_indices":[25,0,26,0,0,0,32,12,2,0,0,0,0,0,0],"split_type":[0,0,0,0,0,0,0,0,0,0,0,0,0,0,0],"sum_hessian":[4.032698E2,3.858561E2,1.7413685E1,3.8069162E2,5.1645007E0,5.213248E0,1.2200438E1,3.640463E2,1.6645315E1,5.311666E0,6.888772E0,2.988605E2,6.51858E1,1.1004022E1,5.6412945E0],"tree_param":{"num_deleted":"0","num_feature":"34","num_nodes":"15","size_leaf_vector":"1"}},{"base_weights":[-3.2198485E-2,5.556696E-1,-5.7496324E-2,6.116516E-3,5.738315E-2,-3.9901417E-1,-1.119695E-2,-7.1437824E-1,6.3020797E-3,1.3871325E-2,-7.308118E-1,-5.1874697E-2,-5.2651963E-3,-2.1075895E-2,2.608541E-2,1.622253E-3,-4.3824423E-2,-4.244234E-3,-6.1148744E-2],"categories":[],"categories_nodes":[],"categories_segments":[],"categories_sizes":[],"default_left":[0,0,0,0,0,0,0,0,0,0,0,0,0,0,0,0,0,0,0],"id":35,"left_children":[1,3,5,-1,-1,7,9,11,13,15,17,-1,-1,-1,-1,-1,-1,-1,-1],"loss_changes":[6.16299E0,4.2470245E0,6.259593E0,0E0,0E0,6.0461655E0,6.3219957E0,5.124016E0,4.999171E0,5.6361375E0,3.6464748E0,0E0,0E0,0E0,0E0,0E0,0E0,0E0,0E0],"parents":[2147483647,0,0,1,1,2,2,5,5,6,6,7,7,8,8,9,9,10,10],"right_children":[2,4,6,-1,-1,8,10,12,14,16,18,-1,-1,-1,-1,-1,-1,-1,-1],"split_conditions":[-3.873E0,-5.235E-3,-4.8387E-2,6.116516E-3,5.738315E-2,4.33757E-1,2.182695E2,1.30821E2,1.0509E0,1.32514E-1,4.078E-1,-5.1874697E-2,-5.2651963E-3,-2.1075895E-2,2.608541E-2,1.622253E-3,-4.3824423E-2,-4.244234E-3,-6.1148744E-2],"split_indices":[11,27,26,0,0,12,15,15,17,5,19,0,0,0,0,0,0,0,0],"split_type":[0,0,0,0,0,0,0,0,0,0,0,0,0,0,0,0,0,0,0],"sum_hessian":[4.1125977E2,1.6102676E1,3.9515707E2,9.993832E0,6.1088443E0,4.6266155E1,3.4889093E2,2.5591599E1,2.0674555E1,3.3809393E2,1.0797009E1,1.6261454E1,9.330144E0,1.1396717E1,9.277838E0,3.3212897E2,5.9649596E0,5.176161E0,5.620849E0],"tree_param":{"num_deleted":"0","num_feature":"34","num_nodes":"19","size_leaf_vector":"1"}},{"base_weights":[3.4426138E-2,-3.5287987E-2,4.8113726E-2,4.0012177E-2,3.0905927E-2,6.8962276E-2,-2.52855E-1,-1.8186813E-2,4.7383034E-3,-3.4843463E-2,2.2329725E-3],"categories":[],"categories_nodes":[],"categories_segments":[],"categories_sizes":[],"default_left":[0,0,0,0,0,0,0,0,0,0,0],"id":36,"left_children":[1,-1,3,-1,5,7,9,-1,-1,-1,-1],"loss_changes":[4.156479E0,0E0,5.1581597E0,0E0,4.256424E0,3.9077516E0,6.191471E0,0E0,0E0,0E0,0E0],"parents":[2147483647,0,0,2,2,4,4,5,5,6,6],"right_children":[2,-1,4,-1,6,8,10,-1,-1,-1,-1],"split_conditions":[2.3108E-2,-3.5287987E-2,2.2231E-2,4.0012177E-2,8.769E-1,4.297E-1,-1.06E-1,-1.8186813E-2,4.7383034E-3,-3.4843463E-2,2.2329725E-3],"split_indices":[6,0,5,0,19,17,11,0,0,0,0],"split_type":[0,0,0,0,0,0,0,0,0,0,0],"sum_hessian":[4.059071E2,6.4517694E0,3.9945532E2,7.916825E0,3.915385E2,3.4590475E2,4.5633747E1,1.8729939E1,3.2717484E2,1.7770512E1,2.7863237E1],"tree_param":{"num_deleted":"0","num_feature":"34","num_nodes":"11","size_leaf_vector":"1"}},{"base_weights":[-8.117378E-3,3.2382037E-2,-2.2686033E-2,-4.9737602E-2,3.9070588E-1,3.0149493E-2,-6.838224E-2,-1.57696E-2,6.437094E-1,-1.7022596E-3,-2.5624422E-2,4.7687456E-2,2.3748304E-3],"categories":[],"categories_nodes":[],"categories_segments":[],"categories_sizes":[],"default_left":[0,0,0,0,0,0,0,0,0,0,0,0,0],"id":37,"left_children":[1,-1,3,5,7,-1,9,-1,11,-1,-1,-1,-1],"loss_changes":[3.8841608E0,0E0,4.4612164E0,4.5889435E0,4.5812902E0,0E0,5.536446E0,0E0,3.350748E0,0E0,0E0,0E0,0E0],"parents":[2147483647,0,0,2,2,3,3,4,4,6,6,8,8],"right_children":[2,-1,4,6,8,-1,10,-1,12,-1,-1,-1,-1],"split_conditions":[-8.0554E-2,3.2382037E-2,9.8414E-2,-4.0835E0,1.229E-1,3.0149493E-2,1.56066E1,-1.57696E-2,3.7861E0,-1.7022596E-3,-2.5624422E-2,4.7687456E-2,2.3748304E-3],"split_indices":[13,0,26,11,11,0,20,0,10,0,0,0,0],"split_type":[0,0,0,0,0,0,0,0,0,0,0,0,0],"sum_hessian":[4.040309E2,7.8366475E0,3.9619424E2,3.726861E2,2.3508175E1,9.47947E0,3.632066E2,6.136226E0,1.7371948E1,3.3813928E2,2.5067324E1,1.1034279E1,6.337671E0],"tree_param":{"num_deleted":"0","num_feature":"34","num_nodes":"13","size_leaf_vector":"1"}},{"base_weights":[8.3030766E-4,5.1005846E-1,-2.5584077E-2,-4.9421475E-3,7.404945E-1,-2.927919E-1,1.3557596E-2,1.7419653E-2,5.7805907E-2,3.5536405E-2,-4.239295E-1,5.7866465E-2,-1.0519015E-2,-3.1301018E-2,-6.2483357E-4,2.0524161E-2,-2.0677117E-3],"categories":[],"categories_nodes":[],"categories_segments":[],"categories_sizes":[],"default_left":[0,0,0,0,0,0,0,0,0,0,0,0,0,0,0,0,0],"id":38,"left_children":[1,3,5,-1,7,9,11,-1,-1,-1,13,-1,15,-1,-1,-1,-1],"loss_changes":[5.456591E0,2.8801088E0,4.037897E0,0E0,1.9814634E0,6.792198E0,9.302657E0,0E0,0E0,0E0,3.67135E0,0E0,4.3191547E0,0E0,0E0,0E0,0E0],"parents":[2147483647,0,0,1,1,2,2,4,4,5,5,6,6,10,10,12,12],"right_children":[2,4,6,-1,8,10,12,-1,-1,-1,14,-1,16,-1,-1,-1,-1],"split_conditions":[7.76E-2,-1.03277E-1,-4.8387E-2,-4.9421475E-3,4.9964E-2,-4.0835E0,-4.4958E-2,1.7419653E-2,5.7805907E-2,3.5536405E-2,3.7285E-2,5.7866465E-2,1.27835E1,-3.1301018E-2,-6.2483357E-4,2.0524161E-2,-2.0677117E-3],"split_indices":[19,1,26,0,4,11,26,0,0,0,2,0,15,0,0,0,0],"split_type":[0,0,0,0,0,0,0,0,0,0,0,0,0,0,0,0,0],"sum_hessian":[4.036957E2,1.9004707E1,3.84691E2,5.3744316E0,1.3630276E1,4.832324E1,3.3636777E2,7.959492E0,5.6707835E0,5.0741334E0,4.3249107E1,5.964253E0,3.304035E2,2.8653358E1,1.4595747E1,2.1707842E1,3.0869568E2],"tree_param":{"num_deleted":"0","num_feature":"34","num_nodes":"17","size_leaf_vector":"1"}},{"base_weights":[1.0503186E-2,-1.3757567E-2,5.9354496E-1,1.3483576E-1,-9.083934E-2,4.1727092E-2,7.275344E-3,6.4772435E-2,7.3232627E-1,-2.2011736E-1,6.409854E-2,-4.2168546E-4,3.3005994E-2,7.4176313E-3,5.5012878E-2,-2.7784068E-2,-4.070723E-3,1.1201936E-2,-1.2650018E-2],"categories":[],"categories_nodes":[],"categories_segments":[],"categories_sizes":[],"default_left":[0,0,0,0,0,0,0,0,0,0,0,0,0,0,0,0,0,0,0],"id":39,"left_children":[1,3,5,7,9,-1,-1,11,13,15,17,-1,-1,-1,-1,-1,-1,-1,-1],"loss_changes":[5.5385356E0,4.322725E0,1.5674739E0,5.3504286E0,4.989395E0,0E0,0E0,5.0833197E0,2.7237263E0,6.2676554E0,5.82609E0,0E0,0E0,0E0,0E0,0E0,0E0,0E0,0E0],"parents":[2147483647,0,0,1,1,2,2,3,3,4,4,7,7,8,8,9,9,10,10],"right_children":[2,4,6,8,10,-1,-1,12,14,16,18,-1,-1,-1,-1,-1,-1,-1,-1],"split_conditions":[1.14102E-1,-1.7413E-2,2.276E-1,5.056E-1,3.027E-1,4.1727092E-2,7.275344E-3,7.07516E1,-2.0209E-2,-1.441E-3,3.5085E-2,-4.2168546E-4,3.3005994E-2,7.4176313E-3,5.5012878E-2,-2.7784068E-2,-4.070723E-3,1.1201936E-2,-1.2650018E-2],"split_indices":[25,25,33,18,11,0,0,29,26,25,25,0,0,0,0,0,0,0,0],"split_type":[0,0,0,0,0,0,0,0,0,0,0,0,0,0,0,0,0,0,0],"sum_hessian":[3.8997617E2,3.7533466E2,1.4641519E1,1.27943695E2,2.4739096E2,8.959566E0,5.681953E0,1.1550739E2,1.2436299E1,1.3463374E2,1.1275721E2,1.03737305E2,1.1770094E1,5.349261E0,7.0870385E0,3.849544E1,9.61383E1,7.51474E1,3.7609814E1],"tree_param":{"num_deleted":"0","num_feature":"34","num_nodes":"19","size_leaf_vector":"1"}},{"base_weights":[-2.7201034E-3,1.5142591E-2,-3.7009344E-2,-8.1371345E-2,1.6680671E-1,2.1427477E-2,-3.8173538E-1,6.3893414E-1,6.952621E-2,-1.2683817E-3,3.1022498E-2,1.7997546E-2,-2.525858E-2,4.7195517E-2,-2.4082363E-3,8.805922E-3,-1.6679218E-2],"categories":[],"categories_nodes":[],"categories_segments":[],"categories_sizes":[],"default_left":[0,0,0,0,0,0,0,0,0,0,0,0,0,0,0,0,0],"id":40,"left_children":[1,3,-1,5,7,9,11,13,15,-1,-1,-1,-1,-1,-1,-1,-1],"loss_changes":[5.267246E0,5.7301903E0,0E0,7.398156E0,6.946177E0,5.040531E0,5.7736874E0,5.468876E0,5.529657E0,0E0,0E0,0E0,0E0,0E0,0E0,0E0,0E0],"parents":[2147483647,0,0,1,1,3,3,4,4,5,5,6,6,7,7,8,8],"right_children":[2,4,-1,6,8,10,12,14,16,-1,-1,-1,-1,-1,-1,-1,-1],"split_conditions":[1.65616E1,3.25E-1,-3.7009344E-2,7.13E-1,3.401E-1,5.051E-1,3.36555E1,5.035E-1,4.1239E-2,-1.2683817E-3,3.1022498E-2,1.7997546E-2,-2.525858E-2,4.7195517E-2,-2.4082363E-3,8.805922E-3,-1.6679218E-2],"split_indices":[10,11,0,19,32,18,28,18,25,0,0,0,0,0,0,0,0],"split_type":[0,0,0,0,0,0,0,0,0,0,0,0,0,0,0,0,0],"sum_hessian":[3.9799646E2,3.895406E2,8.455867E0,2.3833543E2,1.5120517E2,1.7825632E2,6.0079113E1,2.4881392E1,1.2632378E2,1.6622836E2,1.2027963E1,8.298738E0,5.1780376E1,1.697368E1,7.9077115E0,1.003515E2,2.5972277E1],"tree_param":{"num_deleted":"0","num_feature":"34","num_nodes":"17","size_leaf_vector":"1"}},{"base_weights":[-2.506954E-2,-7.913016E-2,1.633035E-1,-1.15256995E-1,3.2092473E-1,-5.5044326E-3,4.801832E-1,-2.3371521E-2,-3.1028813E-1,5.6623943E-2,7.421708E-2,1.6203424E-1,-4.7140732E-1,7.0779425E-1,-2.155945E-2,-3.9680216E-2,9.858649E-4,9.929635E-3,-2.0967113E-2,2.3303619E-2,-2.5822436E-2,3.34634E-2,3.5227806E-4,-4.9079876E-2,3.769305E-3,-5.2658254E-3,4.646283E-2],"categories":[],"categories_nodes":[],"categories_segments":[],"categories_sizes":[],"default_left":[0,0,0,0,0,0,0,0,0,0,0,0,0,0,0,0,0,0,0,0,0,0,0,0,0,0,0],"id":41,"left_children":[1,3,5,7,9,11,13,15,17,-1,19,21,23,25,-1,-1,-1,-1,-1,-1,-1,-1,-1,-1,-1,-1,-1],"loss_changes":[4.0965605E0,4.549941E0,4.8033504E0,5.138258E0,5.1469965E0,4.7240787E0,6.778119E0,6.529115E0,5.181776E0,0E0,5.1258526E0,3.496688E0,4.53866E0,4.6621714E0,0E0,0E0,0E0,0E0,0E0,0E0,0E0,0E0,0E0,0E0,0E0,0E0,0E0],"parents":[2147483647,0,0,1,1,2,2,3,3,4,4,5,5,6,6,7,7,8,8,10,10,11,11,12,12,13,13],"right_children":[2,4,6,8,10,12,14,16,18,-1,20,22,24,26,-1,-1,-1,-1,-1,-1,-1,-1,-1,-1,-1,-1,-1],"split_conditions":[4.91044E-1,9.52268E-1,4.943E-1,5.2585E1,4.901E-1,7.047E-1,7.5539E-2,4.713E-1,1.98829E-1,5.6623943E-2,2.66443E-1,1.9285E0,7.26851E-1,-1.1109E0,-2.155945E-2,-3.9680216E-2,9.858649E-4,9.929635E-3,-2.0967113E-2,2.3303619E-2,-2.5822436E-2,3.34634E-2,3.5227806E-4,-4.9079876E-2,3.769305E-3,-5.2658254E-3,4.646283E-2],"split_indices":[12,13,18,29,18,19,25,18,12,0,12,20,12,31,0,0,0,0,0,0,0,0,0,0,0,0,0],"split_type":[0,0,0,0,0,0,0,0,0,0,0,0,0,0,0,0,0,0,0,0,0,0,0,0,0,0,0],"sum_hessian":[4.000029E2,3.1125632E2,8.87466E1,2.861294E2,2.5126932E1,5.8542503E1,3.020409E1,1.9525723E2,9.087216E1,5.020719E0,2.0106215E1,4.3538334E1,1.5004169E1,2.4346931E1,5.857159E0,9.42172E0,1.8583551E2,1.5892361E1,7.49798E1,1.2214136E1,7.8920774E0,9.413257E0,3.4125076E1,7.350518E0,7.653651E0,5.324006E0,1.9022926E1],"tree_param":{"num_deleted":"0","num_feature":"34","num_nodes":"27","size_leaf_vector":"1"}},{"base_weights":[-1.7064782E-2,8.097955E-3,-6.217985E-1,-1.5527926E-1,8.750676E-2,-6.830516E-3,-5.449245E-2,-8.6004615E-2,-4.54071E-2,3.891924E-1,-2.0731913E-2,3.458137E-2,-8.734148E-3,1.3233616E-2,5.8181375E-2,-5.798491E-3,2.0167336E-2],"categories":[],"categories_nodes":[],"categories_segments":[],"categories_sizes":[],"default_left":[0,0,0,0,0,0,0,0,0,0,0,0,0,0,0,0,0],"id":42,"left_children":[1,3,5,7,9,-1,-1,11,-1,13,15,-1,-1,-1,-1,-1,-1],"loss_changes":[6.125894E0,5.0364847E0,3.5031033E0,6.5450296E0,8.536396E0,0E0,0E0,8.2162895E0,0E0,6.347024E0,7.8481994E0,0E0,0E0,0E0,0E0,0E0,0E0],"parents":[2147483647,0,0,1,1,2,2,3,3,4,4,7,7,9,9,10,10],"right_children":[2,4,6,8,10,-1,-1,12,-1,14,16,-1,-1,-1,-1,-1,-1],"split_conditions":[3.2899E0,-3.297E-1,-1.4494E-2,5.786E-2,-2.01E-2,-6.830516E-3,-5.449245E-2,-3.873E0,-4.54071E-2,8.82283E-1,6.87327E1,3.458137E-2,-8.734148E-3,1.3233616E-2,5.8181375E-2,-5.798491E-3,2.0167336E-2],"split_indices":[33,11,0,26,33,0,0,33,0,13,30,0,0,0,0,0,0],"split_type":[0,0,0,0,0,0,0,0,0,0,0,0,0,0,0,0,0],"sum_hessian":[4.012447E2,3.861632E2,1.5081493E1,1.2599114E2,2.6017206E2,8.039499E0,7.041994E0,1.1639527E2,9.59587E0,6.801189E1,1.9216017E2,1.1218603E1,1.05176674E2,5.9747025E1,8.26486E0,1.5751305E2,3.4647125E1],"tree_param":{"num_deleted":"0","num_feature":"34","num_nodes":"17","size_leaf_vector":"1"}},{"base_weights":[1.7634768E-3,6.4852245E-2,-1.5648964E-1,1.8633729E-2,7.702422E-1,-3.620329E-1,1.06720634E-1,9.789914E-2,-1.7357455E-1,1.24698905E-2,5.453824E-2,-6.374925E-1,-4.965023E-2,-3.949029E-1,4.006211E-1,3.0297867E-3,3.8838025E-2,-1.8820979E-2,1.4064952E-2,-4.0031627E-2,1.2399857E-2,-4.4091344E-2,8.678145E-3,-3.3781186E-2,1.1058112E-2,4.2928886E-2,8.471973E-3],"categories":[],"categories_nodes":[],"categories_segments":[],"categories_sizes":[],"default_left":[0,0,0,0,0,0,0,0,0,0,0,0,0,0,0,0,0,0,0,0,0,0,0,0,0,0,0],"id":43,"left_children":[1,3,5,7,9,11,13,15,17,-1,-1,19,21,23,25,-1,-1,-1,-1,-1,-1,-1,-1,-1,-1,-1,-1],"loss_changes":[4.0704083E0,9.4881525E0,6.325591E0,4.200208E0,2.7159805E0,5.6027775E0,7.7843366E0,4.8921056E0,7.5363274E0,0E0,0E0,5.212967E0,6.054004E0,3.541537E0,3.3603306E0,0E0,0E0,0E0,0E0,0E0,0E0,0E0,0E0,0E0,0E0,0E0,0E0],"parents":[2147483647,0,0,1,1,2,2,3,3,4,4,5,5,6,6,7,7,8,8,11,11,12,12,13,13,14,14],"right_children":[2,4,6,8,10,12,14,16,18,-1,-1,20,22,24,26,-1,-1,-1,-1,-1,-1,-1,-1,-1,-1,-1,-1],"split_conditions":[7.13E-1,6.709E-1,5.005E-1,1.459599E2,4.88389E1,1.008924E2,-2.2405E-2,1.195815E0,2.1464E-2,1.24698905E-2,5.453824E-2,7.37824E1,1.0683E-2,6.3658E-2,-1.804E-3,3.0297867E-3,3.8838025E-2,-1.8820979E-2,1.4064952E-2,-4.0031627E-2,1.2399857E-2,-4.4091344E-2,8.678145E-3,-3.3781186E-2,1.1058112E-2,4.2928886E-2,8.471973E-3],"split_indices":[19,19,18,14,7,16,26,2,27,0,0,30,0,5,26,0,0,0,0,0,0,0,0,0,0,0,0],"split_type":[0,0,0,0,0,0,0,0,0,0,0,0,0,0,0,0,0,0,0,0,0,0,0,0,0,0,0],"sum_hessian":[4.0567685E2,2.9046933E2,1.1520753E2,2.7357086E2,1.6898476E1,6.447948E1,5.072805E1,1.9404051E2,7.953035E1,7.114925E0,9.78355E0,3.37117E1,3.076778E1,1.861414E1,3.211391E1,1.849659E2,9.074608E0,5.5121914E1,2.4408434E1,2.854794E1,5.16376E0,5.883285E0,2.4884497E1,1.2720943E1,5.8931956E0,9.8626795E0,2.225123E1],"tree_param":{"num_deleted":"0","num_feature":"34","num_nodes":"27","size_leaf_vector":"1"}},{"base_weights":[1.2773089E-2,-3.212658E-2,3.0082112E-2,-8.508942E-2,1.14176564E-1,3.7536836E-1,-1.6232152E-1,3.0718416E-1,-5.4886166E-2,2.4234701E-3,6.314094E-2,1.8769782E-2,-1.2099695E-2,1.1363532E-2,4.1680425E-2,1.9740306E-3,-3.381556E-2],"categories":[],"categories_nodes":[],"categories_segments":[],"categories_sizes":[],"default_left":[0,0,0,0,0,0,0,0,0,0,0,0,0,0,0,0,0],"id":44,"left_children":[1,-1,3,5,7,9,11,13,15,-1,-1,-1,-1,-1,-1,-1,-1],"loss_changes":[4.524184E0,0E0,3.7665837E0,5.902813E0,7.3463583E0,6.8716125E0,6.147524E0,4.2292004E0,7.098136E0,0E0,0E0,0E0,0E0,0E0,0E0,0E0,0E0],"parents":[2147483647,0,0,2,2,3,3,4,4,5,5,6,6,7,7,8,8],"right_children":[2,-1,4,6,8,10,12,14,16,-1,-1,-1,-1,-1,-1,-1,-1],"split_conditions":[-9.6054E-2,-3.212658E-2,5.346E0,-3.74E-2,1.42874E2,-4.4887E-2,1.12204E1,8.1402E-2,5.2799E-2,2.4234701E-3,6.314094E-2,1.8769782E-2,-1.2099695E-2,1.1363532E-2,4.1680425E-2,1.9740306E-3,-3.381556E-2],"split_indices":[27,0,20,27,14,27,14,5,26,0,0,0,0,0,0,0,0],"split_type":[0,0,0,0,0,0,0,0,0,0,0,0,0,0,0,0,0],"sum_hessian":[3.9615964E2,9.26522E0,3.868944E2,1.6327261E2,2.236218E2,2.2897493E1,1.4037512E2,1.0403501E2,1.19586784E2,1.750428E1,5.3932147E0,1.7636023E1,1.227391E2,9.156654E1,1.24684725E1,1.0463401E2,1.4952779E1],"tree_param":{"num_deleted":"0","num_feature":"34","num_nodes":"17","size_leaf_vector":"1"}},{"base_weights":[-7.6250574E-3,1.2232258E-1,-7.615976E-2,5.7116386E-2,6.2608534E-1,-3.60675E-1,4.495063E-3,-1.3054602E-1,2.8359213E-1,4.9967304E-2,-2.3267984E-3,2.1444447E-2,-5.266002E-1,-8.995172E-2,2.6771894E-1,3.4449264E-2,-1.3892134E-2,4.386476E-2,4.241224E-3,7.615418E-3,-3.1263217E-2,1.5189018E-3,-2.3650248E-2,2.1275865E-2,-2.3838187E-2],"categories":[],"categories_nodes":[],"categories_segments":[],"categories_sizes":[],"default_left":[0,0,0,0,0,0,0,0,0,0,0,0,0,0,0,0,0,0,0,0,0,0,0,0,0],"id":45,"left_children":[1,3,5,7,9,11,13,15,17,-1,-1,-1,19,21,23,-1,-1,-1,-1,-1,-1,-1,-1,-1,-1],"loss_changes":[3.5608482E0,4.4999886E0,6.0070386E0,5.2798066E0,3.9942899E0,7.8000154E0,5.1177273E0,8.417343E0,6.5592294E0,0E0,0E0,0E0,3.325426E0,6.99896E0,6.5883183E0,0E0,0E0,0E0,0E0,0E0,0E0,0E0,0E0,0E0,0E0],"parents":[2147483647,0,0,1,1,2,2,3,3,4,4,5,5,6,6,7,7,8,8,12,12,13,13,14,14],"right_children":[2,4,6,8,10,12,14,16,18,-1,-1,-1,20,22,24,-1,-1,-1,-1,-1,-1,-1,-1,-1,-1],"split_conditions":[-1.7413E-2,5.054E-1,-1.806E-3,1E0,1.613E-3,-3.8481E-2,1.1636E0,2.762E-2,4.8E-1,4.9967304E-2,-2.3267984E-3,2.1444447E-2,1.91759E1,5.8677E-2,8.34676E1,3.4449264E-2,-1.3892134E-2,4.386476E-2,4.241224E-3,7.615418E-3,-3.1263217E-2,1.5189018E-3,-2.3650248E-2,2.1275865E-2,-2.3838187E-2],"split_indices":[25,18,25,22,27,27,17,4,18,0,0,0,14,4,8,0,0,0,0,0,0,0,0,0,0],"split_type":[0,0,0,0,0,0,0,0,0,0,0,0,0,0,0,0,0,0,0,0,0,0,0,0,0],"sum_hessian":[3.977832E2,1.3708104E2,2.6070215E2,1.2235677E2,1.4724272E1,5.681426E1,2.038879E2,6.714371E1,5.5213062E1,9.156993E0,5.567279E0,9.59085E0,4.7223408E1,1.5053355E2,5.3354343E1,9.669098E0,5.747461E1,1.2992334E1,4.222073E1,5.9230657E0,4.1300343E1,1.152503E2,3.5283253E1,4.4376804E1,8.977537E0],"tree_param":{"num_deleted":"0","num_feature":"34","num_nodes":"25","size_leaf_vector":"1"}},{"base_weights":[2.762233E-3,3.588574E-1,-6.0948253E-2,1.0194274E-1,9.0360576E-1,-1.3551988E-2,-3.471615E-1,-3.3054303E-2,2.302646E-1,1.2246159E0,1.3912419E-2,7.622359E-3,-3.812329E-2,-4.6577471E-1,1.7718358E-2,4.9992405E-2,2.959151E-4,3.9514165E-2,7.4432276E-2,1.3016838E-2,-2.4121546E-3,-3.1556275E-2,6.7036273E-3],"categories":[],"categories_nodes":[],"categories_segments":[],"categories_sizes":[],"default_left":[0,0,0,0,0,0,0,0,0,0,0,0,0,0,0,0,0,0,0,0,0,0,0],"id":46,"left_children":[1,3,5,7,9,11,13,-1,15,17,-1,19,-1,21,-1,-1,-1,-1,-1,-1,-1,-1,-1],"loss_changes":[9.173407E0,8.495906E0,4.648501E0,4.3453503E0,3.581499E0,4.6890306E0,4.216784E0,0E0,6.4515452E0,2.7040863E-1,0E0,4.0813184E0,0E0,4.258569E0,0E0,0E0,0E0,0E0,0E0,0E0,0E0,0E0,0E0],"parents":[2147483647,0,0,1,1,2,2,3,3,4,4,5,5,6,6,8,8,9,9,11,11,13,13],"right_children":[2,4,6,8,10,12,14,-1,16,18,-1,20,-1,22,-1,-1,-1,-1,-1,-1,-1,-1,-1],"split_conditions":[2.762E-2,2.4434E-2,8.548E-1,-2.5524E-2,5.21519E1,1.203688E0,9.766E-1,-3.3054303E-2,-1.1666E-2,4.40523E1,1.3912419E-2,2.18454E1,-3.812329E-2,5.1027E0,1.7718358E-2,4.9992405E-2,2.959151E-4,3.9514165E-2,7.4432276E-2,1.3016838E-2,-2.4121546E-3,-3.1556275E-2,6.7036273E-3],"split_indices":[4,4,19,26,28,12,19,0,26,28,0,15,0,10,0,0,0,0,0,0,0,0,0],"split_type":[0,0,0,0,0,0,0,0,0,0,0,0,0,0,0,0,0,0,0,0,0,0,0],"sum_hessian":[4.0238242E2,6.0363247E1,3.4201917E2,4.1824894E1,1.8538351E1,2.943267E2,4.769248E1,5.423549E0,3.6401344E1,1.16168785E1,6.921473E0,2.8719647E2,7.130202E0,4.1082397E1,6.6100802E0,7.436145E0,2.89652E1,5.9016833E0,5.7151957E0,5.1331573E1,2.358649E2,3.216407E1,8.918326E0],"tree_param":{"num_deleted":"0","num_feature":"34","num_nodes":"23","size_leaf_vector":"1"}},{"base_weights":[2.9388994E-3,-3.4612052E-2,1.6020186E-2,-4.4472966E-2,1.563317E-1,1.4414366E-2,-6.514103E-1,4.415906E-2,1.03773884E-1,-2.503354E-3,1.8882396E-2,6.088895E-3,-5.0498426E-2,-3.4293335E-2,7.536365E-3],"categories":[],"categories_nodes":[],"categories_segments":[],"categories_sizes":[],"default_left":[0,0,0,0,0,0,0,0,0,0,0,0,0,0,0],"id":47,"left_children":[1,-1,3,5,7,9,11,-1,13,-1,-1,-1,-1,-1,-1],"loss_changes":[3.6595864E0,0E0,3.3577337E0,9.896191E0,4.459998E0,5.9478407E0,6.911606E0,0E0,4.265073E0,0E0,0E0,0E0,0E0,0E0,0E0],"parents":[2147483647,0,0,2,2,3,3,4,4,5,5,6,6,8,8],"right_children":[2,-1,4,6,8,10,12,-1,14,-1,-1,-1,-1,-1,-1],"split_conditions":[2.3108E-2,-3.4612052E-2,6.238E-1,4.651E-1,4.722E-1,3.027E-1,2.341E-3,4.415906E-2,2.8E-3,-2.503354E-3,1.8882396E-2,6.088895E-3,-5.0498426E-2,-3.4293335E-2,7.536365E-3],"split_indices":[6,0,33,32,18,11,27,0,31,0,0,0,0,0,0],"split_type":[0,0,0,0,0,0,0,0,0,0,0,0,0,0,0],"sum_hessian":[4.002049E2,6.4327054E0,3.937722E2,2.756241E2,1.1814806E2,2.5213708E2,2.3487034E1,6.901374E0,1.1124669E2,2.1485759E2,3.727949E1,7.6503453E0,1.5836689E1,5.479955E0,1.0576673E2],"tree_param":{"num_deleted":"0","num_feature":"34","num_nodes":"15","size_leaf_vector":"1"}},{"base_weights":[4.8050244E-4,-3.9497823E-2,1.5150149E-2,6.325125E-1,-6.710833E-3,4.9372394E-2,4.169234E-3,2.7179522E-2,-3.9746958E-1,9.970477E-3,-3.0633914E-3,-2.9118149E-2,1.6625147E-2],"categories":[],"categories_nodes":[],"categories_segments":[],"categories_sizes":[],"default_left":[0,0,0,0,0,0,0,0,0,0,0,0,0],"id":48,"left_children":[1,-1,3,5,7,-1,-1,9,11,-1,-1,-1,-1],"loss_changes":[4.700543E0,0E0,5.375178E0,2.5723572E0,5.1138425E0,0E0,0E0,5.427999E0,4.352945E0,0E0,0E0,0E0,0E0],"parents":[2147483647,0,0,2,2,3,3,4,4,7,7,8,8],"right_children":[2,-1,4,6,8,-1,-1,10,12,-1,-1,-1,-1],"split_conditions":[2.3108E-2,-3.9497823E-2,2.3661E-2,7.079E-3,9.009E-1,4.9372394E-2,4.169234E-3,-1.8769E-2,9.766E-1,9.970477E-3,-3.0633914E-3,-2.9118149E-2,1.6625147E-2],"split_indices":[6,0,5,25,19,0,0,25,19,0,0,0,0],"split_type":[0,0,0,0,0,0,0,0,0,0,0,0,0],"sum_hessian":[4.033468E2,6.3863196E0,3.9696048E2,1.2620463E1,3.8434003E2,7.180834E0,5.439629E0,3.5452283E2,2.9817184E1,1.1986327E2,2.3465955E2,2.3952509E1,5.864675E0],"tree_param":{"num_deleted":"0","num_feature":"34","num_nodes":"13","size_leaf_vector":"1"}},{"base_weights":[2.0787695E-2,-1.9088633E-1,7.933735E-2,-7.809553E-1,-8.401921E-2,2.4035332E-1,-1.3823019E-2,-5.7008285E-2,-1.0997016E-2,-3.6665204E-1,1.4904921E-1,3.957018E-1,-1.2657474E-1,-4.5544443E-1,5.044817E-2,-3.2010596E-2,4.570737E-3,3.6925904E-2,1.3503463E-3,-2.298507E-2,2.2975978E-2,-4.0567644E-2,1.63668E-2,-6.163915E-3,-4.7751557E-2,-1.9714972E-2,7.716161E-3],"categories":[],"categories_nodes":[],"categories_segments":[],"categories_sizes":[],"default_left":[0,0,0,0,0,0,0,0,0,0,0,0,0,0,0,0,0,0,0,0,0,0,0,0,0,0,0],"id":49,"left_children":[1,3,5,7,9,11,13,-1,-1,15,17,19,21,23,25,-1,-1,-1,-1,-1,-1,-1,-1,-1,-1,-1,-1],"loss_changes":[5.030819E0,5.482391E0,4.7692595E0,2.443657E0,5.035348E0,6.69111E0,5.7626104E0,0E0,0E0,4.376782E0,3.0123255E0,4.6927443E0,1.1272529E1,4.162074E0,8.257636E0,0E0,0E0,0E0,0E0,0E0,0E0,0E0,0E0,0E0,0E0,0E0,0E0],"parents":[2147483647,0,0,1,1,2,2,3,3,4,4,5,5,6,6,9,9,10,10,11,11,12,12,13,13,14,14],"right_children":[2,4,6,8,10,12,14,-1,-1,16,18,20,22,24,26,-1,-1,-1,-1,-1,-1,-1,-1,-1,-1,-1,-1],"split_conditions":[-1.85031E-1,4.791E-1,4.95E1,-4.338E-3,-1.7368E-2,7.688E-1,5.02714E1,-5.7008285E-2,-1.0997016E-2,9.6622E0,1.524E-1,4.757E-1,3.71376E-1,5.39023E1,-2.7548E-2,-3.2010596E-2,4.570737E-3,3.6925904E-2,1.3503463E-3,-2.298507E-2,2.2975978E-2,-4.0567644E-2,1.63668E-2,-6.163915E-3,-4.7751557E-2,-1.9714972E-2,7.716161E-3],"split_indices":[2,18,28,26,27,19,7,0,0,20,19,17,13,29,26,0,0,0,0,0,0,0,0,0,0,0,0],"split_type":[0,0,0,0,0,0,0,0,0,0,0,0,0,0,0,0,0,0,0,0,0,0,0,0,0,0,0],"sum_hessian":[4.0370392E2,8.698123E1,3.167227E2,1.2370354E1,7.461088E1,1.15505684E2,2.0121703E2,6.912223E0,5.458131E0,3.3460953E1,4.114992E1,8.109401E1,3.4411667E1,2.479041E1,1.764266E2,2.070073E1,1.2760223E1,6.1918283E0,3.4958096E1,5.19935E0,7.589466E1,1.3403472E1,2.1008196E1,1.563905E1,9.15136E0,3.287487E1,1.4355174E2],"tree_param":{"num_deleted":"0","num_feature":"34","num_nodes":"27","size_leaf_vector":"1"}},{"base_weights":[-2.7821092E-3,1.5172338E-1,-8.343769E-2,-3.8680322E-2,3.6629492E-1,-6.1714284E-2,-4.3369316E-2,3.7120387E-1,-2.3613177E-1,1.4386368E-1,8.3955485E-1,-3.699601E-2,-3.7701193E-2,3.898859E-2,1.1892242E-3,-3.561539E-2,6.334189E-3,-3.3187282E-3,3.794163E-2,5.1122703E-2,1.1878198E-2,-2.711842E-2,-1.797368E-4],"categories":[],"categories_nodes":[],"categories_segments":[],"categories_sizes":[],"default_left":[0,0,0,0,0,0,0,0,0,0,0,0,0,0,0,0,0,0,0,0,0,0,0],"id":50,"left_children":[1,3,5,7,9,11,-1,13,15,17,19,-1,21,-1,-1,-1,-1,-1,-1,-1,-1,-1,-1],"loss_changes":[4.9912844E0,5.626853E0,4.427638E0,6.0518446E0,6.688594E0,4.1594324E0,0E0,3.4374325E0,8.788258E0,5.8957076E0,2.0114908E0,0E0,4.2904186E0,0E0,0E0,0E0,0E0,0E0,0E0,0E0,0E0,0E0,0E0],"parents":[2147483647,0,0,1,1,2,2,3,3,4,4,5,5,7,7,8,8,9,9,10,10,12,12],"right_children":[2,4,6,8,10,12,-1,14,16,18,20,-1,22,-1,-1,-1,-1,-1,-1,-1,-1,-1,-1],"split_conditions":[-1.6317E-2,4.917E-1,1.94366E1,3.43765E1,5.7844E-2,-1.4484E-2,-4.3369316E-2,2.65475E-1,5.02714E1,7.207E-1,6.00296E1,-3.699601E-2,1.00272E-1,3.898859E-2,1.1892242E-3,-3.561539E-2,6.334189E-3,-3.3187282E-3,3.794163E-2,5.1122703E-2,1.1878198E-2,-2.711842E-2,-1.797368E-4],"split_indices":[25,18,20,8,5,25,0,12,7,32,8,0,13,0,0,0,0,0,0,0,0,0,0],"split_type":[0,0,0,0,0,0,0,0,0,0,0,0,0,0,0,0,0,0,0,0,0,0,0],"sum_hessian":[3.9851312E2,1.3637988E2,2.6213324E2,7.269365E1,6.3686226E1,2.5611496E2,6.0182853E0,2.334741E1,4.934624E1,4.4211086E1,1.947514E1,7.738618E0,2.4837634E2,1.0157565E1,1.3189846E1,2.0922848E1,2.8423393E1,3.3612213E1,1.0598875E1,1.4401243E1,5.0738964E0,1.4779815E1,2.3359653E2],"tree_param":{"num_deleted":"0","num_feature":"34","num_nodes":"23","size_leaf_vector":"1"}},{"base_weights":[-5.433603E-3,1.3036221E-1,-7.281973E-2,4.4942353E-2,8.039449E-1,-1.0124594E-1,3.0966057E-2,1.2652573E-1,-3.7314475E-1,-2.335998E-3,6.2205326E-2,-6.0079664E-2,-5.2037007E-1,3.3024084E-2,1.0979733E-3,-3.946548E-2,1.1294304E-2,-1.3681232E-3,-3.1306956E-2,1.1272086E-2,-5.6257933E-2],"categories":[],"categories_nodes":[],"categories_segments":[],"categories_sizes":[],"default_left":[0,0,0,0,0,0,0,0,0,0,0,0,0,0,0,0,0,0,0,0,0],"id":51,"left_children":[1,3,5,7,9,11,-1,13,15,-1,-1,17,19,-1,-1,-1,-1,-1,-1,-1,-1],"loss_changes":[3.657698E0,7.5922623E0,5.3178096E0,4.096621E0,5.622838E0,4.4101877E0,0E0,5.57349E0,5.07374E0,0E0,0E0,4.344802E0,1.0579227E1,0E0,0E0,0E0,0E0,0E0,0E0,0E0,0E0],"parents":[2147483647,0,0,1,1,2,2,3,3,4,4,5,5,7,7,8,8,11,11,12,12],"right_children":[2,4,6,8,10,12,-1,14,16,-1,-1,18,20,-1,-1,-1,-1,-1,-1,-1,-1],"split_conditions":[-1.8507E-2,5.054E-1,9.483E-1,5.1393E-2,-2.305E-1,5.071E-1,3.0966057E-2,-1.7637E0,3.148E-1,-2.335998E-3,6.2205326E-2,8.877E-1,4.44783E1,3.3024084E-2,1.0979733E-3,-3.946548E-2,1.1294304E-2,-1.3681232E-3,-3.1306956E-2,1.1272086E-2,-5.6257933E-2],"split_indices":[25,18,19,26,11,18,0,32,11,0,0,19,29,0,0,0,0,0,0,0,0],"split_type":[0,0,0,0,0,0,0,0,0,0,0,0,0,0,0,0,0,0,0,0,0],"sum_hessian":[3.9767807E2,1.3158162E2,2.6609644E2,1.17719795E2,1.3861822E1,2.5641904E2,9.6774025E0,9.908268E1,1.8637117E1,5.0315704E0,8.830252E0,2.3452718E2,2.1891861E1,1.5355442E1,8.372724E1,1.08096695E1,7.827448E0,2.2270364E2,1.1823524E1,1.0083882E1,1.1807979E1],"tree_param":{"num_deleted":"0","num_feature":"34","num_nodes":"21","size_leaf_vector":"1"}},{"base_weights":[2.48597E-2,-2.139033E-1,7.234459E-2,-4.615009E-2,-9.5890296E-1,6.873712E-1,4.9411196E-2,1.5006444E-1,-4.3284256E-2,-2.4722025E-2,-6.3846804E-2,8.658151E-3,5.544923E-2,-2.4268001E-2,3.0789688E-1,2.71152E-2,-9.250742E-3,3.56991E-2,-2.5067271E-3,2.4079533E-2,-9.275157E-3],"categories":[],"categories_nodes":[],"categories_segments":[],"categories_sizes":[],"default_left":[0,0,0,0,0,0,0,0,0,0,0,0,0,0,0,0,0,0,0,0,0],"id":52,"left_children":[1,3,5,7,9,11,13,15,-1,-1,-1,-1,-1,17,19,-1,-1,-1,-1,-1,-1],"loss_changes":[4.571801E0,8.319008E0,4.7045965E0,9.081996E0,1.1778889E0,2.4094324E0,6.196299E0,6.115792E0,0E0,0E0,0E0,0E0,0E0,4.882433E0,6.272939E0,0E0,0E0,0E0,0E0,0E0,0E0],"parents":[2147483647,0,0,1,1,2,2,3,3,4,4,5,5,6,6,7,7,13,13,14,14],"right_children":[2,4,6,8,10,12,14,16,-1,-1,-1,-1,-1,18,20,-1,-1,-1,-1,-1,-1],"split_conditions":[-1.2309E0,2.9158E-2,-1.0866E0,-6.299E-1,-9.2648E-2,-1.7963E0,4.94853E-1,-1.3119E-2,-4.3284256E-2,-2.4722025E-2,-6.3846804E-2,8.658151E-3,5.544923E-2,1.18857E-1,3.14089E-1,2.71152E-2,-9.250742E-3,3.56991E-2,-2.5067271E-3,2.4079533E-2,-9.275157E-3],"split_indices":[11,26,31,33,1,9,12,0,0,0,0,0,0,12,1,0,0,0,0,0,0],"split_type":[0,0,0,0,0,0,0,0,0,0,0,0,0,0,0,0,0,0,0,0,0],"sum_hessian":[4.0087625E2,6.591891E1,3.3495734E2,5.4670563E1,1.1248344E1,1.0999549E1,3.239578E2,4.476882E1,9.90174E0,5.6100245E0,5.63832E0,5.5911655E0,5.408383E0,2.5280418E2,7.115362E1,2.0340296E1,2.4428526E1,7.65728E0,2.451469E2,5.264478E1,1.8508839E1],"tree_param":{"num_deleted":"0","num_feature":"34","num_nodes":"21","size_leaf_vector":"1"}},{"base_weights":[-7.715188E-3,2.0085643E-1,-4.796616E-2,-2.3857723E-1,3.338442E-1,-3.5427356E-1,-1.0735085E-2,-4.6746172E-2,1.5231833E-2,6.971112E-1,4.344681E-2,2.7753178E-2,-8.7886816E-1,1.3042588E-2,-4.7436237E-1,8.078221E-3,5.023226E-2,-3.235362E-2,1.4281153E-2,2.3537032E-2,-5.090747E-2,-1.6392123E-2,-7.174772E-2,-1.3068398E-3,1.841157E-2,-4.4449735E-2,3.6996983E-3],"categories":[],"categories_nodes":[],"categories_segments":[],"categories_sizes":[],"default_left":[0,0,0,0,0,0,0,0,0,0,0,0,0,0,0,0,0,0,0,0,0,0,0,0,0,0,0],"id":53,"left_children":[1,3,5,7,9,11,13,-1,-1,15,17,19,21,23,25,-1,-1,-1,-1,-1,-1,-1,-1,-1,-1,-1,-1],"loss_changes":[3.3936944E0,3.901554E0,3.8587215E0,6.2527614E0,5.3099623E0,7.3743696E0,3.3466685E0,0E0,0E0,3.5307426E0,5.067746E0,1.0760585E1,4.274271E0,4.0342975E0,3.4329245E0,0E0,0E0,0E0,0E0,0E0,0E0,0E0,0E0,0E0,0E0,0E0,0E0],"parents":[2147483647,0,0,1,1,2,2,3,3,4,4,5,5,6,6,9,9,10,10,11,11,12,12,13,13,14,14],"right_children":[2,4,6,8,10,12,14,-1,-1,16,18,20,22,24,26,-1,-1,-1,-1,-1,-1,-1,-1,-1,-1,-1,-1],"split_conditions":[2.09667E1,2.558E-1,2.65734E1,1.33574E1,1.2368E-2,-1.475E-3,3.3838E0,-4.6746172E-2,1.5231833E-2,4.64834E1,2.6736E-2,2.29095E1,5.31893E1,2.0545E0,1.54845E2,8.078221E-3,5.023226E-2,-3.235362E-2,1.4281153E-2,2.3537032E-2,-5.090747E-2,-1.6392123E-2,-7.174772E-2,-1.3068398E-3,1.841157E-2,-4.4449735E-2,3.6996983E-3],"split_indices":[15,19,15,15,0,0,31,0,0,28,0,16,30,32,16,0,0,0,0,0,0,0,0,0,0,0,0],"split_type":[0,0,0,0,0,0,0,0,0,0,0,0,0,0,0,0,0,0,0,0,0,0,0,0,0,0,0],"sum_hessian":[4.020941E2,6.439959E1,3.3769452E2,1.4777169E1,4.962242E1,3.5674862E1,3.0201965E2,6.1598096E0,8.617359E0,2.1423086E1,2.8199335E1,2.1190414E1,1.44844475E1,2.882103E2,1.3809338E1,8.370997E0,1.3052089E1,6.8878994E0,2.1311436E1,1.5271961E1,5.918453E0,8.073737E0,6.410711E0,2.604118E2,2.7798515E1,7.509745E0,6.299593E0],"tree_param":{"num_deleted":"0","num_feature":"34","num_nodes":"27","size_leaf_vector":"1"}},{"base_weights":[4.0904995E-2,1.1352846E-2,5.9587187E-1,4.2242255E-2,-1.9629002E-3,1.0643978E0,-2.4305067E-3,-3.788992E-2,1.1531829E-2,3.143266E-2,6.525901E-2,1.3607648E-3,-3.943127E-2],"categories":[],"categories_nodes":[],"categories_segments":[],"categories_sizes":[],"default_left":[0,0,0,0,0,0,0,0,0,0,0,0,0],"id":54,"left_children":[1,3,5,-1,7,9,-1,-1,11,-1,-1,-1,-1],"loss_changes":[6.5689993E0,4.237962E0,6.166912E0,0E0,3.8509371E0,4.144392E-1,0E0,0E0,4.6781235E0,0E0,0E0,0E0,0E0],"parents":[2147483647,0,0,1,1,2,2,4,4,5,5,8,8],"right_children":[2,4,6,-1,8,10,-1,-1,12,-1,-1,-1,-1],"split_conditions":[1.057771E0,1.72526E1,8.37933E1,4.2242255E-2,2.3108E-2,5.80301E1,-2.4305067E-3,-3.788992E-2,1.027148E0,3.143266E-2,6.525901E-2,1.3607648E-3,-3.943127E-2],"split_indices":[13,8,8,0,6,29,0,0,13,0,0,0,0],"split_type":[0,0,0,0,0,0,0,0,0,0,0,0,0],"sum_hessian":[3.9994986E2,3.8069803E2,1.9251825E1,5.0043797E0,3.7569366E2,1.0770399E1,8.481427E0,5.622528E0,3.7007114E2,5.118431E0,5.651968E0,3.6390442E2,6.166714E0],"tree_param":{"num_deleted":"0","num_feature":"34","num_nodes":"13","size_leaf_vector":"1"}},{"base_weights":[-1.9382355E-3,-5.9818715E-2,1.8158145E-1,2.5869356E-2,-3.442481E-1,2.5563934E-1,-2.7663667E-2,-2.4650687E-2,5.4604316E-1,-2.0939606E-1,-1.0007986E0,9.353897E-2,8.2218117E-1,-4.1426993E-3,2.2912709E-2,5.2016497E-2,8.797664E-3,-4.6349107E-3,-5.1840704E-2,-6.0378414E-2,-3.0855564E-2,1.2005723E-2,-2.8321112E-2,1.2433426E-2,5.149721E-2],"categories":[],"categories_nodes":[],"categories_segments":[],"categories_sizes":[],"default_left":[0,0,0,0,0,0,0,0,0,0,0,0,0,0,0,0,0,0,0,0,0,0,0,0,0],"id":55,"left_children":[1,3,5,7,9,11,-1,13,15,17,19,21,23,-1,-1,-1,-1,-1,-1,-1,-1,-1,-1,-1,-1],"loss_changes":[4.1524005E0,7.251389E0,5.2425423E0,6.0391264E0,5.8877726E0,7.805912E0,0E0,5.939041E0,3.5379767E0,5.5426154E0,1.6478252E-1,6.70115E0,2.0039291E0,0E0,0E0,0E0,0E0,0E0,0E0,0E0,0E0,0E0,0E0,0E0,0E0],"parents":[2147483647,0,0,1,1,2,2,3,3,4,4,5,5,7,7,8,8,9,9,10,10,11,11,12,12],"right_children":[2,4,6,8,10,12,-1,14,16,18,20,22,24,-1,-1,-1,-1,-1,-1,-1,-1,-1,-1,-1,-1],"split_conditions":[8.351E-1,2.852E-1,4.1973E0,3.027E-1,2.9082E0,6.92291E1,-2.7663667E-2,5.96625E1,4.574E-1,1.452104E2,1.6508E-2,3.9777E-2,2.983E-1,-4.1426993E-3,2.2912709E-2,5.2016497E-2,8.797664E-3,-4.6349107E-3,-5.1840704E-2,-6.0378414E-2,-3.0855564E-2,1.2005723E-2,-2.8321112E-2,1.2433426E-2,5.149721E-2],"split_indices":[32,32,32,11,10,29,0,28,11,15,0,25,19,0,0,0,0,0,0,0,0,0,0,0,0],"split_type":[0,0,0,0,0,0,0,0,0,0,0,0,0,0,0,0,0,0,0,0,0,0,0,0,0],"sum_hessian":[3.8889435E2,2.9616162E2,9.2732704E1,2.282941E2,6.786754E1,8.483522E1,7.8974833E0,2.089529E2,1.9341202E1,5.7397358E1,1.0470181E1,6.686791E1,1.7967312E1,1.8721658E2,2.173631E1,7.50569E0,1.1835511E1,5.127731E1,6.120046E0,5.4083443E0,5.061837E0,5.5236263E1,1.1631646E1,5.362222E0,1.2605089E1],"tree_param":{"num_deleted":"0","num_feature":"34","num_nodes":"25","size_leaf_vector":"1"}},{"base_weights":[6.560075E-2,3.1023E-1,-1.2467842E-2,1.6075848E-1,5.6839424E-1,2.2930041E-1,-8.039102E-2,2.8520897E-1,-2.642051E-2,8.68052E-1,-1.3888499E-1,2.1392113E-2,5.1841897E-1,-5.135449E-2,-3.842438E-2,2.7143285E-2,-1.3575247E-3,1.7916452E-2,5.9093095E-2,2.3719676E-2,-3.6253747E-2,1.5216588E-2,-2.6536766E-2,3.9424535E-2,-1.6951038E-2,-1.2053679E-2,2.9954358E-3],"categories":[],"categories_nodes":[],"categories_segments":[],"categories_sizes":[],"default_left":[0,0,0,0,0,0,0,0,0,0,0,0,0,0,0,0,0,0,0,0,0,0,0,0,0,0,0],"id":56,"left_children":[1,3,5,7,9,11,13,15,-1,17,19,21,23,25,-1,-1,-1,-1,-1,-1,-1,-1,-1,-1,-1,-1,-1],"loss_changes":[7.569741E0,3.6084766E0,4.9660034E0,5.478356E0,7.4882793E0,3.9765317E0,4.6746893E0,4.301623E0,0E0,3.5043335E0,4.3729672E0,6.3527694E0,6.6833506E0,4.815897E0,0E0,0E0,0E0,0E0,0E0,0E0,0E0,0E0,0E0,0E0,0E0,0E0,0E0],"parents":[2147483647,0,0,1,1,2,2,3,3,4,4,5,5,6,6,7,7,9,9,10,10,11,11,12,12,13,13],"right_children":[2,4,6,8,10,12,14,16,-1,18,20,22,24,26,-1,-1,-1,-1,-1,-1,-1,-1,-1,-1,-1,-1,-1],"split_conditions":[-2.9126E-2,2.1093E-2,-3.2232E-2,9.89E-3,6.2697E-2,3.834E-1,2.182695E2,7.436E-3,-2.642051E-2,-9.595E-1,4.64603E1,-8.09E-1,1.2191E0,3.4995E0,-3.842438E-2,2.7143285E-2,-1.3575247E-3,1.7916452E-2,5.9093095E-2,2.3719676E-2,-3.6253747E-2,1.5216588E-2,-2.6536766E-2,3.9424535E-2,-1.6951038E-2,-1.2053679E-2,2.9954358E-3],"split_indices":[27,26,0,26,26,10,15,25,0,10,15,10,11,20,0,0,0,0,0,0,0,0,0,0,0,0,0],"split_type":[0,0,0,0,0,0,0,0,0,0,0,0,0,0,0,0,0,0,0,0,0,0,0,0,0,0,0],"sum_hessian":[3.9516336E2,9.488036E1,3.00283E2,6.1117413E1,3.3762955E1,6.533858E1,2.3494441E2,5.226544E1,8.851971E0,2.3555658E1,1.0207294E1,3.863193E1,2.670665E1,2.264627E2,8.481716E0,2.8236216E1,2.4029226E1,9.792126E0,1.3763533E1,5.0815926E0,5.1257024E0,2.5839294E1,1.2792636E1,2.0370783E1,6.3358665E0,8.328449E1,1.431782E2],"tree_param":{"num_deleted":"0","num_feature":"34","num_nodes":"27","size_leaf_vector":"1"}},{"base_weights":[3.4930527E-3,2.5875837E-1,-4.0831033E-2,2.2939209E-2,7.981636E-1,-4.1123317E-4,-4.8835328E-1,2.7292836E-1,-3.65221E-1,3.8917137E-3,6.4617574E-2,-9.874424E-2,2.0239402E-1,-6.952798E-1,1.1228058E-2,5.6734115E-2,-1.0896203E-3,1.3655036E-2,-5.6620706E-2,-2.798328E-3,-4.7498606E-2,1.3579492E-2,-2.9462054E-2,-4.735238E-2,-3.0337053E-3],"categories":[],"categories_nodes":[],"categories_segments":[],"categories_sizes":[],"default_left":[0,0,0,0,0,0,0,0,0,0,0,0,0,0,0,0,0,0,0,0,0,0,0,0,0],"id":57,"left_children":[1,3,5,7,9,11,13,15,17,-1,-1,19,21,23,-1,-1,-1,-1,-1,-1,-1,-1,-1,-1,-1],"loss_changes":[4.5158243E0,7.4927177E0,6.1525106E0,4.186391E0,6.2829847E0,6.261266E0,4.312598E0,6.6762385E0,8.598218E0,0E0,0E0,7.6461873E0,5.7760024E0,3.4705315E0,0E0,0E0,0E0,0E0,0E0,0E0,0E0,0E0,0E0,0E0,0E0],"parents":[2147483647,0,0,1,1,2,2,3,3,4,4,5,5,6,6,7,7,8,8,11,11,12,12,13,13],"right_children":[2,4,6,8,10,12,14,16,18,-1,-1,20,22,24,-1,-1,-1,-1,-1,-1,-1,-1,-1,-1,-1],"split_conditions":[2.6973E-2,2.4434E-2,9.034E-1,2.096E-1,2.9126E-2,1.92505E-1,9.766E-1,-7.874E-1,2.7139E-2,3.8917137E-3,6.4617574E-2,6.25981E1,1.158273E0,4.54377E-1,1.1228058E-2,5.6734115E-2,-1.0896203E-3,1.3655036E-2,-5.6620706E-2,-2.798328E-3,-4.7498606E-2,1.3579492E-2,-2.9462054E-2,-4.735238E-2,-3.0337053E-3],"split_indices":[4,4,19,33,5,2,19,11,5,0,0,29,12,12,0,0,0,0,0,0,0,0,0,0,0],"split_type":[0,0,0,0,0,0,0,0,0,0,0,0,0,0,0,0,0,0,0,0,0,0,0,0,0],"sum_hessian":[3.9718802E2,5.8047985E1,3.3914005E2,4.111549E1,1.6932495E1,3.119646E2,2.7175438E1,2.5189445E1,1.59260435E1,7.3608313E0,9.571664E0,2.1044194E2,1.0152266E2,2.108125E1,6.094188E0,5.6930695E0,1.9496376E1,9.044688E0,6.8813553E0,2.0138715E2,9.054782E0,9.3966125E1,7.5565343E0,1.4740783E1,6.3404665E0],"tree_param":{"num_deleted":"0","num_feature":"34","num_nodes":"25","size_leaf_vector":"1"}},{"base_weights":[-2.9094568E-2,-3.6747293E-3,-4.259797E-1,-5.640602E-2,1.9988057E-1,-3.5301134E-2,-7.581479E-1,3.7572E-2,-2.3176421E-1,2.8278655E-1,-3.0964646E-2,-2.4970403E-2,2.2710096E-2,-5.820761E-2,-9.178394E-3,-4.002335E-2,3.3481126E-3,-7.6627554E-3,-4.503305E-2,1.9886816E-2,-1.1461548E-2],"categories":[],"categories_nodes":[],"categories_segments":[],"categories_sizes":[],"default_left":[0,0,0,0,0,0,0,0,0,0,0,0,0,0,0,0,0,0,0,0,0],"id":58,"left_children":[1,3,5,7,9,11,13,15,17,19,-1,-1,-1,-1,-1,-1,-1,-1,-1,-1,-1],"loss_changes":[3.9863005E0,4.009525E0,3.05975E0,4.8971596E0,5.395107E0,2.9481032E0,2.7736883E0,4.8316274E0,5.3046722E0,4.2395854E0,0E0,0E0,0E0,0E0,0E0,0E0,0E0,0E0,0E0,0E0,0E0],"parents":[2147483647,0,0,1,1,2,2,3,3,4,4,5,5,6,6,7,7,8,8,9,9],"right_children":[2,4,6,8,10,12,14,16,18,20,-1,-1,-1,-1,-1,-1,-1,-1,-1,-1,-1],"split_conditions":[2.8463E0,8.626E-1,-1.2537E-2,4.34E-2,5.047E-1,-3.9584E-2,-1.3756E-2,4.088E-1,5.0569E0,4.1621E-2,-3.0964646E-2,-2.4970403E-2,2.2710096E-2,-5.820761E-2,-9.178394E-3,-4.002335E-2,3.3481126E-3,-7.6627554E-3,-4.503305E-2,1.9886816E-2,-1.1461548E-2],"split_indices":[33,32,0,33,18,0,25,17,10,25,0,0,0,0,0,0,0,0,0,0,0],"split_type":[0,0,0,0,0,0,0,0,0,0,0,0,0,0,0,0,0,0,0,0,0],"sum_hessian":[3.942782E2,3.714939E2,2.2784311E1,2.956327E2,7.586118E1,1.0978389E1,1.18059225E1,1.9299077E2,1.0264194E2,6.948374E1,6.3774405E0,5.624993E0,5.3533955E0,6.316515E0,5.489408E0,5.649995E0,1.8734077E2,9.296021E1,9.681722E0,5.6926693E1,1.2557049E1],"tree_param":{"num_deleted":"0","num_feature":"34","num_nodes":"21","size_leaf_vector":"1"}},{"base_weights":[-2.1699766E-2,5.4708403E-3,-4.2606094E-1,-1.0200516E-1,1.2001191E-1,-1.5828586E-1,-6.0588725E-2,3.2277335E-3,-3.735604E-1,2.9452842E-1,-4.75753E-2,1.624489E-1,-4.213762E-2,-2.0375603E-3,4.069036E-2,6.4133406E-3,-3.0510424E-2,7.237593E-3,2.9364014E-2,-1.02329245E-2,1.3008207E-2,3.6787473E-2,-1.1284913E-2],"categories":[],"categories_nodes":[],"categories_segments":[],"categories_sizes":[],"default_left":[0,0,0,0,0,0,0,0,0,0,0,0,0,0,0,0,0,0,0,0,0,0,0],"id":59,"left_children":[1,3,5,7,9,11,-1,13,15,17,19,21,-1,-1,-1,-1,-1,-1,-1,-1,-1,-1,-1],"loss_changes":[4.414511E0,4.6568804E0,5.1307845E0,5.579072E0,5.369178E0,4.531528E0,0E0,5.083377E0,6.5532436E0,3.8540688E0,4.6101665E0,3.3858232E0,0E0,0E0,0E0,0E0,0E0,0E0,0E0,0E0,0E0,0E0,0E0],"parents":[2147483647,0,0,1,1,2,2,3,3,4,4,5,5,7,7,8,8,9,9,10,10,11,11],"right_children":[2,4,6,8,10,12,-1,14,16,18,20,22,-1,-1,-1,-1,-1,-1,-1,-1,-1,-1,-1],"split_conditions":[1.69796E1,6.6601E0,2.403E-2,7.13E-1,1.455186E2,6.5355E-2,-6.0588725E-2,6.853E-1,1.99896E1,1.01259E1,4.937E-1,-8.3943E-2,-4.213762E-2,-2.0375603E-3,4.069036E-2,6.4133406E-3,-3.0510424E-2,7.237593E-3,2.9364014E-2,-1.02329245E-2,1.3008207E-2,3.6787473E-2,-1.1284913E-2],"split_indices":[20,20,25,19,14,5,0,19,14,20,18,1,0,0,0,0,0,0,0,0,0,0,0],"split_type":[0,0,0,0,0,0,0,0,0,0,0,0,0,0,0,0,0,0,0,0,0,0,0],"sum_hessian":[4.005915E2,3.7629333E2,2.429815E1,1.9419037E2,1.8210297E2,1.901813E1,5.2800183E0,1.4066722E2,5.352315E1,8.8836174E1,9.326679E1,1.34692335E1,5.548897E0,1.3432878E2,6.33844E0,1.729852E1,3.622463E1,5.975765E1,2.9078527E1,6.1969772E1,3.1297022E1,5.0761395E0,8.393094E0],"tree_param":{"num_deleted":"0","num_feature":"34","num_nodes":"23","size_leaf_vector":"1"}},{"base_weights":[-1.810031E-2,7.177479E-3,-6.610264E-1,1.5599391E-1,-6.391916E-2,-6.833859E-2,-8.497938E-3,8.522686E-2,8.0092555E-1,-3.7468547E-1,-1.6124923E-2,-6.058749E-3,1.5707143E-2,1.3702129E-2,6.5385506E-2,-2.3629933E-3,-4.5202654E-2,1.3973221E-2,-5.138334E-3],"categories":[],"categories_nodes":[],"categories_segments":[],"categories_sizes":[],"default_left":[0,0,0,0,0,0,0,0,0,0,0,0,0,0,0,0,0,0,0],"id":60,"left_children":[1,3,5,7,9,-1,-1,11,13,15,17,-1,-1,-1,-1,-1,-1,-1,-1],"loss_changes":[6.587082E0,4.1436152E0,5.081487E0,5.709694E0,3.9313264E0,0E0,0E0,5.481111E0,2.9523058E0,6.074106E0,5.939636E0,0E0,0E0,0E0,0E0,0E0,0E0,0E0,0E0],"parents":[2147483647,0,0,1,1,2,2,3,3,4,4,7,7,8,8,9,9,10,10],"right_children":[2,4,6,8,10,-1,-1,12,14,16,18,-1,-1,-1,-1,-1,-1,-1,-1],"split_conditions":[3.3838E0,-1.8769E-2,1.5935E-2,5.06E-1,-4.8387E-2,-6.833859E-2,-8.497938E-3,5.0977E-2,3.90187E1,-6.3764E-2,-2.9584E-2,-6.058749E-3,1.5707143E-2,1.3702129E-2,6.5385506E-2,-2.3629933E-3,-4.5202654E-2,1.3973221E-2,-5.138334E-3],"split_indices":[31,25,26,18,26,0,0,6,28,26,0,0,0,0,0,0,0,0,0],"split_type":[0,0,0,0,0,0,0,0,0,0,0,0,0,0,0,0,0,0,0],"sum_hessian":[4.040233E2,3.8969073E2,1.4332551E1,1.2559873E2,2.6409198E2,5.1491327E0,9.183418E0,1.1419995E2,1.1398782E1,3.4290398E1,2.2980159E2,6.030062E1,5.389933E1,6.343968E0,5.054814E0,2.1859243E1,1.2431152E1,5.1585526E1,1.7821606E2],"tree_param":{"num_deleted":"0","num_feature":"34","num_nodes":"19","size_leaf_vector":"1"}},{"base_weights":[-2.9979443E-2,1.6303437E-2,-2.2331621E-1,4.506392E-2,-5.1595E-1,3.6574084E-1,-3.6122045E-1,1.614581E-3,3.9459142E-1,-2.1329524E-3,-5.7671774E-2,-1.8014623E-2,5.548144E-2,2.595974E-2,-4.5139098E-1,1.8337034E-3,-1.9770777E-2,-2.0885887E-2,2.894937E-2,-2.7546827E-2,1.4443526E-2],"categories":[],"categories_nodes":[],"categories_segments":[],"categories_sizes":[],"default_left":[0,0,0,0,0,0,0,0,0,0,0,0,0,0,0,0,0,0,0,0,0],"id":61,"left_children":[1,3,5,7,9,11,13,15,17,-1,-1,-1,-1,-1,19,-1,-1,-1,-1,-1,-1],"loss_changes":[3.5816302E0,4.9761972E0,6.4115343E0,4.6751804E0,4.9796386E0,8.58797E0,5.246892E0,3.8403335E0,5.340204E0,0E0,0E0,0E0,0E0,0E0,4.4190836E0,0E0,0E0,0E0,0E0,0E0,0E0],"parents":[2147483647,0,0,1,1,2,2,3,3,4,4,5,5,6,6,7,7,8,8,14,14],"right_children":[2,4,6,8,10,12,14,16,18,-1,-1,-1,-1,-1,20,-1,-1,-1,-1,-1,-1],"split_conditions":[4.165E-2,2.182695E2,4.0736E-2,2.7096E-2,2.110582E2,7.611E-1,-7.1716E-2,8.0294E-2,3.3575E-2,-2.1329524E-3,-5.7671774E-2,-1.8014623E-2,5.548144E-2,2.595974E-2,9.8414E-2,1.8337034E-3,-1.9770777E-2,-2.0885887E-2,2.894937E-2,-2.7546827E-2,1.4443526E-2],"split_indices":[27,15,6,27,16,11,0,25,6,0,0,0,0,0,26,0,0,0,0,0,0],"split_type":[0,0,0,0,0,0,0,0,0,0,0,0,0,0,0,0,0,0,0,0,0],"sum_hessian":[3.9885654E2,3.2255563E2,7.63009E1,3.0688818E2,1.5667466E1,1.416084E1,6.2140068E1,2.7385074E2,3.3037434E1,9.604027E0,6.06344E0,7.4273868E0,6.7334533E0,5.330986E0,5.6809082E1,2.5246465E2,2.1386097E1,5.8780165E0,2.7159416E1,5.0300724E1,6.508357E0],"tree_param":{"num_deleted":"0","num_feature":"34","num_nodes":"21","size_leaf_vector":"1"}},{"base_weights":[-9.584023E-4,1.5670668E-2,-3.1189248E-2,2.8176692E-3,4.1909803E-2,5.5295672E-2,-2.1401696E-1,1.6158241E-3,4.574899E-2,1.5752848E-2,-1.7349334E-2],"categories":[],"categories_nodes":[],"categories_segments":[],"categories_sizes":[],"default_left":[0,0,0,0,0,0,0,0,0,0,0],"id":62,"left_children":[1,3,-1,5,-1,7,9,-1,-1,-1,-1],"loss_changes":[4.156045E0,4.130188E0,0E0,4.4028707E0,0E0,6.123844E0,5.413705E0,0E0,0E0,0E0,0E0],"parents":[2147483647,0,0,1,1,3,3,5,5,6,6],"right_children":[2,4,-1,6,-1,8,10,-1,-1,-1,-1],"split_conditions":[1.158273E0,4.89077E-1,-3.1189248E-2,3.8372E-2,4.1909803E-2,3.4506E-2,-1.012E0,1.6158241E-3,4.574899E-2,1.5752848E-2,-1.7349334E-2],"split_indices":[12,1,0,27,0,27,33,0,0,0,0],"split_type":[0,0,0,0,0,0,0,0,0,0,0],"sum_hessian":[3.9933398E2,3.8989877E2,9.435208E0,3.8488785E2,5.010934E0,3.1048877E2,7.4399055E1,3.034161E2,7.0726633E0,1.4667816E1,5.9731243E1],"tree_param":{"num_deleted":"0","num_feature":"34","num_nodes":"11","size_leaf_vector":"1"}},{"base_weights":[3.991447E-2,5.314289E-2,-3.7721556E-2,2.1151061E-1,-2.4684427E-2,2.914418E-1,-3.420751E-2,1.9612421E-1,-9.576102E-2,4.620397E-3,3.1741682E-2,3.269445E-2,3.1866916E-3,-7.109484E-3,2.7101452E-2],"categories":[],"categories_nodes":[],"categories_segments":[],"categories_sizes":[],"default_left":[0,0,0,0,0,0,0,0,0,0,0,0,0,0,0],"id":63,"left_children":[1,3,-1,5,7,9,-1,11,13,-1,-1,-1,-1,-1,-1],"loss_changes":[4.212329E0,4.830416E0,0E0,9.441879E0,4.1524315E0,8.089945E0,0E0,3.8651166E0,5.9970603E0,0E0,0E0,0E0,0E0,0E0,0E0],"parents":[2147483647,0,0,1,1,3,3,4,4,5,5,7,7,8,8],"right_children":[2,4,-1,6,8,10,-1,12,14,-1,-1,-1,-1,-1,-1],"split_conditions":[1.47826E-1,-1.7413E-2,-3.7721556E-2,9.034E-1,6.595E-1,-3.2912E-2,-3.420751E-2,4.00546E1,1.14102E-1,4.620397E-3,3.1741682E-2,3.269445E-2,3.1866916E-3,-7.109484E-3,2.7101452E-2],"split_indices":[5,25,0,19,17,25,0,29,25,0,0,0,0,0,0],"split_type":[0,0,0,0,0,0,0,0,0,0,0,0,0,0,0],"sum_hessian":[3.9605563E2,3.9048587E2,5.569753E0,1.2810085E2,2.62385E2,1.1822476E2,9.876089E0,6.3464622E1,