{"learner":{"attributes":{"scikit_learn":"{\"_estimator_type\": \"classifier\"}"},"feature_names":[],"feature_types":[],"gradient_booster":{"model":{"cats":{"enc":[],"feature_segments":[],"sorted_idx":[]},"gbtree_model_param":{"num_parallel_tree":"1","num_trees":"300"},"iteration_indptr":[0,1,2,3,4,5,6,7,8,9,10,11,12,13,14,15,16,17,18,19,20,21,22,23,24,25,26,27,28,29,30,31,32,33,34,35,36,37,38,39,40,41,42,43,44,45,46,47,48,49,50,51,52,53,54,55,56,57,58,59,60,61,62,63,64,65,66,67,68,69,70,71,72,73,74,75,76,77,78,79,80,81,82,83,84,85,86,87,88,89,90,91,92,93,94,95,96,97,98,99,100,101,102,103,104,105,106,107,108,109,110,111,112,113,114,115,116,117,118,119,120,121,122,123,124,125,126,127,128,129,130,131,132,133,134,135,136,137,138,139,140,141,142,143,144,145,146,147,148,149,150,151,152,153,154,155,156,157,158,159,160,161,162,163,164,165,166,167,168,169,170,171,172,173,174,175,176,177,178,179,180,181,182,183,184,185,186,187,188,189,190,191,192,193,194,195,196,197,198,199,200,201,202,203,204,205,206,207,208,209,210,211,212,213,214,215,216,217,218,219,220,221,222,223,224,225,226,227,228,229,230,231,232,233,234,235,236,237,238,239,240,241,242,243,244,245,246,247,248,249,250,251,252,253,254,255,256,257,258,259,260,261,262,263,264,265,266,267,268,269,270,271,272,273,274,275,276,277,278,279,280,281,282,283,284,285,286,287,288,289,290,291,292,293,294,295,296,297,298,299,300],"tree_info":[0,0,0,0,0,0,0,0,0,0,0,0,0,0,0,0,0,0,0,0,0,0,0,0,0,0,0,0,0,0,0,0,0,0,0,0,0,0,0,0,0,0,0,0,0,0,0,0,0,0,0,0,0,0,0,0,0,0,0,0,0,0,0,0,0,0,0,0,0,0,0,0,0,0,0,0,0,0,0,0,0,0,0,0,0,0,0,0,0,0,0,0,0,0,0,0,0,0,0,0,0,0,0,0,0,0,0,0,0,0,0,0,0,0,0,0,0,0,0,0,0,0,0,0,0,0,0,0,0,0,0,0,0,0,0,0,0,0,0,0,0,0,0,0,0,0,0,0,0,0,0,0,0,0,0,0,0,0,0,0,0,0,0,0,0,0,0,0,0,0,0,0,0,0,0,0,0,0,0,0,0,0,0,0,0,0,0,0,0,0,0,0,0,0,0,0,0,0,0,0,0,0,0,0,0,0,0,0,0,0,0,0,0,0,0,0,0,0,0,0,0,0,0,0,0,0,0,0,0,0,0,0,0,0,0,0,0,0,0,0,0,0,0,0,0,0,0,0,0,0,0,0,0,0,0,0,0,0,0,0,0,0,0,0,0,0,0,0,0,0,0,0,0,0,0,0,0,0,0,0,0,0,0,0,0,0,0,0,0,0,0,0,0,0,0,0,0,0,0,0],"trees":[{"base_weights":[-2.1065798E-2,4.3569604E-1,-1.6132481E-1,8.507654E-1,1.12692885E-1,-7.492409E-2,-9.2045647E-1,1.0396141E0,-2.1462431E-2,-4.7621572E-1,7.9415476E-1,-3.632569E-1,1.2723574E-1,2.7000794E-2,-1.3609637E0,1.0914366E-2,6.0053594E-2,-3.5951387E-2,1.6482068E-2,8.331418E-2,1.8346688E-2,-2.2149302E-2,6.460448E-2,3.794937E-2,-4.8600794E-3,-7.9244256E-2,-2.1462431E-2],"categories":[],"categories_nodes":[],"categories_segments":[],"categories_sizes":[],"default_left":[0,0,0,0,0,0,0,0,0,0,0,0,0,0,0,0,0,0,0,0,0,0,0,0,0,0,0],"id":0,"left_children":[1,3,5,7,9,11,13,15,-1,17,19,21,23,-1,25,-1,-1,-1,-1,-1,-1,-1,-1,-1,-1,-1,-1],"loss_changes":[2.9297855E1,1.4309828E1,2.2872124E1,1.1776276E1,2.5091139E1,1.8414066E1,2.3671852E1,5.192974E0,0E0,6.8229413E0,1.0164438E1,1.7747671E1,2.6443476E1,0E0,5.093525E0,0E0,0E0,0E0,0E0,0E0,0E0,0E0,0E0,0E0,0E0,0E0,0E0],"parents":[2147483647,0,0,1,1,2,2,3,3,4,4,5,5,6,6,7,7,9,9,10,10,11,11,12,12,14,14],"right_children":[2,4,6,8,10,12,14,16,-1,18,20,22,24,-1,26,-1,-1,-1,-1,-1,-1,-1,-1,-1,-1,-1,-1],"split_conditions":[3.72117E1,5.854E-1,2.2747E0,-2.8859E-2,4.0572E-2,6E-4,3.57827E-1,-4.3E-3,-2.1462431E-2,2.0184E0,2.059E-1,1.01364E-1,2.22E-2,2.7000794E-2,5.3144E-2,1.0914366E-2,6.0053594E-2,-3.5951387E-2,1.6482068E-2,8.331418E-2,1.8346688E-2,-2.2149302E-2,6.460448E-2,3.794937E-2,-4.8600794E-3,-7.9244256E-2,-2.1462431E-2],"split_indices":[8,16,16,1,6,11,13,43,0,16,19,36,20,0,36,0,0,0,0,0,0,0,0,0,0,0,0],"split_type":[0,0,0,0,0,0,0,0,0,0,0,0,0,0,0,0,0,0,0,0,0,0,0,0,0,0,0],"sum_hessian":[4.5521768E2,1.06450134E2,3.4876755E2,4.5870785E1,6.057935E1,3.1411514E2,3.4652386E1,4.0136936E1,5.733848E0,3.2658005E1,2.7921347E1,1.2913623E2,1.8497893E2,7.9775276E0,2.6674858E1,6.9803367E0,3.31566E1,2.5179071E1,7.4789324E0,8.226826E0,1.969452E1,1.2390098E2,5.2352524E0,4.7865166E1,1.3711375E2,2.094101E1,5.733848E0],"tree_param":{"num_deleted":"0","num_feature":"45","num_nodes":"27","size_leaf_vector":"1"}},{"base_weights":[1.8811328E-2,4.7015402E-1,-1.1742782E-1,5.8735585E-1,-2.8134882E-2,3.7073466E-1,-2.773017E-1,1.0306945E0,3.6392075E-1,-1.3634007E-1,7.472177E-1,-2.010409E-1,-7.92302E-1,2.1593627E-2,7.033014E-2,7.506063E-2,1.1102712E-2,1.487819E-2,-5.9231408E-2,-1.8609686E-2,5.0603725E-2,-3.8849182E-2,-5.928475E-3,3.7141386E-2,-5.6786206E-2],"categories":[],"categories_nodes":[],"categories_segments":[],"categories_sizes":[],"default_left":[0,0,0,0,0,0,0,0,0,0,0,0,0,0,0,0,0,0,0,0,0,0,0,0,0],"id":1,"left_children":[1,3,5,7,-1,9,11,13,15,17,19,21,23,-1,-1,-1,-1,-1,-1,-1,-1,-1,-1,-1,-1],"loss_changes":[2.7853374E1,1.3043291E1,2.7266407E1,9.016144E0,0E0,1.6575905E1,1.0160389E1,6.4210205E0,1.0086606E1,1.7462206E1,1.5105616E1,1.0842481E1,1.8531414E1,0E0,0E0,0E0,0E0,0E0,0E0,0E0,0E0,0E0,0E0,0E0,0E0],"parents":[2147483647,0,0,1,1,2,2,3,3,5,5,6,6,7,7,8,8,9,9,10,10,11,11,12,12],"right_children":[2,4,6,8,-1,10,12,14,16,18,20,22,24,-1,-1,-1,-1,-1,-1,-1,-1,-1,-1,-1,-1],"split_conditions":[3.70545E1,-2.536E-2,2.22E-2,5.125E-1,-2.8134882E-2,5E-4,2.3398E0,-2.4E-3,-9.91E-2,4.83747E1,1.872E-2,1.8834E-2,4.5851E1,2.1593627E-2,7.033014E-2,7.506063E-2,1.1102712E-2,1.487819E-2,-5.9231408E-2,-1.8609686E-2,5.0603725E-2,-3.8849182E-2,-5.928475E-3,3.7141386E-2,-5.6786206E-2],"split_indices":[8,1,20,15,0,31,15,39,9,30,5,44,7,0,0,0,0,0,0,0,0,0,0,0,0],"split_type":[0,0,0,0,0,0,0,0,0,0,0,0,0,0,0,0,0,0,0,0,0,0,0,0,0],"sum_hessian":[4.5107217E2,1.0401917E2,3.47053E2,9.380596E1,1.0213212E1,8.5294365E1,2.6175864E2,3.022357E1,6.358239E1,3.6615627E1,4.8678734E1,2.2920808E2,3.255056E1,1.2484553E1,1.7739016E1,5.9889913E0,5.75934E1,2.6403091E1,1.0212536E1,9.236327E0,3.944241E1,2.7655241E1,2.0155286E2,5.7380238E0,2.6812536E1],"tree_param":{"num_deleted":"0","num_feature":"45","num_nodes":"25","size_leaf_vector":"1"}},{"base_weights":[4.2301472E-2,2.875398E-1,-2.5471303E-1,-3.7364435E-1,3.8602805E-1,9.6556705E-1,-3.3621386E-1,4.9711004E-1,-1.1979742E0,1.2428824E0,2.769686E-1,6.9075726E-2,1.4723979E-2,3.4438163E-1,-4.793366E-1,-3.814894E-2,7.234325E-2,-8.207501E-2,-1.4053571E-2,9.3725294E-2,3.0589363E-2,3.0337906E-2,3.4348778E-3,3.6087226E-2,-3.0043641E-2,-2.7630484E-2,3.657716E-2],"categories":[],"categories_nodes":[],"categories_segments":[],"categories_sizes":[],"default_left":[0,0,0,0,0,0,0,0,0,0,0,0,0,0,0,0,0,0,0,0,0,0,0,0,0,0,0],"id":2,"left_children":[1,3,5,7,9,11,13,15,17,19,21,-1,-1,23,25,-1,-1,-1,-1,-1,-1,-1,-1,-1,-1,-1,-1],"loss_changes":[3.2730457E1,1.6166565E1,2.054345E1,2.3857008E1,1.971348E1,3.2181063E0,1.8800545E1,2.0810665E1,6.427862E0,8.399178E0,1.312483E1,0E0,0E0,1.2498402E1,1.4466209E1,0E0,0E0,0E0,0E0,0E0,0E0,0E0,0E0,0E0,0E0,0E0,0E0],"parents":[2147483647,0,0,1,1,2,2,3,3,4,4,5,5,6,6,7,7,8,8,9,9,10,10,13,13,14,14],"right_children":[2,4,6,8,10,12,14,16,18,20,22,-1,-1,24,26,-1,-1,-1,-1,-1,-1,-1,-1,-1,-1,-1,-1],"split_conditions":[6.198E-1,1.0004E-1,-9.91E-2,-4E-3,2.2201E-2,-4.409E-3,1.43362E-1,1.872E-2,2.3203E-2,5.108E-1,4.27503E1,6.9075726E-2,1.4723979E-2,4E-3,9.9406E-1,-3.814894E-2,7.234325E-2,-8.207501E-2,-1.4053571E-2,9.3725294E-2,3.0589363E-2,3.0337906E-2,3.4348778E-3,3.6087226E-2,-3.0043641E-2,-2.7630484E-2,3.657716E-2],"split_indices":[14,12,9,9,6,25,12,5,44,16,8,0,0,9,12,0,0,0,0,0,0,0,0,0,0,0,0],"split_type":[0,0,0,0,0,0,0,0,0,0,0,0,0,0,0,0,0,0,0,0,0,0,0,0,0,0,0],"sum_hessian":[4.473459E2,2.4504747E2,2.0229842E2,3.140714E1,2.1364034E2,1.1986215E1,1.903122E2,1.5466525E1,1.5940615E1,2.2947882E1,1.9069246E2,6.746216E0,5.2399993E0,3.28228E1,1.574894E2,6.7317815E0,8.734743E0,1.0211044E1,5.7295713E0,1.048443E1,1.246345E1,7.307212E1,1.1762033E2,2.3626947E1,9.195853E0,1.4901575E2,8.473651E0],"tree_param":{"num_deleted":"0","num_feature":"45","num_nodes":"27","size_leaf_vector":"1"}},{"base_weights":[-2.5403598E-2,4.501608E-1,-1.4457549E-1,3.0173212E-1,1.2628648E0,3.4297645E-1,-2.857181E-1,7.96386E-1,-1.4606392E-1,3.4468208E-2,8.179721E-2,-2.1255709E-1,8.50972E-1,-1.3872594E0,-2.2959217E-1,5.2519094E-2,-2.372532E-3,-4.9417276E-2,9.290668E-3,8.607526E-3,-3.7317317E-2,-1.5297561E-3,5.360681E-2,-4.1504286E-2,-8.2885705E-2,-1.3551657E-2,4.7871783E-2],"categories":[],"categories_nodes":[],"categories_segments":[],"categories_sizes":[],"default_left":[0,0,0,0,0,0,0,0,0,0,0,0,0,0,0,0,0,0,0,0,0,0,0,0,0,0,0],"id":3,"left_children":[1,3,5,7,9,11,13,15,17,-1,-1,19,21,23,25,-1,-1,-1,-1,-1,-1,-1,-1,-1,-1,-1,-1],"loss_changes":[2.6168392E1,1.0781269E1,2.5494146E1,1.7738817E1,1.8626232E0,2.369091E1,1.7409567E1,8.185068E0,1.2092351E1,0E0,0E0,8.464151E0,8.556032E0,6.8896294E-1,1.374007E1,0E0,0E0,0E0,0E0,0E0,0E0,0E0,0E0,0E0,0E0,0E0,0E0],"parents":[2147483647,0,0,1,1,2,2,3,3,4,4,5,5,6,6,7,7,8,8,11,11,12,12,13,13,14,14],"right_children":[2,4,6,8,10,12,14,16,18,-1,-1,20,22,24,26,-1,-1,-1,-1,-1,-1,-1,-1,-1,-1,-1,-1],"split_conditions":[4.00427E1,2.0016E0,2.16E-2,5.898E-1,3.0682E-2,8E-4,-2.30562E-1,4.23028E1,4.26E-2,3.4468208E-2,8.179721E-2,2.7213E-2,4.725E-1,5.145E-1,2.6802E0,5.2519094E-2,-2.372532E-3,-4.9417276E-2,9.290668E-3,8.607526E-3,-3.7317317E-2,-1.5297561E-3,5.360681E-2,-4.1504286E-2,-8.2885705E-2,-1.3551657E-2,4.7871783E-2],"split_indices":[7,16,20,16,40,11,2,30,20,0,0,40,18,19,17,0,0,0,0,0,0,0,0,0,0,0,0],"split_type":[0,0,0,0,0,0,0,0,0,0,0,0,0,0,0,0,0,0,0,0,0,0,0,0,0,0,0],"sum_hessian":[4.5958774E2,9.153461E1,3.6805313E2,7.8558334E1,1.2976278E1,8.230729E1,2.8574585E2,3.695636E1,4.160197E1,6.236794E0,6.739484E0,3.9591938E1,4.2715355E1,1.2703668E1,2.7304218E2,2.8217953E1,8.738407E0,1.1199746E1,3.0402224E1,2.340279E1,1.6189148E1,8.739821E0,3.3975533E1,5.4810925E0,7.222575E0,2.6457706E2,8.465122E0],"tree_param":{"num_deleted":"0","num_feature":"45","num_nodes":"27","size_leaf_vector":"1"}},{"base_weights":[-4.919036E-3,2.0665534E-1,-2.718972E-1,6.115779E-1,6.360353E-2,8.426998E-1,-3.4669083E-1,-2.5384116E-1,8.7944114E-1,6.6527635E-1,-9.429896E-2,6.489786E-2,7.1338112E-3,-1.1298839E0,-2.4194549E-1,-4.9050856E-2,2.300339E-2,3.192341E-2,8.872542E-2,-2.275701E-2,5.2372575E-2,-1.6012764E-2,1.9711217E-2,-7.055528E-2,-1.9383E-2,2.7132163E-2,-1.8997181E-2],"categories":[],"categories_nodes":[],"categories_segments":[],"categories_sizes":[],"default_left":[0,0,0,0,0,0,0,0,0,0,0,0,0,0,0,0,0,0,0,0,0,0,0,0,0,0,0],"id":4,"left_children":[1,3,5,7,9,11,13,15,17,19,21,-1,-1,23,25,-1,-1,-1,-1,-1,-1,-1,-1,-1,-1,-1,-1],"loss_changes":[2.5756973E1,1.4697457E1,1.7097786E1,1.5591955E1,1.8028948E1,3.9477139E0,1.5282522E1,8.98915E0,9.835033E0,1.7363113E1,1.675802E1,0E0,0E0,4.065132E0,1.8452873E1,0E0,0E0,0E0,0E0,0E0,0E0,0E0,0E0,0E0,0E0,0E0,0E0],"parents":[2147483647,0,0,1,1,2,2,3,3,4,4,5,5,6,6,7,7,8,8,9,9,10,10,13,13,14,14],"right_children":[2,4,6,8,10,12,14,16,18,20,22,-1,-1,24,26,-1,-1,-1,-1,-1,-1,-1,-1,-1,-1,-1,-1],"split_conditions":[6.216E-1,2.5389E-2,-9.91E-2,1.5098E-2,3.42634E1,3.93748E1,7.103E-1,1.14602E-1,5.486E-1,-5.7E-3,4.2813E-2,6.489786E-2,7.1338112E-3,4.4638E-2,1.35285E-1,-4.9050856E-2,2.300339E-2,3.192341E-2,8.872542E-2,-2.275701E-2,5.2372575E-2,-1.6012764E-2,1.9711217E-2,-7.055528E-2,-1.9383E-2,2.7132163E-2,-1.8997181E-2],"split_indices":[14,6,9,36,8,8,14,12,16,43,28,0,0,28,12,0,0,0,0,0,0,0,0,0,0,0,0],"split_type":[0,0,0,0,0,0,0,0,0,0,0,0,0,0,0,0,0,0,0,0,0,0,0,0,0,0,0],"sum_hessian":[4.5399597E2,2.5340443E2,2.0059154E2,6.529764E1,1.881068E2,1.1968369E1,1.8862317E2,1.54461565E1,4.9851482E1,3.8436157E1,1.4967064E2,6.7344713E0,5.2338967E0,2.1096355E1,1.6752682E2,7.4666247E0,7.9795313E0,4.0627056E1,9.224429E0,9.727446E0,2.8708714E1,1.02572365E2,4.7098274E1,1.4645954E1,6.4504013E0,2.4619625E1,1.429072E2],"tree_param":{"num_deleted":"0","num_feature":"45","num_nodes":"27","size_leaf_vector":"1"}},{"base_weights":[1.3976467E-2,2.4200436E-1,-2.3411465E-1,3.115182E-1,-6.940136E-1,3.671566E-2,-4.8523083E-1,-3.130265E-1,4.0715107E-1,-6.730052E-2,-6.748263E-3,-1.0645682E0,1.892833E-1,-2.6557532E-1,-1.2313778E0,2.2440255E-2,-6.3906774E-2,6.383865E-2,1.4329778E-2,-7.436489E-2,-1.778165E-2,-7.3502176E-3,2.9945666E-2,-2.0219272E-2,5.819836E-2,-2.6473114E-2,-7.4843876E-2],"categories":[],"categories_nodes":[],"categories_segments":[],"categories_sizes":[],"default_left":[0,0,0,0,0,0,0,0,0,0,0,0,0,0,0,0,0,0,0,0,0,0,0,0,0,0,0],"id":5,"left_children":[1,3,5,7,9,11,13,15,17,-1,-1,19,21,23,25,-1,-1,-1,-1,-1,-1,-1,-1,-1,-1,-1,-1],"loss_changes":[2.6068384E1,1.5837293E1,1.502903E1,1.3516644E1,5.980852E0,1.8200142E1,1.8455252E1,2.287633E1,2.0060642E1,0E0,0E0,3.4225922E0,1.3165863E1,1.8292244E1,4.013401E0,0E0,0E0,0E0,0E0,0E0,0E0,0E0,0E0,0E0,0E0,0E0,0E0],"parents":[2147483647,0,0,1,1,2,2,3,3,4,4,5,5,6,6,7,7,8,8,11,11,12,12,13,13,14,14],"right_children":[2,4,6,8,10,12,14,16,18,-1,-1,20,22,24,26,-1,-1,-1,-1,-1,-1,-1,-1,-1,-1,-1,-1],"split_conditions":[5.854E-1,6.87022E1,3.84399E-1,1.0004E-1,3.90657E-1,6.003E-1,2.2747E0,-3.4E-3,2.2367E-2,-6.730052E-2,-6.748263E-3,3.3711E-2,4.899E-1,2.2182E0,4.58993E1,2.2440255E-2,-6.3906774E-2,6.383865E-2,1.4329778E-2,-7.436489E-2,-1.778165E-2,-7.3502176E-3,2.9945666E-2,-2.0219272E-2,5.819836E-2,-2.6473114E-2,-7.4843876E-2],"split_indices":[16,42,13,12,12,15,16,10,6,0,0,6,18,16,38,0,0,0,0,0,0,0,0,0,0,0,0],"split_type":[0,0,0,0,0,0,0,0,0,0,0,0,0,0,0,0,0,0,0,0,0,0,0,0,0,0,0],"sum_hessian":[4.5880115E2,2.3908008E2,2.1972107E2,2.231732E2,1.5906875E1,1.0612183E2,1.1359923E2,2.9333467E1,1.9383974E2,6.693185E0,9.21369E0,1.218546E1,9.393638E1,8.881055E1,2.4788687E1,1.669212E1,1.2641349E1,2.2432573E1,1.7140717E2,6.945818E0,5.2396417E0,5.193842E1,4.1997955E1,8.160384E1,7.2066984E0,7.6248016E0,1.7163885E1],"tree_param":{"num_deleted":"0","num_feature":"45","num_nodes":"27","size_leaf_vector":"1"}},{"base_weights":[-3.7009038E-2,3.7780446E-1,-1.4721319E-1,5.0207305E-1,-4.8157554E-2,3.3444992E-1,-2.716295E-1,-1.4007714E-1,7.892829E-1,7.1488254E-2,1.7146559E-1,-6.0970537E-2,-5.895489E-1,5.0173175E-2,-4.253535E-2,5.839019E-2,2.1229306E-2,-1.8557264E-2,2.233087E-2,-1.5343527E-2,1.8422237E-2,3.3705804E-2,-3.826169E-2],"categories":[],"categories_nodes":[],"categories_segments":[],"categories_sizes":[],"default_left":[0,0,0,0,0,0,0,0,0,0,0,0,0,0,0,0,0,0,0,0,0,0,0],"id":6,"left_children":[1,3,5,7,-1,9,11,13,15,-1,17,19,21,-1,-1,-1,-1,-1,-1,-1,-1,-1,-1],"loss_changes":[2.0790678E1,1.6395815E1,2.1610012E1,1.6349453E1,0E0,1.2994289E1,1.9113422E1,2.365595E1,7.9233437E0,0E0,9.973715E0,1.8390223E1,2.5788727E1,0E0,0E0,0E0,0E0,0E0,0E0,0E0,0E0,0E0,0E0],"parents":[2147483647,0,0,1,1,2,2,3,3,5,5,6,6,7,7,8,8,10,10,11,11,12,12],"right_children":[2,4,6,8,-1,10,12,14,16,-1,18,20,22,-1,-1,-1,-1,-1,-1,-1,-1,-1,-1],"split_conditions":[2.6086E-2,3.2028E-2,4.00427E1,1.0004E-1,-4.8157554E-2,-2.6E-2,7.814E-1,-4.9E-3,2.14E-2,7.1488254E-2,-5.5E-3,4.383E-2,1.43362E-1,5.0173175E-2,-4.253535E-2,5.839019E-2,2.1229306E-2,-1.8557264E-2,2.233087E-2,-1.5343527E-2,1.8422237E-2,3.3705804E-2,-3.826169E-2],"split_indices":[6,40,7,12,0,43,16,9,20,0,43,4,12,0,0,0,0,0,0,0,0,0,0],"split_type":[0,0,0,0,0,0,0,0,0,0,0,0,0,0,0,0,0,0,0,0,0,0,0],"sum_hessian":[4.5258063E2,9.448951E1,3.580911E2,8.7048195E1,7.441316E0,7.31626E1,2.849285E2,2.7059734E1,5.9988464E1,8.469825E0,6.469277E1,1.7209026E2,1.1283825E2,1.0212988E1,1.6846746E1,2.8355751E1,3.1632711E1,2.1649729E1,4.3043045E1,1.0960914E2,6.2481113E1,1.3426577E1,9.9411674E1],"tree_param":{"num_deleted":"0","num_feature":"45","num_nodes":"23","size_leaf_vector":"1"}},{"base_weights":[-6.243523E-3,3.2263404E-1,-1.6119187E-1,4.333557E-1,-5.785798E-1,2.309161E-1,-3.0218586E-1,3.1222838E-1,1.1670018E0,-4.831043E-3,-6.088952E-2,6.1603703E-2,1.08351514E-1,-3.6770582E-1,8.527515E-1,-6.896818E-4,3.291714E-2,2.7396396E-2,7.126996E-2,-3.2192368E-2,2.053863E-2,7.4803266E-3,-2.5402293E-2,6.753903E-2,5.6580887E-3],"categories":[],"categories_nodes":[],"categories_segments":[],"categories_sizes":[],"default_left":[0,0,0,0,0,0,0,0,0,0,0,0,0,0,0,0,0,0,0,0,0,0,0,0,0],"id":7,"left_children":[1,3,5,7,9,11,13,15,17,-1,-1,-1,19,21,23,-1,-1,-1,-1,-1,-1,-1,-1,-1,-1],"loss_changes":[2.3307575E1,1.486755E1,1.7256376E1,1.1279449E1,4.951983E0,1.0024904E1,1.7648916E1,1.2853355E1,2.1307678E0,0E0,0E0,0E0,1.7292116E1,1.5865517E1,4.4881096E0,0E0,0E0,0E0,0E0,0E0,0E0,0E0,0E0,0E0,0E0],"parents":[2147483647,0,0,1,1,2,2,3,3,4,4,5,5,6,6,7,7,8,8,12,12,13,13,14,14],"right_children":[2,4,6,8,10,12,14,16,18,-1,-1,-1,20,22,24,-1,-1,-1,-1,-1,-1,-1,-1,-1,-1],"split_conditions":[4.824E-1,8.1E-3,2.36769E-1,5.0677E-2,6.69511E1,-2.95E-2,7.62039E1,5E-4,-6.4E-3,-4.831043E-3,-6.088952E-2,6.1603703E-2,-7.7E-3,2.6382E-2,8.35605E1,-6.896818E-4,3.291714E-2,2.7396396E-2,7.126996E-2,-3.2192368E-2,2.053863E-2,7.4803266E-3,-2.5402293E-2,6.753903E-2,5.6580887E-3],"split_indices":[15,27,13,36,26,39,30,39,35,0,0,0,43,6,26,0,0,0,0,0,0,0,0,0,0],"split_type":[0,0,0,0,0,0,0,0,0,0,0,0,0,0,0,0,0,0,0,0,0,0,0,0,0],"sum_hessian":[4.5535815E2,1.4548479E2,3.0987338E2,1.300288E2,1.5455981E1,8.178617E1,2.280872E2,1.1282639E2,1.7202406E1,9.468201E0,5.9877806E0,7.9330783E0,7.3853096E1,2.1648744E2,1.1599774E1,5.8593994E1,5.42324E1,5.9846764E0,1.12177305E1,2.0854248E1,5.2998848E1,4.618335E1,1.703041E2,6.4380746E0,5.1616993E0],"tree_param":{"num_deleted":"0","num_feature":"45","num_nodes":"25","size_leaf_vector":"1"}},{"base_weights":[3.1254143E-2,2.1357873E-1,-1.9411545E-1,1.6791053E-1,6.496795E-2,8.136034E-1,-2.7238867E-1,-7.938309E-2,3.6145642E-1,5.688044E-2,1.0749768E-2,5.6839116E-2,-3.2452682E-1,1.0747091E-2,-3.41693E-2,2.3695853E-2,-1.5752017E-2,1.9360034E-2,-2.2311661E-2],"categories":[],"categories_nodes":[],"categories_segments":[],"categories_sizes":[],"default_left":[0,0,0,0,0,0,0,0,0,0,0,0,0,0,0,0,0,0,0],"id":8,"left_children":[1,3,5,7,-1,9,11,13,15,-1,-1,-1,17,-1,-1,-1,-1,-1,-1],"loss_changes":[1.8610561E1,1.2192457E1,1.6203867E1,1.1579536E1,0E0,2.6365452E0,1.4237892E1,1.9128544E1,1.0462486E1,0E0,0E0,0E0,1.6008066E1,0E0,0E0,0E0,0E0,0E0,0E0],"parents":[2147483647,0,0,1,1,2,2,3,3,5,5,6,6,7,7,8,8,12,12],"right_children":[2,4,6,8,-1,10,12,14,16,-1,-1,-1,18,-1,-1,-1,-1,-1,-1],"split_conditions":[6.198E-1,6.104E-1,-9.43E-2,-5E-4,6.496795E-2,3.83749E1,1.2204E-2,4.6438E1,7.7E-3,5.688044E-2,1.0749768E-2,5.6839116E-2,-3.6523E-2,1.0747091E-2,-3.41693E-2,2.3695853E-2,-1.5752017E-2,1.9360034E-2,-2.2311661E-2],"split_indices":[14,14,9,31,0,26,4,26,35,0,0,0,0,0,0,0,0,0,0],"split_type":[0,0,0,0,0,0,0,0,0,0,0,0,0,0,0,0,0,0,0],"sum_hessian":[4.509083E2,2.4928688E2,2.0162141E2,2.4033305E2,8.953827E0,1.3854822E1,1.8776659E2,1.0577463E2,1.3455843E2,8.4050455E0,5.4497776E0,5.9570956E0,1.818095E2,7.15521E1,3.4222527E1,1.1563478E2,1.892364E1,2.6231094E1,1.555784E2],"tree_param":{"num_deleted":"0","num_feature":"45","num_nodes":"19","size_leaf_vector":"1"}},{"base_weights":[-1.35205295E-2,5.4679155E-1,-1.2365647E-1,7.116797E-2,4.3800637E-1,-7.747973E-2,-1.194074E0,-1.1894332E-2,6.306821E-1,5.9389498E-2,-1.11273244E-1,-3.1510558E-2,-7.054361E-2,6.1829526E-2,-2.4849184E-2,5.7234507E-2,9.647592E-3,1.4363601E-2,-1.0759501E-2],"categories":[],"categories_nodes":[],"categories_segments":[],"categories_sizes":[],"default_left":[0,0,0,0,0,0,0,0,0,0,0,0,0,0,0,0,0,0,0],"id":9,"left_children":[1,3,5,-1,7,9,11,13,15,-1,17,-1,-1,-1,-1,-1,-1,-1,-1],"loss_changes":[2.7679968E1,6.403269E0,1.8431362E1,0E0,5.8151493E0,1.5539256E1,9.9694824E-1,1.3375429E1,1.0337484E1,0E0,1.4634854E1,0E0,0E0,0E0,0E0,0E0,0E0,0E0,0E0],"parents":[2147483647,0,0,1,1,2,2,4,4,5,5,6,6,7,7,8,8,10,10],"right_children":[2,4,6,-1,8,10,12,14,16,-1,18,-1,-1,-1,-1,-1,-1,-1,-1],"split_conditions":[3.42634E1,5.313E-1,2.919E0,7.116797E-2,-5.5E-3,1.893E-1,-3.7246E-2,-2.95E-2,-2.2277E-2,5.9389498E-2,2.5389E-2,-3.1510558E-2,-7.054361E-2,6.1829526E-2,-2.4849184E-2,5.7234507E-2,9.647592E-3,1.4363601E-2,-1.0759501E-2],"split_indices":[8,17,14,0,43,14,1,39,0,0,6,0,0,0,0,0,0,0,0],"split_type":[0,0,0,0,0,0,0,0,0,0,0,0,0,0,0,0,0,0,0],"sum_hessian":[4.4644983E2,7.268798E1,3.7376184E2,6.6908035E0,6.599718E1,3.5933298E2,1.4428883E1,2.007051E1,4.5926666E1,8.459271E0,3.508737E2,5.09205E0,9.336832E0,5.182639E0,1.4887871E1,2.0380112E1,2.5546556E1,7.220109E1,2.786726E2],"tree_param":{"num_deleted":"0","num_feature":"45","num_nodes":"19","size_leaf_vector":"1"}},{"base_weights":[-6.0164863E-3,6.310552E-2,-3.1491384E-2,6.641137E-2,-5.605208E-2,-4.223203E-1,4.5680985E-2,-2.6435563E-2,4.7696274E-2,4.1587662E-2,-6.906231E-4],"categories":[],"categories_nodes":[],"categories_segments":[],"categories_sizes":[],"default_left":[0,0,0,0,0,0,0,0,0,0,0],"id":10,"left_children":[1,-1,3,-1,5,7,9,-1,-1,-1,-1],"loss_changes":[1.4585922E1,0E0,1.4847983E1,0E0,1.6246332E1,1.4379614E1,1.5992714E1,0E0,0E0,0E0,0E0],"parents":[2147483647,0,0,2,2,4,4,5,5,6,6],"right_children":[2,-1,4,-1,6,8,10,-1,-1,-1,-1],"split_conditions":[1.837E-1,6.310552E-2,-6.19E-2,6.641137E-2,-6.4E-3,2.9395E0,-5.444E-2,-2.6435563E-2,4.7696274E-2,4.1587662E-2,-6.906231E-4],"split_indices":[14,0,31,0,39,16,0,0,0,0,0],"split_type":[0,0,0,0,0,0,0,0,0,0,0],"sum_hessian":[4.492707E2,7.8915243E0,4.4137918E2,6.889443E0,4.3448975E2,9.376339E1,3.4072635E2,8.760676E1,6.156626E0,2.3059977E1,3.1766638E2],"tree_param":{"num_deleted":"0","num_feature":"45","num_nodes":"11","size_leaf_vector":"1"}},{"base_weights":[-1.4299771E-2,2.802334E-2,-1.0601666E0,-6.376885E-3,1.1190795E0,-2.0915141E-2,-6.630845E-2,4.0807495E-1,-1.0442003E-1,8.167815E-2,2.3322826E-2,1.2530598E-2,6.492319E-2,-2.9497386E-3,-4.3721806E-2],"categories":[],"categories_nodes":[],"categories_segments":[],"categories_sizes":[],"default_left":[0,0,0,0,0,0,0,0,0,0,0,0,0,0,0],"id":11,"left_children":[1,3,5,7,9,-1,-1,11,13,-1,-1,-1,-1,-1,-1],"loss_changes":[1.9842857E1,1.6190245E1,2.4220123E0,1.7067926E1,3.6649818E0,0E0,0E0,1.0941173E1,1.1828096E1,0E0,0E0,0E0,0E0,0E0,0E0],"parents":[2147483647,0,0,1,1,2,2,3,3,4,4,7,7,8,8],"right_children":[2,4,6,8,10,-1,-1,12,14,-1,-1,-1,-1,-1,-1],"split_conditions":[2.919E0,7.62039E1,5.30418E1,3.93544E1,7.00222E1,-2.0915141E-2,-6.630845E-2,2.0016E0,2.14E-2,8.167815E-2,2.3322826E-2,1.2530598E-2,6.492319E-2,-2.9497386E-3,-4.3721806E-2],"split_indices":[14,26,34,7,42,0,0,16,27,0,0,0,0,0,0],"split_type":[0,0,0,0,0,0,0,0,0,0,0,0,0,0,0],"sum_hessian":[4.4660968E2,4.30175E2,1.6434692E1,4.179902E2,1.2184778E1,5.569073E0,1.086562E1,7.935891E1,3.3863132E2,5.972999E0,6.2117796E0,6.852237E1,1.0836542E1,3.2078403E2,1.7847271E1],"tree_param":{"num_deleted":"0","num_feature":"45","num_nodes":"15","size_leaf_vector":"1"}},{"base_weights":[-7.3698997E-3,3.755112E-1,-1.0527256E-1,2.2119837E-1,1.0610174E0,3.056881E-1,-1.9417165E-1,-8.853633E-1,4.6037462E-1,6.781197E-2,1.9269928E-2,-4.386002E-1,6.72898E-1,-1.110241E0,-1.1996462E-1,-1.4388946E-2,-6.340934E-2,3.022235E-2,-2.896132E-2,3.2497663E-2,-5.875357E-2,5.057902E-2,1.8389045E-3,-2.7688227E-3,-7.1564965E-2,7.637375E-3,-1.47970915E-2],"categories":[],"categories_nodes":[],"categories_segments":[],"categories_sizes":[],"default_left":[0,0,0,0,0,0,0,0,0,0,0,0,0,0,0,0,0,0,0,0,0,0,0,0,0,0,0],"id":12,"left_children":[1,3,5,7,9,11,13,15,17,-1,-1,19,21,23,25,-1,-1,-1,-1,-1,-1,-1,-1,-1,-1,-1,-1],"loss_changes":[1.689259E1,9.472995E0,1.3168621E1,2.0567364E1,2.788103E0,1.7842869E1,1.9962624E1,2.8103476E0,9.829764E0,0E0,0E0,1.825408E1,9.310337E0,7.3821354E0,1.3222972E1,0E0,0E0,0E0,0E0,0E0,0E0,0E0,0E0,0E0,0E0,0E0,0E0],"parents":[2147483647,0,0,1,1,2,2,3,3,4,4,5,5,6,6,7,7,8,8,11,11,12,12,13,13,14,14],"right_children":[2,4,6,8,10,12,14,16,18,-1,-1,20,22,24,26,-1,-1,-1,-1,-1,-1,-1,-1,-1,-1,-1,-1],"split_conditions":[3.757E-1,5.1715E-2,2.5389E-2,-1.7E-3,7.5448E-2,1.01857E-1,2.0737E-2,4.20035E1,4.4333E-2,6.781197E-2,1.9269928E-2,-4.8E-3,6.247E-1,3.54222E1,3.28197E-1,-1.4388946E-2,-6.340934E-2,3.022235E-2,-2.896132E-2,3.2497663E-2,-5.875357E-2,5.057902E-2,1.8389045E-3,-2.7688227E-3,-7.1564965E-2,7.637375E-3,-1.47970915E-2],"split_indices":[14,32,6,27,4,12,5,30,4,0,0,9,14,8,13,0,0,0,0,0,0,0,0,0,0,0,0],"split_type":[0,0,0,0,0,0,0,0,0,0,0,0,0,0,0,0,0,0,0,0,0,0,0,0,0,0,0],"sum_hessian":[4.485938E2,9.077037E1,3.5782343E2,7.517138E1,1.55989895E1,6.3204502E1,2.9461893E2,1.2879939E1,6.229144E1,1.0154446E1,5.444544E0,2.0816883E1,4.238762E1,2.103126E1,2.7358768E2,5.7132816E0,7.1666574E0,5.5077183E1,7.214257E0,8.44786E0,1.2369023E1,2.7275427E1,1.5112193E1,5.1810284E0,1.5850231E1,1.07353615E2,1.6623405E2],"tree_param":{"num_deleted":"0","num_feature":"45","num_nodes":"27","size_leaf_vector":"1"}},{"base_weights":[1.469867E-2,4.1130763E-1,-6.859362E-2,3.5367708E-3,6.576687E-1,3.1951493E-1,-1.729608E-1,-3.1718664E-2,3.0449298E-1,-2.1200849E-2,7.9504377E-1,5.6121045E-1,-1.360551E-1,-1.2052474E0,-1.126496E-1,3.574217E-2,-2.6471466E-2,6.6091396E-2,2.9970566E-2,-7.271953E-3,4.058895E-2,-3.211333E-2,2.6227076E-2,-7.338632E-2,-3.1495217E-2,4.6019617E-2,-7.782186E-3],"categories":[],"categories_nodes":[],"categories_segments":[],"categories_sizes":[],"default_left":[0,0,0,0,0,0,0,0,0,0,0,0,0,0,0,0,0,0,0,0,0,0,0,0,0,0,0],"id":13,"left_children":[1,3,5,7,9,11,13,-1,15,-1,17,19,21,23,25,-1,-1,-1,-1,-1,-1,-1,-1,-1,-1,-1,-1],"loss_changes":[1.4995659E1,7.911933E0,1.5257277E1,6.0824647E0,7.633936E0,8.872659E0,1.8318726E1,0E0,7.7421036E0,0E0,3.733818E0,9.394571E0,9.866137E0,1.5308437E0,1.263083E1,0E0,0E0,0E0,0E0,0E0,0E0,0E0,0E0,0E0,0E0,0E0,0E0],"parents":[2147483647,0,0,1,1,2,2,3,3,4,4,5,5,6,6,8,8,10,10,11,11,12,12,13,13,14,14],"right_children":[2,4,6,8,10,12,14,-1,16,-1,18,20,22,24,26,-1,-1,-1,-1,-1,-1,-1,-1,-1,-1,-1,-1],"split_conditions":[3.42634E1,4.845E-1,2.5913E-2,-2.3632E-2,2.9303E1,2.376E-2,2.0068E-2,-3.1718664E-2,-2.2277E-2,-2.1200849E-2,-4.58E-2,4.352E1,1.42045E-1,2.0147E-2,1.977E-1,3.574217E-2,-2.6471466E-2,6.6091396E-2,2.9970566E-2,-7.271953E-3,4.058895E-2,-3.211333E-2,2.6227076E-2,-7.338632E-2,-3.1495217E-2,4.6019617E-2,-7.782186E-3],"split_indices":[8,18,6,25,30,32,5,0,0,0,10,8,12,28,14,0,0,0,0,0,0,0,0,0,0,0,0],"split_type":[0,0,0,0,0,0,0,0,0,0,0,0,0,0,0,0,0,0,0,0,0,0,0,0,0,0,0],"sum_hessian":[4.520857E2,7.778108E1,3.7430463E2,2.9676168E1,4.810491E1,7.888707E1,2.9541754E2,9.157652E0,2.0518517E1,5.1857734E0,4.291914E1,5.1390675E1,2.7496397E1,1.5259094E1,2.8015845E2,1.3847388E1,6.6711283E0,1.0063697E1,3.2855442E1,1.3562234E1,3.782844E1,1.5582989E1,1.1913409E1,9.413491E0,5.845603E0,1.0378617E1,2.6977982E2],"tree_param":{"num_deleted":"0","num_feature":"45","num_nodes":"27","size_leaf_vector":"1"}},{"base_weights":[-8.296818E-3,3.0604469E-2,-8.2438976E-1,6.5052465E-2,6.32312E-3,-1.224599E0,2.997941E-3,4.8768222E-2,-7.125952E-1,-3.7288707E-2,-7.026882E-2,-2.2371141E-3,2.5455836E-2,-6.287288E-2,2.9266823E-2],"categories":[],"categories_nodes":[],"categories_segments":[],"categories_sizes":[],"default_left":[0,0,0,0,0,0,0,0,0,0,0,0,0,0,0],"id":14,"left_children":[1,3,5,-1,7,9,-1,11,13,-1,-1,-1,-1,-1,-1],"loss_changes":[1.4342439E1,1.3300347E1,7.348258E0,0E0,1.2983197E1,1.808548E-1,0E0,1.7311323E1,1.7510899E1,0E0,0E0,0E0,0E0,0E0,0E0],"parents":[2147483647,0,0,1,1,2,2,4,4,5,5,7,7,8,8],"right_children":[2,4,6,-1,8,10,-1,12,14,-1,-1,-1,-1,-1,-1],"split_conditions":[2.8E-2,-6.19E-2,7.62039E1,6.5052465E-2,1.05385E-1,-3.429E-2,2.997941E-3,5.1715E-2,1.38151E-1,-3.7288707E-2,-7.026882E-2,-2.2371141E-3,2.5455836E-2,-6.287288E-2,2.9266823E-2],"split_indices":[39,35,30,0,6,1,0,28,5,0,0,0,0,0,0],"split_type":[0,0,0,0,0,0,0,0,0,0,0,0,0,0,0],"sum_hessian":[4.499774E2,4.3042264E2,1.9554766E1,7.086035E0,4.2333658E2,1.3197521E1,6.357244E0,4.0061627E2,2.2720314E1,5.0217595E0,8.175761E0,3.3372882E2,6.688747E1,1.6024519E1,6.695793E0],"tree_param":{"num_deleted":"0","num_feature":"45","num_nodes":"15","size_leaf_vector":"1"}},{"base_weights":[2.6407558E-2,1.8655312E-1,-1.7009428E-1,5.136685E-1,2.7440388E-2,-7.98914E-1,-7.578078E-2,6.1051726E-1,-2.3276346E-2,-2.4583568E-1,6.40847E-1,-1.0891237E0,4.9494286E-3,7.373788E-1,-1.8185914E-1,7.71042E-2,2.341552E-2,-5.0348387E-4,-4.967427E-2,3.27867E-4,4.7715165E-2,-1.3806223E-2,-6.764268E-2,6.469119E-2,-2.7869985E-2,6.1393756E-2,-1.226762E-2],"categories":[],"categories_nodes":[],"categories_segments":[],"categories_sizes":[],"default_left":[0,0,0,0,0,0,0,0,0,0,0,0,0,0,0,0,0,0,0,0,0,0,0,0,0,0,0],"id":15,"left_children":[1,3,5,7,9,11,13,15,-1,17,19,21,-1,23,25,-1,-1,-1,-1,-1,-1,-1,-1,-1,-1,-1,-1],"loss_changes":[1.4234359E1,1.2953301E1,1.1989333E1,8.010567E0,2.8431496E1,6.985752E0,1.5469676E1,9.156799E0,0E0,2.0685585E1,1.0384434E1,3.921297E0,0E0,1.5645069E1,1.4450069E1,0E0,0E0,0E0,0E0,0E0,0E0,0E0,0E0,0E0,0E0,0E0,0E0],"parents":[2147483647,0,0,1,1,2,2,3,3,4,4,5,5,6,6,7,7,9,9,10,10,11,11,13,13,14,14],"right_children":[2,4,6,8,10,12,14,16,-1,18,20,22,-1,24,26,-1,-1,-1,-1,-1,-1,-1,-1,-1,-1,-1,-1],"split_conditions":[6.198E-1,-2.9929E-2,7.103E-1,8.3809E-2,4.2E-3,5.89945E1,7.76E-1,-9E-3,-2.3276346E-2,5.3E-3,5.19196E1,3.9166E1,4.9494286E-3,7.0193E-2,1.2342E-2,7.71042E-2,2.341552E-2,-5.0348387E-4,-4.967427E-2,3.27867E-4,4.7715165E-2,-1.3806223E-2,-6.764268E-2,6.469119E-2,-2.7869985E-2,6.1393756E-2,-1.226762E-2],"split_indices":[14,1,14,4,11,42,16,11,0,10,30,38,0,44,4,0,0,0,0,0,0,0,0,0,0,0,0],"split_type":[0,0,0,0,0,0,0,0,0,0,0,0,0,0,0,0,0,0,0,0,0,0,0,0,0,0,0],"sum_hessian":[4.503227E2,2.4814197E2,2.0218074E2,8.04725E1,1.6766946E2,2.539473E1,1.7678601E2,7.357224E1,6.9002624E0,1.16408195E2,5.126127E1,1.9030838E1,6.363891E0,1.9714014E1,1.5707199E2,8.439954E0,6.5132286E1,8.927077E1,2.713743E1,1.7291742E1,3.396953E1,5.1627226E0,1.3868115E1,1.3788845E1,5.9251685E0,5.979139E0,1.5109285E2],"tree_param":{"num_deleted":"0","num_feature":"45","num_nodes":"27","size_leaf_vector":"1"}},{"base_weights":[-2.1559045E-2,3.79991E-1,-1.0464446E-1,5.0355136E-1,-5.4608412E-2,-2.3584751E-2,-6.208234E-1,-1.545671E-1,8.3504504E-1,-1.3262951E-1,4.0483502E-1,5.7132334E-1,-1.1407043E0,5.33574E-2,-2.66336E-2,7.400478E-2,2.411454E-2,1.7177965E-2,-1.2782889E-2,2.660923E-2,-3.7445247E-2,2.4422149E-3,6.88448E-2,-6.5886125E-2,-1.820108E-2],"categories":[],"categories_nodes":[],"categories_segments":[],"categories_sizes":[],"default_left":[0,0,0,0,0,0,0,0,0,0,0,0,0,0,0,0,0,0,0,0,0,0,0,0,0],"id":16,"left_children":[1,3,5,7,-1,9,11,13,15,17,19,21,23,-1,-1,-1,-1,-1,-1,-1,-1,-1,-1,-1,-1],"loss_changes":[1.4806454E1,1.4391875E1,1.53625145E1,1.5594196E1,0E0,1.4941006E1,3.1541677E1,1.1927216E1,1.0048725E1,1.5013433E1,9.934352E0,6.5833473E0,4.337803E0,0E0,0E0,0E0,0E0,0E0,0E0,0E0,0E0,0E0,0E0,0E0,0E0],"parents":[2147483647,0,0,1,1,2,2,3,3,5,5,6,6,7,7,8,8,9,9,10,10,11,11,12,12],"right_children":[2,4,6,8,-1,10,12,14,16,18,20,22,24,-1,-1,-1,-1,-1,-1,-1,-1,-1,-1,-1,-1],"split_conditions":[3.604E-1,3.8E-1,6.8943E-2,-5E-4,-5.4608412E-2,4.6674E-2,-1.01641E-1,2.299E-2,4.85675E1,3.42634E1,2.4742E0,9.5175E-2,1.1231E-1,5.33574E-2,-2.66336E-2,7.400478E-2,2.411454E-2,1.7177965E-2,-1.2782889E-2,2.660923E-2,-3.7445247E-2,2.4422149E-3,6.88448E-2,-6.5886125E-2,-1.820108E-2],"split_indices":[15,16,6,31,0,5,1,5,7,8,14,40,4,0,0,0,0,0,0,0,0,0,0,0,0],"split_type":[0,0,0,0,0,0,0,0,0,0,0,0,0,0,0,0,0,0,0,0,0,0,0,0,0],"sum_hessian":[4.416074E2,7.509609E1,3.665113E2,6.988823E1,5.207864E0,3.1767062E2,4.884067E1,2.3589478E1,4.6298748E1,2.537696E2,6.390101E1,1.4801099E1,3.4039574E1,5.144488E0,1.844499E1,1.5238193E1,3.1060556E1,5.173468E1,2.0203493E2,5.8033962E1,5.8670464E0,9.621446E0,5.1796527E0,2.7154121E1,6.885453E0],"tree_param":{"num_deleted":"0","num_feature":"45","num_nodes":"25","size_leaf_vector":"1"}},{"base_weights":[-1.6858225E-3,7.515986E-2,-3.6174056E-1,-3.0615991E-2,4.6759966E-1,-5.005577E-1,3.270255E-2,1.4979728E-1,-5.4026985E-1,-7.076573E-2,6.176596E-1,2.8674735E-2,-6.2437665E-1,-1.8918734E-3,2.806106E-2,5.2312766E-3,-4.7753643E-2,3.624459E-2,-3.284251E-2,2.661751E-2,-3.7691414E-2],"categories":[],"categories_nodes":[],"categories_segments":[],"categories_sizes":[],"default_left":[0,0,0,0,0,0,0,0,0,0,0,0,0,0,0,0,0,0,0,0,0],"id":17,"left_children":[1,3,5,7,9,11,-1,13,15,-1,17,-1,19,-1,-1,-1,-1,-1,-1,-1,-1],"loss_changes":[1.2308582E1,1.5233351E1,1.136056E1,2.6721048E1,2.288494E1,9.5879135E0,0E0,1.6600498E1,2.0420849E1,0E0,1.0431959E1,0E0,9.791258E0,0E0,0E0,0E0,0E0,0E0,0E0,0E0,0E0],"parents":[2147483647,0,0,1,1,2,2,3,3,4,4,5,5,7,7,8,8,10,10,12,12],"right_children":[2,4,6,8,10,12,-1,14,16,-1,18,-1,20,-1,-1,-1,-1,-1,-1,-1,-1],"split_conditions":[9E-3,3.6E-3,7.82513E1,5.09489E1,-7.7E-2,1.35285E-1,3.270255E-2,4.1397E-2,5.1E-3,-7.076573E-2,7.9E-3,2.8674735E-2,-8.4785E-2,-1.8918734E-3,2.806106E-2,5.2312766E-3,-4.7753643E-2,3.624459E-2,-3.284251E-2,2.661751E-2,-3.7691414E-2],"split_indices":[35,11,26,7,10,12,0,6,10,0,39,0,1,0,0,0,0,0,0,0,0],"split_type":[0,0,0,0,0,0,0,0,0,0,0,0,0,0,0,0,0,0,0,0,0],"sum_hessian":[4.428739E2,3.6562964E2,7.724426E1,2.8872928E2,7.690036E1,6.840353E1,8.84074E0,2.137645E2,7.496479E1,5.0538816E0,7.184648E1,6.6951904E0,6.1708336E1,1.4743365E2,6.633083E1,2.9636541E1,4.5328247E1,6.6668495E1,5.1779804E0,5.897583E0,5.5810753E1],"tree_param":{"num_deleted":"0","num_feature":"45","num_nodes":"21","size_leaf_vector":"1"}},{"base_weights":[3.934643E-2,2.7896276E-1,-1.1077305E-1,3.6976963E-2,5.5241764E-1,1.1150438E-1,-2.8027752E-1,1.9418094E-1,-5.374952E-2,-3.2921147E-2,6.7630386E-1,9.529735E-1,-1.8007578E-2,-1.3763502E-1,-1.0597275E0,1.4561044E-2,-4.99867E-2,-9.888469E-3,3.9455168E-2,7.655652E-3,6.565254E-2,-9.85099E-3,1.896171E-2,-1.0994314E-2,7.647502E-2,-6.1344516E-2,-2.1990988E-2],"categories":[],"categories_nodes":[],"categories_segments":[],"categories_sizes":[],"default_left":[0,0,0,0,0,0,0,0,0,0,0,0,0,0,0,0,0,0,0,0,0,0,0,0,0,0,0],"id":18,"left_children":[1,3,5,7,9,11,13,15,-1,-1,17,19,21,23,25,-1,-1,-1,-1,-1,-1,-1,-1,-1,-1,-1,-1],"loss_changes":[1.6227373E1,1.1474876E1,1.048835E1,1.650653E1,1.2668468E1,1.3181503E1,1.7393234E1,9.853144E0,0E0,0E0,7.492943E0,4.444745E0,7.588676E0,1.8778994E1,1.9736996E0,0E0,0E0,0E0,0E0,0E0,0E0,0E0,0E0,0E0,0E0,0E0,0E0],"parents":[2147483647,0,0,1,1,2,2,3,3,4,4,5,5,6,6,7,7,10,10,11,11,12,12,13,13,14,14],"right_children":[2,4,6,8,10,12,14,16,-1,-1,18,20,22,24,26,-1,-1,-1,-1,-1,-1,-1,-1,-1,-1,-1,-1],"split_conditions":[5.142E-1,3E-4,3.94209E-1,5.41942E1,-2.52E-2,-8.59E-2,2.2668E0,9.2768E-2,-5.374952E-2,-3.2921147E-2,-5E-4,3.44193E-1,3.5E-3,2.2182E0,7.03081E-1,1.4561044E-2,-4.99867E-2,-9.888469E-3,3.9455168E-2,7.655652E-3,6.565254E-2,-9.85099E-3,1.896171E-2,-1.0994314E-2,7.647502E-2,-6.1344516E-2,-2.1990988E-2],"split_indices":[14,39,13,34,10,9,16,4,0,0,31,12,10,16,13,0,0,0,0,0,0,0,0,0,0,0,0],"split_type":[0,0,0,0,0,0,0,0,0,0,0,0,0,0,0,0,0,0,0,0,0,0,0,0,0,0,0],"sum_hessian":[4.4926376E2,1.7271803E2,2.7654575E2,9.2233734E1,8.048429E1,1.19795586E2,1.5675015E2,8.153248E1,1.0701253E1,7.0698805E0,7.341441E1,1.5130572E1,1.0466501E2,1.3349637E2,2.3253794E1,7.6103004E1,5.4294786E0,8.30516E0,6.510925E1,5.1393843E0,9.991188E0,7.249848E1,3.2166534E1,1.2804703E2,5.4493356E0,1.7543823E1,5.709971E0],"tree_param":{"num_deleted":"0","num_feature":"45","num_nodes":"27","size_leaf_vector":"1"}},{"base_weights":[2.3374919E-2,2.3886655E-1,-1.13854125E-1,-4.214185E-2,2.9166427E-1,-4.721192E-2,-9.1794825E-1,3.6502048E-1,-6.069461E-1,-2.1713424E-1,1.9381134E-1,-1.3450348E0,1.6145369E-2,5.604772E-3,3.6200833E-2,-5.5765357E-2,3.7335528E-3,8.594398E-3,-2.2224765E-2,6.523007E-2,2.5586702E-3,-7.666241E-2,-3.9875682E-2],"categories":[],"categories_nodes":[],"categories_segments":[],"categories_sizes":[],"default_left":[0,0,0,0,0,0,0,0,0,0,0,0,0,0,0,0,0,0,0,0,0,0,0],"id":19,"left_children":[1,3,5,-1,7,9,11,13,15,17,19,21,-1,-1,-1,-1,-1,-1,-1,-1,-1,-1,-1],"loss_changes":[1.3190706E1,1.0155115E1,1.4566017E1,0E0,1.1175644E1,1.0396346E1,1.1463539E1,1.3925404E1,4.5591807E0,1.3233316E1,1.6580107E1,3.9266968E-1,0E0,0E0,0E0,0E0,0E0,0E0,0E0,0E0,0E0,0E0,0E0],"parents":[2147483647,0,0,1,1,2,2,4,4,5,5,6,6,7,7,8,8,9,9,10,10,11,11],"right_children":[2,4,6,-1,8,10,12,14,16,18,20,22,-1,-1,-1,-1,-1,-1,-1,-1,-1,-1,-1],"split_conditions":[5.142E-1,1.1179E-2,1.05385E-1,-4.214185E-2,8.1E-3,4.1397E-2,2.163E-1,5E-4,4.03E-2,2.2893E-2,3.74335E1,2.0833E-2,1.6145369E-2,5.604772E-3,3.6200833E-2,-5.5765357E-2,3.7335528E-3,8.594398E-3,-2.2224765E-2,6.523007E-2,2.5586702E-3,-7.666241E-2,-3.9875682E-2],"split_indices":[14,4,6,0,27,6,20,43,20,4,7,41,0,0,0,0,0,0,0,0,0,0,0],"split_type":[0,0,0,0,0,0,0,0,0,0,0,0,0,0,0,0,0,0,0,0,0,0,0],"sum_hessian":[4.4413858E2,1.7250781E2,2.7163074E2,7.33184E0,1.6517598E2,2.5181905E2,1.9811699E1,1.532588E2,1.1917173E1,1.4775226E2,1.0406679E2,1.4676336E1,5.135364E0,9.068228E1,6.2576523E1,6.461681E0,5.455492E0,5.4590355E1,9.31619E1,1.0915592E1,9.31512E1,9.582096E0,5.09424E0],"tree_param":{"num_deleted":"0","num_feature":"45","num_nodes":"23","size_leaf_vector":"1"}},{"base_weights":[-1.3883983E-2,3.18332E-1,-8.953098E-2,4.5082772E-1,-5.0944608E-2,-8.445607E-1,-3.704603E-2,8.063396E-1,4.566147E-3,8.10475E-3,-1.1615912E0,1.7047804E-2,-6.030815E-1,1.0328005E-2,5.062672E-2,-4.7472607E-2,3.0175004E-2,-7.192838E-2,-3.4477104E-2,8.089959E-3,-9.573742E-3,2.193788E-2,-4.6458375E-2],"categories":[],"categories_nodes":[],"categories_segments":[],"categories_sizes":[],"default_left":[0,0,0,0,0,0,0,0,0,0,0,0,0,0,0,0,0,0,0,0,0,0,0],"id":20,"left_children":[1,3,5,7,-1,9,11,13,15,-1,17,19,21,-1,-1,-1,-1,-1,-1,-1,-1,-1,-1],"loss_changes":[1.1402897E1,1.5371278E1,1.4608668E1,1.2255321E1,0E0,7.836796E0,1.0618902E1,5.109007E0,2.0724794E1,0E0,1.4070396E0,9.605968E0,1.0684544E1,0E0,0E0,0E0,0E0,0E0,0E0,0E0,0E0,0E0,0E0],"parents":[2147483647,0,0,1,1,2,2,3,3,5,5,6,6,7,7,8,8,10,10,11,11,12,12],"right_children":[2,4,6,8,-1,10,12,14,16,-1,18,20,22,-1,-1,-1,-1,-1,-1,-1,-1,-1,-1],"split_conditions":[2.5307E-2,3.1835E-2,2.0737E-2,-1.4E-3,-5.0944608E-2,-1.0492E-2,1.05385E-1,1.8904E-2,1.08282E-1,8.10475E-3,1.8765E-2,7.76E-1,-2E-2,1.0328005E-2,5.062672E-2,-4.7472607E-2,3.0175004E-2,-7.192838E-2,-3.4477104E-2,8.089959E-3,-9.573742E-3,2.193788E-2,-4.6458375E-2],"split_indices":[6,40,5,9,0,29,6,6,12,0,28,16,11,0,0,0,0,0,0,0,0,0,0],"split_type":[0,0,0,0,0,0,0,0,0,0,0,0,0,0,0,0,0,0,0,0,0,0,0],"sum_hessian":[4.516017E2,8.316428E1,3.6843744E2,7.6270096E1,6.8941827E0,2.2965954E1,3.4547147E2,4.2002308E1,3.426779E1,5.6175265E0,1.7348427E1,3.162213E2,2.9250172E1,1.1257694E1,3.0744614E1,1.29904995E1,2.127729E1,9.642916E0,7.7055116E0,1.8678427E2,1.2943703E2,6.890288E0,2.2359882E1],"tree_param":{"num_deleted":"0","num_feature":"45","num_nodes":"23","size_leaf_vector":"1"}},{"base_weights":[2.816622E-2,3.7244302E-1,-5.9020456E-2,5.843341E-1,-6.291416E-1,-9.481474E-1,-3.7595914E-3,-5.8835592E-2,7.5490403E-1,-5.6327492E-2,1.8079935E-2,-2.7207828E-3,-6.980183E-2,-8.944305E-2,3.4925395E-1,-4.2511147E-2,2.0017201E-2,6.350667E-2,1.8753335E-2,1.3967976E-4,-3.6950033E-2,-3.0296732E-2,2.6540345E-2],"categories":[],"categories_nodes":[],"categories_segments":[],"categories_sizes":[],"default_left":[0,0,0,0,0,0,0,0,0,0,0,0,0,0,0,0,0,0,0,0,0,0,0],"id":21,"left_children":[1,3,5,7,9,11,13,15,17,-1,-1,-1,-1,19,21,-1,-1,-1,-1,-1,-1,-1,-1],"loss_changes":[1.3374417E1,1.9473608E1,1.7478899E1,8.253098E0,8.391481E0,8.256685E0,1.0194256E1,6.3769627E0,1.1111774E1,0E0,0E0,0E0,0E0,1.6248535E1,1.1737427E1,0E0,0E0,0E0,0E0,0E0,0E0,0E0,0E0],"parents":[2147483647,0,0,1,1,2,2,3,3,4,4,5,5,6,6,7,7,8,8,13,13,14,14],"right_children":[2,4,6,8,10,12,14,16,18,-1,-1,-1,-1,20,22,-1,-1,-1,-1,-1,-1,-1,-1],"split_conditions":[2.5534E-2,2.7406E-2,2.0737E-2,1.8904E-2,8E-4,4.26554E1,7.57937E-1,-7.9E-3,-4.8E-3,-5.6327492E-2,1.8079935E-2,-2.7207828E-3,-6.980183E-2,5.62473E1,3.6E-3,-4.2511147E-2,2.0017201E-2,6.350667E-2,1.8753335E-2,1.3967976E-4,-3.6950033E-2,-3.0296732E-2,2.6540345E-2],"split_indices":[6,40,5,6,10,30,13,9,9,0,0,0,0,7,11,0,0,0,0,0,0,0,0],"split_type":[0,0,0,0,0,0,0,0,0,0,0,0,0,0,0,0,0,0,0,0,0,0,0],"sum_hessian":[4.4383875E2,8.902624E1,3.548125E2,7.382477E1,1.52014675E1,1.9816393E1,3.3499612E2,1.5611901E1,5.8212868E1,1.0029171E1,5.1722956E0,6.989942E0,1.282645E1,2.7016766E2,6.482847E1,5.4196405E0,1.0192261E1,2.3708984E1,3.4503883E1,2.3744618E2,3.272147E1,9.980647E0,5.4847824E1],"tree_param":{"num_deleted":"0","num_feature":"45","num_nodes":"23","size_leaf_vector":"1"}},{"base_weights":[1.3082613E-2,3.2296008E-1,-8.538324E-2,4.0958366E-1,-4.8110556E-2,-4.488107E-2,-8.7866056E-1,5.117616E-1,-2.3506996E-1,-9.195401E-2,6.8169785E-1,-1.3130887E-2,-6.289194E-2,-2.3857115E-2,2.943717E-2,-3.624497E-2,2.2773448E-2,-2.8814177E-3,-4.2968083E-2,-1.1469007E-2,5.428688E-2],"categories":[],"categories_nodes":[],"categories_segments":[],"categories_sizes":[],"default_left":[0,0,0,0,0,0,0,0,0,0,0,0,0,0,0,0,0,0,0,0,0],"id":22,"left_children":[1,3,5,7,-1,9,11,13,15,17,19,-1,-1,-1,-1,-1,-1,-1,-1,-1,-1],"loss_changes":[1.3523331E1,1.2290886E1,1.0770214E1,6.761091E0,0E0,1.1046764E1,3.4746876E0,6.929819E0,5.2275105E0,7.918646E0,7.485876E0,0E0,0E0,0E0,0E0,0E0,0E0,0E0,0E0,0E0,0E0],"parents":[2147483647,0,0,1,1,2,2,3,3,5,5,6,6,7,7,8,8,9,9,10,10],"right_children":[2,4,6,8,-1,10,12,14,16,18,20,-1,-1,-1,-1,-1,-1,-1,-1,-1,-1],"split_conditions":[4.13101E1,8.4E-3,2.919E0,4.355E-2,-4.8110556E-2,8.15124E1,-3.3592E-2,1.01857E-1,-4.9E-3,2.8E-2,5.17405E1,-1.3130887E-2,-6.289194E-2,-2.3857115E-2,2.943717E-2,-3.624497E-2,2.2773448E-2,-2.8814177E-3,-4.2968083E-2,-1.1469007E-2,5.428688E-2],"split_indices":[30,35,14,0,0,8,1,12,35,39,42,0,0,0,0,0,0,0,0,0,0],"split_type":[0,0,0,0,0,0,0,0,0,0,0,0,0,0,0,0,0,0,0,0,0],"sum_hessian":[4.4130472E2,1.0586423E2,3.354405E2,9.981759E1,6.0466413E0,3.2015118E2,1.5289306E1,8.633896E1,1.3478627E1,3.0149182E2,1.8659338E1,6.470088E0,8.819218E0,5.86026E0,8.04787E1,7.856155E0,5.622472E0,2.8961273E2,1.1879098E1,5.8654623E0,1.2793877E1],"tree_param":{"num_deleted":"0","num_feature":"45","num_nodes":"21","size_leaf_vector":"1"}},{"base_weights":[-1.1321602E-3,1.8587308E-2,-6.228155E-2,3.791782E-2,-5.6569647E-2,3.9300647E-1,-3.9529823E-2,-9.623966E-3,4.249319E-2,1.6896479E-2,-6.589688E-3],"categories":[],"categories_nodes":[],"categories_segments":[],"categories_sizes":[],"default_left":[0,0,0,0,0,0,0,0,0,0,0],"id":23,"left_children":[1,3,-1,5,-1,7,9,-1,-1,-1,-1],"loss_changes":[1.0998915E1,9.851837E0,0E0,1.1976355E1,0E0,2.101847E1,1.2510797E1,0E0,0E0,0E0,0E0],"parents":[2147483647,0,0,1,1,3,3,5,5,6,6],"right_children":[2,4,-1,6,-1,8,10,-1,-1,-1,-1],"split_conditions":[3.0663E0,1.31308E-1,-6.228155E-2,3.645E-1,-5.6569647E-2,5E-4,1.8915E-1,-9.623966E-3,4.249319E-2,1.6896479E-2,-6.589688E-3],"split_indices":[14,6,0,15,0,39,13,0,0,0,0],"split_type":[0,0,0,0,0,0,0,0,0,0,0],"sum_hessian":[4.462445E2,4.402536E2,5.99089E0,4.3392657E2,6.32703E0,7.6967026E1,3.5695956E2,3.3988163E1,4.2978863E1,6.959165E1,2.8736792E2],"tree_param":{"num_deleted":"0","num_feature":"45","num_nodes":"11","size_leaf_vector":"1"}},{"base_weights":[-2.0076986E-2,1.335233E-1,-1.9741067E-1,7.3049873E-1,2.0824272E-2,-8.391405E-1,-1.0617742E-1,-8.768034E-3,9.0194875E-1,-1.2799491E-1,3.4819537E-1,-1.2643454E0,-6.1533037E-3,4.9516863E-1,-2.1330637E-1,7.269482E-2,2.7660659E-2,1.0268357E-2,-2.1835638E-2,-5.9455305E-2,2.5166009E-2,-4.257823E-2,-7.625667E-2,4.626357E-2,-3.2280907E-2,1.848839E-2,-1.6378058E-2],"categories":[],"categories_nodes":[],"categories_segments":[],"categories_sizes":[],"default_left":[0,0,0,0,0,0,0,0,0,0,0,0,0,0,0,0,0,0,0,0,0,0,0,0,0,0,0],"id":24,"left_children":[1,3,5,7,9,11,13,-1,15,17,19,21,-1,23,25,-1,-1,-1,-1,-1,-1,-1,-1,-1,-1,-1,-1],"loss_changes":[1.2120318E1,1.6031986E1,1.1999912E1,6.0363827E0,9.869769E0,7.625807E0,1.1825646E1,0E0,5.3528004E0,1.4433492E1,1.5692665E1,4.157791E-1,0E0,1.4242684E1,1.0454837E1,0E0,0E0,0E0,0E0,0E0,0E0,0E0,0E0,0E0,0E0,0E0,0E0],"parents":[2147483647,0,0,1,1,2,2,3,3,4,4,5,5,6,6,8,8,9,9,10,10,11,11,13,13,14,14],"right_children":[2,4,6,8,10,12,14,-1,16,18,20,22,-1,24,26,-1,-1,-1,-1,-1,-1,-1,-1,-1,-1,-1,-1],"split_conditions":[5.934E-1,4.00427E1,4.19E-2,1.4815E-2,3.7E-3,-5.8E-3,2.0809E-2,-8.768034E-3,2.4064E-2,-9.072E-3,-2.25E-2,-4.5533E-2,-6.1533037E-3,5.38923E1,7.662E-1,7.269482E-2,2.7660659E-2,1.0268357E-2,-2.1835638E-2,-5.9455305E-2,2.5166009E-2,-4.257823E-2,-7.625667E-2,4.626357E-2,-3.2280907E-2,1.848839E-2,-1.6378058E-2],"split_indices":[16,26,20,36,11,9,32,0,4,1,10,1,0,26,16,0,0,0,0,0,0,0,0,0,0,0,0],"split_type":[0,0,0,0,0,0,0,0,0,0,0,0,0,0,0,0,0,0,0,0,0,0,0,0,0,0,0],"sum_hessian":[4.4300235E2,2.3751881E2,2.0548352E2,3.6848362E1,2.0067046E2,2.4556519E1,1.80927E2,5.860657E0,3.0987703E1,1.3837553E2,6.229492E1,1.492713E1,9.629389E0,2.6810375E1,1.5411662E2,1.0771105E1,2.0216599E1,6.669318E1,7.168236E1,5.0988955E0,5.7196026E1,7.4308214E0,7.4963083E0,1.9607004E1,7.203372E0,2.4885023E1,1.292316E2],"tree_param":{"num_deleted":"0","num_feature":"45","num_nodes":"27","size_leaf_vector":"1"}},{"base_weights":[2.1674193E-2,3.8546398E-1,-6.718912E-2,-1.11208215E-1,6.0298085E-1,2.695433E-1,-1.5093797E-1,7.043098E-1,-6.8265206E-1,-1.5847595E-2,6.9451797E-1,6.583515E-1,-7.7252775E-2,-9.8340327E-1,-9.195788E-2,-1.0638551E-2,7.109111E-2,-5.701014E-2,1.38794435E-2,-1.6414961E-3,3.9182268E-2,1.082499E-2,5.454714E-2,-2.4867954E-2,3.522373E-2,-2.015591E-2,-6.040251E-2,5.1457264E-2,-6.3143647E-3],"categories":[],"categories_nodes":[],"categories_segments":[],"categories_sizes":[],"default_left":[0,0,0,0,0,0,0,0,0,0,0,0,0,0,0,0,0,0,0,0,0,0,0,0,0,0,0,0,0],"id":25,"left_children":[1,3,5,7,9,11,13,15,17,-1,19,21,23,25,27,-1,-1,-1,-1,-1,-1,-1,-1,-1,-1,-1,-1,-1,-1],"loss_changes":[1.44504385E1,9.546527E0,1.0177646E1,1.3328237E1,5.3716793E0,9.752785E0,1.407468E1,8.100431E0,7.6615496E0,0E0,3.6529999E0,6.267727E0,1.3134052E1,1.987854E0,1.05413E1,0E0,0E0,0E0,0E0,0E0,0E0,0E0,0E0,0E0,0E0,0E0,0E0,0E0,0E0],"parents":[2147483647,0,0,1,1,2,2,3,3,4,4,5,5,6,6,7,7,8,8,10,10,11,11,12,12,13,13,14,14],"right_children":[2,4,6,8,10,12,14,16,18,-1,20,22,24,26,28,-1,-1,-1,-1,-1,-1,-1,-1,-1,-1,-1,-1,-1,-1],"split_conditions":[3.56068E1,-5.5E-3,2.5463E-2,-4.9E-2,2.418E-1,4.82557E1,2.0737E-2,9.5632E-2,1.0725E0,-1.5847595E-2,-1.05991E-1,5.035E-1,1.55079E-1,-5.103E-3,1.3578E-2,-1.0638551E-2,7.109111E-2,-5.701014E-2,1.38794435E-2,-1.6414961E-3,3.9182268E-2,1.082499E-2,5.454714E-2,-2.4867954E-2,3.522373E-2,-2.015591E-2,-6.040251E-2,5.1457264E-2,-6.3143647E-3],"split_indices":[8,43,6,9,14,34,5,13,14,0,13,14,12,0,4,0,0,0,0,0,0,0,0,0,0,0,0,0,0],"split_type":[0,0,0,0,0,0,0,0,0,0,0,0,0,0,0,0,0,0,0,0,0,0,0,0,0,0,0,0,0],"sum_hessian":[4.4519934E2,8.6744774E1,3.5845456E2,2.6568258E1,6.0176514E1,7.09529E1,2.8750168E2,1.0850624E1,1.5717634E1,5.223061E0,5.495345E1,3.3026768E1,3.7926132E1,1.7984785E1,2.6951688E2,5.0717196E0,5.778905E0,1.0518297E1,5.199337E0,6.067735E0,4.8885715E1,1.7080797E1,1.59459715E1,2.4905497E1,1.3020637E1,5.799237E0,1.2185549E1,7.146709E0,2.6237018E2],"tree_param":{"num_deleted":"0","num_feature":"45","num_nodes":"29","size_leaf_vector":"1"}},{"base_weights":[8.423713E-3,1.932206E-1,-1.1612443E-1,1.4495388E-1,6.888924E-2,8.4264797E-1,-1.6619141E-1,-5.3796256E-1,2.7039167E-1,6.1805088E-2,1.7803412E-2,-2.1625102E-1,4.6696104E-2,-4.378144E-2,1.2468296E-2,1.7332796E-2,-3.7643526E-2,3.6289405E-2,-1.3301703E-2],"categories":[],"categories_nodes":[],"categories_segments":[],"categories_sizes":[],"default_left":[0,0,0,0,0,0,0,0,0,0,0,0,0,0,0,0,0,0,0],"id":26,"left_children":[1,3,5,7,-1,9,11,13,15,-1,-1,17,-1,-1,-1,-1,-1,-1,-1],"loss_changes":[1.0097229E1,9.898132E0,1.2722307E1,1.4778152E1,0E0,2.0818014E0,1.3966572E1,7.354188E0,1.1574566E1,0E0,0E0,1.1442665E1,0E0,0E0,0E0,0E0,0E0,0E0,0E0],"parents":[2147483647,0,0,1,1,2,2,3,3,5,5,6,6,7,7,8,8,11,11],"right_children":[2,4,6,8,-1,10,12,14,16,-1,-1,18,-1,-1,-1,-1,-1,-1,-1],"split_conditions":[5.196E-1,1.21171E-1,-1.68707E-1,-3.9E-3,6.888924E-2,1.0258E0,7.82513E1,4.72737E1,8.1E-3,6.1805088E-2,1.7803412E-2,1.2342E-2,4.6696104E-2,-4.378144E-2,1.2468296E-2,1.7332796E-2,-3.7643526E-2,3.6289405E-2,-1.3301703E-2],"split_indices":[14,44,1,43,0,16,26,42,27,0,0,4,0,0,0,0,0,0,0],"split_type":[0,0,0,0,0,0,0,0,0,0,0,0,0,0,0,0,0,0,0],"sum_hessian":[4.3672787E2,1.7561288E2,2.61115E2,1.6981587E2,5.797017E0,1.2173058E1,2.4894193E2,2.5841154E1,1.4397472E2,5.878914E0,6.294144E0,2.3887555E2,1.0066371E1,1.8006462E1,7.8346925E0,1.3460385E2,9.370866E0,1.1308425E1,2.2756712E2],"tree_param":{"num_deleted":"0","num_feature":"45","num_nodes":"19","size_leaf_vector":"1"}},{"base_weights":[-2.941322E-2,4.9855556E-2,-4.900687E-2,-3.807362E-1,3.260997E-2,1.4782279E-3,-7.4746186E-1,-6.131012E-2,3.4784728E-1,-9.521666E-3,6.0605146E-2,-4.9225282E-2,5.928157E-3,1.7512189E-3,-3.1065533E-2,2.6800273E-2,-2.4267234E-2],"categories":[],"categories_nodes":[],"categories_segments":[],"categories_sizes":[],"default_left":[0,0,0,0,0,0,0,0,0,0,0,0,0,0,0,0,0],"id":27,"left_children":[1,-1,3,5,7,9,11,13,15,-1,-1,-1,-1,-1,-1,-1,-1],"loss_changes":[9.116977E0,0E0,1.2016227E1,1.2282873E1,1.0583283E1,1.0430913E1,9.296896E0,1.4895053E1,1.3121259E1,0E0,0E0,0E0,0E0,0E0,0E0,0E0,0E0],"parents":[2147483647,0,0,2,2,3,3,4,4,5,5,6,6,7,7,8,8],"right_children":[2,-1,4,6,8,10,12,14,16,-1,-1,-1,-1,-1,-1,-1,-1],"split_conditions":[-6.19E-2,4.9855556E-2,-6.6E-3,-1.91E-2,4.6866E-2,2.7973E0,2.024E0,1.45E-2,1.1824E0,-9.521666E-3,6.0605146E-2,-4.9225282E-2,5.928157E-3,1.7512189E-3,-3.1065533E-2,2.6800273E-2,-2.4267234E-2],"split_indices":[31,0,39,10,4,16,16,10,16,0,0,0,0,0,0,0,0],"split_type":[0,0,0,0,0,0,0,0,0,0,0,0,0,0,0,0,0],"sum_hessian":[4.4985022E2,7.49121E0,4.42359E2,8.662189E1,3.5573712E2,4.290292E1,4.3718967E1,2.747E2,8.103711E1,3.7759827E1,5.1430926E0,3.4216576E1,9.502392E0,2.3518039E2,3.951962E1,6.639903E1,1.4638082E1],"tree_param":{"num_deleted":"0","num_feature":"45","num_nodes":"17","size_leaf_vector":"1"}},{"base_weights":[-3.133968E-2,1.3775359E-1,-1.6312644E-1,2.2494897E-1,-4.0096116E-1,-9.499271E-1,-5.1943485E-2,3.5862967E-2,5.454164E-1,-7.3736864E-1,1.3657018E-2,-7.923722E-3,-1.1030393E0,9.831066E-3,-8.6903965E-1,-5.5784523E-3,3.3943456E-2,5.1163822E-2,1.602834E-2,-5.0264757E-2,-9.894325E-3,-6.140084E-2,-2.6266439E-2,-2.1533528E-3,8.1289575E-2,-5.7422765E-2,-1.2329235E-2],"categories":[],"categories_nodes":[],"categories_segments":[],"categories_sizes":[],"default_left":[0,0,0,0,0,0,0,0,0,0,0,0,0,0,0,0,0,0,0,0,0,0,0,0,0,0,0],"id":28,"left_children":[1,3,5,7,9,11,13,15,17,19,-1,-1,21,23,25,-1,-1,-1,-1,-1,-1,-1,-1,-1,-1,-1,-1],"loss_changes":[9.793148E0,9.136719E0,2.1546423E1,1.0063555E1,6.367082E0,3.5221786E0,1.097998E1,1.0098143E1,6.298996E0,2.4617434E0,0E0,0E0,1.1884174E0,1.742882E1,2.3759527E0,0E0,0E0,0E0,0E0,0E0,0E0,0E0,0E0,0E0,0E0,0E0,0E0],"parents":[2147483647,0,0,1,1,2,2,3,3,4,4,5,5,6,6,7,7,8,8,9,9,12,12,13,13,14,14],"right_children":[2,4,6,8,10,12,14,16,18,20,-1,-1,22,24,26,-1,-1,-1,-1,-1,-1,-1,-1,-1,-1,-1,-1],"split_conditions":[3.84399E-1,8.121E-1,-4.9E-3,4.1397E-2,2.90441E-1,1.69857E-1,2.2747E0,4.7E-3,3.90505E1,4.60162E1,1.3657018E-2,-7.923722E-3,2.163E-1,2.2182E0,4.3073E-2,-5.5784523E-3,3.3943456E-2,5.1163822E-2,1.602834E-2,-5.0264757E-2,-9.894325E-3,-6.140084E-2,-2.6266439E-2,-2.1533528E-3,8.1289575E-2,-5.7422765E-2,-1.2329235E-2],"split_indices":[13,19,35,6,13,12,16,10,38,38,0,0,20,16,6,0,0,0,0,0,0,0,0,0,0,0,0],"split_type":[0,0,0,0,0,0,0,0,0,0,0,0,0,0,0,0,0,0,0,0,0,0,0,0,0,0,0],"sum_hessian":[4.374565E2,1.9158803E2,2.4586848E2,1.6539925E2,2.6188787E1,2.9507936E1,2.1636055E2,1.0472189E2,6.067735E1,1.7407698E1,8.781091E0,5.113054E0,2.4394882E1,2.0207141E2,1.4289144E1,8.5861565E1,1.8860329E1,1.8279032E1,4.2398315E1,1.1054289E1,6.353408E0,1.9130644E1,5.2642384E0,1.9660881E2,5.4625993E0,9.278879E0,5.010265E0],"tree_param":{"num_deleted":"0","num_feature":"45","num_nodes":"27","size_leaf_vector":"1"}},{"base_weights":[3.7129042E-3,4.2722248E-2,-5.610349E-1,2.0835508E-2,6.0928997E-2,-6.967415E-2,-2.54906E-1,-1.215862E-3,5.6881785E-2,-7.1731925E-1,2.4796052E-2,4.46691E-2,-1.3796993E-3,2.461012E-4,-6.314696E-2],"categories":[],"categories_nodes":[],"categories_segments":[],"categories_sizes":[],"default_left":[0,0,0,0,0,0,0,0,0,0,0,0,0,0,0],"id":29,"left_children":[1,3,5,7,-1,-1,9,11,-1,13,-1,-1,-1,-1,-1],"loss_changes":[9.7717E0,1.0649966E1,6.9481354E0,1.0055221E1,0E0,0E0,8.055524E0,9.4953785E0,0E0,5.5757656E0,0E0,0E0,0E0,0E0,0E0],"parents":[2147483647,0,0,1,1,2,2,3,3,6,6,7,7,9,9],"right_children":[2,4,6,8,-1,-1,10,12,-1,14,-1,-1,-1,-1,-1],"split_conditions":[6.92005E1,7.62039E1,3.9306E-2,1.46895E-1,6.0928997E-2,-6.967415E-2,7.43294E1,-4.54E-2,5.6881785E-2,2.14E-2,2.4796052E-2,4.46691E-2,-1.3796993E-3,2.461012E-4,-6.314696E-2],"split_indices":[42,26,40,44,0,0,30,31,0,39,0,0,0,0,0],"split_type":[0,0,0,0,0,0,0,0,0,0,0,0,0,0,0],"sum_hessian":[4.4146643E2,4.1380746E2,2.7658949E1,4.0724496E2,6.5625043E0,6.4816437E0,2.1177305E1,4.0033914E2,6.9058385E0,1.3133427E1,8.0438795E0,1.0524913E1,3.898142E2,6.0783925E0,7.055034E0],"tree_param":{"num_deleted":"0","num_feature":"45","num_nodes":"15","size_leaf_vector":"1"}},{"base_weights":[4.7090616E-2,8.0345297E-1,2.4088956E-2,6.6314586E-2,7.3919743E-3,-5.1968556E-2,4.4453528E-2,3.4352946E-1,-3.1039383E-2,3.126678E-2,1.4608087E-3,-3.1602647E-2,9.741488E-4],"categories":[],"categories_nodes":[],"categories_segments":[],"categories_sizes":[],"default_left":[0,0,0,0,0,0,0,0,0,0,0,0,0],"id":30,"left_children":[1,3,5,-1,-1,-1,7,9,11,-1,-1,-1,-1],"loss_changes":[7.7232947E0,4.2956314E0,9.422295E0,0E0,0E0,0E0,9.623564E0,7.5897875E0,1.0362655E1,0E0,0E0,0E0,0E0],"parents":[2147483647,0,0,1,1,2,2,6,6,7,7,8,8],"right_children":[2,4,6,-1,-1,-1,8,10,12,-1,-1,-1,-1],"split_conditions":[1.951E-1,1.3E-3,2.012E-1,6.6314586E-2,7.3919743E-3,-5.1968556E-2,2.6086E-2,4.83993E1,1.6711E-2,3.126678E-2,1.4608087E-3,-3.1602647E-2,9.741488E-4],"split_indices":[15,27,15,0,0,0,6,34,36,0,0,0,0],"split_type":[0,0,0,0,0,0,0,0,0,0,0,0,0],"sum_hessian":[4.4404144E2,1.2103766E1,4.3193768E2,6.1646237E0,5.9391427E0,7.175717E0,4.2476196E2,8.4893555E1,3.398684E2,4.423971E1,4.0653847E1,2.5462027E1,3.144064E2],"tree_param":{"num_deleted":"0","num_feature":"45","num_nodes":"13","size_leaf_vector":"1"}},{"base_weights":[2.2379348E-2,5.8878805E-2,4.2363876E-3,4.4715423E-2,-4.6754092E-1,-2.6373876E-2,4.032597E-1,2.5748735E-2,-8.269058E-1,4.849189E-3,-1.2293792E-2,3.940123E-2,-2.326215E-3,-1.4618409E-3,-5.3361274E-2],"categories":[],"categories_nodes":[],"categories_segments":[],"categories_sizes":[],"default_left":[0,0,0,0,0,0,0,0,0,0,0,0,0,0,0],"id":31,"left_children":[1,-1,3,5,7,9,11,-1,13,-1,-1,-1,-1,-1,-1],"loss_changes":[9.340285E0,0E0,8.423611E0,1.0362668E1,1.2733018E1,9.2268305E0,1.1677402E1,0E0,4.934757E0,0E0,0E0,0E0,0E0,0E0,0E0],"parents":[2147483647,0,0,2,2,3,3,4,4,5,5,6,6,8,8],"right_children":[2,-1,4,6,8,10,12,-1,14,-1,-1,-1,-1,-1,-1],"split_conditions":[1.781E-1,5.8878805E-2,9.7951E-2,5.1715E-2,-1.67E-2,7.76E-1,6.38E-3,2.5748735E-2,4.697E-1,4.849189E-3,-1.2293792E-2,3.940123E-2,-2.326215E-3,-1.4618409E-3,-5.3361274E-2],"split_indices":[14,0,6,32,11,16,25,0,14,0,0,0,0,0,0],"split_type":[0,0,0,0,0,0,0,0,0,0,0,0,0,0,0],"sum_hessian":[4.448902E2,5.8910413E0,4.3899915E2,4.0514267E2,3.3856483E1,3.388789E2,6.626376E1,8.951036E0,2.4905449E1,2.1731082E2,1.2156809E2,3.5307865E1,3.0955896E1,6.025908E0,1.887954E1],"tree_param":{"num_deleted":"0","num_feature":"45","num_nodes":"15","size_leaf_vector":"1"}},{"base_weights":[-5.71886E-3,1.8476285E-2,-6.425101E-1,-3.360664E-2,3.8073686E-1,5.9595625E-3,-5.0204065E-2,2.6804887E-2,-8.16534E-1,1.1121657E0,1.0276171E-1,-5.9112096E-3,9.55916E-3,-6.658754E-2,-7.710726E-3,1.442153E-2,7.775686E-2,4.1020226E-2,-1.1112674E-2],"categories":[],"categories_nodes":[],"categories_segments":[],"categories_sizes":[],"default_left":[0,0,0,0,0,0,0,0,0,0,0,0,0,0,0,0,0,0,0],"id":32,"left_children":[1,3,5,7,9,-1,-1,11,13,15,17,-1,-1,-1,-1,-1,-1,-1,-1],"loss_changes":[6.8061748E0,8.046821E0,4.5730104E0,1.7673693E1,1.0784728E1,0E0,0E0,8.305433E0,8.928165E0,4.9008865E0,9.499329E0,0E0,0E0,0E0,0E0,0E0,0E0,0E0,0E0],"parents":[2147483647,0,0,1,1,2,2,3,3,4,4,7,7,8,8,9,9,10,10],"right_children":[2,4,6,8,10,-1,-1,12,14,16,18,-1,-1,-1,-1,-1,-1,-1,-1],"split_conditions":[2.919E0,2.024E0,4.20572E-1,1.4159E0,2.4436E-2,5.9595625E-3,-5.0204065E-2,8E-4,1.27E-1,-4.18E-2,-9.5E-3,-5.9112096E-3,9.55916E-3,-6.658754E-2,-7.710726E-3,1.442153E-2,7.775686E-2,4.1020226E-2,-1.1112674E-2],"split_indices":[14,16,13,14,32,0,0,11,20,9,11,0,0,0,0,0,0,0,0],"split_type":[0,0,0,0,0,0,0,0,0,0,0,0,0,0,0,0,0,0,0],"sum_hessian":[4.3998074E2,4.2481085E2,1.5169878E1,3.7220538E2,5.2605476E1,5.0988245E0,1.00710535E1,3.4643948E2,2.5765886E1,1.3660364E1,3.8945114E1,1.8420146E2,1.6223804E2,1.3923832E1,1.1842053E1,5.3544793E0,8.305885E0,1.1664769E1,2.7280344E1],"tree_param":{"num_deleted":"0","num_feature":"45","num_nodes":"19","size_leaf_vector":"1"}},{"base_weights":[3.3105202E-2,3.2254902E-1,-3.936271E-2,-1.5750648E-1,5.241337E-1,-4.3151867E-1,3.223706E-2,-3.8831308E-1,3.2594424E-2,-1.1825179E-1,6.7703235E-1,-1.898539E-1,-1.1317296E0,-4.915809E-2,6.8528354E-2,-4.7816318E-2,-2.4466997E-3,3.6822703E-2,-3.8569167E-2,2.1625457E-3,3.91943E-2,-2.5564654E-2,2.1859422E-2,-7.0863366E-2,-2.6264032E-2,6.2519857E-3,-2.093444E-2],"categories":[],"categories_nodes":[],"categories_segments":[],"categories_sizes":[],"default_left":[0,0,0,0,0,0,0,0,0,0,0,0,0,0,0,0,0,0,0,0,0,0,0,0,0,0,0],"id":33,"left_children":[1,3,5,7,9,11,13,15,-1,17,19,21,23,-1,25,-1,-1,-1,-1,-1,-1,-1,-1,-1,-1,-1,-1],"loss_changes":[9.318938E0,8.690267E0,1.000208E1,5.3109503E0,6.255581E0,9.090412E0,1.1186365E1,4.1350837E0,0E0,7.7912846E0,3.4155178E0,8.705541E0,1.6638641E0,0E0,8.099185E0,0E0,0E0,0E0,0E0,0E0,0E0,0E0,0E0,0E0,0E0,0E0,0E0],"parents":[2147483647,0,0,1,1,2,2,3,3,4,4,5,5,6,6,7,7,9,9,10,10,11,11,12,12,14,14],"right_children":[2,4,6,8,10,12,14,16,-1,18,20,22,24,-1,26,-1,-1,-1,-1,-1,-1,-1,-1,-1,-1,-1,-1],"split_conditions":[3.56068E1,4.801E-1,-8.1E-3,1.1925E-2,3.26872E1,9.796E-1,-7.41E-2,4.02343E1,3.2594424E-2,5.319E-1,1.7628E-2,2.2648E0,-7.362E-3,-4.915809E-2,6.80112E1,-4.7816318E-2,-2.4466997E-3,3.6822703E-2,-3.8569167E-2,2.1625457E-3,3.91943E-2,-2.5564654E-2,2.1859422E-2,-7.0863366E-2,-2.6264032E-2,6.2519857E-3,-2.093444E-2],"split_indices":[8,18,35,41,30,17,10,26,0,15,4,15,2,0,42,0,0,0,0,0,0,0,0,0,0,0,0],"split_type":[0,0,0,0,0,0,0,0,0,0,0,0,0,0,0,0,0,0,0,0,0,0,0,0,0,0,0],"sum_hessian":[4.4267438E2,8.794854E1,3.5472583E2,2.6074104E1,6.1874435E1,5.399043E1,3.007354E2,2.0693422E1,5.380682E0,1.1939338E1,4.99351E1,4.1082653E1,1.2907774E1,9.477323E0,2.912581E2,7.0597553E0,1.3633666E1,5.116358E0,6.82298E0,7.4069586E0,4.252814E1,2.7281832E1,1.3800821E1,7.866807E0,5.040967E0,2.6165286E2,2.9605244E1],"tree_param":{"num_deleted":"0","num_feature":"45","num_nodes":"27","size_leaf_vector":"1"}},{"base_weights":[-2.2518115E-2,5.48801E-2,-3.8199574E-2,1.5008129E-1,-1.2855129E-1,2.3263937E-1,-6.337231E-1,-5.9691995E-2,-9.2821114E-2,4.5357883E-2,7.6796035E-3,-1.36741325E-2,-5.1456284E-2,-1.5193711E-2,6.94315E-3],"categories":[],"categories_nodes":[],"categories_segments":[],"categories_sizes":[],"default_left":[0,0,0,0,0,0,0,0,0,0,0,0,0,0,0],"id":34,"left_children":[1,-1,3,5,7,9,11,-1,13,-1,-1,-1,-1,-1,-1],"loss_changes":[7.7574806E0,0E0,7.4049377E0,9.28727E0,1.107633E1,6.7130113E0,1.6739821E0,0E0,1.4000422E1,0E0,0E0,0E0,0E0,0E0,0E0],"parents":[2147483647,0,0,2,2,3,3,4,4,5,5,6,6,8,8],"right_children":[2,-1,4,6,8,10,12,-1,14,-1,-1,-1,-1,-1,-1],"split_conditions":[1.781E-1,5.48801E-2,-3.9406E-2,2.2E-3,-2.84081E-1,2.671E-1,1.81E-2,-5.9691995E-2,2.9E-3,4.5357883E-2,7.6796035E-3,-1.36741325E-2,-5.1456284E-2,-1.5193711E-2,6.94315E-3],"split_indices":[14,0,1,11,2,14,39,0,11,0,0,0,0,0,0],"split_type":[0,0,0,0,0,0,0,0,0,0,0,0,0,0,0],"sum_hessian":[4.3825424E2,5.098201E0,4.3315604E2,1.4024442E2,2.9291162E2,1.2751632E2,1.2728097E1,8.453692E0,2.8445795E2,1.2277247E1,1.1523907E2,7.5453715E0,5.182725E0,1.4869362E2,1.3576433E2],"tree_param":{"num_deleted":"0","num_feature":"45","num_nodes":"15","size_leaf_vector":"1"}},{"base_weights":[-4.178163E-2,-4.3597353E-1,6.17206E-4,3.6083017E-2,-7.542571E-1,3.1906888E-1,-8.34252E-2,-1.2946548E-1,-1.1133288E0,-4.6169797E-1,5.5464965E-1,9.1558516E-2,-2.2640662E-1,2.429512E-2,-2.7441403E-2,-2.0530334E-2,-7.031126E-2,2.9812539E-2,-4.2892933E-2,3.5453614E-2,-1.7971497E-2,3.1430718E-2,-6.646519E-3,-2.713116E-2,1.66677E-3],"categories":[],"categories_nodes":[],"categories_segments":[],"categories_sizes":[],"default_left":[0,0,0,0,0,0,0,0,0,0,0,0,0,0,0,0,0,0,0,0,0,0,0,0,0],"id":35,"left_children":[1,3,5,-1,7,9,11,13,15,17,19,21,23,-1,-1,-1,-1,-1,-1,-1,-1,-1,-1,-1,-1],"loss_changes":[7.4799523E0,1.6558346E1,1.0867605E1,0E0,7.613432E0,1.5851243E1,8.058969E0,3.815416E0,3.9151878E0,8.977095E0,9.512945E0,1.75874E1,1.4563817E1,0E0,0E0,0E0,0E0,0E0,0E0,0E0,0E0,0E0,0E0,0E0,0E0],"parents":[2147483647,0,0,1,1,2,2,4,4,5,5,6,6,7,7,8,8,9,9,10,10,11,11,12,12],"right_children":[2,4,6,-1,8,10,12,14,16,18,20,22,24,-1,-1,-1,-1,-1,-1,-1,-1,-1,-1,-1,-1],"split_conditions":[1.0004E-1,-9.3E-3,2.22E-2,3.6083017E-2,-5E-4,-2.4E-3,4.59246E1,3.986E-1,4.68043E1,2.2627E-2,6.9E-3,5.934E-1,4.6E-3,2.429512E-2,-2.7441403E-2,-2.0530334E-2,-7.031126E-2,2.9812539E-2,-4.2892933E-2,3.5453614E-2,-1.7971497E-2,3.1430718E-2,-6.646519E-3,-2.713116E-2,1.66677E-3],"split_indices":[12,10,20,0,35,43,8,19,30,5,10,16,11,0,0,0,0,0,0,0,0,0,0,0,0],"split_type":[0,0,0,0,0,0,0,0,0,0,0,0,0,0,0,0,0,0,0,0,0,0,0,0,0],"sum_hessian":[4.4652948E2,4.2462547E1,4.0406693E2,8.883798E0,3.3578747E1,8.3786896E1,3.2028003E2,1.2751484E1,2.0827263E1,1.919861E1,6.458829E1,1.4418408E2,1.7609593E2,5.1037016E0,7.6477823E0,6.833674E0,1.3993589E1,5.0929074E0,1.4105703E1,5.544569E1,9.142597E0,4.197206E1,1.0221203E2,7.892343E1,9.71725E1],"tree_param":{"num_deleted":"0","num_feature":"45","num_nodes":"25","size_leaf_vector":"1"}},{"base_weights":[-4.066235E-2,-4.4646433E-1,2.2877946E-3,3.54173E-2,-7.779526E-1,4.7709095E-1,-8.043398E-2,-1.3299902E-1,-1.1143155E0,6.8430537E-1,-2.768258E-1,1.7913339E-1,-1.7102945E-1,-5.7352502E-2,3.7734192E-2,-2.6262118E-2,-6.357101E-2,5.3481292E-2,2.1531334E-2,-4.9941268E-2,1.822259E-2,2.4563331E-2,-9.983382E-3,4.659676E-2,-1.0231673E-2],"categories":[],"categories_nodes":[],"categories_segments":[],"categories_sizes":[],"default_left":[0,0,0,0,0,0,0,0,0,0,0,0,0,0,0,0,0,0,0,0,0,0,0,0,0],"id":36,"left_children":[1,3,5,-1,7,9,11,13,15,17,19,21,23,-1,-1,-1,-1,-1,-1,-1,-1,-1,-1,-1,-1],"loss_changes":[7.62116E0,1.6571484E1,1.5605798E1,0E0,7.0091953E0,9.399148E0,7.988358E0,1.2067526E1,1.3264198E0,4.0876617E0,6.578356E0,1.0507732E1,9.507139E0,0E0,0E0,0E0,0E0,0E0,0E0,0E0,0E0,0E0,0E0,0E0,0E0],"parents":[2147483647,0,0,1,1,2,2,4,4,5,5,6,6,7,7,8,8,9,9,10,10,11,11,12,12],"right_children":[2,4,6,-1,8,10,12,14,16,18,20,22,24,-1,-1,-1,-1,-1,-1,-1,-1,-1,-1,-1,-1],"split_conditions":[1.0004E-1,-9.3E-3,2.5463E-2,3.54173E-2,4.63417E1,2.7466E-2,-2.1871E-2,1.6711E-2,-1.1E-3,5.108E-1,4.6602E1,-1.4E-3,1.2736E-2,-5.7352502E-2,3.7734192E-2,-2.6262118E-2,-6.357101E-2,5.3481292E-2,2.1531334E-2,-4.9941268E-2,1.822259E-2,2.4563331E-2,-9.983382E-3,4.659676E-2,-1.0231673E-2],"split_indices":[12,10,6,0,34,44,0,36,27,16,42,11,4,0,0,0,0,0,0,0,0,0,0,0,0],"split_type":[0,0,0,0,0,0,0,0,0,0,0,0,0,0,0,0,0,0,0,0,0,0,0,0,0],"sum_hessian":[4.3620398E2,4.0849968E1,3.9535403E2,8.857189E0,3.1992779E1,5.7952595E1,3.3740143E2,1.1444365E1,2.0548414E1,4.5530773E1,1.24218235E1,8.704093E1,2.5036049E2,5.2055645E0,6.2388E0,5.240843E0,1.5307571E1,1.679852E1,2.8732254E1,5.5808825E0,6.840941E0,4.7556953E1,3.948398E1,6.611819E0,2.4374867E2],"tree_param":{"num_deleted":"0","num_feature":"45","num_nodes":"25","size_leaf_vector":"1"}},{"base_weights":[-4.0155775E-3,-3.3146832E-2,8.454783E-1,-4.0071863E-3,-8.450593E-1,6.861537E-2,8.530575E-3,1.5036044E-2,-5.8215357E-2,-8.156475E-3,-6.2352467E-2,-6.832525E-4,4.3605473E-2],"categories":[],"categories_nodes":[],"categories_segments":[],"categories_sizes":[],"default_left":[0,0,0,0,0,0,0,0,0,0,0,0,0],"id":37,"left_children":[1,3,5,7,9,-1,-1,11,-1,-1,-1,-1,-1],"loss_changes":[1.0833873E1,1.0007632E1,4.9266195E0,9.065431E0,3.814108E0,0E0,0E0,9.946452E0,0E0,0E0,0E0,0E0,0E0],"parents":[2147483647,0,0,1,1,2,2,3,3,4,4,7,7],"right_children":[2,4,6,8,10,-1,-1,12,-1,-1,-1,-1,-1],"split_conditions":[7.62039E1,2.64E-2,6.75125E1,1.31308E-1,3.377E-1,6.861537E-2,8.530575E-3,1.15988E-1,-5.8215357E-2,-8.156475E-3,-6.2352467E-2,-6.832525E-4,4.3605473E-2],"split_indices":[7,39,42,6,19,0,0,32,0,0,0,0,0],"split_type":[0,0,0,0,0,0,0,0,0,0,0,0,0],"sum_hessian":[4.3565598E2,4.2214072E2,1.3515272E1,4.0848508E2,1.3655647E1,7.009734E0,6.505538E0,4.0286023E2,5.6248355E0,5.5857954E0,8.069852E0,3.9075882E2,1.2101411E1],"tree_param":{"num_deleted":"0","num_feature":"45","num_nodes":"13","size_leaf_vector":"1"}},{"base_weights":[-6.6645173E-3,1.8855447E-2,-7.0718855E-1,-3.653061E-2,4.04618E-1,-1.6810885E-3,-5.192056E-2,1.8830348E-2,-7.6324993E-1,1.341227E0,1.0605469E-1,-8.2304905E-4,4.05071E-2,-6.040082E-2,-1.4588357E-3,3.1620014E-2,8.6695746E-2,4.320667E-2,-1.2907932E-2],"categories":[],"categories_nodes":[],"categories_segments":[],"categories_sizes":[],"default_left":[0,0,0,0,0,0,0,0,0,0,0,0,0,0,0,0,0,0,0],"id":38,"left_children":[1,3,5,7,9,-1,-1,11,13,15,17,-1,-1,-1,-1,-1,-1,-1,-1],"loss_changes":[7.800438E0,9.015118E0,3.3866673E0,1.4871121E1,1.4670247E1,0E0,0E0,9.623213E0,8.507096E0,2.4435062E0,1.1612961E1,0E0,0E0,0E0,0E0,0E0,0E0,0E0,0E0],"parents":[2147483647,0,0,1,1,2,2,3,3,4,4,7,7,8,8,9,9,10,10],"right_children":[2,4,6,8,10,-1,-1,12,14,16,18,-1,-1,-1,-1,-1,-1,-1,-1],"split_conditions":[2.919E0,2.024E0,4.20572E-1,1.4159E0,2.376E-2,-1.6810885E-3,-5.192056E-2,8.1204E-2,8.32E-2,5.5E-3,-9.3E-3,-8.2304905E-4,4.05071E-2,-6.040082E-2,-1.4588357E-3,3.1620014E-2,8.6695746E-2,4.320667E-2,-1.2907932E-2],"split_indices":[14,16,13,14,32,0,0,37,10,43,11,0,0,0,0,0,0,0,0],"split_type":[0,0,0,0,0,0,0,0,0,0,0,0,0,0,0,0,0,0,0],"sum_hessian":[4.3458493E2,4.202484E2,1.4336491E1,3.68278E2,5.1970406E1,5.0890408E0,9.24745E0,3.4311392E2,2.5164085E1,1.1718034E1,4.0252373E1,3.2940228E2,1.3711657E1,1.5267841E1,9.896243E0,5.1080723E0,6.609961E0,1.261751E1,2.7634863E1],"tree_param":{"num_deleted":"0","num_feature":"45","num_nodes":"19","size_leaf_vector":"1"}},{"base_weights":[2.0385268E-3,3.5804622E-2,-4.5706254E-1,8.072311E-3,6.0909206E-1,-1.0416023E0,1.8268287E-1,1.3261482E-1,-1.5548168E-1,6.586735E-2,2.0227139E-1,-2.108748E-2,-7.108971E-2,3.0146113E-2,-2.6253153E-2,2.8159423E-2,2.5214995E-3,-3.0636951E-2,-8.883878E-4,-2.122122E-2,4.6712738E-2],"categories":[],"categories_nodes":[],"categories_segments":[],"categories_sizes":[],"default_left":[0,0,0,0,0,0,0,0,0,0,0,0,0,0,0,0,0,0,0,0,0],"id":39,"left_children":[1,3,5,7,9,11,13,15,17,-1,19,-1,-1,-1,-1,-1,-1,-1,-1,-1,-1],"loss_changes":[6.575925E0,6.2762895E0,1.1058157E1,7.7174754E0,4.98227E0,3.0143414E0,4.6965632E0,7.581658E0,1.0304249E1,0E0,6.246148E0,0E0,0E0,0E0,0E0,0E0,0E0,0E0,0E0,0E0,0E0],"parents":[2147483647,0,0,1,1,2,2,3,3,4,4,5,5,6,6,7,7,8,8,10,10],"right_children":[2,4,6,8,10,12,14,16,18,-1,20,-1,-1,-1,-1,-1,-1,-1,-1,-1,-1],"split_conditions":[1.05385E-1,8.15124E1,8.03842E-1,4.93052E1,2.9667E-2,-1.0492E-2,6.25879E1,3.508E-1,2.1444E-2,6.586735E-2,5.9735E-2,-2.108748E-2,-7.108971E-2,3.0146113E-2,-2.6253153E-2,2.8159423E-2,2.5214995E-3,-3.0636951E-2,-8.883878E-4,-2.122122E-2,4.6712738E-2],"split_indices":[6,8,12,30,4,29,26,15,44,0,6,0,0,0,0,0,0,0,0,0,0],"split_type":[0,0,0,0,0,0,0,0,0,0,0,0,0,0,0,0,0,0,0,0,0],"sum_hessian":[4.2214145E2,3.940796E2,2.8061865E1,3.7686322E2,1.721637E1,1.4335381E1,1.3726485E1,2.1405473E2,1.6280847E2,5.4646063E0,1.1751763E1,6.2518597E0,8.083521E0,8.70551E0,5.020975E0,3.3370586E1,1.8068416E2,3.688576E1,1.25922714E2,6.557585E0,5.1941786E0],"tree_param":{"num_deleted":"0","num_feature":"45","num_nodes":"21","size_leaf_vector":"1"}},{"base_weights":[2.9535618E-2,6.332867E-2,-4.5559955E-1,-3.6398673E-3,3.7498042E-1,2.8839681E-2,-7.188514E-1,2.1739336E-2,-5.3534664E-2,6.6534513E-1,2.0278076E-2,-1.0786353E0,2.2932522E-2,-1.4665416E-3,4.2758383E-2,4.3048542E-2,8.19405E-4,2.8151616E-2,-2.4600798E-2,-6.4892024E-2,-2.6989559E-2],"categories":[],"categories_nodes":[],"categories_segments":[],"categories_sizes":[],"default_left":[0,0,0,0,0,0,0,0,0,0,0,0,0,0,0,0,0,0,0,0,0],"id":40,"left_children":[1,3,5,7,9,-1,11,13,-1,15,17,19,-1,-1,-1,-1,-1,-1,-1,-1,-1],"loss_changes":[7.073599E0,8.404071E0,8.053016E0,9.024561E0,7.3217125E0,0E0,1.0170727E1,1.3885507E1,0E0,4.9536057E0,9.477672E0,1.4010715E0,0E0,0E0,0E0,0E0,0E0,0E0,0E0,0E0,0E0],"parents":[2147483647,0,0,1,1,2,2,3,3,4,4,6,6,7,7,9,9,10,10,11,11],"right_children":[2,4,6,8,10,-1,12,14,-1,16,18,20,-1,-1,-1,-1,-1,-1,-1,-1,-1],"split_conditions":[1.05385E-1,5.1715E-2,-1.68707E-1,7.14981E1,6.38E-3,2.8839681E-2,1.33056E-1,6.44446E1,-5.3534664E-2,4.092E-2,6.737E-1,2.6116E-2,2.2932522E-2,-1.4665416E-3,4.2758383E-2,4.3048542E-2,8.19405E-4,2.8151616E-2,-2.4600798E-2,-6.4892024E-2,-2.6989559E-2],"split_indices":[6,32,1,42,25,0,32,26,0,0,16,37,0,0,0,0,0,0,0,0,0],"split_type":[0,0,0,0,0,0,0,0,0,0,0,0,0,0,0,0,0,0,0,0,0],"sum_hessian":[4.2870972E2,4.016046E2,2.7105103E1,3.3138425E2,7.022038E1,5.265274E0,2.1839828E1,3.2464246E2,6.741793E0,3.813044E1,3.2089943E1,1.6792782E1,5.047047E0,3.0680698E2,1.7835472E1,2.9047485E1,9.082956E0,1.5533647E1,1.6556295E1,1.0935564E1,5.857218E0],"tree_param":{"num_deleted":"0","num_feature":"45","num_nodes":"21","size_leaf_vector":"1"}},{"base_weights":[3.1984318E-2,3.6037672E-1,-2.4921117E-2,1.02052234E-1,9.2827636E-1,5.9480064E-2,-3.0042067E-1,4.1006356E-1,-4.2494148E-1,1.262824E0,6.4214724E-3,5.7315197E-2,3.156342E-2,-5.373138E-1,-8.6463526E-2,-1.7130714E-2,3.1600475E-2,1.5823955E-2,-4.4135273E-2,7.7919774E-2,3.3838637E-2,-3.3789002E-3,1.4276802E-2,-8.8826595E-3,-4.6581548E-2,8.077669E-3,-3.7851404E-2],"categories":[],"categories_nodes":[],"categories_segments":[],"categories_sizes":[],"default_left":[0,0,0,0,0,0,0,0,0,0,0,0,0,0,0,0,0,0,0,0,0,0,0,0,0,0,0],"id":41,"left_children":[1,3,5,7,9,11,13,15,17,19,-1,-1,21,23,25,-1,-1,-1,-1,-1,-1,-1,-1,-1,-1,-1,-1],"loss_changes":[8.082101E0,9.275038E0,8.601328E0,7.4824877E0,5.148247E0,8.5625515E0,4.349628E0,5.048481E0,6.0827236E0,1.3495598E0,0E0,0E0,7.002467E0,5.644703E0,7.899806E0,0E0,0E0,0E0,0E0,0E0,0E0,0E0,0E0,0E0,0E0,0E0,0E0],"parents":[2147483647,0,0,1,1,2,2,3,3,4,4,5,5,6,6,7,7,8,8,9,9,12,12,13,13,14,14],"right_children":[2,4,6,8,10,12,14,16,18,20,-1,-1,22,24,26,-1,-1,-1,-1,-1,-1,-1,-1,-1,-1,-1,-1],"split_conditions":[2.211E-1,4.9926E-2,2.1098E-2,9.692E-3,5.7E-3,-4.23E-2,1.9E-3,-1.5598E-2,4.85227E1,7.389E-2,6.4214724E-3,5.7315197E-2,4E-3,8.796E-1,5.1567E-2,-1.7130714E-2,3.1600475E-2,1.5823955E-2,-4.4135273E-2,7.7919774E-2,3.3838637E-2,-3.3789002E-3,1.4276802E-2,-8.8826595E-3,-4.6581548E-2,8.077669E-3,-3.7851404E-2],"split_indices":[19,6,25,37,11,35,11,25,26,6,0,0,11,17,44,0,0,0,0,0,0,0,0,0,0,0,0],"split_type":[0,0,0,0,0,0,0,0,0,0,0,0,0,0,0,0,0,0,0,0,0,0,0,0,0,0,0],"sum_hessian":[4.310107E2,6.286924E1,3.6814148E2,4.4023613E1,1.8845627E1,2.8240796E2,8.573352E1,2.7924498E1,1.6099115E1,1.287968E1,5.9659476E0,6.069122E0,2.7633884E2,3.9968792E1,4.576473E1,6.2352877E0,2.168921E1,6.263323E0,9.835792E0,7.458757E0,5.4209228E0,1.9928093E2,7.7057915E1,2.166158E1,1.8307213E1,3.3962383E1,1.1802344E1],"tree_param":{"num_deleted":"0","num_feature":"45","num_nodes":"27","size_leaf_vector":"1"}},{"base_weights":[-2.5575956E-2,4.3324154E-2,-4.7565214E-2,2.3305713E-1,-1.1466496E-1,3.3814248E-1,-4.0855635E-2,-7.6952344E-1,-6.792756E-2,4.336278E-2,5.0486946E-3,-5.1560514E-3,-5.5264004E-2,5.1296648E-2,-4.6237377E-3],"categories":[],"categories_nodes":[],"categories_segments":[],"categories_sizes":[],"default_left":[0,0,0,0,0,0,0,0,0,0,0,0,0,0,0],"id":42,"left_children":[1,-1,3,5,7,9,-1,11,13,-1,-1,-1,-1,-1,-1],"loss_changes":[8.541777E0,0E0,8.0082035E0,9.339424E0,1.0438135E1,9.369549E0,0E0,4.9731607E0,8.714548E0,0E0,0E0,0E0,0E0,0E0,0E0],"parents":[2147483647,0,0,2,2,3,3,4,4,5,5,7,7,8,8],"right_children":[2,-1,4,6,8,10,-1,12,14,-1,-1,-1,-1,-1,-1],"split_conditions":[-4.54E-2,4.3324154E-2,2.5389E-2,2.6773E-2,2.0737E-2,4.24645E1,-4.0855635E-2,4.36979E1,1.2342E-2,4.336278E-2,5.0486946E-3,-5.1560514E-3,-5.5264004E-2,5.1296648E-2,-4.6237377E-3],"split_indices":[31,0,6,5,5,42,0,30,4,0,0,0,0,0,0],"split_type":[0,0,0,0,0,0,0,0,0,0,0,0,0,0,0],"sum_hessian":[4.323547E2,9.477252E0,4.2287744E2,8.112517E1,3.417523E2,7.436212E1,6.763042E0,2.1735912E1,3.200164E2,2.2193237E1,5.2168884E1,7.7201853E0,1.4015726E1,6.1284595E0,3.138879E2],"tree_param":{"num_deleted":"0","num_feature":"45","num_nodes":"15","size_leaf_vector":"1"}},{"base_weights":[2.0666032E-3,7.2809666E-1,-1.6920425E-2,1.0944472E-2,5.5738132E-2,8.049776E-3,-8.1764114E-1,4.5507062E-2,-5.138154E-1,-2.4460873E-2,-4.878888E-2,8.663768E-4,4.5844376E-2,-5.1137865E-2,1.3198917E-2],"categories":[],"categories_nodes":[],"categories_segments":[],"categories_sizes":[],"default_left":[0,0,0,0,0,0,0,0,0,0,0,0,0,0,0],"id":43,"left_children":[1,3,5,-1,-1,7,9,11,13,-1,-1,-1,-1,-1,-1],"loss_changes":[6.031739E0,1.951572E0,8.534259E0,0E0,0E0,8.127847E0,1.9302177E-1,9.505437E0,1.1293173E1,0E0,0E0,0E0,0E0,0E0,0E0],"parents":[2147483647,0,0,1,1,2,2,5,5,6,6,7,7,8,8],"right_children":[2,4,6,-1,-1,8,10,12,14,-1,-1,-1,-1,-1,-1],"split_conditions":[-4.54E-2,2.97445E-1,2.919E0,1.0944472E-2,5.5738132E-2,1.05385E-1,3.1963E-2,7.62039E1,8.69494E-1,-2.4460873E-2,-4.878888E-2,8.663768E-4,4.5844376E-2,-5.1137865E-2,1.3198917E-2],"split_indices":[31,12,14,0,0,6,36,26,12,0,0,0,0,0,0],"split_type":[0,0,0,0,0,0,0,0,0,0,0,0,0,0,0],"sum_hessian":[4.3565955E2,1.0151137E1,4.2550842E2,5.0572495E0,5.093888E0,4.1360037E2,1.190804E1,3.8675363E2,2.684675E1,5.2006903E0,6.7073493E0,3.7562616E2,1.1127471E1,1.6037691E1,1.0809057E1],"tree_param":{"num_deleted":"0","num_feature":"45","num_nodes":"15","size_leaf_vector":"1"}},{"base_weights":[2.08622E-3,7.9183483E-1,-2.0235129E-2,6.842827E-2,3.5274096E-3,-3.6213678E-1,1.958319E-2,3.7095025E-1,-1.0460613E0,2.847878E-1,-7.470249E-2,-3.978985E-2,5.674394E-2,-2.313119E-2,-6.974286E-2,3.128029E-2,4.4695367E-3,1.3425486E-2,-7.7309124E-3],"categories":[],"categories_nodes":[],"categories_segments":[],"categories_sizes":[],"default_left":[0,0,0,0,0,0,0,0,0,0,0,0,0,0,0,0,0,0,0],"id":44,"left_children":[1,3,5,-1,-1,7,9,11,13,15,17,-1,-1,-1,-1,-1,-1,-1,-1],"loss_changes":[7.501221E0,4.768957E0,5.642143E0,0E0,0E0,2.2061644E1,9.315361E0,2.015764E1,3.9590664E0,6.449924E0,7.584132E0,0E0,0E0,0E0,0E0,0E0,0E0,0E0,0E0],"parents":[2147483647,0,0,1,1,2,2,5,5,6,6,7,7,8,8,9,9,10,10],"right_children":[2,4,6,-1,-1,8,10,12,14,16,18,-1,-1,-1,-1,-1,-1,-1,-1],"split_conditions":[1.92E-1,1.4E-3,1.0004E-1,6.842827E-2,3.5274096E-3,-4E-3,2.3521E-2,1.899E-2,-5E-4,2.6382E-2,-3.16E-2,-3.978985E-2,5.674394E-2,-2.313119E-2,-6.974286E-2,3.128029E-2,4.4695367E-3,1.3425486E-2,-7.7309124E-3],"split_indices":[15,11,12,0,0,9,40,5,35,6,0,0,0,0,0,0,0,0,0],"split_type":[0,0,0,0,0,0,0,0,0,0,0,0,0,0,0,0,0,0,0],"sum_hessian":[4.2361374E2,1.0696266E1,4.1291748E2,5.4450703E0,5.2511964E0,4.2228237E1,3.7068924E2,2.0602442E1,2.1625793E1,9.669296E1,2.7399628E2,8.135454E0,1.2466989E1,8.961715E0,1.2664079E1,3.4432663E1,6.22603E1,5.1303696E1,2.2269258E2],"tree_param":{"num_deleted":"0","num_feature":"45","num_nodes":"19","size_leaf_vector":"1"}},{"base_weights":[3.8505534E-3,7.030101E-1,-2.223464E-2,-2.491657E-3,5.782309E-2,1.4710188E-1,-1.01359524E-1,-2.9541674E-1,3.4735718E-1,-2.6695502E-1,9.343673E-2,3.774103E-2,-2.472019E-2,2.9657844E-2,2.786406E-4,-8.312335E-3,-3.3433177E-2,1.1747299E-2,-1.7730515E-2],"categories":[],"categories_nodes":[],"categories_segments":[],"categories_sizes":[],"default_left":[0,0,0,0,0,0,0,0,0,0,0,0,0,0,0,0,0,0,0],"id":45,"left_children":[1,3,5,-1,-1,7,9,11,13,15,17,-1,-1,-1,-1,-1,-1,-1,-1],"loss_changes":[7.863796E0,5.3518543E0,5.5863423E0,0E0,0E0,1.1873489E1,9.185678E0,9.134432E0,7.71776E0,6.109206E0,8.403662E0,0E0,0E0,0E0,0E0,0E0,0E0,0E0,0E0],"parents":[2147483647,0,0,1,1,2,2,5,5,6,6,7,7,8,8,9,9,10,10],"right_children":[2,4,6,-1,-1,8,10,12,14,16,18,-1,-1,-1,-1,-1,-1,-1,-1],"split_conditions":[-8.1779E-2,-1.19818E-1,2.376E-2,-2.491657E-3,5.782309E-2,1.9145E-2,4.144E-2,-4.9001E-2,2.8807E-2,7E-3,1.1181E0,3.774103E-2,-2.472019E-2,2.9657844E-2,2.786406E-4,-8.312335E-3,-3.3433177E-2,1.1747299E-2,-1.7730515E-2],"split_indices":[25,25,32,0,0,5,36,1,44,35,16,0,0,0,0,0,0,0,0],"split_type":[0,0,0,0,0,0,0,0,0,0,0,0,0,0,0,0,0,0,0],"sum_hessian":[4.293262E2,1.45083885E1,4.1481784E2,5.7883625E0,8.720026E0,1.3182907E2,2.8298874E2,4.0923115E1,9.090596E1,1.5275874E2,1.3023E2,6.0736375E0,3.4849476E1,5.2450134E1,3.8455826E1,1.2326905E2,2.9489698E1,9.933279E1,3.0897215E1],"tree_param":{"num_deleted":"0","num_feature":"45","num_nodes":"19","size_leaf_vector":"1"}},{"base_weights":[-1.0559191E-2,4.2941127E-2,-2.7845241E-2,-3.0154946E-1,4.103921E-2,-4.7313035E-2,-8.3769083E-1,1.210845E-1,-2.1621594E-1,-2.8255677E-2,1.6304892E-2,-5.5817295E-2,-2.6062767E-3,9.456587E-4,3.9796542E-2,-2.7947724E-2,2.0758212E-3],"categories":[],"categories_nodes":[],"categories_segments":[],"categories_sizes":[],"default_left":[0,0,0,0,0,0,0,0,0,0,0,0,0,0,0,0,0],"id":46,"left_children":[1,-1,3,5,7,9,11,13,15,-1,-1,-1,-1,-1,-1,-1,-1],"loss_changes":[6.4985437E0,0E0,7.995181E0,1.1580975E1,7.0099487E0,1.1570854E1,5.9316444E0,1.7864058E1,7.164443E0,0E0,0E0,0E0,0E0,0E0,0E0,0E0,0E0],"parents":[2147483647,0,0,2,2,3,3,4,4,5,5,6,6,7,7,8,8],"right_children":[2,-1,4,6,8,10,12,14,16,-1,-1,-1,-1,-1,-1,-1,-1],"split_conditions":[-6.19E-2,4.2941127E-2,-6.4E-3,4.88207E1,7.9E-3,3.52E-2,-2.8E-3,4.8916E-2,7.65E-2,-2.8255677E-2,1.6304892E-2,-5.5817295E-2,-2.6062767E-3,9.456587E-4,3.9796542E-2,-2.7947724E-2,2.0758212E-3],"split_indices":[31,0,39,8,35,40,31,36,20,0,0,0,0,0,0,0,0],"split_type":[0,0,0,0,0,0,0,0,0,0,0,0,0,0,0,0,0],"sum_hessian":[4.2983267E2,7.4307117E0,4.2240195E2,8.425341E1,3.3814856E2,5.7890278E1,2.6363127E1,2.583057E2,7.984285E1,2.4040487E1,3.3849792E1,1.9149397E1,7.21373E0,2.252335E2,3.3072193E1,3.3768272E1,4.607458E1],"tree_param":{"num_deleted":"0","num_feature":"45","num_nodes":"17","size_leaf_vector":"1"}},{"base_weights":[1.7072503E-3,2.0066153E-1,-9.145939E-2,7.970586E-2,7.2860426E-1,-8.853187E-1,-5.5586208E-2,4.3159136E-1,-1.3106912E-1,-2.1666985E-2,1.0747839E0,-6.106467E-3,-7.196852E-2,1.981179E-2,-4.5166868E-1,3.28519E-2,-1.1129882E-2,-5.3295888E-2,1.7026077E-4,2.7862666E-2,8.277523E-2,-1.7465925E-3,4.3302428E-2,1.8687302E-2,-3.8916625E-2],"categories":[],"categories_nodes":[],"categories_segments":[],"categories_sizes":[],"default_left":[0,0,0,0,0,0,0,0,0,0,0,0,0,0,0,0,0,0,0,0,0,0,0,0,0],"id":47,"left_children":[1,3,5,7,9,11,13,15,17,-1,19,-1,-1,21,23,-1,-1,-1,-1,-1,-1,-1,-1,-1,-1],"loss_changes":[7.9571314E0,8.684618E0,8.277349E0,8.401419E0,1.0681559E1,5.1411133E0,8.394977E0,6.3967075E0,8.945789E0,0E0,5.0446415E0,0E0,0E0,1.1003076E1,1.2410443E1,0E0,0E0,0E0,0E0,0E0,0E0,0E0,0E0,0E0,0E0],"parents":[2147483647,0,0,1,1,2,2,3,3,4,4,5,5,6,6,7,7,8,8,10,10,13,13,14,14],"right_children":[2,4,6,8,10,12,14,16,18,-1,20,-1,-1,22,24,-1,-1,-1,-1,-1,-1,-1,-1,-1,-1],"split_conditions":[4.833E-1,4.421E-1,4.882E-1,2.7213E-2,-2.37E-2,2.34626E-1,6.8943E-2,3.186E-2,2.9329E-2,-2.1666985E-2,2.5402E-2,-6.106467E-3,-7.196852E-2,6.1105E-2,-1.01641E-1,3.28519E-2,-1.1129882E-2,-5.3295888E-2,1.7026077E-4,2.7862666E-2,8.277523E-2,-1.7465925E-3,4.3302428E-2,1.8687302E-2,-3.8916625E-2],"split_indices":[15,16,14,40,9,13,6,4,40,0,40,0,0,6,1,0,0,0,0,0,0,0,0,0,0],"split_type":[0,0,0,0,0,0,0,0,0,0,0,0,0,0,0,0,0,0,0,0,0,0,0,0,0],"sum_hessian":[4.2729202E2,1.3590903E2,2.91383E2,1.115118E2,2.439722E1,1.1574081E1,2.798089E2,4.138034E1,7.013146E1,5.542425E0,1.8854795E1,5.381566E0,6.1925154E0,2.3586061E2,4.3948288E1,3.0771507E1,1.0608833E1,7.9484305E0,6.2183037E1,1.1005989E1,7.8488054E0,2.2243018E2,1.3430441E1,1.24203615E1,3.1527927E1],"tree_param":{"num_deleted":"0","num_feature":"45","num_nodes":"25","size_leaf_vector":"1"}},{"base_weights":[-5.3897672E-3,-3.8796797E-1,3.1621527E-2,1.914631E-1,-9.3660736E-1,6.3827413E-1,-1.9047733E-2,-4.659429E-2,5.202272E-2,-1.9241763E-2,-6.563833E-2,1.07406E0,2.2310375E-1,1.297501E-1,-1.6396758E-1,2.2084972E-2,7.0438236E-2,-2.599417E-2,2.9019618E-2,4.8182175E-2,2.5974542E-3,-4.593112E-2,-4.3990095E-3],"categories":[],"categories_nodes":[],"categories_segments":[],"categories_sizes":[],"default_left":[0,0,0,0,0,0,0,0,0,0,0,0,0,0,0,0,0,0,0,0,0,0,0],"id":48,"left_children":[1,3,5,7,9,11,13,-1,-1,-1,-1,15,17,19,21,-1,-1,-1,-1,-1,-1,-1,-1],"loss_changes":[6.1465592E0,1.2351381E1,1.2182578E1,1.9521465E1,3.6120243E0,5.2874947E0,7.921871E0,0E0,0E0,0E0,0E0,2.4768639E0,4.789833E0,1.1714294E1,1.0588192E1,0E0,0E0,0E0,0E0,0E0,0E0,0E0,0E0],"parents":[2147483647,0,0,1,1,2,2,3,3,4,4,5,5,6,6,11,11,12,12,13,13,14,14],"right_children":[2,4,6,8,10,12,14,-1,-1,-1,-1,16,18,20,22,-1,-1,-1,-1,-1,-1,-1,-1],"split_conditions":[1.0004E-1,-4E-3,1.21081E-1,1.899E-2,-5E-4,4.6613E1,5.854E-1,-4.659429E-2,5.202272E-2,-1.9241763E-2,-6.563833E-2,-1.2E-3,1.8994E-2,2.2201E-2,4.11E-2,2.2084972E-2,7.0438236E-2,-2.599417E-2,2.9019618E-2,4.8182175E-2,2.5974542E-3,-4.593112E-2,-4.3990095E-3],"split_indices":[12,9,12,5,35,30,16,0,0,0,0,11,44,6,20,0,0,0,0,0,0,0,0],"split_type":[0,0,0,0,0,0,0,0,0,0,0,0,0,0,0,0,0,0,0,0,0,0,0],"sum_hessian":[4.3222137E2,3.7289104E1,3.9493225E2,1.845226E1,1.8836845E1,2.9549177E1,3.653831E2,7.900723E0,1.0551536E1,8.456066E0,1.0380779E1,1.36423645E1,1.5906813E1,1.8033109E2,1.8505199E2,5.5245175E0,8.117847E0,5.017586E0,1.0889227E1,1.441722E1,1.6591386E2,1.5914172E1,1.6913782E2],"tree_param":{"num_deleted":"0","num_feature":"45","num_nodes":"23","size_leaf_vector":"1"}},{"base_weights":[-1.5969997E-2,7.133508E-1,-3.755139E-2,5.1862206E-2,1.1099524E-2,-7.8706944E-1,-9.93733E-3,-7.2639654E-3,-5.5129625E-2,6.25974E-2,-2.3000446E-1,4.799529E-3,-4.3616522E-2,2.3008712E-2,-1.715129E-2],"categories":[],"categories_nodes":[],"categories_segments":[],"categories_sizes":[],"default_left":[0,0,0,0,0,0,0,0,0,0,0,0,0,0,0],"id":49,"left_children":[1,3,5,-1,-1,7,9,-1,-1,11,13,-1,-1,-1,-1],"loss_changes":[6.8307567E0,1.7549548E0,8.701684E0,0E0,0E0,2.865121E0,6.5089912E0,0E0,0E0,9.661824E0,8.0421295E0,0E0,0E0,0E0,0E0],"parents":[2147483647,0,0,1,1,2,2,5,5,6,6,9,9,10,10],"right_children":[2,4,6,-1,-1,8,10,-1,-1,12,14,-1,-1,-1,-1],"split_conditions":[-9.91E-2,-2.0916E-2,-7.38E-2,5.1862206E-2,1.1099524E-2,2.979E-1,1.45E-2,-7.2639654E-3,-5.5129625E-2,2.14E-2,2.211E-1,4.799529E-3,-4.3616522E-2,2.3008712E-2,-1.715129E-2],"split_indices":[9,41,10,0,0,19,10,0,0,27,19,0,0,0,0],"split_type":[0,0,0,0,0,0,0,0,0,0,0,0,0,0,0],"sum_hessian":[4.3127924E2,1.1473979E1,4.1980527E2,6.2458773E0,5.2281017E0,1.3939807E1,4.0586545E2,5.0758033E0,8.864004E0,3.0579135E2,1.0007411E2,2.961123E2,9.6790285E0,1.3649597E1,8.6424515E1],"tree_param":{"num_deleted":"0","num_feature":"45","num_nodes":"15","size_leaf_vector":"1"}},{"base_weights":[-8.1695225E-3,5.0865626E-1,-3.896648E-2,-2.6884794E-3,8.71999E-1,-3.7357772E-3,-6.224416E-1,4.6681096E-3,6.410774E-2,-3.0677801E-2,5.371467E-1,1.2405849E-2,-8.8273114E-1,-2.6283704E-4,-4.4354383E-2,4.2512394E-2,-1.0138995E-2,-6.3431524E-2,-8.951655E-3],"categories":[],"categories_nodes":[],"categories_segments":[],"categories_sizes":[],"default_left":[0,0,0,0,0,0,0,0,0,0,0,0,0,0,0,0,0,0,0],"id":50,"left_children":[1,3,5,-1,7,9,11,-1,-1,13,15,-1,17,-1,-1,-1,-1,-1,-1],"loss_changes":[6.8170114E0,4.9692144E0,8.301601E0,0E0,4.5722666E0,5.5826483E0,5.4299803E0,0E0,0E0,7.937067E0,4.383611E0,0E0,4.6399307E0,0E0,0E0,0E0,0E0,0E0,0E0],"parents":[2147483647,0,0,1,1,2,2,4,4,5,5,6,6,9,9,10,10,12,12],"right_children":[2,4,6,-1,8,10,12,-1,-1,14,16,-1,18,-1,-1,-1,-1,-1,-1],"split_conditions":[-6.4071E-2,-3.3E-3,1.05385E-1,-2.6884794E-3,5.2165E-2,8.15124E1,-1.75E-2,4.6681096E-3,6.410774E-2,2.8E-2,4.936E-1,1.2405849E-2,1.15988E-1,-2.6283704E-4,-4.4354383E-2,4.2512394E-2,-1.0138995E-2,-6.3431524E-2,-8.951655E-3],"split_indices":[25,39,6,0,4,8,11,0,0,39,18,0,40,0,0,0,0,0,0],"split_type":[0,0,0,0,0,0,0,0,0,0,0,0,0,0,0,0,0,0,0],"sum_hessian":[4.2604874E2,2.3087328E1,4.029614E2,9.395638E0,1.369169E1,3.8096484E2,2.1996567E1,5.1474433E0,8.544247E0,3.637874E2,1.717742E1,5.073757E0,1.692281E1,3.5427744E2,9.509981E0,1.1965219E1,5.2122E0,1.0410832E1,6.5119762E0],"tree_param":{"num_deleted":"0","num_feature":"45","num_nodes":"19","size_leaf_vector":"1"}},{"base_weights":[-3.1609356E-4,5.406726E-2,-1.6696956E-2,-9.890004E-2,2.0823489E-1,4.5754947E-2,-4.0592673E-1,-3.833855E-1,4.117272E-1,-4.9915705E-3,2.38675E-2,1.5056799E-2,-2.5310084E-2,5.2581592E-3,-5.080961E-2,-1.689073E-2,2.9630005E-2],"categories":[],"categories_nodes":[],"categories_segments":[],"categories_sizes":[],"default_left":[0,0,0,0,0,0,0,0,0,0,0,0,0,0,0,0,0],"id":51,"left_children":[1,-1,3,5,7,9,11,13,15,-1,-1,-1,-1,-1,-1,-1,-1],"loss_changes":[7.531292E0,0E0,7.762235E0,1.3667061E1,1.3687614E1,1.3229618E1,7.137541E0,9.15891E0,1.1602158E1,0E0,0E0,0E0,0E0,0E0,0E0,0E0,0E0],"parents":[2147483647,0,0,2,2,3,3,4,4,5,5,6,6,7,7,8,8],"right_children":[2,-1,4,6,8,10,12,14,16,-1,-1,-1,-1,-1,-1,-1,-1],"split_conditions":[-6.19E-2,5.406726E-2,6.91441E-1,4.84494E1,3.6E-3,-3.1051E-2,-3.7401E-2,5.3E-3,1.908E-2,-4.9915705E-3,2.38675E-2,1.5056799E-2,-2.5310084E-2,5.2581592E-3,-5.080961E-2,-1.689073E-2,2.9630005E-2],"split_indices":[39,0,13,7,11,2,0,10,44,0,0,0,0,0,0,0,0],"split_type":[0,0,0,0,0,0,0,0,0,0,0,0,0,0,0,0,0],"sum_hessian":[4.2303235E2,5.341025E0,4.176913E2,3.0630872E2,1.1138259E2,2.0878914E2,9.751959E1,2.8279774E1,8.310282E1,1.5669965E2,5.2089493E1,1.1863576E1,8.565602E1,1.642947E1,1.1850305E1,1.5986534E1,6.711629E1],"tree_param":{"num_deleted":"0","num_feature":"45","num_nodes":"17","size_leaf_vector":"1"}},{"base_weights":[8.143198E-3,4.105241E-2,-4.5281947E-1,-2.6533447E-2,3.437741E-1,1.4617105E-2,-7.3133725E-1,1.823887E-1,-1.5332131E-1,6.3758355E-1,-1.3039532E-1,9.2378104E-5,-5.5108286E-2,-4.8405966E-3,2.4301974E-2,2.99895E-2,-9.693091E-3,3.90951E-2,-2.3274312E-3,1.8794173E-2,-3.0633414E-2],"categories":[],"categories_nodes":[],"categories_segments":[],"categories_sizes":[],"default_left":[0,0,0,0,0,0,0,0,0,0,0,0,0,0,0,0,0,0,0,0,0],"id":52,"left_children":[1,3,5,7,9,-1,11,13,15,17,19,-1,-1,-1,-1,-1,-1,-1,-1,-1,-1],"loss_changes":[6.52811E0,8.22227E0,6.1653905E0,8.74523E0,1.0300233E1,0E0,5.7551613E0,1.0622905E1,6.385836E0,4.5238495E0,7.283578E0,0E0,0E0,0E0,0E0,0E0,0E0,0E0,0E0,0E0,0E0],"parents":[2147483647,0,0,1,1,2,2,3,3,4,4,6,6,7,7,8,8,9,9,10,10],"right_children":[2,4,6,8,10,-1,12,14,16,18,20,-1,-1,-1,-1,-1,-1,-1,-1,-1,-1],"split_conditions":[1.05385E-1,5.1715E-2,4.519E-1,2.3455E-2,1.6788E-2,1.4617105E-2,-1.67E-2,1.8263E-2,-5.9215E-2,8.349E-1,7.0193E-2,9.2378104E-5,-5.5108286E-2,-4.8405966E-3,2.4301974E-2,2.99895E-2,-9.693091E-3,3.90951E-2,-2.3274312E-3,1.8794173E-2,-3.0633414E-2],"split_indices":[6,32,15,32,25,0,11,32,25,19,28,0,0,0,0,0,0,0,0,0,0],"split_type":[0,0,0,0,0,0,0,0,0,0,0,0,0,0,0,0,0,0,0,0,0],"sum_hessian":[4.2810718E2,4.0043045E2,2.767673E1,3.2809262E2,7.233784E1,7.5166473E0,2.0160082E1,1.23745384E2,2.0434724E2,4.445041E1,2.7887426E1,7.105814E0,1.3054269E1,6.482308E1,5.8922302E1,9.7336E0,1.9461365E2,3.6589005E1,7.861403E0,1.3712728E1,1.4174699E1],"tree_param":{"num_deleted":"0","num_feature":"45","num_nodes":"21","size_leaf_vector":"1"}},{"base_weights":[-4.548263E-2,-4.1685054E-1,-3.8591234E-3,1.9020887E-1,-8.129396E-1,2.5283894E-1,-8.2181364E-2,-2.5931034E-2,3.978967E-2,4.691653E-3,-1.0773149E0,5.784271E-1,-1.5603755E-1,-3.0659726E-1,4.0399514E-2,-6.27871E-2,-2.5520448E-2,3.6831584E-2,-2.7870763E-2,-1.5682617E-2,3.439347E-2,6.000167E-4,-2.811319E-2,1.2274823E-2,-1.2855818E-2],"categories":[],"categories_nodes":[],"categories_segments":[],"categories_sizes":[],"default_left":[0,0,0,0,0,0,0,0,0,0,0,0,0,0,0,0,0,0,0,0,0,0,0,0,0],"id":53,"left_children":[1,3,5,7,9,11,13,-1,-1,-1,15,17,19,21,23,-1,-1,-1,-1,-1,-1,-1,-1,-1,-1],"loss_changes":[6.6211047E0,1.0535183E1,7.786829E0,8.077707E0,6.4095325E0,1.2144651E1,8.174946E0,0E0,0E0,0E0,1.4280853E0,9.507008E0,5.6596766E0,8.5543785E0,1.1826783E1,0E0,0E0,0E0,0E0,0E0,0E0,0E0,0E0,0E0,0E0],"parents":[2147483647,0,0,1,1,2,2,3,3,4,4,5,5,6,6,10,10,11,11,12,12,13,13,14,14],"right_children":[2,4,6,8,10,12,14,-1,-1,-1,16,18,20,22,24,-1,-1,-1,-1,-1,-1,-1,-1,-1,-1],"split_conditions":[1.9428E-2,2.0312E-2,2.376E-2,9.2141E-2,3.42634E1,2.8807E-2,3.5125E-2,-2.5931034E-2,3.978967E-2,4.691653E-3,2.0185E-2,4.2406E-2,2.1264E0,4.639E-1,8.468E-1,-6.27871E-2,-2.5520448E-2,3.6831584E-2,-2.7870763E-2,-1.5682617E-2,3.439347E-2,6.000167E-4,-2.811319E-2,1.2274823E-2,-1.2855818E-2],"split_indices":[5,6,32,12,8,44,5,0,0,0,32,6,14,19,16,0,0,0,0,0,0,0,0,0,0],"split_type":[0,0,0,0,0,0,0,0,0,0,0,0,0,0,0,0,0,0,0,0,0,0,0,0,0],"sum_hessian":[4.274428E2,4.217144E1,3.852714E2,1.6856453E1,2.5314987E1,8.95492E1,2.9572217E2,7.832365E0,9.024089E0,5.8602314E0,1.9454756E1,4.9621193E1,3.992801E1,1.0393718E2,1.9178499E2,1.3873235E1,5.581521E0,4.386322E1,5.7579737E0,3.4173775E1,5.7542334E0,4.6697895E1,5.723929E1,1.1362841E2,7.815658E1],"tree_param":{"num_deleted":"0","num_feature":"45","num_nodes":"25","size_leaf_vector":"1"}},{"base_weights":[-1.5997735E-3,7.2549194E-1,-2.3034558E-2,6.608931E-2,6.671899E-3,4.437281E-2,-4.0949944E-2,-1.2035439E-2,-8.9815915E-1,-3.8455233E-3,1.1468394E-2,-2.656054E-2,-5.3703394E-2],"categories":[],"categories_nodes":[],"categories_segments":[],"categories_sizes":[],"default_left":[0,0,0,0,0,0,0,0,0,0,0,0,0],"id":54,"left_children":[1,3,5,-1,-1,-1,7,9,11,-1,-1,-1,-1],"loss_changes":[6.685469E0,4.1603274E0,6.832006E0,0E0,0E0,0E0,1.0139639E1,6.2378583E0,2.911396E-1,0E0,0E0,0E0,0E0],"parents":[2147483647,0,0,1,1,2,2,6,6,7,7,8,8],"right_children":[2,4,6,-1,-1,-1,8,10,12,-1,-1,-1,-1],"split_conditions":[1.92E-1,1.1E-3,-6.19E-2,6.608931E-2,6.671899E-3,4.437281E-2,2.919E0,5.84033E1,3.1963E-2,-3.8455233E-3,1.1468394E-2,-2.656054E-2,-5.3703394E-2],"split_indices":[15,11,31,0,0,0,14,34,36,0,0,0,0],"split_type":[0,0,0,0,0,0,0,0,0,0,0,0,0],"sum_hessian":[4.268944E2,1.1283945E1,4.1561047E2,5.0077686E0,6.276177E0,7.0834107E0,4.0852707E2,3.9617764E2,1.234942E1,3.1279745E2,8.338018E1,5.304323E0,7.0450964E0],"tree_param":{"num_deleted":"0","num_feature":"45","num_nodes":"13","size_leaf_vector":"1"}},{"base_weights":[-1.3607492E-2,3.8560223E-2,-2.7974507E-2,-3.12623E-1,1.7792605E-2,9.790694E-3,-8.781131E-1,-7.546993E-2,2.885997E-1,1.47808315E-2,-5.6579035E-2,-5.5804975E-2,-1.2700401E-2,-1.8687024E-3,-4.033502E-2,2.5376981E-2,-5.0646723E-3],"categories":[],"categories_nodes":[],"categories_segments":[],"categories_sizes":[],"default_left":[0,0,0,0,0,0,0,0,0,0,0,0,0,0,0,0,0],"id":55,"left_children":[1,-1,3,5,7,9,11,13,15,-1,-1,-1,-1,-1,-1,-1,-1],"loss_changes":[4.7125278E0,0E0,5.3406005E0,1.0360463E1,8.955944E0,1.245405E1,2.7803679E0,7.321773E0,7.804457E0,0E0,0E0,0E0,0E0,0E0,0E0,0E0,0E0],"parents":[2147483647,0,0,2,2,3,3,4,4,5,5,6,6,7,7,8,8],"right_children":[2,-1,4,6,8,10,12,14,16,-1,-1,-1,-1,-1,-1,-1,-1],"split_conditions":[-6.19E-2,3.8560223E-2,-1.11E-2,4.88207E1,4.6342E-2,1.281E0,6.08108E-1,3.66141E-1,9.3E-3,1.47808315E-2,-5.6579035E-2,-5.5804975E-2,-1.2700401E-2,-1.8687024E-3,-4.033502E-2,2.5376981E-2,-5.0646723E-3],"split_indices":[31,0,39,8,4,17,13,2,11,0,0,0,0,0,0,0,0],"split_type":[0,0,0,0,0,0,0,0,0,0,0,0,0,0,0,0,0],"sum_hessian":[4.1503415E2,6.5141416E0,4.0852002E2,5.577801E1,3.52742E2,3.614988E1,1.9628136E1,2.6291776E2,8.9824234E1,2.9502712E1,6.647166E0,1.3638952E1,5.9891825E0,2.5089754E2,1.2020232E1,5.732968E1,3.2494553E1],"tree_param":{"num_deleted":"0","num_feature":"45","num_nodes":"17","size_leaf_vector":"1"}},{"base_weights":[4.780498E-2,-2.629275E-1,8.452029E-2,-4.747803E-2,-9.063963E-1,4.9286804E-1,3.5423927E-2,3.892971E-2,-3.1188983E-1,-2.7427798E-2,-5.5443544E-2,-2.3596524E-1,7.411555E-1,1.10416874E-1,-2.7310315E-1,-5.358236E-2,5.353526E-4,-4.1433465E-2,1.9978521E-2,1.5255566E-2,5.5490017E-2,3.7637092E-3,6.858366E-2,-2.84715E-2,6.6023874E-3],"categories":[],"categories_nodes":[],"categories_segments":[],"categories_sizes":[],"default_left":[0,0,0,0,0,0,0,0,0,0,0,0,0,0,0,0,0,0,0,0,0,0,0,0,0],"id":56,"left_children":[1,3,5,7,9,11,13,-1,15,-1,-1,17,19,21,23,-1,-1,-1,-1,-1,-1,-1,-1,-1,-1],"loss_changes":[4.8337655E0,6.169162E0,7.559545E0,7.8057413E0,2.0209408E-1,7.501148E0,7.8610015E0,0E0,6.615177E0,0E0,0E0,4.4919376E0,4.554411E0,1.1996401E1,8.055146E0,0E0,0E0,0E0,0E0,0E0,0E0,0E0,0E0,0E0,0E0],"parents":[2147483647,0,0,1,1,2,2,3,3,4,4,5,5,6,6,8,8,11,11,12,12,13,13,14,14],"right_children":[2,4,6,8,10,12,14,-1,16,-1,-1,18,20,22,24,-1,-1,-1,-1,-1,-1,-1,-1,-1,-1],"split_conditions":[-2.34209E-1,6.2E-3,-8.9868E-2,4.597E-1,3.89408E1,-2.76E-2,1.98E-2,3.892971E-2,5.604E-1,-2.7427798E-2,-5.5443544E-2,4.1568E-2,4.5616E-2,8.1392E-2,6.51E-2,-5.358236E-2,5.353526E-4,-4.1433465E-2,1.9978521E-2,1.5255566E-2,5.5490017E-2,3.7637092E-3,6.858366E-2,-2.84715E-2,6.6023874E-3],"split_indices":[2,11,1,15,42,11,10,0,14,0,0,44,4,40,10,0,0,0,0,0,0,0,0,0,0],"split_type":[0,0,0,0,0,0,0,0,0,0,0,0,0,0,0,0,0,0,0,0,0,0,0,0,0],"sum_hessian":[4.2074557E2,4.3809715E1,3.7693585E2,3.3625008E1,1.018471E1,3.9485493E1,3.3745038E2,7.6816044E0,2.5943403E1,5.0207033E0,5.164006E0,1.0045918E1,2.9439575E1,2.7198236E2,6.5467995E1,7.040404E0,1.8902998E1,5.040878E0,5.005041E0,1.432417E1,1.5115405E1,2.6564044E2,6.341922E0,3.757801E1,2.7889986E1],"tree_param":{"num_deleted":"0","num_feature":"45","num_nodes":"25","size_leaf_vector":"1"}},{"base_weights":[1.2058298E-2,4.4826638E-2,-3.5335915E-3,-2.7932748E-1,6.641265E-2,4.077568E-2,-3.6073768E-1,3.625314E-1,-3.4101617E-3,2.30682E-2,-2.2778057E-2,5.2566875E-2,5.3522172E-3,3.2561973E-2,-2.1102906E-3],"categories":[],"categories_nodes":[],"categories_segments":[],"categories_sizes":[],"default_left":[0,0,0,0,0,0,0,0,0,0,0,0,0,0,0],"id":57,"left_children":[1,-1,3,5,7,-1,9,11,13,-1,-1,-1,-1,-1,-1],"loss_changes":[5.85544E0,0E0,8.082288E0,7.8488846E0,6.9121647E0,0E0,6.4142895E0,1.1112507E1,6.9220543E0,0E0,0E0,0E0,0E0,0E0,0E0],"parents":[2147483647,0,0,2,2,3,3,4,4,6,6,7,7,8,8],"right_children":[2,-1,4,6,8,-1,10,12,14,-1,-1,-1,-1,-1,-1],"split_conditions":[-6.19E-2,4.4826638E-2,-6.6E-3,-1.185E-1,-3E-3,4.077568E-2,1.859E-1,-2.1871E-2,3.72196E1,2.30682E-2,-2.2778057E-2,5.2566875E-2,5.3522172E-3,3.2561973E-2,-2.1102906E-3],"split_indices":[31,0,39,9,31,0,19,0,34,0,0,0,0,0,0],"split_type":[0,0,0,0,0,0,0,0,0,0,0,0,0,0,0],"sum_hessian":[4.2336588E2,6.3552346E0,4.1701062E2,8.3759285E1,3.3325134E2,5.173006E0,7.858627E1,6.278554E1,2.7046582E2,7.727218E0,7.0859055E1,1.6144396E1,4.6641148E1,1.4248353E1,2.5621744E2],"tree_param":{"num_deleted":"0","num_feature":"45","num_nodes":"15","size_leaf_vector":"1"}},{"base_weights":[1.7431794E-2,4.5710206E-2,1.9887057E-3,-4.4999693E-2,1.9112395E-2,5.9605863E-2,-3.7991485E-1,-1.3131683E-3,2.0576905E-2,6.8206894E-3,-3.0730156E-2],"categories":[],"categories_nodes":[],"categories_segments":[],"categories_sizes":[],"default_left":[0,0,0,0,0,0,0,0,0,0,0],"id":58,"left_children":[1,-1,3,-1,5,7,9,-1,-1,-1,-1],"loss_changes":[5.8202744E0,0E0,6.4159474E0,0E0,6.6077704E0,1.1218334E1,4.6501527E0,0E0,0E0,0E0,0E0],"parents":[2147483647,0,0,2,2,4,4,5,5,6,6],"right_children":[2,-1,4,-1,6,8,10,-1,-1,-1,-1],"split_conditions":[1.837E-1,4.5710206E-2,2.9303E1,-4.4999693E-2,8.1711E-2,4.7303E-2,-1.54E-2,-1.3131683E-3,2.0576905E-2,6.8206894E-3,-3.0730156E-2],"split_indices":[14,0,30,0,6,4,11,0,0,0,0],"split_type":[0,0,0,0,0,0,0,0,0,0,0],"sum_hessian":[4.1940005E2,6.114862E0,4.132852E2,6.7392607E0,4.0654593E2,3.698627E2,3.6683216E1,2.9806268E2,7.1800026E1,1.1594139E1,2.5089075E1],"tree_param":{"num_deleted":"0","num_feature":"45","num_nodes":"11","size_leaf_vector":"1"}},{"base_weights":[-2.322536E-2,2.388504E-1,-7.631914E-2,4.2665172E-1,-1.746172E-1,4.813783E-2,-1.9872479E-1,1.303218E-1,1.0258844E0,-4.5834105E-2,3.725169E-1,-1.0969768E-1,5.249483E-1,-7.642861E-1,-1.23493485E-1,1.7777747E-2,-3.648305E-2,6.278965E-2,2.2510596E-2,4.3278318E-2,-9.114754E-3,-2.2092436E-3,-4.221114E-2,3.3801295E-2,-1.5255618E-2,-5.5069715E-2,3.262932E-3,3.8317464E-2,-8.970195E-3],"categories":[],"categories_nodes":[],"categories_segments":[],"categories_sizes":[],"default_left":[0,0,0,0,0,0,0,0,0,0,0,0,0,0,0,0,0,0,0,0,0,0,0,0,0,0,0,0,0],"id":59,"left_children":[1,3,5,7,9,11,13,15,17,-1,19,21,23,25,27,-1,-1,-1,-1,-1,-1,-1,-1,-1,-1,-1,-1,-1,-1],"loss_changes":[5.933715E0,5.654387E0,5.406576E0,8.69251E0,9.742357E0,1.33380995E1,7.5132337E0,6.923374E0,1.5921383E0,0E0,3.9980798E0,6.382366E0,5.7315464E0,5.8882847E0,8.048071E0,0E0,0E0,0E0,0E0,0E0,0E0,0E0,0E0,0E0,0E0,0E0,0E0,0E0,0E0],"parents":[2147483647,0,0,1,1,2,2,3,3,4,4,5,5,6,6,7,7,8,8,10,10,11,11,12,12,13,13,14,14],"right_children":[2,4,6,8,10,12,14,16,18,-1,20,22,24,26,28,-1,-1,-1,-1,-1,-1,-1,-1,-1,-1,-1,-1,-1,-1],"split_conditions":[-3.0489E-2,4.7E-3,4.82387E1,-4E-4,6.02902E1,-2.8562E-2,-5.5915E-2,5.48451E1,5.44686E1,-4.5834105E-2,6.25879E1,5.17249E1,5.09489E1,5.20059E1,4.84494E1,1.7777747E-2,-3.648305E-2,6.278965E-2,2.2510596E-2,4.3278318E-2,-9.114754E-3,-2.2092436E-3,-4.221114E-2,3.3801295E-2,-1.5255618E-2,-5.5069715E-2,3.262932E-3,3.8317464E-2,-8.970195E-3],"split_indices":[0,27,26,39,26,2,2,34,30,0,7,38,7,26,7,0,0,0,0,0,0,0,0,0,0,0,0,0,0],"split_type":[0,0,0,0,0,0,0,0,0,0,0,0,0,0,0,0,0,0,0,0,0,0,0,0,0,0,0,0,0],"sum_hessian":[4.241282E2,7.085968E1,3.5326852E2,4.8705326E1,2.2154356E1,1.7546735E2,1.7780116E2,3.3404007E1,1.5301321E1,9.115625E0,1.303873E1,1.3240733E2,4.3060013E1,1.9799164E1,1.58002E2,2.6935928E1,6.468077E0,1.0090144E1,5.211177E0,6.607065E0,6.431665E0,1.2253822E2,9.869114E0,3.6586544E1,6.4734693E0,1.3845115E1,5.95405E0,8.589471E0,1.4941254E2],"tree_param":{"num_deleted":"0","num_feature":"45","num_nodes":"29","size_leaf_vector":"1"}},{"base_weights":[-6.697703E-3,-6.6660866E-2,2.1837473E-1,-4.640617E-2,-5.8511622E-2,3.9306474E-1,-3.074638E-1,1.9263673E-1,-1.2564433E-1,8.679765E-1,2.513553E-1,2.071713E-2,-7.9980046E-1,1.4919803E-2,-4.4053685E-2,-3.6951136E-2,-3.5550955E-3,1.4023643E-3,6.372225E-2,2.8105885E-2,-6.9320872E-3,-5.9941202E-2,-1.6595026E-2],"categories":[],"categories_nodes":[],"categories_segments":[],"categories_sizes":[],"default_left":[0,0,0,0,0,0,0,0,0,0,0,0,0,0,0,0,0,0,0,0,0,0,0],"id":60,"left_children":[1,3,5,7,-1,9,11,13,15,17,19,-1,21,-1,-1,-1,-1,-1,-1,-1,-1,-1,-1],"loss_changes":[5.826316E0,7.5634594E0,8.463932E0,6.382813E0,0E0,4.3995867E0,8.579587E0,9.798066E0,8.4026E0,5.208645E0,6.653305E0,0E0,2.2420197E0,0E0,0E0,0E0,0E0,0E0,0E0,0E0,0E0,0E0,0E0],"parents":[2147483647,0,0,1,1,2,2,3,3,5,5,6,6,7,7,8,8,9,9,10,10,12,12],"right_children":[2,4,6,8,-1,10,12,14,16,18,20,-1,22,-1,-1,-1,-1,-1,-1,-1,-1,-1,-1],"split_conditions":[5.1715E-2,1.05385E-1,1.2375E0,2.5534E-2,-5.8511622E-2,4.66E-2,-9.978E-3,3.2028E-2,2.0737E-2,-6.4E-3,5.16865E1,2.071713E-2,5.5046E-2,1.4919803E-2,-4.4053685E-2,-3.6951136E-2,-3.5550955E-3,1.4023643E-3,6.372225E-2,2.8105885E-2,-6.9320872E-3,-5.9941202E-2,-1.6595026E-2],"split_indices":[32,6,17,6,0,20,25,40,5,31,8,0,25,0,0,0,0,0,0,0,0,0,0],"split_type":[0,0,0,0,0,0,0,0,0,0,0,0,0,0,0,0,0,0,0,0,0,0,0],"sum_hessian":[4.296265E2,3.398014E2,8.98251E1,3.3470044E2,5.100963E0,6.761505E1,2.221005E1,8.296959E1,2.5173083E2,1.4361207E1,5.3253845E1,9.070444E0,1.3139606E1,7.618731E1,6.78228E0,1.9531551E1,2.321993E2,5.0320168E0,9.32919E0,2.9391998E1,2.3861845E1,6.2486444E0,6.8909616E0],"tree_param":{"num_deleted":"0","num_feature":"45","num_nodes":"23","size_leaf_vector":"1"}},{"base_weights":[-3.0787224E-2,5.5824883E-2,-4.9003474E-2,-2.2908747E-2,-6.306036E-1,-1.8439203E-3,-3.8978525E-2,-1.0014474E0,1.3460604E-3,-1.2697557E-3,4.2401064E-2,-6.156568E-2,-3.003876E-2],"categories":[],"categories_nodes":[],"categories_segments":[],"categories_sizes":[],"default_left":[0,0,0,0,0,0,0,0,0,0,0,0,0],"id":61,"left_children":[1,-1,3,5,7,9,-1,11,-1,-1,-1,-1,-1],"loss_changes":[8.938232E0,0E0,6.350341E0,6.412528E0,4.408904E0,7.877784E0,0E0,3.209257E-1,0E0,0E0,0E0,0E0,0E0],"parents":[2147483647,0,0,2,2,3,3,4,4,5,5,7,7],"right_children":[2,-1,4,6,8,10,-1,12,-1,-1,-1,-1,-1],"split_conditions":[-6.19E-2,5.5824883E-2,2.121E-1,3.07E-2,8.9119E-2,8.27E-2,-3.8978525E-2,-2.76E-2,1.3460604E-3,-1.2697557E-3,4.2401064E-2,-6.156568E-2,-3.003876E-2],"split_indices":[39,0,20,43,5,9,0,11,0,0,0,0,0],"split_type":[0,0,0,0,0,0,0,0,0,0,0,0,0],"sum_hessian":[4.2406458E2,5.68561E0,4.1837897E2,4.0140833E2,1.6970648E1,3.915114E2,9.896912E0,1.0516364E1,6.454283E0,3.8189847E2,9.612929E0,5.365214E0,5.1511507E0],"tree_param":{"num_deleted":"0","num_feature":"45","num_nodes":"13","size_leaf_vector":"1"}},{"base_weights":[-1.3972035E-2,5.074724E-2,-2.9982964E-2,-5.094849E-2,-1.2210051E-2,3.6614952E-3,-5.1723678E-2,-1.6102796E-2,2.515394E-3],"categories":[],"categories_nodes":[],"categories_segments":[],"categories_sizes":[],"default_left":[0,0,0,0,0,0,0,0,0],"id":62,"left_children":[1,-1,3,-1,5,7,-1,-1,-1],"loss_changes":[7.031926E0,0E0,7.3605537E0,0E0,6.7058277E0,6.2114058E0,0E0,0E0,0E0],"parents":[2147483647,0,0,2,2,4,4,5,5],"right_children":[2,-1,4,-1,6,8,-1,-1,-1],"split_conditions":[1.837E-1,5.074724E-2,9.987E-3,-5.094849E-2,1.31308E-1,4.721E-1,-5.1723678E-2,-1.6102796E-2,2.515394E-3],"split_indices":[14,0,4,0,6,18,0,0,0],"split_type":[0,0,0,0,0,0,0,0,0],"sum_hessian":[4.2400497E2,5.5408425E0,4.1846414E2,6.3929157E0,4.1207123E2,